%YAML:1.0
opencv_ml_svm:
   format: 3
   svmType: C_SVC
   kernel:
      type: POLY
      degree: 3.
      gamma: 5.3830000000000000e+000
      coef0: 0.
   C: 2.6699999999999999e+000
   term_criteria: { iterations:10000000 }
   var_count: 400
   class_count: 10
   class_labels: !!opencv-matrix
      rows: 10
      cols: 1
      dt: i
      data: [ 0, 1, 2, 3, 4, 5, 6, 7, 8, 9 ]
   sv_total: 831
   support_vectors:
      - [ 0., 0., 0., 0., 0., 0., 0., 0., 0., 0., 0., 0., 0., 0., 0., 0.,
          0., 0., 0., 0., 0., 0., 0., 0., 0., 0., 0., 0., 0., 0., 0., 0.,
          0., 0., 0., 0., 0., 0., 0., 0., 0., 0., 0., 0., 0., 0., 0., 0.,
          0., 13., 38., 25., 0., 0., 0., 0., 0., 0., 0., 0., 0., 0., 0.,
          0., 0., 0., 0., 10., 101., 200., 255., 222., 44., 0., 0., 0.,
          0., 0., 0., 0., 0., 0., 0., 0., 0., 0., 65., 199., 231., 119.,
          74., 207., 219., 64., 0., 0., 0., 0., 0., 0., 0., 0., 0., 0.,
          0., 126., 235., 150., 27., 0., 0., 119., 245., 233., 175., 21.,
          0., 0., 0., 0., 0., 0., 0., 0., 108., 255., 114., 0., 0., 0.,
          0., 42., 90., 67., 182., 203., 48., 0., 0., 0., 0., 0., 0.,
          22., 213., 131., 0., 0., 0., 0., 0., 0., 1., 0., 5., 162.,
          222., 23., 0., 0., 0., 0., 0., 105., 247., 5., 0., 0., 0., 0.,
          0., 0., 0., 0., 0., 14., 203., 121., 0., 0., 0., 0., 0., 114.,
          211., 4., 0., 0., 0., 0., 0., 0., 0., 0., 0., 0., 86., 171.,
          0., 0., 0., 0., 0., 106., 236., 6., 0., 0., 0., 0., 0., 0., 0.,
          0., 0., 0., 48., 196., 0., 0., 0., 0., 0., 60., 227., 32., 0.,
          0., 0., 0., 0., 0., 0., 0., 0., 0., 49., 198., 0., 0., 0., 0.,
          0., 4., 196., 168., 0., 0., 0., 0., 0., 0., 0., 0., 0., 0.,
          84., 206., 0., 0., 0., 0., 0., 0., 85., 249., 131., 0., 0., 0.,
          0., 0., 0., 0., 0., 0., 146., 165., 0., 0., 0., 0., 0., 0., 0.,
          118., 247., 117., 4., 0., 0., 0., 0., 0., 2., 84., 218., 54.,
          0., 0., 0., 0., 0., 0., 0., 0., 63., 209., 227., 149., 75.,
          74., 76., 109., 213., 224., 91., 0., 0., 0., 0., 0., 0., 0.,
          0., 0., 0., 29., 103., 173., 221., 221., 223., 200., 124., 42.,
          0., 0., 0., 0., 0., 0., 0., 0., 0., 0., 0., 0., 0., 5., 20.,
          20., 20., 13., 0., 0., 0., 0., 0., 0., 0., 0., 0., 0., 0., 0.,
          0., 0., 0., 0., 0., 0., 0., 0., 0., 0., 0., 0., 0., 0., 0., 0.,
          0., 0., 0., 0., 0., 0., 0., 0., 0., 0., 0., 0., 0., 0., 0., 0.,
          0., 0. ]
      - [ 0., 0., 0., 0., 0., 0., 0., 0., 0., 0., 0., 0., 0., 0., 0., 0.,
          0., 0., 0., 0., 0., 0., 0., 0., 0., 0., 0., 0., 0., 0., 0., 0.,
          0., 0., 0., 0., 0., 0., 0., 0., 0., 0., 0., 0., 0., 0., 0., 0.,
          0., 0., 0., 0., 0., 0., 0., 0., 0., 0., 0., 0., 0., 0., 0., 0.,
          0., 0., 55., 141., 109., 11., 0., 0., 0., 0., 0., 0., 0., 0.,
          0., 0., 0., 0., 0., 0., 0., 118., 236., 255., 251., 164., 88.,
          137., 132., 77., 9., 0., 0., 0., 0., 0., 0., 0., 0., 0., 94.,
          249., 174., 78., 78., 203., 179., 175., 220., 227., 193., 42.,
          0., 0., 0., 0., 0., 0., 0., 25., 211., 192., 12., 0., 0., 109.,
          20., 14., 38., 61., 234., 213., 36., 0., 0., 0., 0., 0., 0.,
          66., 235., 82., 0., 0., 0., 7., 0., 0., 0., 0., 61., 239.,
          166., 6., 0., 0., 0., 0., 0., 102., 255., 61., 0., 0., 0., 0.,
          0., 0., 0., 0., 0., 113., 243., 58., 0., 0., 0., 0., 0., 110.,
          255., 60., 0., 0., 0., 0., 0., 0., 0., 0., 0., 43., 236., 135.,
          0., 0., 0., 0., 0., 73., 241., 100., 0., 0., 0., 0., 0., 0.,
          0., 0., 0., 13., 189., 164., 0., 0., 0., 0., 0., 21., 210.,
          198., 10., 0., 0., 0., 0., 0., 0., 0., 0., 1., 164., 212., 0.,
          0., 0., 0., 0., 0., 107., 252., 130., 2., 0., 0., 0., 0., 0.,
          0., 0., 11., 191., 193., 0., 0., 0., 0., 0., 0., 0., 154.,
          255., 155., 23., 0., 0., 0., 0., 0., 0., 97., 250., 116., 0.,
          0., 0., 0., 0., 0., 0., 15., 137., 255., 211., 133., 88., 45.,
          26., 71., 154., 249., 182., 16., 0., 0., 0., 0., 0., 0., 0.,
          0., 6., 114., 212., 248., 255., 248., 244., 245., 234., 162.,
          21., 0., 0., 0., 0., 0., 0., 0., 0., 0., 0., 0., 17., 79.,
          126., 98., 90., 84., 49., 2., 0., 0., 0., 0., 0., 0., 0., 0.,
          0., 0., 0., 0., 0., 0., 0., 0., 0., 0., 0., 0., 0., 0., 0., 0.,
          0., 0., 0., 0., 0., 0., 0., 0., 0., 0., 0., 0., 0., 0., 0., 0.,
          0., 0., 0., 0., 0., 0., 0., 0., 0., 0., 0., 0., 0., 0., 0., 0.,
          0., 0., 0., 0., 0., 0., 0., 0. ]
      - [ 0., 0., 0., 0., 0., 0., 0., 0., 0., 0., 0., 0., 0., 0., 0., 0.,
          0., 0., 0., 0., 0., 0., 0., 0., 0., 0., 0., 0., 0., 0., 0., 0.,
          0., 0., 0., 0., 0., 0., 0., 0., 0., 0., 0., 0., 0., 0., 0., 0.,
          0., 0., 2., 30., 33., 4., 0., 0., 0., 0., 0., 0., 0., 0., 0.,
          0., 0., 0., 0., 0., 0., 0., 111., 244., 247., 157., 16., 0.,
          0., 0., 0., 0., 0., 0., 0., 0., 0., 0., 0., 0., 0., 56., 238.,
          157., 91., 227., 120., 0., 0., 0., 0., 0., 0., 0., 0., 0., 0.,
          0., 0., 8., 107., 211., 168., 5., 0., 91., 207., 12., 0., 0.,
          0., 0., 0., 0., 0., 0., 0., 0., 3., 138., 255., 255., 180., 4.,
          0., 14., 196., 100., 0., 0., 0., 0., 0., 0., 0., 0., 0., 0.,
          91., 233., 192., 191., 52., 2., 0., 0., 138., 169., 0., 0., 0.,
          0., 0., 0., 0., 0., 0., 11., 181., 156., 69., 162., 2., 0., 0.,
          0., 99., 194., 15., 0., 0., 0., 0., 0., 0., 0., 0., 52., 234.,
          83., 28., 104., 5., 0., 0., 0., 97., 229., 54., 0., 0., 0., 0.,
          0., 0., 0., 0., 117., 242., 31., 0., 1., 0., 0., 0., 0., 135.,
          220., 39., 0., 0., 0., 0., 0., 0., 0., 0., 153., 214., 24., 0.,
          0., 0., 0., 0., 3., 193., 185., 0., 0., 0., 0., 0., 0., 0., 0.,
          0., 121., 233., 23., 0., 0., 0., 0., 0., 20., 210., 132., 0.,
          0., 0., 0., 0., 0., 0., 0., 0., 76., 239., 36., 0., 0., 0., 0.,
          0., 129., 229., 34., 0., 0., 0., 0., 0., 0., 0., 0., 0., 36.,
          222., 140., 0., 0., 0., 7., 108., 241., 104., 0., 0., 0., 0.,
          0., 0., 0., 0., 0., 0., 1., 131., 253., 176., 142., 149., 210.,
          249., 131., 1., 0., 0., 0., 0., 0., 0., 0., 0., 0., 0., 0., 6.,
          123., 236., 231., 210., 168., 77., 0., 0., 0., 0., 0., 0., 0.,
          0., 0., 0., 0., 0., 0., 0., 0., 26., 24., 18., 4., 0., 0., 0.,
          0., 0., 0., 0., 0., 0., 0., 0., 0., 0., 0., 0., 0., 0., 0., 0.,
          0., 0., 0., 0., 0., 0., 0., 0., 0., 0., 0., 0., 0., 0., 0., 0.,
          0., 0., 0., 0., 0., 0., 0., 0., 0., 0., 0., 0., 0. ]
      - [ 0., 0., 0., 0., 0., 0., 0., 0., 0., 0., 0., 0., 0., 0., 0., 0.,
          0., 0., 0., 0., 0., 0., 0., 0., 0., 0., 0., 0., 0., 0., 0., 0.,
          0., 0., 0., 0., 0., 0., 0., 0., 0., 0., 0., 0., 0., 0., 0., 0.,
          0., 0., 0., 0., 0., 0., 0., 0., 0., 0., 0., 0., 0., 0., 0., 0.,
          0., 0., 0., 0., 0., 39., 114., 97., 41., 0., 0., 0., 0., 0.,
          0., 0., 0., 0., 0., 0., 0., 0., 0., 0., 55., 212., 213., 222.,
          201., 6., 0., 0., 0., 0., 0., 0., 0., 0., 0., 0., 0., 0., 0.,
          25., 210., 213., 10., 13., 164., 160., 1., 0., 0., 0., 0., 0.,
          0., 0., 0., 0., 0., 0., 0., 111., 226., 58., 0., 0., 27., 197.,
          81., 0., 0., 0., 0., 0., 0., 0., 0., 0., 0., 0., 35., 195.,
          48., 0., 0., 0., 0., 125., 171., 0., 0., 0., 0., 0., 0., 0.,
          0., 0., 0., 0., 125., 134., 0., 0., 0., 0., 0., 59., 204., 15.,
          0., 0., 0., 0., 0., 0., 0., 0., 0., 23., 164., 40., 0., 0., 0.,
          0., 0., 1., 169., 68., 0., 0., 0., 0., 0., 0., 0., 0., 0., 56.,
          162., 13., 0., 0., 0., 0., 0., 0., 168., 125., 0., 0., 0., 0.,
          0., 0., 0., 0., 0., 55., 161., 14., 0., 0., 0., 0., 0., 0.,
          143., 117., 0., 0., 0., 0., 0., 0., 0., 0., 0., 55., 160., 14.,
          0., 0., 0., 0., 0., 0., 145., 114., 0., 0., 0., 0., 0., 0., 0.,
          0., 0., 56., 169., 15., 0., 0., 0., 0., 0., 14., 167., 28., 0.,
          0., 0., 0., 0., 0., 0., 0., 0., 35., 192., 38., 0., 0., 0., 0.,
          0., 87., 127., 0., 0., 0., 0., 0., 0., 0., 0., 0., 0., 0.,
          129., 188., 20., 0., 0., 10., 97., 142., 18., 0., 0., 0., 0.,
          0., 0., 0., 0., 0., 0., 0., 27., 166., 200., 118., 149., 188.,
          150., 16., 0., 0., 0., 0., 0., 0., 0., 0., 0., 0., 0., 0., 0.,
          8., 115., 210., 203., 104., 8., 0., 0., 0., 0., 0., 0., 0., 0.,
          0., 0., 0., 0., 0., 0., 0., 0., 0., 0., 0., 0., 0., 0., 0., 0.,
          0., 0., 0., 0., 0., 0., 0., 0., 0., 0., 0., 0., 0., 0., 0., 0.,
          0., 0., 0., 0., 0., 0., 0. ]
      - [ 0., 0., 0., 0., 0., 0., 0., 0., 0., 0., 0., 0., 0., 0., 0., 0.,
          0., 0., 0., 0., 0., 0., 0., 0., 0., 0., 0., 0., 0., 0., 0., 0.,
          0., 0., 0., 0., 0., 0., 0., 0., 0., 0., 0., 0., 0., 0., 0., 0.,
          0., 0., 0., 34., 104., 0., 0., 0., 0., 0., 0., 0., 0., 0., 0.,
          0., 0., 0., 0., 0., 20., 109., 150., 62., 126., 24., 0., 0.,
          0., 0., 0., 0., 0., 0., 0., 0., 0., 0., 0., 5., 158., 209.,
          98., 38., 35., 87., 0., 0., 0., 0., 0., 0., 0., 0., 0., 0., 0.,
          0., 0., 42., 227., 72., 0., 0., 41., 166., 4., 0., 0., 0., 0.,
          0., 0., 0., 0., 0., 0., 0., 0., 120., 192., 14., 0., 0., 31.,
          159., 24., 0., 0., 0., 0., 0., 0., 0., 0., 0., 0., 0., 0.,
          202., 144., 0., 0., 0., 14., 182., 65., 0., 0., 0., 0., 0., 0.,
          0., 0., 0., 0., 0., 0., 217., 107., 0., 0., 0., 13., 201., 77.,
          0., 0., 0., 0., 0., 0., 0., 0., 0., 0., 0., 9., 207., 68., 0.,
          0., 0., 14., 190., 70., 0., 0., 0., 0., 0., 0., 0., 0., 0., 0.,
          0., 54., 222., 66., 0., 0., 0., 19., 156., 44., 0., 0., 0., 0.,
          0., 0., 0., 0., 0., 0., 0., 57., 222., 66., 0., 0., 0., 27.,
          206., 48., 0., 0., 0., 0., 0., 0., 0., 0., 0., 0., 0., 46.,
          228., 85., 0., 0., 0., 94., 209., 27., 0., 0., 0., 0., 0., 0.,
          0., 0., 0., 0., 0., 0., 215., 175., 5., 0., 33., 228., 147.,
          0., 0., 0., 0., 0., 0., 0., 0., 0., 0., 0., 0., 0., 81., 246.,
          90., 42., 194., 214., 25., 0., 0., 0., 0., 0., 0., 0., 0., 0.,
          0., 0., 0., 0., 5., 161., 250., 255., 221., 48., 0., 0., 0.,
          0., 0., 0., 0., 0., 0., 0., 0., 0., 0., 0., 0., 15., 93., 113.,
          48., 0., 0., 0., 0., 0., 0., 0., 0., 0., 0., 0., 0., 0., 0.,
          0., 0., 0., 0., 0., 0., 0., 0., 0., 0., 0., 0., 0., 0., 0., 0.,
          0., 0., 0., 0., 0., 0., 0., 0., 0., 0., 0., 0., 0., 0., 0., 0.,
          0., 0., 0., 0., 0., 0., 0., 0., 0., 0., 0., 0., 0., 0., 0., 0.,
          0., 0., 0., 0., 0., 0. ]
      - [ 0., 0., 0., 0., 0., 0., 0., 0., 0., 0., 0., 0., 0., 0., 0., 0.,
          0., 0., 0., 0., 0., 0., 0., 0., 0., 0., 0., 0., 0., 0., 0., 0.,
          0., 0., 0., 0., 0., 0., 0., 0., 0., 0., 0., 0., 0., 0., 0., 0.,
          0., 0., 0., 17., 18., 26., 6., 0., 0., 0., 0., 0., 0., 0., 0.,
          0., 0., 0., 0., 0., 0., 36., 143., 206., 211., 232., 131., 0.,
          0., 0., 0., 0., 0., 0., 0., 0., 0., 0., 0., 0., 65., 212.,
          235., 151., 138., 223., 238., 35., 0., 0., 0., 0., 0., 0., 0.,
          0., 0., 0., 0., 75., 243., 213., 54., 0., 0., 82., 242., 66.,
          0., 0., 0., 0., 0., 0., 0., 0., 0., 0., 39., 224., 208., 42.,
          0., 2., 0., 62., 232., 67., 0., 0., 0., 0., 0., 0., 0., 0., 0.,
          3., 167., 251., 55., 0., 0., 130., 177., 68., 208., 62., 0.,
          0., 0., 0., 0., 0., 0., 0., 0., 63., 247., 168., 0., 0., 0.,
          125., 241., 72., 52., 11., 0., 0., 0., 0., 0., 0., 0., 0., 0.,
          117., 255., 68., 0., 0., 0., 10., 190., 212., 35., 0., 0., 0.,
          0., 0., 0., 0., 0., 0., 3., 195., 227., 31., 0., 0., 0., 0.,
          81., 255., 125., 0., 0., 0., 0., 0., 0., 0., 0., 0., 18., 244.,
          158., 2., 0., 0., 0., 0., 31., 237., 168., 1., 0., 0., 0., 0.,
          0., 0., 0., 0., 62., 255., 116., 0., 0., 0., 0., 0., 23., 230.,
          166., 0., 0., 0., 0., 0., 0., 0., 0., 0., 40., 246., 187., 10.,
          0., 0., 0., 0., 24., 226., 110., 0., 0., 0., 0., 0., 0., 0.,
          0., 0., 0., 138., 255., 118., 12., 0., 0., 11., 142., 189.,
          18., 0., 0., 0., 0., 0., 0., 0., 0., 0., 0., 56., 210., 248.,
          192., 128., 140., 230., 223., 87., 0., 0., 0., 0., 0., 0., 0.,
          0., 0., 0., 0., 0., 20., 109., 210., 255., 228., 159., 43., 0.,
          0., 0., 0., 0., 0., 0., 0., 0., 0., 0., 0., 0., 0., 0., 18.,
          34., 24., 3., 0., 0., 0., 0., 0., 0., 0., 0., 0., 0., 0., 0.,
          0., 0., 0., 0., 0., 0., 0., 0., 0., 0., 0., 0., 0., 0., 0., 0.,
          0., 0., 0., 0., 0., 0., 0., 0., 0., 0., 0., 0., 0., 0., 0., 0.,
          0., 0., 0., 0. ]
      - [ 0., 0., 0., 0., 0., 0., 0., 0., 0., 0., 0., 0., 0., 0., 0., 0.,
          0., 0., 0., 0., 0., 0., 0., 0., 0., 0., 0., 0., 0., 0., 0., 0.,
          0., 0., 0., 0., 0., 0., 0., 0., 0., 0., 0., 0., 0., 0., 0., 0.,
          0., 0., 0., 0., 0., 0., 0., 0., 0., 0., 0., 0., 0., 0., 0., 0.,
          0., 0., 0., 0., 0., 2., 63., 110., 118., 107., 44., 0., 0., 0.,
          0., 0., 0., 0., 0., 0., 0., 68., 168., 110., 52., 166., 204.,
          151., 137., 215., 220., 46., 0., 0., 0., 0., 0., 0., 0., 0.,
          48., 237., 221., 239., 247., 170., 35., 0., 0., 17., 154.,
          181., 19., 0., 0., 0., 0., 0., 0., 0., 125., 211., 33., 108.,
          223., 63., 0., 0., 0., 0., 10., 191., 86., 0., 0., 0., 0., 0.,
          0., 13., 200., 133., 0., 1., 41., 21., 0., 0., 0., 0., 0.,
          105., 153., 5., 0., 0., 0., 0., 0., 18., 194., 58., 0., 0., 0.,
          0., 0., 0., 0., 0., 0., 22., 174., 33., 0., 0., 0., 0., 0.,
          18., 179., 18., 0., 0., 0., 0., 0., 0., 0., 0., 0., 8., 170.,
          70., 0., 0., 0., 0., 0., 19., 178., 12., 0., 0., 0., 0., 0.,
          0., 0., 0., 0., 0., 155., 88., 0., 0., 0., 0., 0., 19., 189.,
          40., 0., 0., 0., 0., 0., 0., 0., 0., 0., 13., 188., 86., 0.,
          0., 0., 0., 0., 14., 197., 93., 0., 0., 0., 0., 0., 0., 0., 0.,
          0., 31., 196., 41., 0., 0., 0., 0., 0., 0., 132., 169., 0., 0.,
          0., 0., 0., 0., 0., 0., 0., 90., 202., 20., 0., 0., 0., 0., 0.,
          0., 38., 229., 87., 0., 0., 0., 0., 0., 0., 0., 12., 191.,
          119., 0., 0., 0., 0., 0., 0., 0., 0., 108., 224., 88., 4., 0.,
          0., 0., 0., 19., 177., 204., 30., 0., 0., 0., 0., 0., 0., 0.,
          0., 1., 100., 225., 177., 142., 107., 78., 85., 188., 218.,
          60., 0., 0., 0., 0., 0., 0., 0., 0., 0., 0., 0., 29., 113.,
          206., 218., 208., 203., 112., 23., 0., 0., 0., 0., 0., 0., 0.,
          0., 0., 0., 0., 0., 0., 0., 0., 0., 0., 0., 0., 0., 0., 0., 0.,
          0., 0., 0., 0., 0., 0., 0., 0., 0., 0., 0., 0., 0., 0., 0., 0.,
          0., 0., 0., 0., 0., 0. ]
      - [ 0., 0., 0., 0., 0., 0., 0., 0., 0., 0., 0., 0., 0., 0., 0., 0.,
          0., 0., 0., 0., 0., 0., 0., 0., 0., 0., 0., 0., 0., 0., 0., 0.,
          0., 0., 0., 0., 0., 0., 0., 0., 0., 0., 0., 0., 0., 0., 0., 0.,
          0., 0., 0., 0., 0., 0., 0., 0., 0., 0., 0., 0., 0., 0., 0., 0.,
          0., 0., 0., 0., 0., 0., 0., 0., 0., 0., 0., 0., 0., 0., 0., 0.,
          0., 0., 0., 0., 0., 0., 0., 0., 0., 0., 0., 0., 0., 0., 0., 0.,
          0., 0., 0., 0., 0., 0., 0., 0., 0., 0., 0., 0., 0., 0., 20.,
          40., 37., 37., 8., 0., 0., 0., 0., 0., 0., 0., 0., 0., 0., 0.,
          45., 165., 86., 61., 148., 134., 149., 164., 181., 83., 9., 0.,
          0., 0., 0., 0., 0., 0., 0., 75., 211., 136., 11., 158., 141.,
          12., 20., 21., 98., 210., 200., 40., 0., 0., 0., 0., 0., 0.,
          113., 214., 108., 0., 0., 47., 87., 3., 0., 0., 0., 36., 198.,
          167., 0., 0., 0., 0., 0., 53., 226., 82., 0., 0., 0., 0., 0.,
          0., 0., 0., 0., 0., 86., 207., 0., 0., 0., 0., 0., 115., 177.,
          0., 0., 0., 0., 0., 0., 0., 0., 0., 0., 0., 115., 175., 0., 0.,
          0., 0., 0., 117., 150., 0., 0., 0., 0., 0., 0., 0., 0., 0., 0.,
          121., 191., 62., 0., 0., 0., 0., 0., 105., 200., 5., 0., 0.,
          0., 0., 0., 0., 13., 64., 151., 169., 42., 0., 0., 0., 0., 0.,
          0., 21., 191., 146., 23., 0., 0., 21., 89., 122., 124., 133.,
          83., 6., 0., 0., 0., 0., 0., 0., 0., 0., 32., 94., 144., 171.,
          176., 192., 155., 91., 34., 0., 0., 0., 0., 0., 0., 0., 0., 0.,
          0., 0., 0., 0., 10., 42., 47., 39., 4., 0., 0., 0., 0., 0., 0.,
          0., 0., 0., 0., 0., 0., 0., 0., 0., 0., 0., 0., 0., 0., 0., 0.,
          0., 0., 0., 0., 0., 0., 0., 0., 0., 0., 0., 0., 0., 0., 0., 0.,
          0., 0., 0., 0., 0., 0., 0., 0., 0., 0., 0., 0., 0., 0., 0., 0.,
          0., 0., 0., 0., 0., 0., 0., 0., 0., 0., 0., 0., 0., 0., 0., 0.,
          0., 0., 0., 0., 0., 0., 0., 0., 0., 0., 0., 0., 0., 0., 0., 0.,
          0., 0., 0. ]
      - [ 0., 0., 0., 0., 0., 0., 0., 0., 0., 0., 0., 0., 0., 0., 0., 0.,
          0., 0., 0., 0., 0., 0., 0., 0., 0., 0., 0., 0., 0., 0., 0., 0.,
          0., 0., 0., 0., 0., 0., 0., 0., 0., 0., 0., 0., 0., 0., 0., 0.,
          0., 0., 0., 0., 0., 0., 0., 0., 0., 0., 0., 0., 0., 0., 0., 0.,
          0., 0., 0., 0., 0., 0., 0., 0., 0., 0., 0., 0., 0., 0., 0., 0.,
          0., 0., 0., 0., 0., 0., 0., 0., 0., 36., 139., 177., 173., 76.,
          0., 0., 0., 0., 0., 0., 0., 0., 0., 0., 0., 0., 0., 19., 132.,
          236., 249., 184., 155., 104., 8., 88., 168., 88., 0., 0., 0.,
          0., 0., 0., 0., 0., 0., 171., 255., 213., 75., 6., 0., 0., 65.,
          238., 251., 217., 0., 0., 0., 0., 0., 0., 0., 5., 141., 255.,
          175., 32., 0., 0., 0., 0., 19., 63., 160., 226., 0., 0., 0.,
          0., 0., 0., 0., 129., 242., 106., 6., 0., 0., 0., 0., 0., 0.,
          12., 198., 190., 0., 0., 0., 0., 0., 0., 102., 255., 145., 0.,
          0., 0., 0., 0., 0., 0., 0., 124., 245., 101., 0., 0., 0., 0.,
          0., 61., 238., 204., 35., 0., 0., 0., 0., 0., 0., 5., 145.,
          255., 179., 14., 0., 0., 0., 0., 0., 111., 255., 103., 0., 0.,
          0., 0., 0., 0., 5., 135., 255., 172., 27., 0., 0., 0., 0., 0.,
          0., 109., 255., 71., 0., 0., 0., 0., 11., 78., 195., 230.,
          116., 8., 0., 0., 0., 0., 0., 0., 0., 109., 255., 159., 82.,
          72., 68., 115., 196., 243., 173., 52., 0., 0., 0., 0., 0., 0.,
          0., 0., 0., 38., 200., 255., 249., 239., 233., 240., 153., 69.,
          5., 0., 0., 0., 0., 0., 0., 0., 0., 0., 0., 0., 12., 69., 99.,
          98., 54., 18., 0., 0., 0., 0., 0., 0., 0., 0., 0., 0., 0., 0.,
          0., 0., 0., 0., 0., 0., 0., 0., 0., 0., 0., 0., 0., 0., 0., 0.,
          0., 0., 0., 0., 0., 0., 0., 0., 0., 0., 0., 0., 0., 0., 0., 0.,
          0., 0., 0., 0., 0., 0., 0., 0., 0., 0., 0., 0., 0., 0., 0., 0.,
          0., 0., 0., 0., 0., 0., 0., 0., 0., 0., 0., 0., 0., 0., 0., 0.,
          0., 0., 0., 0., 0., 0., 0., 0., 0., 0., 0., 0., 0., 0. ]
      - [ 0., 0., 0., 0., 0., 0., 0., 0., 0., 0., 0., 0., 0., 0., 0., 0.,
          0., 0., 0., 0., 0., 0., 0., 0., 0., 0., 0., 0., 0., 0., 0., 0.,
          0., 0., 0., 0., 0., 0., 0., 0., 0., 0., 0., 0., 0., 0., 0., 0.,
          0., 0., 0., 0., 0., 0., 0., 0., 0., 0., 0., 0., 0., 0., 0., 0.,
          0., 0., 0., 0., 0., 0., 0., 0., 0., 1., 16., 0., 0., 0., 0.,
          0., 0., 0., 0., 0., 0., 0., 0., 0., 0., 0., 0., 0., 0., 109.,
          210., 95., 0., 0., 0., 0., 0., 0., 0., 0., 0., 0., 0., 0., 0.,
          0., 43., 151., 171., 167., 217., 187., 0., 0., 0., 0., 0., 0.,
          0., 0., 0., 0., 0., 0., 0., 68., 209., 250., 240., 76., 145.,
          188., 0., 0., 0., 0., 0., 0., 0., 0., 0., 0., 0., 0., 86.,
          242., 203., 47., 91., 143., 209., 189., 0., 0., 0., 0., 0., 0.,
          0., 0., 0., 0., 0., 104., 244., 234., 41., 0., 1., 65., 247.,
          180., 0., 0., 0., 0., 0., 19., 6., 0., 0., 0., 78., 246., 239.,
          83., 0., 0., 6., 170., 254., 95., 0., 0., 0., 0., 0., 2., 0.,
          0., 0., 35., 210., 255., 91., 0., 0., 0., 114., 255., 180., 1.,
          0., 0., 0., 0., 0., 0., 0., 0., 36., 184., 255., 134., 4., 0.,
          0., 66., 248., 231., 64., 0., 0., 0., 0., 0., 0., 0., 0., 0.,
          116., 255., 137., 0., 0., 0., 77., 231., 235., 77., 0., 0., 0.,
          0., 0., 0., 0., 0., 0., 0., 151., 255., 135., 71., 107., 163.,
          247., 189., 63., 0., 0., 0., 0., 0., 0., 0., 0., 0., 0., 0.,
          138., 255., 255., 253., 255., 253., 121., 12., 0., 0., 0., 0.,
          0., 0., 0., 0., 0., 0., 0., 0., 15., 112., 188., 177., 123.,
          38., 0., 0., 0., 0., 0., 0., 0., 0., 0., 0., 0., 0., 0., 0.,
          0., 0., 8., 1., 0., 0., 0., 0., 0., 0., 0., 0., 0., 0., 0., 0.,
          0., 0., 0., 0., 0., 0., 0., 0., 0., 0., 0., 0., 0., 0., 0., 0.,
          0., 0., 0., 0., 0., 0., 0., 0., 0., 0., 0., 0., 0., 0., 0., 0.,
          0., 0., 0., 0., 0., 0., 0., 0., 0., 0., 0., 0., 0., 0., 0., 0.,
          0., 0., 0., 0., 0., 0., 0., 0., 0., 0., 0., 0. ]
      - [ 0., 0., 0., 0., 0., 0., 0., 0., 0., 0., 0., 0., 0., 0., 0., 0.,
          0., 0., 0., 0., 0., 0., 0., 0., 0., 0., 0., 0., 0., 0., 0., 0.,
          0., 0., 0., 0., 0., 0., 0., 0., 0., 0., 0., 0., 0., 0., 0., 1.,
          19., 5., 0., 0., 0., 0., 0., 0., 0., 0., 0., 0., 0., 0., 0.,
          0., 0., 0., 0., 83., 213., 91., 0., 0., 0., 0., 0., 0., 0., 0.,
          0., 0., 0., 0., 0., 0., 0., 0., 74., 227., 255., 201., 68.,
          13., 0., 0., 0., 0., 0., 0., 0., 0., 0., 0., 0., 0., 0., 25.,
          184., 255., 253., 255., 255., 214., 131., 44., 0., 0., 0., 0.,
          0., 0., 0., 0., 0., 0., 0., 89., 255., 254., 255., 243., 214.,
          244., 255., 227., 113., 0., 0., 0., 0., 0., 0., 0., 0., 0., 7.,
          181., 255., 236., 143., 129., 21., 77., 160., 225., 243., 100.,
          0., 0., 0., 0., 0., 0., 0., 0., 41., 249., 255., 187., 0., 1.,
          0., 0., 0., 28., 174., 193., 2., 0., 0., 0., 0., 0., 0., 0.,
          94., 252., 255., 129., 0., 0., 0., 0., 0., 0., 70., 219., 46.,
          0., 0., 0., 0., 0., 0., 0., 32., 249., 225., 26., 0., 0., 0.,
          0., 0., 0., 6., 223., 147., 0., 0., 0., 0., 0., 0., 0., 25.,
          245., 226., 25., 0., 0., 0., 0., 0., 0., 4., 208., 200., 16.,
          0., 0., 0., 0., 0., 0., 2., 163., 255., 96., 0., 0., 0., 0.,
          0., 0., 0., 170., 199., 15., 0., 0., 0., 0., 0., 0., 0., 89.,
          255., 218., 94., 29., 22., 21., 0., 37., 111., 251., 195., 15.,
          0., 0., 0., 0., 0., 0., 0., 25., 178., 255., 250., 211., 206.,
          204., 170., 218., 247., 255., 194., 14., 0., 0., 0., 0., 0.,
          0., 0., 0., 20., 162., 244., 255., 255., 255., 255., 255.,
          255., 237., 84., 0., 0., 0., 0., 0., 0., 0., 0., 0., 0., 1.,
          70., 160., 211., 239., 189., 181., 131., 69., 0., 0., 0., 0.,
          0., 0., 0., 0., 0., 0., 0., 0., 0., 4., 20., 29., 13., 11., 0.,
          0., 0., 0., 0., 0., 0., 0., 0., 0., 0., 0., 0., 0., 0., 0., 0.,
          0., 0., 0., 0., 0., 0., 0., 0., 0., 0., 0., 0., 0., 0., 0., 0.,
          0., 0., 0., 0., 0., 0., 0., 0., 0., 0., 0., 0., 0. ]
      - [ 0., 0., 0., 0., 0., 0., 0., 0., 0., 0., 0., 0., 0., 0., 0., 0.,
          0., 0., 0., 0., 0., 0., 0., 0., 0., 0., 0., 0., 0., 0., 0., 0.,
          0., 0., 0., 0., 0., 0., 0., 0., 0., 0., 0., 0., 0., 0., 0., 0.,
          0., 0., 0., 0., 0., 0., 0., 0., 0., 0., 0., 0., 0., 0., 0., 0.,
          0., 0., 0., 0., 0., 0., 0., 0., 0., 0., 0., 0., 0., 0., 0., 0.,
          0., 0., 0., 0., 0., 0., 0., 0., 0., 0., 0., 0., 0., 0., 1., 0.,
          0., 0., 0., 0., 0., 0., 0., 0., 0., 0., 0., 0., 0., 0., 0.,
          32., 65., 108., 164., 149., 76., 11., 0., 0., 0., 0., 0., 0.,
          0., 0., 0., 0., 0., 0., 93., 215., 255., 255., 255., 255.,
          255., 135., 0., 0., 0., 0., 0., 0., 0., 0., 0., 0., 30., 179.,
          255., 255., 248., 209., 219., 255., 249., 88., 0., 0., 0., 0.,
          0., 0., 0., 0., 0., 36., 203., 255., 255., 148., 74., 20.,
          149., 255., 119., 0., 0., 0., 0., 0., 0., 0., 0., 0., 82.,
          211., 255., 211., 64., 2., 0., 100., 252., 203., 10., 0., 0.,
          0., 0., 0., 0., 0., 0., 58., 255., 255., 154., 8., 0., 0., 30.,
          236., 255., 74., 0., 0., 0., 0., 0., 0., 0., 0., 0., 170.,
          255., 179., 21., 0., 0., 56., 184., 255., 146., 0., 0., 0., 0.,
          0., 0., 0., 0., 0., 98., 255., 209., 14., 0., 0., 85., 206.,
          255., 151., 8., 0., 0., 0., 0., 0., 0., 0., 0., 46., 230.,
          250., 122., 95., 107., 141., 255., 254., 172., 34., 0., 0., 0.,
          0., 0., 0., 0., 0., 0., 60., 242., 250., 234., 255., 255.,
          255., 197., 95., 6., 0., 0., 0., 0., 0., 0., 0., 0., 0., 0.,
          13., 149., 231., 230., 226., 179., 102., 6., 0., 0., 0., 0.,
          0., 0., 0., 0., 0., 0., 0., 0., 0., 0., 46., 50., 46., 6., 0.,
          0., 0., 0., 0., 0., 0., 0., 0., 0., 0., 0., 0., 0., 0., 0., 0.,
          0., 0., 0., 0., 0., 0., 0., 0., 0., 0., 0., 0., 0., 0., 0., 0.,
          0., 0., 0., 0., 0., 0., 0., 0., 0., 0., 0., 0., 0., 0., 0., 0.,
          0., 0., 0., 0., 0., 0., 0., 0., 0., 0., 0., 0., 0., 0., 0., 0.,
          0., 0., 0., 0., 0., 0. ]
      - [ 0., 0., 0., 0., 0., 0., 0., 0., 0., 0., 0., 0., 0., 0., 0., 0.,
          0., 0., 0., 0., 0., 0., 0., 0., 0., 0., 0., 0., 0., 0., 0., 0.,
          0., 0., 0., 0., 0., 0., 0., 0., 0., 0., 0., 0., 0., 0., 0., 0.,
          0., 0., 0., 0., 0., 0., 16., 16., 0., 0., 0., 0., 0., 0., 0.,
          0., 0., 0., 0., 0., 0., 0., 0., 0., 14., 132., 200., 201.,
          107., 3., 0., 0., 0., 0., 0., 0., 0., 0., 0., 0., 0., 0., 1.,
          71., 199., 255., 255., 255., 206., 18., 0., 0., 0., 0., 0., 0.,
          0., 0., 0., 0., 0., 19., 163., 255., 236., 122., 88., 247.,
          230., 26., 0., 0., 0., 0., 0., 0., 0., 0., 0., 0., 41., 185.,
          255., 190., 56., 0., 1., 240., 228., 25., 0., 0., 0., 0., 0.,
          0., 0., 0., 0., 83., 227., 248., 116., 10., 0., 0., 53., 252.,
          157., 4., 0., 0., 0., 0., 0., 0., 0., 1., 108., 255., 203.,
          69., 0., 0., 0., 0., 164., 236., 52., 0., 0., 0., 0., 0., 0.,
          0., 0., 74., 252., 179., 32., 0., 0., 0., 0., 88., 249., 151.,
          3., 0., 0., 0., 0., 0., 0., 0., 36., 249., 216., 20., 0., 0.,
          0., 0., 97., 244., 172., 4., 0., 0., 0., 0., 0., 0., 0., 0.,
          158., 243., 73., 0., 0., 0., 0., 85., 255., 204., 34., 0., 0.,
          0., 0., 0., 0., 0., 0., 78., 251., 171., 0., 0., 0., 33., 168.,
          252., 195., 31., 0., 0., 0., 0., 0., 0., 0., 0., 2., 159.,
          255., 59., 0., 23., 86., 206., 251., 133., 9., 0., 0., 0., 0.,
          0., 0., 0., 0., 0., 16., 199., 241., 28., 110., 212., 244.,
          232., 87., 0., 0., 0., 0., 0., 0., 0., 0., 0., 0., 0., 31.,
          247., 255., 247., 255., 225., 122., 18., 0., 0., 0., 0., 0.,
          0., 0., 0., 0., 0., 0., 0., 21., 185., 206., 177., 111., 36.,
          0., 0., 0., 0., 0., 0., 0., 0., 0., 0., 0., 0., 0., 0., 0.,
          12., 18., 9., 0., 0., 0., 0., 0., 0., 0., 0., 0., 0., 0., 0.,
          0., 0., 0., 0., 0., 0., 0., 0., 0., 0., 0., 0., 0., 0., 0., 0.,
          0., 0., 0., 0., 0., 0., 0., 0., 0., 0., 0., 0., 0., 0., 0., 0.,
          0., 0., 0., 0., 0., 0., 0., 0., 0., 0. ]
      - [ 0., 0., 0., 0., 0., 0., 0., 0., 0., 0., 0., 0., 0., 0., 0., 0.,
          0., 0., 0., 0., 0., 0., 0., 0., 0., 0., 0., 0., 0., 0., 0., 0.,
          0., 0., 0., 0., 0., 0., 0., 0., 0., 0., 0., 0., 0., 0., 0., 0.,
          0., 0., 0., 0., 0., 6., 17., 4., 2., 0., 0., 0., 0., 0., 0.,
          0., 0., 0., 0., 0., 0., 0., 0., 0., 58., 169., 202., 161.,
          154., 21., 0., 0., 0., 0., 0., 0., 0., 0., 0., 0., 0., 0., 3.,
          91., 228., 255., 233., 255., 255., 37., 0., 0., 0., 0., 0., 0.,
          0., 0., 0., 0., 0., 38., 163., 255., 204., 89., 21., 225.,
          201., 16., 0., 0., 0., 0., 0., 0., 0., 0., 0., 0., 57., 209.,
          255., 171., 25., 0., 78., 255., 132., 0., 0., 0., 0., 0., 0.,
          0., 0., 0., 0., 21., 195., 255., 141., 6., 0., 5., 190., 232.,
          43., 0., 0., 0., 0., 0., 0., 0., 0., 0., 0., 134., 255., 165.,
          2., 0., 0., 102., 255., 149., 1., 0., 0., 0., 0., 0., 0., 0.,
          0., 0., 99., 251., 209., 36., 0., 0., 57., 235., 212., 24., 0.,
          0., 0., 0., 0., 0., 0., 0., 0., 36., 211., 238., 69., 0., 0.,
          51., 239., 241., 56., 0., 0., 0., 0., 0., 0., 0., 0., 0., 11.,
          179., 255., 110., 0., 0., 41., 206., 241., 75., 0., 0., 0., 0.,
          0., 0., 0., 0., 0., 0., 135., 255., 167., 7., 0., 50., 215.,
          252., 78., 0., 0., 0., 0., 0., 0., 0., 0., 0., 0., 58., 235.,
          200., 12., 4., 101., 232., 237., 96., 0., 0., 0., 0., 0., 0.,
          0., 0., 0., 0., 13., 193., 255., 80., 58., 191., 255., 226.,
          72., 0., 0., 0., 0., 0., 0., 0., 0., 0., 0., 0., 16., 200.,
          255., 227., 251., 247., 163., 46., 0., 0., 0., 0., 0., 0., 0.,
          0., 0., 0., 0., 0., 0., 94., 210., 208., 189., 80., 0., 0., 0.,
          0., 0., 0., 0., 0., 0., 0., 0., 0., 0., 0., 0., 5., 19., 19.,
          12., 0., 0., 0., 0., 0., 0., 0., 0., 0., 0., 0., 0., 0., 0.,
          0., 0., 0., 0., 0., 0., 0., 0., 0., 0., 0., 0., 0., 0., 0., 0.,
          0., 0., 0., 0., 0., 0., 0., 0., 0., 0., 0., 0., 0., 0., 0., 0.,
          0., 0., 0., 0., 0., 0., 0. ]
      - [ 0., 0., 0., 0., 0., 0., 0., 0., 0., 0., 0., 0., 0., 0., 0., 0.,
          0., 0., 0., 0., 0., 0., 0., 0., 0., 0., 0., 0., 0., 0., 0., 0.,
          0., 0., 0., 0., 0., 0., 0., 0., 0., 0., 0., 0., 0., 0., 0., 0.,
          0., 0., 0., 0., 61., 200., 49., 0., 0., 0., 0., 0., 0., 0., 0.,
          0., 0., 0., 0., 0., 0., 0., 0., 0., 172., 255., 85., 0., 0.,
          0., 0., 0., 0., 0., 0., 0., 0., 0., 0., 0., 0., 0., 0., 51.,
          226., 245., 60., 0., 0., 0., 0., 0., 0., 0., 0., 0., 0., 0.,
          0., 0., 0., 0., 76., 235., 249., 255., 77., 0., 0., 0., 0., 0.,
          0., 0., 0., 0., 0., 0., 0., 0., 0., 66., 239., 202., 133.,
          255., 124., 0., 0., 0., 0., 0., 0., 0., 0., 0., 0., 0., 0., 0.,
          60., 224., 210., 53., 64., 255., 139., 0., 0., 0., 0., 0., 0.,
          0., 0., 0., 0., 0., 0., 32., 227., 230., 26., 0., 76., 255.,
          107., 0., 0., 0., 0., 0., 0., 0., 0., 0., 0., 0., 0., 139.,
          255., 107., 0., 0., 137., 255., 73., 0., 0., 0., 0., 0., 0.,
          0., 0., 0., 0., 0., 85., 243., 140., 7., 0., 51., 235., 209.,
          35., 0., 0., 0., 0., 0., 0., 0., 0., 0., 0., 38., 222., 184.,
          7., 0., 12., 182., 252., 75., 0., 0., 0., 0., 0., 0., 0., 0.,
          0., 0., 5., 159., 245., 63., 0., 56., 194., 254., 125., 1., 0.,
          0., 0., 0., 0., 0., 0., 0., 0., 0., 98., 249., 98., 30., 141.,
          249., 240., 106., 1., 0., 0., 0., 0., 0., 0., 0., 0., 0., 0.,
          0., 179., 239., 165., 224., 255., 192., 55., 0., 0., 0., 0.,
          0., 0., 0., 0., 0., 0., 0., 0., 29., 223., 255., 238., 193.,
          95., 9., 0., 0., 0., 0., 0., 0., 0., 0., 0., 0., 0., 0., 0.,
          8., 88., 109., 62., 1., 0., 0., 0., 0., 0., 0., 0., 0., 0., 0.,
          0., 0., 0., 0., 0., 0., 0., 0., 0., 0., 0., 0., 0., 0., 0., 0.,
          0., 0., 0., 0., 0., 0., 0., 0., 0., 0., 0., 0., 0., 0., 0., 0.,
          0., 0., 0., 0., 0., 0., 0., 0., 0., 0., 0., 0., 0., 0., 0., 0.,
          0., 0., 0., 0., 0., 0., 0., 0., 0., 0., 0., 0., 0., 0. ]
      - [ 0., 0., 0., 0., 0., 0., 0., 0., 0., 0., 0., 0., 0., 0., 0., 0.,
          0., 0., 0., 0., 0., 0., 0., 0., 0., 0., 0., 0., 0., 0., 0., 0.,
          0., 0., 0., 0., 0., 0., 0., 0., 0., 0., 0., 0., 0., 0., 0., 0.,
          0., 0., 0., 0., 0., 27., 15., 0., 0., 0., 0., 0., 0., 0., 0.,
          0., 0., 0., 0., 0., 0., 0., 0., 15., 92., 235., 181., 9., 0.,
          0., 0., 0., 0., 0., 0., 0., 0., 0., 0., 0., 0., 0., 18., 158.,
          254., 248., 250., 105., 0., 0., 0., 0., 0., 0., 0., 0., 0., 0.,
          0., 0., 0., 18., 185., 255., 173., 64., 212., 139., 0., 0., 0.,
          0., 0., 0., 0., 0., 0., 0., 0., 0., 0., 137., 255., 171., 7.,
          48., 232., 135., 0., 0., 0., 0., 0., 0., 0., 0., 0., 0., 0.,
          0., 73., 251., 194., 17., 0., 97., 255., 101., 0., 0., 0., 0.,
          0., 0., 0., 0., 0., 0., 0., 23., 201., 232., 45., 0., 0., 109.,
          255., 32., 0., 0., 0., 0., 0., 0., 0., 0., 0., 0., 0., 151.,
          255., 112., 0., 0., 8., 183., 209., 6., 0., 0., 0., 0., 0., 0.,
          0., 0., 0., 0., 89., 255., 174., 11., 0., 0., 59., 255., 89.,
          0., 0., 0., 0., 0., 0., 0., 0., 0., 0., 22., 201., 227., 40.,
          0., 0., 7., 187., 235., 45., 0., 0., 0., 0., 0., 0., 0., 0.,
          0., 0., 117., 255., 90., 0., 0., 0., 133., 255., 112., 0., 0.,
          0., 0., 0., 0., 0., 0., 0., 0., 31., 235., 187., 10., 0., 0.,
          116., 255., 161., 0., 0., 0., 0., 0., 0., 0., 0., 0., 0., 0.,
          137., 243., 66., 0., 0., 110., 255., 192., 21., 0., 0., 0., 0.,
          0., 0., 0., 0., 0., 0., 71., 246., 142., 0., 9., 125., 255.,
          200., 34., 0., 0., 0., 0., 0., 0., 0., 0., 0., 0., 6., 177.,
          232., 17., 40., 185., 255., 184., 34., 0., 0., 0., 0., 0., 0.,
          0., 0., 0., 0., 0., 3., 32., 25., 0., 15., 43., 37., 11., 0.,
          0., 0., 0., 0., 0., 0., 0., 0., 0., 0., 0., 0., 0., 0., 0., 0.,
          0., 0., 0., 0., 0., 0., 0., 0., 0., 0., 0., 0., 0., 0., 0., 0.,
          0., 0., 0., 0., 0., 0., 0., 0., 0., 0., 0., 0., 0., 0., 0., 0.,
          0. ]
      - [ 0., 0., 0., 0., 0., 0., 0., 0., 0., 0., 0., 0., 0., 0., 0., 0.,
          0., 0., 0., 0., 0., 0., 0., 0., 0., 0., 0., 0., 0., 0., 0., 0.,
          0., 0., 0., 0., 0., 0., 0., 0., 0., 0., 0., 0., 0., 0., 0.,
          16., 16., 0., 0., 0., 0., 0., 0., 0., 0., 0., 0., 0., 0., 0.,
          0., 0., 0., 0., 8., 184., 113., 0., 0., 0., 0., 0., 0., 0., 0.,
          0., 0., 0., 0., 0., 0., 0., 0., 0., 119., 252., 185., 184.,
          171., 71., 2., 0., 0., 0., 0., 0., 0., 0., 0., 0., 0., 0., 0.,
          32., 216., 216., 159., 167., 217., 239., 178., 60., 0., 0., 0.,
          0., 0., 0., 0., 0., 0., 0., 0., 115., 255., 76., 0., 0., 29.,
          76., 231., 241., 121., 0., 0., 0., 0., 0., 0., 0., 0., 0., 7.,
          203., 207., 14., 0., 0., 0., 0., 50., 191., 255., 94., 0., 0.,
          0., 0., 0., 0., 0., 0., 53., 253., 113., 0., 0., 0., 0., 0.,
          0., 52., 213., 231., 49., 0., 0., 0., 0., 0., 0., 0., 70.,
          239., 74., 0., 0., 0., 0., 0., 0., 0., 53., 249., 200., 13.,
          0., 0., 0., 0., 0., 0., 33., 242., 89., 0., 0., 0., 0., 0., 0.,
          0., 0., 77., 220., 125., 0., 0., 0., 0., 0., 0., 8., 249.,
          108., 0., 0., 0., 0., 0., 0., 0., 0., 0., 117., 218., 0., 0.,
          0., 0., 0., 0., 10., 255., 115., 0., 0., 0., 0., 0., 0., 0.,
          0., 0., 106., 199., 0., 0., 0., 0., 0., 0., 6., 226., 150., 0.,
          0., 0., 0., 0., 0., 0., 0., 0., 161., 119., 0., 0., 0., 0., 0.,
          0., 0., 106., 254., 64., 0., 0., 0., 0., 0., 0., 0., 106.,
          227., 55., 0., 0., 0., 0., 0., 0., 0., 21., 191., 226., 66.,
          16., 0., 6., 29., 70., 176., 226., 91., 0., 0., 0., 0., 0., 0.,
          0., 0., 0., 26., 194., 255., 194., 153., 178., 216., 238.,
          184., 55., 0., 0., 0., 0., 0., 0., 0., 0., 0., 0., 0., 15.,
          39., 44., 48., 46., 43., 33., 8., 0., 0., 0., 0., 0., 0., 0.,
          0., 0., 0., 0., 0., 0., 0., 0., 0., 0., 0., 0., 0., 0., 0., 0.,
          0., 0., 0., 0., 0., 0., 0., 0., 0., 0., 0., 0., 0., 0., 0., 0.,
          0., 0., 0., 0., 0., 0. ]
      - [ 0., 0., 0., 0., 0., 0., 0., 0., 0., 0., 0., 0., 0., 0., 0., 0.,
          0., 0., 0., 0., 0., 0., 0., 0., 0., 0., 0., 0., 0., 0., 0., 0.,
          0., 0., 0., 0., 0., 0., 0., 0., 0., 0., 0., 0., 0., 0., 0., 0.,
          0., 0., 0., 0., 0., 0., 0., 11., 21., 1., 0., 0., 0., 0., 0.,
          0., 0., 0., 0., 0., 0., 0., 0., 0., 0., 15., 112., 195., 224.,
          132., 0., 0., 0., 0., 0., 0., 0., 0., 0., 0., 0., 0., 0., 0.,
          81., 187., 237., 120., 119., 217., 0., 0., 0., 0., 0., 0., 0.,
          0., 0., 0., 0., 5., 50., 178., 254., 186., 30., 0., 81., 166.,
          0., 0., 0., 0., 0., 0., 0., 0., 0., 0., 17., 155., 227., 255.,
          235., 34., 0., 4., 177., 66., 0., 0., 0., 0., 0., 0., 0., 0.,
          0., 26., 176., 255., 170., 81., 97., 0., 0., 106., 166., 2.,
          0., 0., 0., 0., 0., 0., 0., 0., 31., 216., 238., 101., 0., 0.,
          0., 0., 14., 217., 75., 0., 0., 0., 0., 0., 0., 0., 0., 28.,
          201., 255., 170., 0., 0., 0., 0., 0., 109., 192., 1., 0., 0.,
          0., 0., 0., 0., 0., 2., 178., 211., 156., 232., 131., 0., 0.,
          0., 21., 206., 62., 0., 0., 0., 0., 0., 0., 0., 0., 90., 228.,
          35., 0., 69., 87., 3., 0., 0., 137., 154., 0., 0., 0., 0., 0.,
          0., 0., 0., 3., 190., 83., 0., 0., 0., 0., 0., 0., 93., 218.,
          36., 0., 0., 0., 0., 0., 0., 0., 0., 74., 207., 5., 0., 0., 0.,
          0., 0., 94., 235., 81., 0., 0., 0., 0., 0., 0., 0., 0., 0.,
          119., 217., 7., 0., 0., 12., 77., 185., 239., 78., 0., 0., 0.,
          0., 0., 0., 0., 0., 0., 0., 88., 255., 196., 129., 156., 222.,
          239., 173., 60., 0., 0., 0., 0., 0., 0., 0., 0., 0., 0., 0.,
          8., 88., 179., 221., 185., 126., 61., 0., 0., 0., 0., 0., 0.,
          0., 0., 0., 0., 0., 0., 0., 0., 0., 7., 21., 9., 0., 0., 0.,
          0., 0., 0., 0., 0., 0., 0., 0., 0., 0., 0., 0., 0., 0., 0., 0.,
          0., 0., 0., 0., 0., 0., 0., 0., 0., 0., 0., 0., 0., 0., 0., 0.,
          0., 0., 0., 0., 0., 0., 0., 0., 0., 0., 0., 0., 0., 0., 0., 0.,
          0. ]
      - [ 0., 0., 0., 0., 0., 0., 0., 0., 0., 0., 0., 0., 0., 0., 0., 0.,
          0., 0., 0., 0., 0., 0., 0., 0., 0., 0., 0., 0., 0., 0., 0., 0.,
          0., 0., 0., 0., 0., 0., 0., 0., 0., 0., 0., 0., 0., 0., 0., 0.,
          0., 0., 0., 0., 0., 0., 0., 3., 34., 23., 0., 0., 0., 0., 0.,
          0., 0., 0., 0., 0., 0., 0., 0., 0., 0., 0., 46., 158., 255.,
          199., 0., 0., 0., 0., 0., 0., 0., 0., 0., 0., 0., 0., 0., 0.,
          37., 154., 230., 254., 255., 206., 0., 0., 0., 0., 0., 0., 0.,
          0., 0., 0., 0., 0., 27., 124., 234., 227., 137., 27., 124.,
          156., 0., 0., 0., 0., 0., 0., 0., 0., 0., 0., 0., 54., 192.,
          255., 164., 40., 0., 1., 145., 99., 0., 0., 0., 0., 0., 0., 0.,
          0., 0., 0., 84., 236., 255., 133., 4., 0., 0., 36., 146., 20.,
          0., 0., 0., 0., 0., 0., 0., 0., 0., 131., 229., 239., 196., 0.,
          0., 0., 0., 106., 92., 0., 0., 0., 0., 0., 0., 0., 0., 0.,
          125., 254., 136., 60., 73., 0., 0., 0., 32., 162., 28., 0., 0.,
          0., 0., 0., 0., 0., 0., 132., 254., 119., 2., 0., 0., 0., 0.,
          0., 141., 126., 0., 0., 0., 0., 0., 0., 0., 0., 97., 246.,
          113., 2., 0., 0., 0., 0., 0., 104., 219., 44., 0., 0., 0., 0.,
          0., 0., 0., 33., 215., 124., 0., 0., 0., 0., 0., 9., 117.,
          222., 110., 0., 0., 0., 0., 0., 0., 0., 0., 103., 193., 2., 0.,
          0., 0., 0., 76., 194., 214., 69., 0., 0., 0., 0., 0., 0., 0.,
          0., 0., 115., 175., 5., 14., 40., 107., 178., 240., 195., 45.,
          0., 0., 0., 0., 0., 0., 0., 0., 0., 0., 113., 255., 206., 226.,
          255., 255., 217., 91., 5., 0., 0., 0., 0., 0., 0., 0., 0., 0.,
          0., 0., 61., 235., 235., 220., 172., 119., 30., 0., 0., 0., 0.,
          0., 0., 0., 0., 0., 0., 0., 0., 0., 0., 26., 27., 23., 6., 0.,
          0., 0., 0., 0., 0., 0., 0., 0., 0., 0., 0., 0., 0., 0., 0., 0.,
          0., 0., 0., 0., 0., 0., 0., 0., 0., 0., 0., 0., 0., 0., 0., 0.,
          0., 0., 0., 0., 0., 0., 0., 0., 0., 0., 0., 0., 0., 0., 0., 0.,
          0., 0., 0. ]
      - [ 0., 0., 0., 0., 0., 0., 0., 0., 0., 0., 0., 0., 0., 0., 0., 0.,
          0., 0., 0., 0., 0., 0., 0., 0., 0., 0., 0., 0., 0., 0., 0., 0.,
          0., 0., 0., 0., 0., 0., 0., 0., 0., 0., 0., 0., 0., 0., 0., 0.,
          0., 0., 0., 0., 0., 0., 0., 0., 0., 0., 0., 0., 0., 0., 0., 0.,
          0., 0., 0., 0., 3., 39., 77., 53., 0., 0., 0., 0., 0., 0., 0.,
          0., 0., 0., 0., 0., 0., 0., 0., 92., 188., 220., 242., 227.,
          117., 0., 0., 0., 0., 0., 0., 0., 0., 0., 0., 0., 0., 0., 29.,
          230., 254., 167., 73., 98., 187., 75., 0., 0., 0., 0., 0., 0.,
          0., 0., 0., 0., 0., 4., 130., 231., 78., 0., 0., 0., 57., 167.,
          17., 0., 0., 0., 0., 0., 0., 0., 0., 0., 0., 43., 231., 156.,
          0., 0., 0., 0., 0., 140., 77., 0., 0., 0., 0., 0., 0., 0., 0.,
          0., 0., 97., 238., 43., 0., 0., 0., 0., 0., 71., 137., 2., 0.,
          0., 0., 0., 0., 0., 0., 0., 0., 124., 203., 13., 0., 0., 0.,
          0., 0., 0., 145., 44., 0., 0., 0., 0., 0., 0., 0., 0., 1.,
          166., 105., 0., 0., 0., 0., 0., 0., 0., 106., 97., 0., 0., 0.,
          0., 0., 0., 0., 0., 6., 165., 67., 0., 0., 0., 0., 0., 0., 0.,
          34., 144., 2., 0., 0., 0., 0., 0., 0., 0., 9., 162., 55., 0.,
          0., 0., 0., 0., 0., 0., 11., 184., 32., 0., 0., 0., 0., 0., 0.,
          0., 21., 184., 25., 0., 0., 0., 0., 0., 0., 0., 10., 187., 53.,
          0., 0., 0., 0., 0., 0., 0., 13., 160., 30., 0., 0., 0., 0., 0.,
          0., 0., 29., 188., 19., 0., 0., 0., 0., 0., 0., 0., 1., 139.,
          110., 0., 0., 0., 0., 0., 0., 13., 173., 138., 0., 0., 0., 0.,
          0., 0., 0., 0., 0., 22., 126., 127., 34., 26., 26., 32., 90.,
          186., 155., 23., 0., 0., 0., 0., 0., 0., 0., 0., 0., 0., 5.,
          84., 121., 159., 185., 138., 87., 65., 3., 0., 0., 0., 0., 0.,
          0., 0., 0., 0., 0., 0., 0., 0., 0., 0., 0., 0., 0., 0., 0., 0.,
          0., 0., 0., 0., 0., 0., 0., 0., 0., 0., 0., 0., 0., 0., 0., 0.,
          0., 0., 0., 0., 0., 0., 0., 0. ]
      - [ 0., 0., 0., 0., 0., 0., 0., 0., 0., 0., 0., 0., 0., 0., 0., 0.,
          0., 0., 0., 0., 0., 0., 0., 0., 0., 0., 0., 0., 0., 0., 0., 0.,
          0., 0., 0., 0., 0., 0., 0., 0., 0., 0., 0., 0., 0., 0., 0., 0.,
          0., 0., 0., 0., 0., 0., 0., 0., 0., 0., 0., 0., 0., 0., 0., 0.,
          0., 0., 0., 0., 0., 0., 0., 0., 0., 0., 0., 0., 0., 0., 0., 0.,
          0., 0., 0., 0., 0., 0., 0., 0., 0., 0., 0., 0., 28., 59., 54.,
          8., 0., 0., 0., 0., 0., 0., 0., 0., 0., 0., 0., 0., 0., 2.,
          55., 158., 253., 255., 255., 210., 37., 0., 0., 0., 0., 0., 0.,
          0., 0., 0., 0., 0., 36., 154., 254., 255., 194., 163., 228.,
          255., 93., 0., 0., 0., 0., 0., 0., 0., 0., 0., 3., 119., 241.,
          250., 176., 55., 11., 4., 24., 179., 116., 0., 0., 0., 0., 0.,
          0., 0., 0., 9., 151., 255., 214., 65., 0., 0., 0., 0., 0.,
          157., 117., 0., 0., 0., 0., 0., 0., 0., 0., 100., 255., 202.,
          28., 0., 0., 0., 0., 0., 5., 191., 95., 0., 0., 0., 0., 0., 0.,
          0., 36., 211., 255., 162., 0., 0., 0., 0., 0., 0., 56., 234.,
          60., 0., 0., 0., 0., 0., 0., 31., 178., 148., 77., 65., 14.,
          0., 0., 0., 0., 3., 157., 145., 7., 0., 0., 0., 0., 0., 25.,
          192., 207., 19., 0., 0., 0., 0., 0., 0., 0., 58., 190., 16.,
          0., 0., 0., 0., 0., 0., 129., 217., 42., 0., 0., 0., 0., 0.,
          0., 0., 103., 222., 149., 0., 0., 0., 0., 0., 0., 0., 189.,
          88., 0., 0., 0., 0., 0., 0., 11., 124., 250., 172., 15., 0.,
          0., 0., 0., 0., 0., 0., 212., 61., 4., 0., 0., 0., 18., 41.,
          155., 211., 87., 0., 0., 0., 0., 0., 0., 0., 0., 0., 97., 67.,
          8., 0., 0., 0., 63., 107., 107., 30., 0., 0., 0., 0., 0., 0.,
          0., 0., 0., 0., 0., 0., 0., 0., 0., 0., 7., 5., 0., 0., 0., 0.,
          0., 0., 0., 0., 0., 0., 0., 0., 0., 0., 0., 0., 0., 0., 0., 0.,
          0., 0., 0., 0., 0., 0., 0., 0., 0., 0., 0., 0., 0., 0., 0., 0.,
          0., 0., 0., 0., 0., 0., 0., 0., 0., 0., 0., 0., 0., 0. ]
      - [ 0., 0., 0., 0., 0., 0., 0., 0., 0., 0., 0., 0., 0., 0., 0., 0.,
          0., 0., 0., 0., 0., 0., 0., 0., 0., 0., 0., 0., 0., 0., 0., 0.,
          0., 0., 0., 0., 0., 0., 0., 0., 0., 0., 0., 0., 0., 0., 0., 0.,
          0., 1., 27., 32., 7., 0., 0., 0., 0., 1., 0., 0., 0., 0., 0.,
          0., 0., 0., 0., 0., 47., 159., 193., 200., 66., 0., 0., 51.,
          91., 6., 0., 0., 0., 0., 0., 0., 0., 0., 29., 149., 212., 147.,
          48., 41., 20., 0., 0., 106., 189., 11., 0., 0., 0., 0., 0., 0.,
          0., 18., 186., 223., 71., 1., 0., 0., 0., 0., 0., 49., 225.,
          50., 0., 0., 0., 0., 0., 0., 0., 130., 250., 69., 0., 0., 0.,
          0., 0., 0., 0., 30., 211., 115., 0., 0., 0., 0., 0., 0., 44.,
          237., 186., 9., 0., 0., 0., 0., 0., 0., 0., 1., 172., 134., 0.,
          0., 0., 0., 0., 0., 153., 213., 32., 0., 0., 0., 0., 0., 0.,
          0., 0., 0., 162., 97., 0., 0., 0., 0., 0., 35., 220., 149., 0.,
          0., 0., 0., 0., 0., 0., 0., 0., 29., 198., 37., 0., 0., 0., 0.,
          0., 46., 224., 118., 0., 0., 0., 0., 0., 0., 0., 0., 0., 103.,
          218., 21., 0., 0., 0., 0., 0., 45., 215., 52., 0., 0., 0., 0.,
          0., 0., 0., 0., 1., 163., 100., 0., 0., 0., 0., 0., 0., 48.,
          216., 42., 0., 0., 0., 0., 0., 0., 0., 23., 183., 177., 7., 0.,
          0., 0., 0., 0., 0., 25., 206., 114., 0., 0., 0., 0., 0., 0.,
          22., 183., 221., 60., 0., 0., 0., 0., 0., 0., 0., 0., 122.,
          209., 30., 0., 0., 0., 0., 71., 194., 198., 52., 0., 0., 0.,
          0., 0., 0., 0., 0., 0., 42., 190., 213., 77., 34., 82., 153.,
          225., 152., 16., 0., 0., 0., 0., 0., 0., 0., 0., 0., 0., 0.,
          26., 151., 213., 210., 183., 149., 71., 0., 0., 0., 0., 0., 0.,
          0., 0., 0., 0., 0., 0., 0., 0., 2., 28., 37., 15., 0., 0., 0.,
          0., 0., 0., 0., 0., 0., 0., 0., 0., 0., 0., 0., 0., 0., 0., 0.,
          0., 0., 0., 0., 0., 0., 0., 0., 0., 0., 0., 0., 0., 0., 0., 0.,
          0., 0., 0., 0., 0., 0., 0., 0., 0., 0., 0., 0., 0., 0., 0. ]
      - [ 0., 0., 0., 0., 0., 0., 0., 0., 0., 0., 0., 0., 0., 0., 0., 0.,
          0., 0., 0., 0., 0., 0., 0., 0., 0., 0., 0., 0., 0., 0., 0., 0.,
          0., 0., 0., 0., 0., 0., 0., 0., 0., 0., 0., 0., 0., 0., 0., 0.,
          0., 0., 0., 0., 0., 0., 0., 0., 0., 0., 0., 0., 0., 0., 0., 0.,
          0., 0., 0., 0., 0., 0., 0., 0., 50., 75., 102., 42., 0., 0.,
          0., 0., 0., 0., 0., 0., 0., 0., 0., 0., 0., 0., 56., 168.,
          218., 246., 255., 176., 1., 0., 0., 0., 0., 0., 0., 0., 0., 0.,
          0., 0., 2., 136., 238., 145., 153., 255., 206., 205., 57., 0.,
          0., 0., 0., 0., 0., 0., 0., 0., 0., 0., 97., 216., 68., 121.,
          255., 135., 16., 200., 90., 0., 0., 0., 0., 0., 0., 0., 0., 0.,
          0., 5., 156., 80., 98., 243., 134., 0., 20., 223., 69., 0., 0.,
          0., 0., 0., 0., 0., 0., 0., 0., 0., 26., 112., 231., 124., 0.,
          0., 78., 165., 4., 0., 0., 0., 0., 0., 0., 0., 0., 0., 0., 0.,
          33., 215., 166., 0., 0., 7., 182., 92., 0., 0., 0., 0., 0., 0.,
          0., 0., 0., 0., 0., 18., 213., 209., 7., 0., 0., 100., 210.,
          6., 0., 0., 0., 0., 0., 0., 0., 0., 0., 0., 0., 134., 247.,
          82., 0., 0., 3., 172., 176., 0., 0., 0., 0., 0., 0., 0., 0.,
          0., 0., 0., 86., 248., 109., 0., 0., 0., 37., 243., 87., 0.,
          0., 0., 0., 0., 0., 0., 0., 0., 0., 65., 234., 132., 0., 0.,
          0., 46., 182., 131., 0., 0., 0., 0., 0., 0., 0., 0., 0., 0.,
          8., 229., 163., 0., 0., 0., 50., 232., 182., 7., 0., 0., 0.,
          0., 0., 0., 0., 0., 0., 0., 146., 205., 21., 0., 15., 128.,
          225., 162., 11., 0., 0., 0., 0., 0., 0., 0., 0., 0., 0., 49.,
          232., 131., 50., 102., 202., 242., 134., 8., 0., 0., 0., 0.,
          0., 0., 0., 0., 0., 0., 0., 102., 225., 200., 201., 216., 184.,
          53., 0., 0., 0., 0., 0., 0., 0., 0., 0., 0., 0., 0., 0., 0.,
          0., 0., 0., 0., 0., 0., 0., 0., 0., 0., 0., 0., 0., 0., 0., 0.,
          0., 0., 0., 0., 0., 0., 0., 0., 0., 0., 0., 0., 0., 0., 0., 0.,
          0., 0., 0., 0. ]
      - [ 0., 0., 0., 0., 0., 0., 0., 0., 0., 0., 0., 0., 0., 0., 0., 0.,
          0., 0., 0., 0., 0., 0., 0., 0., 0., 0., 0., 0., 0., 0., 0., 0.,
          0., 0., 0., 0., 0., 0., 0., 0., 0., 0., 0., 0., 0., 0., 0., 0.,
          0., 0., 18., 19., 0., 0., 0., 0., 0., 0., 0., 0., 0., 0., 0.,
          0., 0., 0., 0., 0., 0., 38., 182., 179., 48., 0., 0., 0., 0.,
          0., 0., 0., 0., 0., 0., 0., 0., 0., 0., 0., 5., 175., 150.,
          52., 139., 21., 0., 0., 0., 0., 0., 0., 0., 0., 0., 0., 0., 0.,
          0., 0., 75., 215., 26., 0., 68., 177., 35., 0., 0., 0., 0., 0.,
          0., 0., 0., 0., 0., 0., 0., 6., 178., 123., 0., 0., 0., 115.,
          88., 0., 0., 0., 0., 0., 0., 0., 0., 0., 0., 0., 0., 40., 181.,
          25., 0., 0., 0., 57., 110., 2., 0., 0., 0., 0., 0., 0., 0., 0.,
          0., 0., 0., 100., 134., 0., 0., 0., 0., 60., 127., 4., 0., 0.,
          0., 0., 0., 0., 0., 0., 0., 0., 0., 116., 65., 0., 0., 0., 0.,
          84., 122., 0., 0., 0., 0., 0., 0., 0., 0., 0., 0., 0., 9.,
          161., 12., 0., 0., 0., 0., 141., 87., 0., 0., 0., 0., 0., 0.,
          0., 0., 0., 0., 0., 41., 136., 0., 0., 0., 0., 33., 165., 24.,
          0., 0., 0., 0., 0., 0., 0., 0., 0., 0., 0., 52., 114., 0., 0.,
          0., 0., 136., 124., 0., 0., 0., 0., 0., 0., 0., 0., 0., 0., 0.,
          0., 83., 126., 0., 0., 0., 83., 200., 23., 0., 0., 0., 0., 0.,
          0., 0., 0., 0., 0., 0., 0., 51., 146., 0., 0., 65., 202., 76.,
          0., 0., 0., 0., 0., 0., 0., 0., 0., 0., 0., 0., 0., 12., 195.,
          108., 103., 211., 75., 0., 0., 0., 0., 0., 0., 0., 0., 0., 0.,
          0., 0., 0., 0., 0., 90., 249., 210., 78., 0., 0., 0., 0., 0.,
          0., 0., 0., 0., 0., 0., 0., 0., 0., 0., 0., 1., 31., 17., 0.,
          0., 0., 0., 0., 0., 0., 0., 0., 0., 0., 0., 0., 0., 0., 0., 0.,
          0., 0., 0., 0., 0., 0., 0., 0., 0., 0., 0., 0., 0., 0., 0., 0.,
          0., 0., 0., 0., 0., 0., 0., 0., 0., 0., 0., 0., 0., 0., 0., 0.,
          0. ]
      - [ 0., 0., 0., 0., 0., 0., 0., 0., 0., 0., 0., 0., 0., 0., 0., 0.,
          0., 0., 0., 0., 0., 0., 0., 0., 0., 0., 0., 0., 0., 0., 0., 0.,
          0., 0., 0., 0., 0., 0., 0., 0., 0., 0., 0., 0., 0., 0., 0., 0.,
          0., 0., 0., 0., 0., 0., 0., 0., 0., 0., 0., 0., 0., 0., 0., 0.,
          0., 0., 0., 0., 0., 0., 15., 74., 44., 0., 0., 0., 0., 0., 0.,
          0., 0., 0., 0., 0., 0., 0., 0., 0., 0., 27., 180., 250., 177.,
          0., 4., 92., 116., 28., 0., 0., 0., 0., 0., 0., 0., 0., 0., 0.,
          12., 185., 255., 171., 43., 0., 20., 197., 255., 210., 0., 0.,
          0., 0., 0., 0., 0., 0., 0., 21., 145., 249., 175., 30., 0., 0.,
          0., 105., 255., 221., 0., 0., 0., 0., 0., 0., 0., 0., 29.,
          189., 255., 248., 71., 0., 0., 0., 14., 204., 255., 158., 0.,
          0., 0., 0., 0., 0., 0., 0., 129., 255., 248., 123., 0., 0., 0.,
          6., 122., 255., 182., 36., 0., 0., 0., 0., 0., 0., 0., 46.,
          214., 255., 130., 1., 0., 0., 0., 81., 254., 240., 76., 0., 0.,
          0., 0., 0., 0., 0., 0., 178., 255., 219., 23., 0., 0., 0., 56.,
          225., 217., 47., 0., 0., 0., 0., 0., 0., 0., 17., 46., 206.,
          255., 154., 0., 0., 0., 82., 226., 245., 71., 0., 0., 0., 0.,
          0., 0., 0., 0., 24., 164., 255., 208., 22., 0., 23., 119.,
          250., 255., 116., 0., 0., 0., 0., 0., 0., 0., 0., 0., 0., 154.,
          255., 128., 43., 143., 228., 255., 254., 120., 0., 0., 0., 0.,
          0., 0., 0., 0., 0., 0., 0., 150., 255., 222., 225., 255., 255.,
          227., 99., 3., 0., 0., 0., 0., 0., 0., 0., 0., 0., 0., 0., 46.,
          213., 255., 253., 218., 155., 45., 0., 0., 0., 0., 0., 0., 0.,
          0., 0., 0., 0., 0., 0., 0., 38., 90., 83., 35., 1., 0., 0., 0.,
          0., 0., 0., 0., 0., 0., 0., 0., 0., 0., 0., 0., 0., 0., 0., 0.,
          0., 0., 0., 0., 0., 0., 0., 0., 0., 0., 0., 0., 0., 0., 0., 0.,
          0., 0., 0., 0., 0., 0., 0., 0., 0., 0., 0., 0., 0., 0., 0., 0.,
          0., 0., 0., 0., 0., 0., 0., 0., 0., 0., 0., 0., 0., 0., 0., 0.,
          0., 0., 0. ]
      - [ 0., 0., 0., 0., 0., 0., 0., 0., 0., 0., 0., 0., 0., 0., 0., 0.,
          0., 0., 0., 0., 0., 0., 0., 0., 0., 0., 0., 0., 0., 0., 0., 0.,
          0., 0., 0., 0., 0., 0., 0., 0., 0., 0., 0., 0., 0., 0., 0., 0.,
          0., 0., 0., 0., 0., 0., 0., 0., 0., 0., 0., 0., 0., 0., 0., 0.,
          0., 0., 0., 0., 0., 0., 0., 0., 0., 0., 0., 3., 0., 0., 0., 0.,
          0., 0., 0., 0., 0., 0., 0., 0., 0., 0., 0., 0., 0., 0., 26.,
          186., 98., 0., 0., 0., 0., 0., 0., 0., 0., 0., 0., 0., 0., 0.,
          14., 39., 96., 111., 177., 255., 234., 27., 0., 0., 0., 0., 0.,
          0., 0., 0., 0., 0., 12., 95., 188., 224., 254., 255., 255.,
          255., 161., 6., 0., 0., 0., 0., 0., 0., 0., 0., 5., 56., 163.,
          255., 255., 229., 210., 252., 255., 231., 64., 0., 0., 0., 0.,
          0., 0., 0., 0., 0., 96., 250., 255., 205., 111., 40., 122.,
          255., 243., 87., 0., 0., 0., 0., 0., 0., 0., 0., 0., 92., 241.,
          249., 158., 38., 0., 0., 196., 255., 217., 3., 0., 0., 0., 0.,
          0., 0., 0., 0., 104., 245., 236., 101., 0., 0., 5., 129., 254.,
          228., 67., 0., 0., 0., 0., 0., 0., 0., 0., 23., 213., 255.,
          120., 0., 0., 0., 41., 231., 255., 123., 0., 0., 0., 0., 0.,
          0., 0., 0., 1., 138., 255., 153., 0., 0., 13., 72., 204., 255.,
          181., 35., 0., 0., 0., 0., 0., 0., 0., 0., 15., 198., 255.,
          184., 101., 112., 181., 252., 255., 204., 32., 0., 0., 0., 0.,
          0., 0., 0., 0., 0., 4., 127., 242., 255., 255., 255., 255.,
          235., 104., 29., 0., 0., 0., 0., 0., 0., 0., 0., 0., 0., 0.,
          0., 77., 182., 194., 168., 96., 54., 0., 0., 0., 0., 0., 0.,
          0., 0., 0., 0., 0., 0., 0., 0., 0., 2., 3., 1., 0., 0., 0., 0.,
          0., 0., 0., 0., 0., 0., 0., 0., 0., 0., 0., 0., 0., 0., 0., 0.,
          0., 0., 0., 0., 0., 0., 0., 0., 0., 0., 0., 0., 0., 0., 0., 0.,
          0., 0., 0., 0., 0., 0., 0., 0., 0., 0., 0., 0., 0., 0., 0., 0.,
          0., 0., 0., 0., 0., 0., 0., 0., 0., 0., 0., 0., 0., 0., 0., 0.,
          0., 0., 0., 0. ]
      - [ 0., 0., 0., 0., 0., 0., 0., 0., 0., 0., 0., 0., 0., 0., 0., 0.,
          0., 0., 0., 0., 0., 0., 0., 0., 0., 0., 0., 0., 0., 0., 0., 0.,
          0., 0., 0., 0., 0., 0., 0., 0., 0., 0., 0., 0., 0., 0., 0.,
          31., 38., 24., 1., 0., 0., 0., 0., 0., 0., 0., 0., 0., 0., 0.,
          0., 0., 0., 0., 44., 238., 255., 224., 152., 42., 0., 0., 0.,
          0., 0., 0., 0., 0., 0., 0., 0., 0., 0., 0., 142., 255., 233.,
          244., 255., 228., 85., 0., 0., 0., 0., 0., 0., 0., 0., 0., 0.,
          0., 0., 0., 161., 216., 15., 43., 123., 241., 192., 13., 0.,
          0., 0., 0., 0., 0., 0., 0., 0., 0., 0., 9., 183., 198., 0., 0.,
          0., 126., 255., 127., 0., 0., 0., 0., 0., 0., 0., 0., 0., 0.,
          0., 35., 219., 195., 0., 0., 0., 5., 175., 212., 27., 0., 0.,
          0., 0., 0., 0., 0., 0., 0., 0., 37., 222., 193., 0., 0., 0.,
          0., 54., 242., 130., 0., 0., 0., 0., 0., 0., 0., 0., 0., 0.,
          14., 187., 222., 24., 0., 0., 0., 6., 181., 188., 1., 0., 0.,
          0., 0., 0., 0., 0., 0., 0., 0., 157., 255., 105., 0., 0., 0.,
          0., 128., 237., 32., 0., 0., 0., 0., 0., 0., 0., 0., 0., 0.,
          160., 255., 118., 0., 0., 0., 0., 89., 253., 86., 0., 0., 0.,
          0., 0., 0., 0., 0., 0., 0., 98., 255., 146., 0., 0., 0., 0.,
          91., 255., 111., 0., 0., 0., 0., 0., 0., 0., 0., 0., 0., 9.,
          203., 229., 47., 0., 0., 0., 89., 255., 116., 0., 0., 0., 0.,
          0., 0., 0., 0., 0., 0., 0., 123., 255., 141., 2., 0., 0., 118.,
          252., 55., 0., 0., 0., 0., 0., 0., 0., 0., 0., 0., 0., 31.,
          207., 255., 195., 141., 179., 254., 156., 0., 0., 0., 0., 0.,
          0., 0., 0., 0., 0., 0., 0., 0., 44., 170., 249., 255., 255.,
          159., 24., 0., 0., 0., 0., 0., 0., 0., 0., 0., 0., 0., 0., 0.,
          0., 7., 31., 37., 34., 5., 0., 0., 0., 0., 0., 0., 0., 0., 0.,
          0., 0., 0., 0., 0., 0., 0., 0., 0., 0., 0., 0., 0., 0., 0., 0.,
          0., 0., 0., 0., 0., 0., 0., 0., 0., 0., 0., 0., 0., 0., 0., 0.,
          0., 0., 0., 0., 0. ]
      - [ 0., 0., 0., 0., 0., 0., 0., 0., 0., 0., 0., 0., 0., 0., 0., 0.,
          0., 0., 0., 0., 0., 0., 0., 0., 0., 0., 0., 0., 0., 0., 0., 0.,
          0., 0., 0., 0., 0., 0., 0., 0., 0., 0., 0., 0., 0., 0., 0., 0.,
          0., 0., 0., 0., 0., 0., 0., 0., 0., 0., 0., 0., 0., 0., 0., 0.,
          0., 0., 0., 0., 0., 0., 0., 20., 67., 71., 29., 0., 0., 0., 0.,
          0., 0., 0., 0., 0., 0., 0., 0., 0., 0., 2., 55., 173., 245.,
          248., 208., 34., 0., 3., 0., 0., 0., 0., 0., 0., 0., 0., 0.,
          0., 81., 181., 237., 255., 239., 203., 247., 181., 171., 164.,
          0., 0., 0., 0., 0., 0., 0., 0., 0., 71., 237., 255., 231.,
          156., 72., 16., 173., 255., 255., 176., 0., 0., 0., 0., 0., 0.,
          0., 0., 69., 236., 255., 214., 60., 0., 0., 18., 196., 255.,
          235., 65., 0., 0., 0., 0., 0., 0., 0., 43., 198., 255., 161.,
          32., 0., 40., 19., 64., 240., 246., 91., 0., 0., 0., 0., 0.,
          0., 2., 67., 198., 255., 228., 39., 0., 0., 102., 132., 70.,
          243., 176., 6., 0., 0., 0., 0., 0., 0., 92., 255., 255., 255.,
          88., 0., 0., 6., 158., 163., 0., 58., 166., 22., 0., 0., 0.,
          0., 0., 0., 15., 168., 200., 96., 15., 0., 0., 132., 255.,
          173., 143., 144., 51., 1., 0., 0., 0., 0., 0., 0., 15., 181.,
          200., 7., 0., 0., 0., 175., 255., 255., 255., 228., 39., 0.,
          0., 0., 0., 0., 0., 0., 58., 237., 228., 75., 0., 9., 61.,
          159., 255., 255., 147., 6., 0., 0., 0., 0., 0., 0., 0., 0.,
          26., 197., 255., 234., 188., 200., 239., 255., 255., 182., 33.,
          0., 0., 0., 0., 0., 0., 0., 0., 0., 0., 88., 194., 235., 247.,
          245., 240., 201., 138., 13., 0., 0., 0., 0., 0., 0., 0., 0.,
          0., 0., 0., 0., 2., 59., 69., 68., 67., 9., 0., 0., 0., 0., 0.,
          0., 0., 0., 0., 0., 0., 0., 0., 0., 0., 0., 0., 0., 0., 0., 0.,
          0., 0., 0., 0., 0., 0., 0., 0., 0., 0., 0., 0., 0., 0., 0., 0.,
          0., 0., 0., 0., 0., 0., 0., 0., 0., 0., 0., 0., 0., 0., 0., 0.,
          0., 0., 0., 0., 0., 0., 0., 0., 0., 0., 0., 0., 0., 0., 0., 0. ]
      - [ 0., 0., 0., 0., 0., 0., 0., 0., 0., 0., 0., 0., 0., 0., 0., 0.,
          0., 0., 0., 0., 0., 0., 0., 0., 0., 0., 0., 0., 0., 0., 0., 0.,
          0., 0., 0., 0., 0., 0., 0., 0., 0., 0., 0., 0., 0., 0., 0., 0.,
          0., 10., 37., 25., 0., 0., 0., 0., 0., 0., 0., 0., 0., 0., 0.,
          0., 0., 0., 0., 0., 0., 71., 255., 228., 67., 0., 0., 0., 0.,
          0., 0., 0., 0., 0., 0., 0., 0., 0., 0., 0., 0., 69., 249.,
          255., 171., 0., 0., 0., 0., 0., 0., 0., 0., 0., 0., 0., 0., 0.,
          0., 0., 0., 67., 249., 255., 180., 0., 0., 0., 0., 0., 0., 0.,
          0., 0., 0., 0., 0., 0., 0., 0., 0., 99., 253., 255., 177., 0.,
          0., 0., 0., 0., 0., 0., 0., 0., 0., 0., 0., 0., 0., 0., 72.,
          224., 255., 255., 194., 13., 0., 0., 0., 0., 0., 0., 0., 0.,
          0., 0., 0., 0., 0., 4., 172., 255., 255., 255., 222., 46., 0.,
          0., 0., 0., 0., 0., 0., 0., 0., 0., 0., 0., 0., 75., 238.,
          198., 120., 255., 184., 1., 0., 0., 0., 0., 0., 0., 0., 0., 0.,
          0., 0., 0., 14., 196., 255., 166., 64., 255., 206., 27., 0.,
          0., 0., 0., 0., 0., 0., 0., 0., 0., 0., 0., 71., 244., 255.,
          92., 60., 255., 177., 0., 0., 0., 0., 0., 0., 0., 0., 0., 0.,
          0., 0., 0., 10., 193., 255., 120., 155., 255., 229., 47., 0.,
          0., 0., 0., 0., 0., 0., 0., 0., 0., 0., 0., 0., 179., 255.,
          75., 179., 255., 153., 15., 0., 0., 0., 0., 0., 0., 0., 0., 0.,
          0., 0., 0., 0., 180., 255., 210., 237., 229., 37., 0., 0., 0.,
          0., 0., 0., 0., 0., 0., 0., 0., 0., 0., 0., 187., 255., 255.,
          255., 165., 5., 0., 0., 0., 0., 0., 0., 0., 0., 0., 0., 0., 0.,
          0., 0., 106., 188., 253., 181., 66., 0., 0., 0., 0., 0., 0.,
          0., 0., 0., 0., 0., 0., 0., 0., 0., 0., 12., 34., 11., 0., 0.,
          0., 0., 0., 0., 0., 0., 0., 0., 0., 0., 0., 0., 0., 0., 0., 0.,
          0., 0., 0., 0., 0., 0., 0., 0., 0., 0., 0., 0., 0., 0., 0., 0.,
          0., 0., 0., 0., 0., 0., 0., 0., 0., 0., 0., 0., 0., 0., 0. ]
      - [ 0., 0., 0., 0., 0., 0., 0., 0., 0., 0., 0., 0., 0., 0., 0., 0.,
          0., 0., 0., 0., 0., 0., 0., 0., 0., 0., 0., 0., 0., 0., 0., 0.,
          0., 0., 0., 0., 0., 0., 0., 0., 0., 0., 0., 0., 0., 0., 0., 0.,
          0., 0., 0., 0., 0., 0., 0., 0., 0., 0., 0., 0., 0., 0., 0., 0.,
          0., 0., 0., 0., 51., 110., 44., 0., 0., 0., 0., 0., 0., 0., 0.,
          0., 0., 0., 0., 0., 0., 0., 1., 102., 232., 255., 202., 133.,
          52., 0., 0., 0., 0., 0., 0., 0., 0., 0., 0., 0., 0., 0., 79.,
          177., 118., 200., 255., 243., 220., 67., 0., 0., 0., 0., 0.,
          0., 0., 0., 0., 0., 0., 0., 18., 0., 0., 189., 200., 60., 165.,
          201., 18., 0., 0., 0., 0., 0., 0., 0., 0., 0., 0., 0., 0., 0.,
          32., 213., 110., 0., 68., 251., 65., 0., 0., 0., 0., 0., 0.,
          0., 0., 0., 0., 0., 0., 0., 88., 228., 22., 0., 14., 201.,
          118., 0., 0., 0., 0., 0., 0., 0., 0., 0., 0., 0., 0., 4., 164.,
          236., 6., 0., 5., 171., 135., 0., 0., 0., 0., 0., 0., 0., 0.,
          0., 0., 0., 0., 16., 203., 132., 0., 0., 5., 172., 134., 0.,
          0., 0., 0., 0., 0., 0., 0., 0., 0., 0., 0., 32., 214., 53., 0.,
          0., 10., 193., 134., 0., 0., 0., 0., 0., 0., 0., 0., 0., 0.,
          0., 0., 122., 224., 36., 0., 0., 59., 243., 102., 0., 0., 0.,
          0., 0., 0., 0., 0., 0., 0., 0., 0., 210., 182., 9., 0., 0.,
          154., 178., 4., 0., 0., 0., 0., 0., 0., 0., 0., 0., 0., 0., 0.,
          209., 176., 1., 0., 100., 255., 148., 0., 0., 0., 0., 0., 0.,
          0., 0., 0., 0., 0., 0., 0., 195., 212., 39., 102., 251., 205.,
          45., 0., 0., 0., 0., 0., 0., 0., 0., 0., 0., 0., 0., 0., 75.,
          236., 212., 252., 220., 55., 0., 0., 0., 0., 0., 0., 0., 0.,
          0., 0., 0., 0., 0., 0., 0., 117., 225., 161., 53., 0., 0., 0.,
          0., 0., 0., 0., 0., 0., 0., 0., 0., 0., 0., 0., 0., 0., 0., 0.,
          0., 0., 0., 0., 0., 0., 0., 0., 0., 0., 0., 0., 0., 0., 0., 0.,
          0., 0., 0., 0., 0., 0., 0., 0., 0., 0., 0., 0., 0. ]
      - [ 0., 0., 0., 0., 0., 0., 0., 0., 0., 0., 0., 0., 0., 0., 0., 0.,
          0., 0., 0., 0., 0., 0., 0., 0., 0., 0., 0., 0., 0., 0., 0., 0.,
          0., 0., 0., 0., 0., 0., 0., 0., 0., 0., 0., 0., 0., 0., 0., 0.,
          0., 0., 0., 0., 0., 28., 37., 11., 0., 0., 0., 0., 0., 0., 0.,
          0., 0., 0., 0., 0., 0., 0., 0., 28., 128., 242., 255., 168.,
          18., 0., 0., 0., 0., 0., 0., 0., 0., 0., 0., 0., 0., 1., 116.,
          223., 234., 163., 154., 252., 104., 0., 0., 0., 0., 0., 0., 0.,
          0., 0., 0., 0., 36., 183., 250., 178., 56., 0., 1., 160., 149.,
          0., 0., 0., 0., 0., 0., 0., 0., 0., 0., 27., 199., 237., 115.,
          1., 0., 0., 0., 105., 198., 13., 0., 0., 0., 0., 0., 0., 0.,
          0., 41., 195., 255., 95., 0., 0., 0., 0., 0., 107., 213., 18.,
          0., 0., 0., 0., 0., 0., 0., 44., 197., 253., 119., 2., 0., 0.,
          0., 0., 0., 104., 214., 19., 0., 0., 0., 0., 0., 0., 24., 204.,
          255., 173., 0., 0., 0., 0., 0., 0., 0., 140., 169., 3., 0., 0.,
          0., 0., 0., 0., 55., 255., 185., 13., 0., 0., 0., 0., 0., 0.,
          81., 228., 106., 0., 0., 0., 0., 0., 0., 0., 110., 245., 97.,
          0., 0., 0., 0., 0., 0., 16., 203., 171., 6., 0., 0., 0., 0.,
          0., 0., 0., 182., 213., 22., 0., 0., 0., 0., 0., 11., 159.,
          214., 47., 0., 0., 0., 0., 0., 0., 0., 0., 165., 255., 100.,
          0., 0., 0., 0., 12., 163., 234., 68., 0., 0., 0., 0., 0., 0.,
          0., 0., 0., 79., 255., 186., 14., 0., 8., 61., 185., 227., 73.,
          0., 0., 0., 0., 0., 0., 0., 0., 0., 0., 19., 184., 255., 190.,
          111., 183., 255., 212., 67., 0., 0., 0., 0., 0., 0., 0., 0.,
          0., 0., 0., 0., 35., 155., 234., 255., 210., 164., 45., 0., 0.,
          0., 0., 0., 0., 0., 0., 0., 0., 0., 0., 0., 0., 2., 26., 34.,
          18., 6., 0., 0., 0., 0., 0., 0., 0., 0., 0., 0., 0., 0., 0.,
          0., 0., 0., 0., 0., 0., 0., 0., 0., 0., 0., 0., 0., 0., 0., 0.,
          0., 0., 0., 0., 0., 0., 0., 0., 0., 0., 0., 0., 0., 0., 0., 0.,
          0., 0., 0., 0. ]
      - [ 0., 0., 0., 0., 0., 0., 0., 0., 0., 0., 0., 0., 0., 0., 0., 0.,
          0., 0., 0., 0., 0., 0., 0., 0., 0., 0., 0., 0., 0., 0., 0., 0.,
          0., 0., 0., 0., 0., 0., 0., 0., 0., 0., 0., 0., 0., 0., 0., 0.,
          0., 0., 0., 0., 0., 0., 0., 0., 0., 0., 0., 0., 0., 0., 0., 0.,
          0., 0., 0., 0., 0., 0., 0., 0., 0., 0., 0., 0., 0., 0., 0., 0.,
          0., 0., 0., 0., 0., 0., 0., 0., 0., 0., 0., 0., 0., 6., 2., 0.,
          0., 0., 0., 0., 0., 0., 0., 0., 0., 0., 0., 53., 104., 55., 0.,
          65., 120., 157., 177., 85., 5., 0., 0., 0., 0., 0., 0., 0., 0.,
          77., 170., 238., 207., 61., 27., 179., 104., 63., 123., 220.,
          113., 0., 0., 0., 0., 0., 0., 0., 98., 248., 202., 77., 14.,
          0., 11., 62., 2., 0., 0., 77., 222., 50., 0., 0., 0., 0., 0.,
          77., 248., 137., 9., 0., 0., 0., 0., 0., 0., 0., 0., 18., 201.,
          134., 0., 0., 0., 0., 0., 113., 255., 8., 0., 0., 0., 0., 0.,
          0., 0., 0., 0., 0., 162., 211., 0., 0., 0., 0., 0., 110., 255.,
          5., 0., 0., 0., 0., 0., 0., 0., 0., 0., 0., 161., 221., 0., 0.,
          0., 0., 0., 68., 232., 42., 0., 0., 0., 0., 0., 0., 0., 0., 0.,
          25., 213., 147., 0., 0., 0., 0., 0., 8., 182., 176., 0., 0.,
          0., 0., 0., 0., 0., 0., 0., 132., 214., 33., 0., 0., 0., 0.,
          0., 0., 39., 186., 112., 26., 0., 0., 0., 0., 0., 8., 114.,
          226., 76., 0., 0., 0., 0., 0., 0., 0., 0., 49., 205., 201.,
          117., 33., 13., 31., 98., 184., 199., 63., 2., 0., 0., 0., 0.,
          0., 0., 0., 0., 0., 27., 111., 159., 184., 190., 192., 188.,
          120., 18., 0., 0., 0., 0., 0., 0., 0., 0., 0., 0., 0., 0., 0.,
          0., 10., 14., 14., 6., 0., 0., 0., 0., 0., 0., 0., 0., 0., 0.,
          0., 0., 0., 0., 0., 0., 0., 0., 0., 0., 0., 0., 0., 0., 0., 0.,
          0., 0., 0., 0., 0., 0., 0., 0., 0., 0., 0., 0., 0., 0., 0., 0.,
          0., 0., 0., 0., 0., 0., 0., 0., 0., 0., 0., 0., 0., 0., 0., 0.,
          0., 0., 0., 0., 0., 0., 0., 0., 0. ]
      - [ 0., 0., 0., 0., 0., 0., 0., 0., 0., 0., 0., 0., 0., 0., 0., 0.,
          0., 0., 0., 0., 0., 0., 0., 0., 0., 0., 0., 0., 0., 0., 0., 0.,
          0., 0., 0., 0., 0., 0., 0., 0., 0., 0., 0., 0., 0., 0., 0., 0.,
          0., 17., 36., 29., 0., 0., 0., 0., 0., 0., 0., 0., 0., 0., 0.,
          0., 0., 0., 0., 0., 0., 145., 156., 189., 59., 0., 0., 0., 0.,
          0., 0., 0., 0., 0., 0., 0., 0., 0., 0., 0., 40., 186., 25.,
          100., 144., 0., 0., 0., 0., 0., 0., 0., 0., 0., 0., 0., 0., 0.,
          0., 0., 125., 133., 0., 42., 161., 0., 0., 0., 0., 0., 0., 0.,
          0., 0., 0., 0., 0., 0., 0., 18., 196., 63., 0., 4., 194., 26.,
          0., 0., 0., 0., 0., 0., 0., 0., 0., 0., 0., 0., 0., 85., 201.,
          23., 0., 0., 159., 91., 0., 0., 0., 0., 0., 0., 0., 0., 0., 0.,
          0., 0., 0., 162., 157., 0., 0., 0., 156., 112., 0., 0., 0., 0.,
          0., 0., 0., 0., 0., 0., 0., 0., 0., 197., 79., 0., 0., 0.,
          157., 111., 0., 0., 0., 0., 0., 0., 0., 0., 0., 0., 0., 0.,
          13., 203., 48., 0., 0., 0., 157., 111., 0., 0., 0., 0., 0., 0.,
          0., 0., 0., 0., 0., 0., 86., 214., 11., 0., 0., 0., 157., 112.,
          0., 0., 0., 0., 0., 0., 0., 0., 0., 0., 0., 0., 114., 218., 0.,
          0., 0., 19., 198., 57., 0., 0., 0., 0., 0., 0., 0., 0., 0., 0.,
          0., 0., 114., 220., 0., 0., 0., 58., 169., 0., 0., 0., 0., 0.,
          0., 0., 0., 0., 0., 0., 0., 0., 56., 220., 50., 0., 0., 126.,
          159., 0., 0., 0., 0., 0., 0., 0., 0., 0., 0., 0., 0., 0., 0.,
          149., 198., 63., 89., 222., 85., 0., 0., 0., 0., 0., 0., 0.,
          0., 0., 0., 0., 0., 0., 0., 20., 165., 242., 206., 111., 0.,
          0., 0., 0., 0., 0., 0., 0., 0., 0., 0., 0., 0., 0., 0., 0., 7.,
          35., 23., 0., 0., 0., 0., 0., 0., 0., 0., 0., 0., 0., 0., 0.,
          0., 0., 0., 0., 0., 0., 0., 0., 0., 0., 0., 0., 0., 0., 0., 0.,
          0., 0., 0., 0., 0., 0., 0., 0., 0., 0., 0., 0., 0., 0., 0., 0.,
          0., 0., 0., 0. ]
      - [ 0., 0., 0., 0., 0., 0., 0., 0., 0., 0., 0., 0., 0., 0., 0., 0.,
          0., 0., 0., 0., 0., 0., 0., 0., 0., 0., 0., 0., 0., 0., 0., 0.,
          0., 0., 0., 0., 0., 0., 0., 0., 0., 0., 0., 0., 0., 0., 0., 0.,
          0., 0., 0., 0., 0., 0., 0., 0., 0., 0., 0., 0., 0., 0., 0., 0.,
          0., 0., 0., 0., 0., 0., 0., 0., 0., 0., 0., 0., 0., 0., 0., 0.,
          0., 0., 0., 0., 0., 0., 0., 0., 7., 2., 0., 0., 0., 0., 0., 0.,
          0., 0., 0., 0., 0., 0., 0., 0., 0., 0., 57., 164., 229., 178.,
          22., 0., 0., 0., 0., 0., 0., 0., 0., 0., 0., 0., 0., 0., 0.,
          57., 226., 240., 214., 255., 165., 67., 21., 5., 0., 0., 0.,
          0., 0., 0., 0., 0., 0., 0., 18., 202., 226., 58., 50., 188.,
          231., 226., 216., 210., 125., 72., 10., 0., 0., 0., 0., 0., 0.,
          0., 152., 251., 82., 0., 0., 0., 28., 65., 78., 158., 183.,
          243., 188., 37., 0., 0., 0., 0., 0., 43., 222., 131., 1., 0.,
          0., 0., 0., 0., 0., 0., 4., 77., 228., 160., 0., 0., 0., 0.,
          0., 109., 251., 14., 0., 0., 0., 0., 0., 0., 0., 0., 0., 39.,
          227., 142., 0., 0., 0., 0., 0., 112., 255., 34., 0., 0., 0.,
          0., 0., 0., 0., 0., 63., 195., 232., 46., 0., 0., 0., 0., 0.,
          62., 239., 170., 34., 0., 0., 12., 11., 45., 120., 191., 240.,
          176., 45., 0., 0., 0., 0., 0., 0., 0., 94., 236., 233., 156.,
          152., 190., 194., 240., 228., 156., 98., 5., 0., 0., 0., 0.,
          0., 0., 0., 0., 0., 59., 143., 163., 162., 159., 153., 98.,
          40., 0., 0., 0., 0., 0., 0., 0., 0., 0., 0., 0., 0., 0., 0.,
          0., 0., 0., 0., 0., 0., 0., 0., 0., 0., 0., 0., 0., 0., 0., 0.,
          0., 0., 0., 0., 0., 0., 0., 0., 0., 0., 0., 0., 0., 0., 0., 0.,
          0., 0., 0., 0., 0., 0., 0., 0., 0., 0., 0., 0., 0., 0., 0., 0.,
          0., 0., 0., 0., 0., 0., 0., 0., 0., 0., 0., 0., 0., 0., 0., 0.,
          0., 0., 0., 0., 0., 0., 0., 0., 0., 0., 0., 0., 0., 0., 0., 0.,
          0., 0., 0., 0., 0., 0., 0., 0., 0., 0., 0., 0., 0. ]
      - [ 0., 0., 0., 0., 0., 0., 0., 0., 0., 0., 0., 0., 0., 0., 0., 0.,
          0., 0., 0., 0., 0., 0., 0., 0., 0., 0., 0., 0., 0., 0., 0., 0.,
          0., 0., 0., 0., 0., 0., 0., 0., 0., 0., 0., 0., 0., 0., 0., 0.,
          0., 0., 0., 0., 0., 0., 0., 0., 0., 0., 0., 0., 0., 0., 0., 0.,
          0., 0., 0., 0., 0., 0., 0., 19., 75., 79., 85., 32., 0., 0.,
          0., 0., 0., 0., 0., 0., 0., 0., 0., 0., 0., 17., 56., 199.,
          247., 249., 254., 207., 59., 0., 0., 0., 0., 0., 0., 0., 0.,
          0., 0., 15., 74., 199., 233., 255., 230., 222., 229., 255.,
          140., 0., 0., 0., 0., 0., 0., 0., 0., 0., 40., 184., 255.,
          255., 202., 123., 45., 37., 49., 81., 43., 0., 0., 0., 0., 0.,
          0., 0., 0., 31., 187., 255., 219., 136., 127., 156., 87., 11.,
          0., 0., 0., 0., 0., 0., 0., 0., 0., 0., 60., 211., 255., 159.,
          4., 19., 182., 207., 222., 212., 123., 9., 0., 0., 0., 0., 0.,
          0., 0., 3., 189., 255., 158., 19., 0., 5., 24., 23., 52., 189.,
          251., 163., 26., 0., 0., 0., 0., 0., 0., 95., 244., 120., 5.,
          0., 0., 0., 0., 0., 0., 55., 234., 255., 129., 4., 0., 0., 0.,
          0., 12., 192., 235., 24., 0., 0., 0., 0., 0., 0., 0., 0., 164.,
          255., 248., 32., 0., 0., 0., 0., 16., 202., 210., 1., 0., 0.,
          0., 0., 0., 0., 13., 82., 219., 255., 201., 16., 0., 0., 0.,
          0., 18., 204., 233., 34., 0., 7., 11., 11., 59., 129., 199.,
          249., 255., 219., 86., 0., 0., 0., 0., 0., 0., 76., 232., 207.,
          137., 190., 201., 204., 238., 254., 251., 208., 134., 42., 0.,
          0., 0., 0., 0., 0., 0., 0., 64., 227., 255., 250., 255., 240.,
          177., 69., 40., 13., 0., 0., 0., 0., 0., 0., 0., 0., 0., 0.,
          0., 46., 92., 77., 90., 56., 3., 0., 0., 0., 0., 0., 0., 0.,
          0., 0., 0., 0., 0., 0., 0., 0., 0., 0., 0., 0., 0., 0., 0., 0.,
          0., 0., 0., 0., 0., 0., 0., 0., 0., 0., 0., 0., 0., 0., 0., 0.,
          0., 0., 0., 0., 0., 0., 0., 0., 0., 0., 0., 0., 0., 0., 0., 0.,
          0., 0., 0., 0., 0., 0., 0., 0., 0., 0., 0., 0., 0., 0. ]
      - [ 0., 0., 0., 0., 0., 0., 0., 0., 0., 0., 0., 0., 0., 0., 0., 0.,
          0., 0., 0., 0., 0., 0., 0., 0., 0., 0., 0., 0., 0., 0., 0., 0.,
          0., 0., 0., 0., 0., 0., 0., 0., 0., 0., 0., 0., 0., 0., 0., 0.,
          0., 0., 0., 0., 0., 0., 0., 0., 0., 0., 0., 0., 0., 0., 0., 0.,
          0., 0., 0., 0., 0., 0., 20., 96., 115., 65., 0., 0., 0., 0.,
          0., 0., 0., 0., 0., 0., 0., 0., 0., 0., 0., 52., 201., 255.,
          255., 202., 23., 0., 0., 0., 0., 0., 0., 0., 0., 0., 0., 0.,
          0., 0., 101., 224., 255., 253., 251., 255., 138., 0., 0., 0.,
          0., 0., 0., 0., 0., 0., 0., 0., 2., 107., 254., 255., 255.,
          253., 253., 239., 91., 0., 0., 0., 0., 0., 0., 0., 0., 0., 0.,
          0., 90., 245., 255., 217., 209., 255., 255., 146., 0., 0., 0.,
          0., 0., 0., 0., 0., 0., 0., 0., 54., 229., 251., 120., 16.,
          61., 248., 255., 184., 13., 0., 0., 0., 0., 0., 0., 0., 0., 0.,
          0., 170., 255., 224., 6., 0., 4., 131., 253., 255., 97., 0.,
          0., 0., 0., 0., 0., 0., 0., 0., 13., 228., 253., 146., 0., 0.,
          0., 0., 158., 255., 181., 2., 0., 0., 0., 0., 0., 0., 0., 0.,
          35., 238., 228., 31., 0., 0., 0., 0., 80., 255., 226., 8., 0.,
          0., 0., 0., 0., 0., 0., 0., 47., 243., 226., 23., 0., 0., 0.,
          0., 76., 255., 224., 7., 0., 0., 0., 0., 0., 0., 0., 0., 61.,
          249., 224., 23., 0., 0., 0., 0., 71., 255., 183., 3., 0., 0.,
          0., 0., 0., 0., 0., 0., 18., 234., 238., 45., 0., 0., 0., 0.,
          153., 255., 116., 0., 0., 0., 0., 0., 0., 0., 0., 0., 1., 184.,
          255., 208., 81., 46., 59., 160., 255., 166., 10., 0., 0., 0.,
          0., 0., 0., 0., 0., 0., 0., 34., 181., 255., 255., 232., 248.,
          255., 176., 32., 0., 0., 0., 0., 0., 0., 0., 0., 0., 0., 0.,
          0., 12., 81., 156., 210., 156., 108., 18., 0., 0., 0., 0., 0.,
          0., 0., 0., 0., 0., 0., 0., 0., 0., 0., 0., 0., 0., 0., 0., 0.,
          0., 0., 0., 0., 0., 0., 0., 0., 0., 0., 0., 0., 0., 0., 0., 0.,
          0., 0., 0., 0., 0., 0., 0., 0., 0., 0. ]
      - [ 0., 0., 0., 0., 0., 0., 0., 0., 0., 0., 0., 0., 0., 0., 0., 0.,
          0., 0., 0., 0., 0., 0., 0., 0., 0., 0., 0., 0., 0., 0., 0., 0.,
          0., 0., 0., 0., 0., 0., 0., 0., 0., 0., 0., 0., 0., 0., 0., 0.,
          0., 5., 33., 24., 0., 0., 0., 0., 0., 0., 0., 0., 0., 0., 0.,
          0., 0., 0., 0., 0., 10., 149., 255., 228., 65., 0., 0., 0., 0.,
          0., 0., 0., 0., 0., 0., 0., 0., 0., 0., 5., 159., 207., 121.,
          212., 218., 33., 0., 0., 0., 0., 0., 0., 0., 0., 0., 0., 0.,
          0., 0., 111., 229., 57., 0., 125., 255., 170., 11., 0., 0., 0.,
          0., 0., 0., 0., 0., 0., 0., 0., 41., 212., 63., 0., 0., 116.,
          255., 210., 28., 0., 0., 0., 0., 0., 0., 0., 0., 0., 0., 0.,
          111., 193., 0., 0., 0., 171., 255., 238., 66., 0., 0., 0., 0.,
          0., 0., 0., 0., 0., 0., 14., 194., 128., 0., 0., 120., 231.,
          110., 208., 158., 0., 0., 0., 0., 0., 0., 0., 0., 0., 0., 36.,
          203., 57., 0., 3., 119., 90., 7., 167., 206., 4., 0., 0., 0.,
          0., 0., 0., 0., 0., 0., 121., 221., 21., 0., 0., 0., 0., 0.,
          149., 210., 5., 0., 0., 0., 0., 0., 0., 0., 0., 5., 209., 193.,
          13., 0., 0., 0., 0., 3., 161., 176., 1., 0., 0., 0., 0., 0.,
          0., 0., 0., 4., 208., 157., 1., 0., 0., 0., 0., 17., 224.,
          125., 0., 0., 0., 0., 0., 0., 0., 0., 0., 5., 210., 169., 3.,
          0., 0., 0., 0., 114., 229., 53., 0., 0., 0., 0., 0., 0., 0.,
          0., 0., 0., 153., 224., 46., 0., 0., 9., 108., 248., 128., 0.,
          0., 0., 0., 0., 0., 0., 0., 0., 0., 0., 43., 231., 232., 150.,
          148., 196., 255., 177., 11., 0., 0., 0., 0., 0., 0., 0., 0.,
          0., 0., 0., 5., 96., 193., 228., 255., 212., 111., 16., 0., 0.,
          0., 0., 0., 0., 0., 0., 0., 0., 0., 0., 0., 0., 13., 24., 34.,
          19., 0., 0., 0., 0., 0., 0., 0., 0., 0., 0., 0., 0., 0., 0.,
          0., 0., 0., 0., 0., 0., 0., 0., 0., 0., 0., 0., 0., 0., 0., 0.,
          0., 0., 0., 0., 0., 0., 0., 0., 0., 0., 0., 0., 0., 0., 0., 0.,
          0., 0., 0. ]
      - [ 0., 0., 0., 0., 0., 0., 0., 0., 0., 0., 0., 0., 0., 0., 0., 0.,
          0., 0., 0., 0., 0., 0., 0., 0., 0., 0., 0., 0., 0., 0., 0., 0.,
          0., 0., 0., 0., 0., 0., 0., 0., 0., 0., 0., 0., 0., 0., 0., 1.,
          33., 40., 21., 0., 0., 0., 0., 0., 0., 0., 0., 0., 0., 0., 0.,
          0., 0., 0., 0., 107., 239., 197., 171., 119., 11., 0., 0., 0.,
          0., 0., 0., 0., 0., 0., 0., 0., 0., 0., 0., 192., 201., 35.,
          45., 150., 179., 36., 0., 0., 0., 0., 0., 0., 0., 0., 0., 0.,
          0., 0., 0., 189., 202., 31., 0., 8., 169., 185., 16., 0., 0.,
          0., 0., 0., 0., 0., 0., 0., 0., 0., 13., 202., 111., 24., 0.,
          0., 12., 166., 136., 0., 0., 0., 0., 0., 0., 0., 0., 0., 0.,
          0., 70., 216., 29., 0., 0., 0., 0., 30., 186., 49., 0., 0., 0.,
          0., 0., 0., 0., 0., 0., 0., 117., 211., 3., 0., 0., 0., 0., 0.,
          98., 146., 0., 0., 0., 0., 0., 0., 0., 0., 0., 0., 129., 165.,
          0., 0., 0., 0., 0., 0., 29., 183., 33., 0., 0., 0., 0., 0., 0.,
          0., 0., 0., 166., 144., 0., 0., 0., 0., 0., 0., 3., 158., 79.,
          0., 0., 0., 0., 0., 0., 0., 0., 3., 174., 135., 0., 0., 0., 0.,
          0., 0., 2., 168., 96., 0., 0., 0., 0., 0., 0., 0., 0., 3.,
          176., 142., 0., 0., 0., 0., 0., 0., 1., 168., 96., 0., 0., 0.,
          0., 0., 0., 0., 0., 0., 159., 170., 0., 0., 0., 0., 0., 0.,
          14., 200., 81., 0., 0., 0., 0., 0., 0., 0., 0., 0., 83., 223.,
          44., 0., 0., 0., 0., 0., 130., 185., 13., 0., 0., 0., 0., 0.,
          0., 0., 0., 0., 0., 142., 196., 94., 50., 50., 84., 149., 172.,
          46., 0., 0., 0., 0., 0., 0., 0., 0., 0., 0., 0., 5., 115.,
          185., 227., 218., 184., 111., 14., 0., 0., 0., 0., 0., 0., 0.,
          0., 0., 0., 0., 0., 0., 0., 11., 34., 32., 11., 0., 0., 0., 0.,
          0., 0., 0., 0., 0., 0., 0., 0., 0., 0., 0., 0., 0., 0., 0., 0.,
          0., 0., 0., 0., 0., 0., 0., 0., 0., 0., 0., 0., 0., 0., 0., 0.,
          0., 0., 0., 0., 0., 0., 0., 0., 0., 0., 0. ]
      - [ 0., 0., 0., 0., 0., 0., 0., 0., 0., 0., 0., 0., 0., 0., 0., 0.,
          0., 0., 0., 0., 0., 0., 0., 0., 0., 0., 0., 0., 0., 0., 0., 0.,
          0., 0., 0., 0., 0., 0., 0., 0., 0., 0., 0., 0., 0., 0., 0., 0.,
          0., 0., 0., 0., 0., 0., 0., 0., 0., 0., 0., 0., 0., 0., 0., 0.,
          0., 0., 0., 0., 0., 0., 0., 0., 0., 0., 0., 0., 0., 0., 0., 0.,
          0., 0., 0., 0., 0., 0., 0., 9., 9., 4., 0., 0., 0., 0., 0., 0.,
          0., 0., 0., 0., 0., 0., 0., 0., 0., 30., 163., 246., 249.,
          200., 118., 39., 0., 0., 0., 0., 0., 0., 0., 0., 0., 0., 0.,
          0., 36., 204., 250., 162., 142., 208., 255., 213., 82., 0., 0.,
          0., 0., 0., 0., 0., 0., 0., 0., 26., 198., 235., 67., 0., 0.,
          62., 242., 255., 249., 130., 49., 23., 0., 0., 0., 0., 0., 0.,
          0., 85., 255., 141., 0., 0., 0., 0., 83., 120., 161., 198.,
          255., 222., 110., 4., 0., 0., 0., 0., 0., 113., 255., 48., 0.,
          0., 0., 0., 0., 0., 1., 20., 98., 198., 255., 128., 0., 0., 0.,
          0., 0., 90., 254., 101., 0., 0., 0., 0., 0., 0., 0., 0., 0.,
          34., 230., 230., 0., 0., 0., 0., 0., 56., 239., 191., 0., 0.,
          0., 0., 0., 0., 0., 0., 9., 144., 245., 157., 0., 0., 0., 0.,
          0., 7., 165., 255., 160., 44., 12., 0., 10., 18., 46., 116.,
          211., 247., 157., 16., 0., 0., 0., 0., 0., 0., 48., 197., 246.,
          247., 193., 147., 180., 212., 255., 255., 199., 69., 0., 0.,
          0., 0., 0., 0., 0., 0., 0., 23., 57., 136., 202., 249., 243.,
          194., 104., 73., 22., 0., 0., 0., 0., 0., 0., 0., 0., 0., 0.,
          0., 0., 0., 4., 9., 9., 3., 0., 0., 0., 0., 0., 0., 0., 0., 0.,
          0., 0., 0., 0., 0., 0., 0., 0., 0., 0., 0., 0., 0., 0., 0., 0.,
          0., 0., 0., 0., 0., 0., 0., 0., 0., 0., 0., 0., 0., 0., 0., 0.,
          0., 0., 0., 0., 0., 0., 0., 0., 0., 0., 0., 0., 0., 0., 0., 0.,
          0., 0., 0., 0., 0., 0., 0., 0., 0., 0., 0., 0., 0., 0., 0., 0.,
          0., 0., 0., 0., 0., 0., 0., 0., 0., 0., 0., 0., 0., 0., 0. ]
      - [ 0., 0., 0., 0., 0., 0., 0., 0., 0., 0., 0., 0., 0., 0., 0., 0.,
          0., 0., 0., 0., 0., 0., 0., 0., 0., 0., 0., 0., 0., 0., 0., 0.,
          0., 0., 0., 0., 0., 0., 0., 0., 0., 0., 0., 0., 0., 0., 0., 0.,
          0., 28., 103., 26., 84., 205., 131., 9., 0., 0., 0., 0., 0.,
          0., 0., 0., 0., 0., 0., 0., 27., 111., 45., 7., 77., 169.,
          242., 132., 0., 0., 0., 0., 0., 0., 0., 0., 0., 0., 0., 42.,
          209., 105., 0., 0., 0., 0., 139., 230., 49., 0., 0., 0., 0.,
          0., 0., 0., 0., 0., 0., 166., 208., 24., 0., 0., 0., 0., 56.,
          235., 71., 0., 0., 0., 0., 0., 0., 0., 0., 0., 82., 239., 87.,
          0., 0., 0., 0., 0., 29., 229., 69., 0., 0., 0., 0., 0., 0., 0.,
          0., 2., 174., 172., 1., 0., 0., 0., 0., 0., 41., 232., 71., 0.,
          0., 0., 0., 0., 0., 0., 0., 65., 246., 59., 0., 0., 0., 0., 0.,
          0., 149., 236., 55., 0., 0., 0., 0., 0., 0., 0., 15., 191.,
          181., 10., 0., 0., 0., 0., 0., 0., 193., 179., 4., 0., 0., 0.,
          0., 0., 0., 0., 88., 255., 114., 0., 0., 0., 0., 0., 0., 73.,
          236., 70., 0., 0., 0., 0., 0., 0., 0., 27., 206., 208., 16.,
          0., 0., 0., 0., 0., 13., 184., 199., 12., 0., 0., 0., 0., 0.,
          0., 0., 48., 235., 184., 0., 0., 0., 0., 0., 0., 109., 255.,
          96., 0., 0., 0., 0., 0., 0., 0., 0., 15., 211., 189., 0., 0.,
          0., 0., 8., 74., 223., 194., 22., 0., 0., 0., 0., 0., 0., 0.,
          0., 15., 205., 243., 106., 48., 47., 65., 173., 244., 186.,
          40., 0., 0., 0., 0., 0., 0., 0., 0., 0., 0., 81., 204., 255.,
          255., 255., 229., 181., 103., 9., 0., 0., 0., 0., 0., 0., 0.,
          0., 0., 0., 0., 0., 22., 102., 110., 109., 59., 0., 0., 0., 0.,
          0., 0., 0., 0., 0., 0., 0., 0., 0., 0., 0., 0., 0., 0., 0., 0.,
          0., 0., 0., 0., 0., 0., 0., 0., 0., 0., 0., 0., 0., 0., 0., 0.,
          0., 0., 0., 0., 0., 0., 0., 0., 0., 0., 0., 0., 0., 0., 0., 0.,
          0., 0., 0., 0., 0., 0., 0., 0., 0., 0., 0., 0., 0., 0., 0., 0.,
          0., 0. ]
      - [ 0., 0., 0., 0., 0., 0., 0., 0., 0., 0., 0., 0., 0., 0., 0., 0.,
          0., 0., 0., 0., 0., 0., 0., 0., 0., 0., 0., 0., 0., 0., 0., 0.,
          0., 0., 0., 0., 0., 0., 0., 0., 0., 0., 0., 0., 0., 0., 0., 0.,
          0., 30., 35., 6., 0., 0., 0., 0., 0., 0., 0., 0., 0., 0., 0.,
          0., 0., 0., 0., 7., 133., 244., 255., 114., 0., 0., 0., 0., 0.,
          0., 0., 0., 0., 0., 0., 0., 0., 0., 0., 129., 255., 182., 73.,
          58., 0., 0., 0., 0., 0., 0., 0., 0., 0., 0., 0., 0., 0., 0.,
          80., 243., 145., 53., 33., 7., 0., 0., 0., 0., 0., 0., 0., 0.,
          0., 0., 0., 0., 0., 29., 215., 182., 70., 186., 228., 184.,
          107., 10., 0., 0., 0., 0., 0., 0., 0., 0., 0., 0., 0., 126.,
          220., 39., 5., 27., 84., 157., 241., 165., 25., 0., 0., 0., 0.,
          0., 0., 0., 0., 0., 24., 235., 140., 0., 0., 0., 0., 0., 102.,
          239., 166., 5., 0., 0., 0., 0., 0., 0., 0., 0., 39., 227., 67.,
          0., 0., 0., 0., 0., 0., 110., 237., 29., 0., 0., 0., 0., 0.,
          0., 0., 0., 42., 198., 22., 0., 0., 0., 0., 0., 0., 77., 242.,
          62., 0., 0., 0., 0., 0., 0., 0., 0., 63., 200., 23., 0., 0.,
          0., 0., 0., 0., 77., 247., 122., 0., 0., 0., 0., 0., 0., 0.,
          0., 47., 199., 23., 0., 0., 0., 0., 0., 0., 103., 249., 67.,
          0., 0., 0., 0., 0., 0., 0., 0., 35., 219., 59., 0., 0., 0., 0.,
          0., 47., 223., 224., 22., 0., 0., 0., 0., 0., 0., 0., 0., 6.,
          177., 186., 14., 0., 0., 0., 53., 211., 245., 84., 0., 0., 0.,
          0., 0., 0., 0., 0., 0., 0., 30., 172., 196., 90., 60., 159.,
          250., 225., 96., 3., 0., 0., 0., 0., 0., 0., 0., 0., 0., 0.,
          0., 14., 132., 218., 255., 255., 151., 42., 0., 0., 0., 0., 0.,
          0., 0., 0., 0., 0., 0., 0., 0., 0., 0., 22., 38., 33., 2., 0.,
          0., 0., 0., 0., 0., 0., 0., 0., 0., 0., 0., 0., 0., 0., 0., 0.,
          0., 0., 0., 0., 0., 0., 0., 0., 0., 0., 0., 0., 0., 0., 0., 0.,
          0., 0., 0., 0., 0., 0., 0., 0., 0., 0., 0., 0., 0., 0., 0. ]
      - [ 0., 0., 0., 0., 0., 0., 0., 0., 0., 0., 0., 0., 0., 0., 0., 0.,
          0., 0., 0., 0., 0., 0., 0., 0., 0., 0., 0., 0., 0., 0., 0., 0.,
          0., 0., 0., 0., 0., 0., 0., 0., 0., 0., 0., 0., 0., 0., 0., 0.,
          4., 23., 7., 0., 0., 0., 0., 0., 0., 0., 0., 0., 0., 0., 0.,
          0., 0., 0., 0., 46., 152., 221., 161., 24., 0., 0., 0., 0., 0.,
          0., 0., 0., 0., 0., 0., 0., 0., 0., 56., 217., 255., 255.,
          255., 197., 29., 0., 0., 0., 0., 0., 0., 0., 0., 0., 0., 0.,
          0., 23., 194., 253., 133., 143., 254., 255., 216., 38., 0., 0.,
          0., 0., 0., 0., 0., 0., 0., 0., 0., 81., 255., 160., 0., 65.,
          240., 255., 255., 154., 6., 0., 0., 0., 0., 0., 0., 0., 0., 0.,
          0., 97., 255., 88., 0., 6., 116., 195., 251., 230., 44., 0.,
          0., 0., 0., 0., 0., 0., 0., 0., 2., 187., 235., 32., 0., 0.,
          0., 0., 194., 255., 133., 0., 0., 0., 0., 0., 0., 0., 0., 0.,
          31., 243., 207., 19., 0., 0., 0., 0., 59., 228., 227., 6., 0.,
          0., 0., 0., 0., 0., 0., 0., 32., 242., 255., 47., 0., 0., 0.,
          0., 14., 207., 245., 21., 0., 0., 0., 0., 0., 0., 0., 0., 8.,
          239., 255., 86., 0., 0., 0., 0., 19., 208., 253., 70., 0., 0.,
          0., 0., 0., 0., 0., 0., 0., 127., 255., 217., 49., 0., 0., 0.,
          1., 152., 255., 78., 0., 0., 0., 0., 0., 0., 0., 0., 0., 26.,
          209., 255., 219., 62., 0., 0., 0., 146., 255., 80., 0., 0., 0.,
          0., 0., 0., 0., 0., 0., 0., 108., 244., 255., 228., 141., 87.,
          111., 230., 244., 32., 0., 0., 0., 0., 0., 0., 0., 0., 0., 0.,
          9., 71., 229., 255., 255., 251., 255., 255., 168., 0., 0., 0.,
          0., 0., 0., 0., 0., 0., 0., 0., 0., 0., 50., 159., 221., 255.,
          226., 151., 35., 0., 0., 0., 0., 0., 0., 0., 0., 0., 0., 0.,
          0., 0., 0., 5., 23., 37., 25., 2., 0., 0., 0., 0., 0., 0., 0.,
          0., 0., 0., 0., 0., 0., 0., 0., 0., 0., 0., 0., 0., 0., 0., 0.,
          0., 0., 0., 0., 0., 0., 0., 0., 0., 0., 0., 0., 0., 0., 0., 0.,
          0., 0., 0., 0., 0., 0., 0. ]
      - [ 0., 0., 0., 0., 0., 0., 0., 0., 0., 0., 0., 0., 0., 0., 0., 0.,
          0., 0., 0., 0., 0., 0., 0., 0., 0., 0., 0., 0., 0., 0., 0., 0.,
          0., 0., 0., 0., 0., 0., 0., 0., 0., 0., 0., 0., 0., 0., 0., 0.,
          0., 0., 0., 0., 0., 0., 0., 0., 0., 0., 0., 0., 0., 0., 0., 0.,
          0., 0., 0., 0., 0., 34., 88., 111., 106., 66., 5., 0., 0., 0.,
          0., 0., 0., 0., 0., 0., 0., 0., 0., 0., 102., 214., 249., 255.,
          255., 238., 128., 0., 0., 0., 0., 0., 0., 0., 0., 0., 0., 0.,
          0., 96., 241., 159., 71., 35., 90., 173., 255., 86., 1., 0.,
          0., 0., 0., 0., 0., 0., 0., 0., 59., 228., 114., 0., 0., 0.,
          0., 18., 128., 215., 123., 7., 0., 0., 0., 0., 0., 0., 0., 36.,
          221., 142., 0., 0., 0., 0., 0., 0., 0., 129., 252., 55., 0.,
          0., 0., 0., 0., 0., 0., 122., 188., 10., 0., 0., 0., 0., 0.,
          0., 0., 10., 188., 69., 0., 0., 0., 0., 0., 0., 9., 191., 64.,
          0., 0., 0., 0., 0., 0., 0., 0., 0., 169., 70., 0., 0., 0., 0.,
          0., 0., 39., 182., 30., 0., 0., 0., 0., 0., 0., 0., 0., 8.,
          143., 45., 0., 0., 0., 0., 0., 0., 106., 127., 0., 0., 0., 0.,
          0., 0., 0., 0., 0., 50., 108., 2., 0., 0., 0., 0., 0., 2.,
          177., 84., 0., 0., 0., 0., 0., 0., 0., 0., 0., 140., 88., 0.,
          0., 0., 0., 0., 0., 6., 191., 80., 0., 0., 0., 0., 0., 0., 0.,
          0., 65., 167., 16., 0., 0., 0., 0., 0., 0., 5., 202., 178., 8.,
          0., 0., 0., 0., 0., 0., 60., 210., 84., 0., 0., 0., 0., 0., 0.,
          0., 1., 163., 255., 174., 47., 19., 0., 24., 45., 118., 214.,
          87., 0., 0., 0., 0., 0., 0., 0., 0., 0., 25., 160., 251., 229.,
          198., 168., 175., 195., 194., 103., 4., 0., 0., 0., 0., 0., 0.,
          0., 0., 0., 0., 6., 82., 138., 182., 208., 57., 33., 14., 0.,
          0., 0., 0., 0., 0., 0., 0., 0., 0., 0., 0., 0., 0., 0., 0., 0.,
          0., 0., 0., 0., 0., 0., 0., 0., 0., 0., 0., 0., 0., 0., 0., 0.,
          0., 0., 0., 0., 0., 0., 0., 0., 0., 0., 0., 0., 0., 0. ]
      - [ 0., 0., 0., 0., 0., 0., 0., 0., 0., 0., 0., 0., 0., 0., 0., 0.,
          0., 0., 0., 0., 0., 0., 0., 0., 0., 0., 0., 0., 0., 0., 0., 0.,
          0., 0., 0., 0., 0., 0., 0., 0., 0., 0., 0., 0., 0., 0., 0., 0.,
          0., 0., 36., 183., 79., 0., 0., 0., 0., 0., 0., 0., 0., 0., 0.,
          0., 0., 0., 0., 0., 0., 0., 67., 255., 212., 0., 0., 0., 0.,
          0., 0., 0., 0., 0., 0., 0., 0., 0., 0., 0., 0., 0., 100., 255.,
          175., 0., 0., 0., 0., 0., 0., 0., 0., 0., 0., 0., 0., 0., 0.,
          0., 0., 29., 200., 255., 97., 0., 0., 0., 0., 0., 0., 0., 0.,
          0., 0., 0., 0., 0., 0., 0., 13., 173., 255., 255., 96., 0., 0.,
          0., 0., 0., 0., 0., 0., 0., 0., 0., 0., 1., 10., 36., 169.,
          244., 207., 255., 97., 0., 0., 0., 0., 0., 0., 0., 0., 0., 0.,
          0., 21., 142., 196., 245., 203., 78., 89., 255., 96., 0., 0.,
          0., 0., 0., 0., 0., 0., 0., 0., 0., 10., 81., 110., 84., 19.,
          0., 92., 255., 106., 0., 0., 0., 0., 0., 0., 0., 0., 0., 0.,
          0., 0., 0., 0., 0., 0., 0., 69., 254., 148., 0., 0., 0., 0.,
          0., 0., 0., 0., 0., 0., 0., 0., 0., 0., 0., 0., 0., 51., 244.,
          105., 0., 0., 0., 0., 0., 0., 0., 0., 0., 0., 0., 0., 0., 0.,
          0., 0., 0., 39., 228., 80., 0., 11., 7., 0., 0., 0., 0., 0.,
          0., 0., 0., 0., 0., 33., 120., 144., 135., 127., 210., 170.,
          115., 187., 86., 0., 0., 0., 0., 0., 0., 0., 0., 18., 142.,
          223., 255., 250., 234., 196., 168., 171., 171., 169., 55., 0.,
          0., 0., 0., 0., 0., 0., 0., 71., 252., 237., 134., 32., 7., 4.,
          0., 1., 1., 1., 0., 0., 0., 0., 0., 0., 0., 0., 0., 11., 83.,
          52., 0., 0., 0., 0., 0., 0., 0., 0., 0., 0., 0., 0., 0., 0.,
          0., 0., 0., 0., 0., 0., 0., 0., 0., 0., 0., 0., 0., 0., 0., 0.,
          0., 0., 0., 0., 0., 0., 0., 0., 0., 0., 0., 0., 0., 0., 0., 0.,
          0., 0., 0., 0., 0., 0., 0., 0., 0., 0., 0., 0., 0., 0., 0., 0.,
          0., 0., 0., 0., 0., 0., 0., 0., 0., 0., 0. ]
      - [ 0., 0., 0., 0., 0., 0., 0., 0., 0., 0., 0., 0., 0., 0., 0., 0.,
          0., 0., 0., 0., 0., 0., 0., 0., 0., 0., 0., 0., 0., 0., 0., 0.,
          0., 0., 0., 0., 0., 0., 0., 0., 0., 0., 0., 0., 0., 0., 0., 0.,
          0., 65., 151., 39., 0., 0., 0., 0., 0., 0., 0., 0., 0., 0., 0.,
          0., 0., 0., 0., 0., 54., 226., 255., 141., 0., 0., 0., 0., 0.,
          0., 0., 0., 0., 0., 0., 0., 0., 0., 0., 63., 217., 255., 255.,
          111., 0., 0., 0., 0., 0., 0., 0., 0., 0., 0., 0., 0., 0., 0.,
          55., 228., 255., 248., 254., 90., 0., 0., 0., 0., 0., 0., 0.,
          0., 0., 0., 0., 0., 0., 0., 94., 248., 161., 216., 229., 49.,
          0., 0., 0., 0., 0., 0., 0., 0., 0., 0., 0., 0., 0., 0., 14.,
          51., 9., 179., 229., 45., 0., 0., 0., 0., 0., 0., 0., 0., 0.,
          0., 0., 0., 0., 0., 0., 0., 0., 170., 230., 46., 0., 0., 0.,
          0., 0., 0., 0., 0., 0., 0., 0., 0., 0., 0., 0., 0., 0., 171.,
          231., 46., 0., 0., 0., 0., 0., 0., 0., 0., 0., 0., 0., 0., 0.,
          0., 0., 0., 0., 182., 203., 8., 0., 0., 0., 0., 0., 0., 0., 0.,
          0., 0., 0., 0., 0., 0., 0., 0., 28., 217., 186., 0., 0., 4.,
          7., 0., 0., 0., 0., 0., 0., 0., 0., 0., 0., 0., 0., 0., 40.,
          228., 192., 0., 23., 175., 153., 2., 0., 0., 0., 0., 0., 0.,
          0., 0., 0., 0., 0., 0., 89., 253., 240., 124., 165., 255.,
          191., 3., 0., 0., 0., 0., 0., 0., 0., 0., 0., 0., 0., 37.,
          201., 255., 255., 255., 255., 186., 56., 0., 0., 0., 0., 0.,
          0., 0., 0., 0., 0., 0., 0., 120., 255., 254., 240., 217., 122.,
          6., 0., 0., 0., 0., 0., 0., 0., 0., 0., 0., 0., 0., 0., 38.,
          111., 91., 71., 31., 0., 0., 0., 0., 0., 0., 0., 0., 0., 0.,
          0., 0., 0., 0., 0., 0., 0., 0., 0., 0., 0., 0., 0., 0., 0., 0.,
          0., 0., 0., 0., 0., 0., 0., 0., 0., 0., 0., 0., 0., 0., 0., 0.,
          0., 0., 0., 0., 0., 0., 0., 0., 0., 0., 0., 0., 0., 0., 0., 0.,
          0., 0., 0., 0., 0., 0., 0., 0., 0., 0. ]
      - [ 0., 0., 0., 0., 0., 0., 0., 0., 0., 0., 0., 0., 0., 0., 0., 0.,
          0., 0., 0., 0., 0., 0., 0., 0., 0., 0., 0., 0., 0., 0., 0., 0.,
          0., 0., 0., 0., 0., 0., 0., 0., 0., 0., 0., 0., 0., 0., 0., 0.,
          0., 0., 0., 0., 0., 0., 0., 0., 0., 0., 0., 0., 0., 0., 0., 0.,
          0., 0., 0., 0., 0., 0., 57., 44., 0., 0., 0., 0., 0., 0., 0.,
          0., 0., 0., 0., 0., 0., 0., 0., 0., 0., 7., 225., 138., 0., 0.,
          0., 0., 0., 0., 0., 0., 0., 0., 0., 0., 0., 0., 0., 0., 0., 5.,
          215., 145., 0., 0., 0., 0., 0., 0., 0., 0., 0., 0., 0., 0., 0.,
          0., 0., 0., 0., 0., 152., 148., 0., 0., 0., 0., 0., 0., 0., 0.,
          0., 0., 0., 0., 0., 0., 0., 0., 0., 8., 236., 131., 0., 0., 0.,
          0., 0., 0., 0., 0., 0., 0., 0., 0., 0., 0., 0., 0., 0., 18.,
          240., 97., 0., 0., 0., 0., 0., 0., 0., 0., 0., 0., 0., 0., 0.,
          0., 0., 0., 0., 84., 252., 106., 0., 0., 0., 0., 0., 0., 0.,
          0., 0., 0., 0., 0., 0., 0., 0., 0., 0., 134., 204., 47., 0.,
          0., 0., 0., 0., 0., 0., 0., 0., 0., 0., 0., 0., 0., 0., 0., 3.,
          196., 108., 0., 0., 0., 0., 0., 0., 0., 0., 0., 0., 0., 0., 0.,
          0., 0., 0., 0., 3., 192., 113., 0., 0., 0., 0., 0., 0., 0., 0.,
          0., 0., 0., 0., 0., 0., 0., 0., 0., 0., 190., 116., 0., 0., 0.,
          0., 0., 0., 0., 0., 0., 0., 0., 0., 0., 0., 0., 0., 0., 48.,
          224., 78., 0., 0., 0., 0., 0., 0., 0., 0., 0., 0., 0., 0., 0.,
          0., 0., 0., 0., 90., 217., 10., 0., 0., 0., 0., 0., 0., 0., 0.,
          0., 0., 0., 0., 0., 0., 0., 0., 17., 201., 124., 0., 0., 0.,
          0., 0., 0., 0., 0., 0., 0., 0., 0., 0., 0., 0., 0., 0., 24.,
          194., 54., 0., 0., 0., 0., 0., 0., 0., 0., 0., 0., 0., 0., 0.,
          0., 0., 0., 0., 0., 0., 0., 0., 0., 0., 0., 0., 0., 0., 0., 0.,
          0., 0., 0., 0., 0., 0., 0., 0., 0., 0., 0., 0., 0., 0., 0., 0.,
          0., 0., 0., 0., 0. ]
      - [ 0., 0., 0., 0., 0., 0., 0., 0., 0., 0., 0., 0., 0., 0., 0., 0.,
          0., 0., 0., 0., 0., 0., 0., 0., 0., 0., 0., 0., 0., 0., 0., 0.,
          0., 0., 0., 0., 0., 0., 0., 0., 0., 0., 0., 0., 0., 14., 24.,
          0., 0., 0., 0., 0., 0., 0., 0., 0., 0., 0., 0., 0., 0., 0., 0.,
          0., 23., 182., 225., 61., 0., 0., 0., 0., 0., 0., 0., 0., 0.,
          0., 0., 0., 0., 0., 0., 0., 111., 255., 255., 210., 50., 0.,
          0., 0., 0., 0., 0., 0., 0., 0., 0., 0., 0., 0., 0., 0., 15.,
          183., 255., 255., 195., 23., 0., 0., 0., 0., 0., 0., 0., 0.,
          0., 0., 0., 0., 0., 0., 0., 64., 240., 255., 243., 134., 0.,
          0., 0., 0., 0., 0., 0., 0., 0., 0., 0., 0., 0., 0., 0., 2.,
          95., 240., 255., 251., 110., 0., 0., 0., 0., 0., 0., 0., 0.,
          0., 0., 0., 0., 0., 0., 0., 0., 159., 255., 255., 215., 111.,
          10., 0., 0., 0., 0., 0., 0., 0., 0., 0., 0., 0., 0., 0., 0.,
          31., 142., 240., 255., 251., 48., 0., 0., 0., 0., 0., 0., 0.,
          0., 0., 0., 0., 0., 0., 0., 0., 23., 176., 255., 255., 188.,
          0., 0., 0., 0., 0., 0., 0., 0., 0., 0., 0., 0., 0., 0., 0., 0.,
          35., 248., 254., 239., 106., 3., 0., 0., 0., 0., 0., 0., 0.,
          0., 0., 0., 0., 0., 0., 0., 0., 134., 255., 255., 192., 16.,
          0., 0., 0., 0., 0., 0., 0., 0., 0., 0., 0., 0., 0., 0., 0.,
          43., 196., 255., 235., 100., 0., 0., 0., 0., 0., 0., 0., 0.,
          0., 0., 0., 0., 0., 0., 0., 0., 94., 244., 255., 236., 81., 0.,
          0., 0., 0., 0., 0., 0., 0., 0., 0., 0., 0., 0., 0., 0., 0.,
          211., 255., 255., 131., 0., 0., 0., 0., 0., 0., 0., 0., 0., 0.,
          0., 0., 0., 0., 0., 0., 116., 219., 255., 130., 0., 0., 0., 0.,
          0., 0., 0., 0., 0., 0., 0., 0., 0., 0., 0., 0., 0., 23., 37.,
          18., 0., 0., 0., 0., 0., 0., 0., 0., 0., 0., 0., 0., 0., 0.,
          0., 0., 0., 0., 0., 0., 0., 0., 0., 0., 0., 0., 0., 0., 0., 0.,
          0., 0., 0., 0., 0., 0., 0., 0., 0., 0., 0., 0., 0., 0. ]
      - [ 0., 0., 0., 0., 0., 0., 0., 0., 0., 0., 0., 0., 0., 0., 0., 0.,
          0., 0., 0., 0., 0., 0., 0., 0., 0., 0., 0., 0., 0., 0., 0., 0.,
          0., 0., 0., 0., 0., 0., 0., 0., 0., 0., 0., 0., 0., 0., 0., 0.,
          0., 0., 0., 0., 0., 24., 12., 0., 0., 0., 0., 0., 0., 0., 0.,
          0., 0., 0., 0., 0., 0., 0., 0., 13., 119., 231., 106., 0., 0.,
          0., 0., 0., 0., 0., 0., 0., 0., 0., 0., 0., 0., 0., 84., 196.,
          255., 255., 126., 33., 0., 0., 0., 0., 0., 0., 0., 0., 0., 0.,
          0., 0., 35., 153., 242., 197., 122., 254., 255., 198., 27., 0.,
          0., 0., 0., 0., 0., 0., 0., 0., 6., 122., 226., 231., 108.,
          10., 140., 255., 210., 74., 16., 0., 0., 0., 0., 0., 0., 0.,
          0., 46., 200., 248., 152., 46., 0., 0., 217., 246., 63., 0.,
          0., 0., 0., 0., 0., 0., 0., 0., 47., 207., 218., 95., 0., 0.,
          0., 112., 255., 143., 0., 0., 0., 0., 0., 0., 0., 0., 0., 15.,
          185., 168., 28., 0., 0., 0., 20., 205., 232., 27., 0., 0., 0.,
          0., 0., 0., 0., 0., 0., 33., 81., 11., 0., 0., 0., 0., 107.,
          255., 102., 0., 0., 0., 0., 0., 0., 0., 0., 0., 0., 0., 0., 0.,
          0., 0., 0., 3., 207., 212., 17., 0., 0., 0., 0., 0., 0., 0.,
          0., 0., 0., 0., 0., 0., 0., 0., 0., 18., 224., 152., 0., 0.,
          0., 0., 0., 0., 0., 0., 0., 0., 0., 0., 0., 0., 0., 0., 0.,
          113., 255., 104., 0., 6., 0., 0., 0., 0., 0., 0., 0., 0., 0.,
          0., 3., 4., 0., 0., 0., 150., 233., 90., 112., 105., 0., 0.,
          0., 0., 0., 0., 0., 0., 0., 0., 113., 200., 133., 126., 132.,
          229., 255., 245., 182., 65., 0., 0., 0., 0., 0., 0., 0., 0.,
          0., 0., 61., 184., 249., 255., 255., 207., 155., 88., 24., 0.,
          0., 0., 0., 0., 0., 0., 0., 0., 0., 0., 0., 10., 30., 37., 35.,
          18., 1., 0., 0., 0., 0., 0., 0., 0., 0., 0., 0., 0., 0., 0.,
          0., 0., 0., 0., 0., 0., 0., 0., 0., 0., 0., 0., 0., 0., 0., 0.,
          0., 0., 0., 0., 0., 0., 0., 0., 0., 0., 0., 0., 0., 0., 0., 0.,
          0., 0., 0., 0. ]
      - [ 0., 0., 0., 0., 0., 0., 0., 0., 0., 0., 0., 0., 0., 0., 0., 0.,
          0., 0., 0., 0., 0., 0., 0., 0., 0., 0., 0., 0., 0., 0., 0., 0.,
          0., 0., 0., 0., 0., 0., 0., 0., 0., 0., 0., 0., 0., 0., 0., 0.,
          0., 0., 3., 16., 2., 0., 0., 0., 0., 0., 0., 0., 0., 0., 0.,
          0., 0., 0., 0., 0., 0., 0., 41., 150., 17., 0., 0., 0., 0., 0.,
          0., 0., 0., 0., 0., 0., 0., 0., 0., 0., 0., 0., 115., 170., 6.,
          0., 0., 0., 0., 0., 0., 0., 0., 0., 0., 0., 0., 0., 0., 0., 0.,
          0., 171., 138., 0., 0., 0., 0., 0., 0., 0., 0., 0., 0., 0., 0.,
          0., 0., 0., 0., 0., 9., 206., 88., 0., 0., 0., 0., 0., 0., 0.,
          0., 0., 0., 0., 0., 0., 0., 0., 0., 0., 61., 227., 58., 0., 0.,
          0., 0., 0., 0., 0., 0., 0., 0., 0., 0., 0., 0., 0., 0., 0.,
          69., 215., 40., 0., 0., 0., 0., 0., 0., 0., 0., 0., 0., 0., 0.,
          0., 0., 0., 0., 0., 95., 178., 0., 0., 0., 0., 0., 0., 0., 0.,
          0., 0., 0., 0., 0., 0., 0., 0., 0., 0., 144., 147., 0., 0., 0.,
          0., 0., 0., 0., 0., 0., 0., 0., 0., 0., 0., 0., 0., 0., 12.,
          200., 120., 0., 0., 0., 0., 0., 0., 0., 0., 0., 0., 0., 0., 0.,
          0., 0., 0., 0., 30., 210., 72., 0., 0., 0., 0., 0., 0., 0., 0.,
          0., 0., 0., 0., 0., 0., 0., 0., 0., 74., 218., 21., 0., 0., 0.,
          0., 0., 0., 0., 0., 0., 0., 0., 0., 0., 0., 0., 0., 0., 131.,
          203., 3., 0., 0., 0., 0., 0., 0., 0., 0., 0., 0., 0., 0., 0.,
          0., 0., 0., 0., 152., 193., 3., 0., 0., 0., 0., 0., 0., 0., 0.,
          0., 0., 0., 0., 0., 0., 0., 0., 1., 157., 130., 0., 0., 0., 0.,
          0., 0., 0., 0., 0., 0., 0., 0., 0., 0., 0., 0., 0., 0., 18.,
