%YAML:1.0
opencv_ml_svm:
   format: 3
   svmType: C_SVC
   kernel:
      type: LINEAR
   C: 2.6699999999999999e+000
   term_criteria: { iterations:10000000 }
   var_count: 400
   class_count: 10
   class_labels: !!opencv-matrix
      rows: 10
      cols: 1
      dt: i
      data: [ 0, 1, 2, 3, 4, 5, 6, 7, 8, 9 ]
   sv_total: 45
   support_vectors:
      - [ 0., 0., 0., 0., 0., 0., 0., 0., 0., 0., 0., 0., 0., 0., 0., 0.,
          0., 0., 0., 0., 0., 0., 0., 0., 0., 0., 0., 0., 0., 0., 0., 0.,
          0., 0., 0., 0., 0., 0., 0., 0., 0., 0., 0., 0., 0.,
          -4.16505964e-006, -7.14010230e-006, 0., -1.70520843e-006,
          -1.06167208e-005, -3.77468859e-005, -9.65251238e-005,
          6.13768279e-005, 8.15268286e-005, 1.66221853e-005,
          -1.48512445e-005, 5.83042720e-007, 3.57020809e-007, 0., 0., 0.,
          0., 0., 0., -6.84259794e-006, -5.41457775e-005,
          -6.69384608e-005, -1.81477608e-005, -1.83141083e-006,
          4.42709315e-005, 1.08093118e-004, -6.09874987e-005,
          4.88317819e-005, 6.02758410e-005, 5.59485170e-006,
          -2.75050261e-005, 1.30648059e-005, 4.29230822e-005, 0., 0., 0.,
          0., 0., 0., -3.30229741e-005, -4.87630350e-005,
          -8.90928459e-006, -2.09509435e-005, 1.19714605e-004,
          2.01010451e-004, 1.98800626e-005, -2.06499084e-004,
          5.31799305e-005, 1.93659362e-004, 6.65733533e-005,
          -5.99268924e-006, 4.91515266e-006, 6.92063040e-005, 0., 0., 0.,
          0., 0., 0., 1.46672373e-005, 4.00101126e-005, 6.83699727e-006,
          4.59232288e-005, 2.56175234e-004, -3.02327026e-005,
          -3.74939875e-004, -2.41748479e-004, 2.09371196e-004,
          2.07786623e-004, -1.08261098e-004, -8.10225829e-005,
          1.01945934e-005, 5.81444765e-005, 0., 0., 0., 0., 0., 0.,
          4.98171903e-005, 6.50511429e-005, -2.80624063e-005,
          1.91758547e-004, 1.98946873e-004, -2.12260769e-004,
          -5.51499488e-006, 1.38707735e-004, 5.67205389e-005,
          2.29597674e-004, 1.68152779e-004, 1.75121968e-004,
          1.12591748e-004, 2.35633725e-005, 0., 0., 0., 0., 0.,
          5.18098796e-006, 7.97075045e-005, 8.55908002e-005,
          3.98532138e-005, 1.59821051e-004, -4.27154519e-005,
          -5.90684431e-006, 7.90131907e-008, -2.35685118e-004,
          -3.23874265e-004, 1.37905095e-004, 3.63120023e-004,
          3.92303074e-004, 3.22048727e-004, 4.16584262e-005, 0., 0., 0.,
          0., 0., 7.17367539e-006, 1.33748181e-004, -3.40728002e-005,
          -8.16961474e-005, 1.01044010e-004, 4.66745041e-005,
          -3.78514742e-005, -2.58595537e-004, -5.24060451e-004,
          -3.47357884e-004, 2.57879496e-004, 3.63633910e-004,
          2.23854397e-004, 2.92277371e-004, 1.75775072e-004, 0., 0., 0.,
          0., 0., 4.59990988e-005, 1.27276435e-004, -7.32592889e-005,
          1.43053228e-004, 3.64518317e-004, 1.52334498e-004,
          -2.23791460e-004, -5.14047744e-004, -5.93879027e-004,
          -1.98248206e-004, 3.62244202e-004, 3.33314005e-004,
          1.74413333e-004, 1.63894350e-004, 2.29472658e-004, 0., 0., 0.,
          0., 0., 9.14300763e-005, 1.74972869e-004, 1.18081589e-004,
          3.37589154e-004, 4.55580506e-004, 1.19311248e-004,
          -3.90140049e-004, -5.70440781e-004, -4.97663626e-004,
          -7.77434252e-006, 3.33906006e-004, 2.97058286e-004,
          1.44934747e-004, 1.82454867e-004, 2.05484976e-004, 0., 0., 0.,
          0., 0., 1.21505931e-004, 2.53524340e-004, 1.91455591e-004,
          3.85829509e-004, 3.62596067e-004, -1.51398795e-004,
          -4.86270234e-004, -4.95981541e-004, -2.84901762e-004,
          1.00385390e-004, 2.55885359e-004, 2.27498997e-004,
          2.33285857e-004, 2.60919420e-004, 9.46493601e-005, 0., 0., 0.,
          0., 0., 1.08898792e-004, 3.48107336e-004, 2.78157764e-004,
          4.03091952e-004, 2.37897926e-004, -2.17857407e-004,
          -4.29030159e-004, -2.47504271e-004, -1.50516804e-004,
          1.53514615e-004, 2.58396089e-004, 2.91242410e-004,
          2.68904201e-004, 1.19012635e-004, 1.63400382e-005, 0., 0., 0.,
          0., 0., 4.68691796e-005, 3.79574805e-004, 4.70416126e-004,
          2.35695712e-004, 4.46662743e-005, -6.75187985e-005,
          -3.06367670e-004, -2.11127626e-004, -2.03379877e-005,
          2.25301104e-004, 1.46617705e-004, 6.21110958e-005,
          1.00474545e-005, 8.05045784e-005, 7.97075063e-006, 0., 0., 0.,
          0., 0., 4.24854770e-005, 2.46413460e-004, 2.83239642e-004,
          2.30804653e-004, 1.50368156e-004, 2.24692834e-004,
          -8.32307996e-005, -1.61668853e-004, 3.12324337e-005,
          -4.31080516e-005, -1.64326499e-004, -8.17927139e-005,
          1.65473793e-005, 4.74259650e-005, 0., 0., 0., 0., 0., 0.,
          6.40221406e-005, 1.29763721e-004, -7.74218279e-005,
          4.03287704e-005, 1.41218057e-004, 9.29645612e-005,
          4.44188845e-005, -7.34330533e-005, -1.89360071e-004,
          -1.50772074e-004, -1.19411843e-005, 4.87527632e-006,
          4.23285965e-005, 1.19561255e-005, 0., 0., 0., 0., 0., 0.,
          2.81745506e-005, 7.42759439e-005, -6.28721609e-005,
          -8.97423815e-005, 2.91113429e-005, -3.49077563e-005,
          5.16401487e-005, 8.02619179e-005, -4.56112575e-005,
          -8.86735725e-005, 8.66894334e-006, 1.10175915e-005,
          -1.47633036e-005, 0., 0., 0., 0., 0., 0., 0., 1.70670194e-006,
          -1.25749375e-005, -7.64446486e-006, -1.37468178e-005,
          -1.03970497e-005, 7.95769738e-005, 1.90627092e-004,
          2.10614016e-004, 1.11704285e-004, -3.50738774e-005,
          2.51426372e-005, -1.84129487e-006, -5.35507661e-006, 0., 0.,
          0., 0., 0., 0., 0., 0., 0., 0., 0., 0., 0., 0., 0., 0., 0., 0.,
          0., 0., 0., 0., 0., 0., 0., 0., 0., 0., 0., 0., 0., 0., 0., 0.,
          0., 0., 0., 0., 0., 0., 0., 0., 0., 0. ]
      - [ 0., 0., 0., 0., 0., 0., 0., 0., 0., 0., 0., 0., 0., 0., 0., 0.,
          0., 0., 0., 0., 0., 0., 0., 0., 0., 0., 0., 0.,
          -4.56592279e-005, -1.71222098e-004, -1.86441845e-004,
          -1.52197426e-005, 0., 0., 0., 0., 0., 0., 0., 0., 0., 0., 0.,
          0., 0., 0., -1.04356764e-006, 5.43280430e-006, 3.41453233e-005,
          -2.78652384e-004, -8.21636990e-004, -4.73292806e-004,
          1.54570909e-004, 2.48758646e-004, -1.36101604e-004,
          -1.96556270e-004, 2.72847865e-006, 1.48544672e-007, 0., 0., 0.,
          0., -1.12585831e-005, -1.56051436e-004, -2.11668594e-004,
          -2.08244572e-004, -2.13992738e-004, -8.98972867e-005,
          -5.06864708e-005, 8.52546145e-005, 1.26934232e-004,
          -5.51715901e-004, -5.36435284e-004, 2.23749696e-004,
          1.66091879e-004, 4.86423414e-005, 2.41307294e-004,
          2.64513055e-005, 0., 0., 0., 0., -5.81693457e-005,
          -4.76881833e-004, -4.90849488e-004, -4.02545847e-004,
          -2.18921661e-004, -2.39308778e-004, -5.19376845e-005,
          4.56860318e-004, 6.15795943e-005, -3.79084260e-004,
          -2.86387833e-004, 4.36386705e-004, 2.22552757e-004,
          -1.09345485e-004, 1.67501072e-004, 5.91654534e-005, 0., 0., 0.,
          0., -2.70905894e-005, -1.96074936e-004, -1.28559142e-004,
          -2.93276389e-005, 5.68558107e-006, -8.87147107e-005,
          1.08962544e-004, -5.46959171e-004, -7.34579749e-004,
          -2.94529251e-004, -6.18308259e-005, 4.38954914e-004,
          -1.42160832e-004, 1.02242884e-005, 2.08582234e-004,
          1.17784693e-004, 0., 0., 0., 0., -1.23084374e-006,
          -8.23992013e-006, 1.46167586e-004, 1.96440902e-004,
          -8.48343770e-005, -2.89526470e-005, 4.37014241e-004,
          -2.16966393e-004, 1.05098152e-004, 1.98260401e-004,
          -2.98172992e-004, 7.60018185e-004, 1.30630156e-004,
          2.98945641e-004, 4.58464754e-004, 2.11605860e-004, 0., 0., 0.,
          0., 0., 2.05810084e-005, 2.57167179e-004, 2.36016480e-004,
          -3.93369592e-005, 5.59017353e-004, 6.24252076e-004,
          7.16754992e-004, 7.92477222e-005, -2.96114828e-004,
          -2.70907389e-004, 6.65231142e-004, 2.01319926e-004,
          2.53087637e-004, 7.30896078e-004, 2.43734728e-004, 0., 0., 0.,
          0., 0., 3.10173818e-005, 4.34744434e-004, 3.40719504e-004,
          4.07039130e-004, 1.03140692e-003, 8.99758656e-004,
          4.27693973e-004, -1.21015502e-004, -2.94492900e-004,
          -2.95231381e-004, 5.72073972e-004, 1.82077856e-004,
          1.13283473e-004, 7.56819441e-004, 3.97135300e-004, 0., 0., 0.,
          0., 0., 9.69839675e-005, 6.28505542e-004, 4.13678674e-004,
          5.57528343e-004, 9.41113860e-004, 4.88530495e-004,
          2.11920506e-005, -4.09481057e-004, -3.94826115e-004,
          -8.75648038e-005, 5.09102305e-004, 1.57724920e-004,
          2.92817014e-004, 6.79538876e-004, 4.30517219e-004, 0., 0., 0.,
          0., 0., 2.19384878e-004, 5.55267965e-004, -1.45741113e-004,
          -1.29595792e-004, 7.96851062e-004, 7.53105560e-005,
          -6.47857436e-004, -9.43151594e-004, -6.51204435e-004,
          1.61882072e-005, 4.91317944e-004, 2.51931662e-004,
          5.16678148e-004, 6.08857488e-004, 3.12322431e-004,
          -1.00165940e-004, -2.32944058e-005, 0., 0., 7.31909466e-008,
          1.72522370e-004, 3.97656026e-004, -1.61006305e-004,
          2.26488599e-004, -6.18660561e-005, -6.15163357e-004,
          -7.85237353e-004, -8.85748072e-004, -4.13592177e-004,
          -6.77134085e-005, -2.43691480e-004, -2.99028761e-005,
          2.11919760e-004, 3.38371581e-004, 3.12814137e-007,
          -2.60897330e-004, -4.89182494e-005, 0., 0., 2.46469313e-006,
          1.24508879e-004, 1.19216369e-004, 3.91115522e-004,
          4.97499481e-004, 6.47739216e-005, -4.14554757e-004,
          -1.06712442e-003, -5.65600290e-004, -2.11291990e-004,
          -4.20530181e-004, -2.73321755e-004, -2.55499384e-004,
          -5.92636607e-005, 1.92437292e-004, -2.98731720e-005,
          -2.79532851e-005, -1.16472029e-006, 0., 0., -8.84817491e-005,
          -1.77353315e-004, -1.18685115e-004, 2.48016091e-004,
          5.85508882e-004, 4.73207154e-004, -3.97247175e-004,
          -8.24346906e-004, -3.76742712e-004, -6.46636181e-004,
          -3.22607317e-004, -1.01662545e-005, -3.34984186e-004,
          -3.64978856e-004, -2.59980498e-005, -2.14862419e-004, 0., 0.,
          0., 0., -2.67365278e-004, -5.03690157e-004, 4.54871724e-006,
          1.66530608e-005, 5.08975470e-004, 5.61805151e-004,
          2.04217926e-004, -3.32113035e-004, -7.75064342e-004,
          -4.90288017e-004, -2.89108371e-004, -5.64854709e-004,
          -7.51981861e-004, -7.47381593e-004, -3.49253416e-004,
          -7.42423508e-005, 0., 0., 0., 0., -2.63049122e-004,
          -1.45437953e-004, 1.26151848e-004, 6.12816293e-005,
          1.39659269e-005, 1.95720029e-004, -1.70656640e-004,
          1.49942483e-004, 4.53597022e-004, 1.53301313e-004,
          -3.53064330e-004, 5.13628765e-005, 1.10816858e-004,
          -1.21848665e-004, -4.50794905e-004, -3.41402701e-005, 0., 0.,
          0., 0., -7.97487228e-005, 1.81429350e-004, 4.07660205e-004,
          4.77678077e-005, -1.30576751e-004, 3.53816431e-004,
          5.66882954e-004, 6.66331616e-004, 5.80595166e-004,
          1.07993743e-004, -4.64285113e-004, -1.62778320e-004,
          6.37939811e-005, -1.40753196e-004, -3.30613781e-004,
          -4.80390336e-005, 0., 0., 0., 0., 0., 2.53945800e-005,
          5.47385825e-005, -6.76416748e-005, -1.37397772e-004,
          -7.59156173e-005, 1.83276221e-004, 4.58697410e-004,
          4.50158055e-004, 2.03223477e-004, -2.93046993e-004,
          -4.84526390e-004, -3.43708176e-004, -5.92674514e-005,
          -6.06008653e-005, -8.48013951e-006, 0., 0., 0., 0., 0., 0., 0.,
          0., 0., 0., 0., 0., 0., 0., -5.35967229e-005, -3.04429384e-004,
          -1.86516598e-004, 0., 0., 0., 0., 0., 0., 0., 0., 0., 0., 0.,
          0., 0., 0., 0., 0., 0., 0., 0., 0., 0., 0., 0., 0., 0. ]
      - [ 0., 0., 0., 0., 0., 0., 0., 0., 0., 0., 0., 0., 0., 0., 0., 0.,
          0., 0., 0., 0., 0., 0., 0., 0., 0., 0., 0., 0., 0., 0., 0., 0.,
          0., 0., 0., 0., 0., 0., 0., 0., 0., 0., 0., 0., 0., 0., 0.,
          -9.90506396e-006, -1.56243311e-006, -5.54157168e-006,
          -7.77643436e-006, -1.00319055e-004, -5.54014969e-006,
          1.53089233e-004, -1.64334022e-004, -6.89734225e-005,
          2.26052143e-005, 1.07643882e-006, 0., 0., 0., 0., 0., 0.,
          -5.56180094e-005, -1.67270788e-004, -2.04618991e-004,
          -2.34611332e-004, -1.66445679e-004, -8.78328428e-005,
          1.41201508e-005, -2.11107224e-004, -1.70620933e-005,
          2.28119068e-004, 6.38122656e-005, -3.85468866e-006,
          2.29416997e-004, 1.40873439e-004, 0., 0., 0., 0., 0.,
          -3.51180497e-005, -3.09104566e-004, -3.94815870e-004,
          -3.58819350e-004, -4.43580881e-004, -3.15753772e-004,
          -7.48342500e-005, 1.34820120e-005, -2.77442978e-005,
          -1.08874083e-004, -2.60026081e-005, 3.24302491e-005,
          -1.30940825e-004, -1.35452923e-004, 1.99029644e-004, 0., 0.,
          0., 0., -2.51078495e-006, -7.40239329e-006, -1.76785426e-004,
          -1.66585203e-004, -1.44575693e-004, -3.90162109e-004,
          8.91727468e-005, -2.40904665e-005, -4.00223362e-004,
          -2.47560092e-005, -1.26904226e-004, 7.68437530e-005,
          6.92991671e-005, 2.39399760e-005, -3.08353658e-004,
          1.24577025e-004, 0., 0., 0., 0., -3.33161847e-006,
          7.72681324e-006, 1.54949958e-004, 9.41181061e-005,
          -1.63546574e-004, -1.04202831e-004, 2.45679956e-004,
          -9.45874399e-006, 1.40854274e-004, -8.78673745e-005,
          -3.25101253e-004, 3.24423425e-004, 1.63424105e-004,
          1.10499364e-004, 1.46561913e-004, 7.98056062e-005, 0., 0., 0.,
          0., -9.65686482e-008, 5.43373899e-005, 4.02074802e-004,
          3.15673300e-004, -3.01702166e-005, 2.20748276e-004,
          3.70910217e-004, 3.45610286e-004, -3.68142908e-004,
          -8.90873955e-004, -4.37350158e-004, 2.98526720e-004,
          2.40333597e-004, 3.69374844e-004, 4.38505987e-004,
          1.36700228e-005, 0., 0., 0., 0., 0., 1.23841135e-004,
          5.37309214e-004, 3.34912766e-004, 1.78184899e-004,
          5.01476112e-004, 4.04722698e-004, -2.38202221e-004,
          -1.00413919e-003, -1.14372431e-003, -6.10472169e-004,
          6.16589168e-005, 1.58699797e-004, 2.76068924e-004,
          4.68813261e-004, 1.07064086e-004, 0., 0., 0., 0., 0.,
          1.83379918e-004, 5.77008585e-004, 1.51897373e-004,
          3.22963868e-004, 4.07544256e-004, 3.44833836e-007,
          -4.97439702e-004, -7.02113612e-004, -8.30113306e-004,
          -3.80565558e-004, 1.11372492e-005, -8.61372755e-005,
          1.06411499e-004, 2.85932590e-004, 2.08028956e-004, 0., 0., 0.,
          0., 0., 2.27273791e-004, 5.76737570e-004, 3.86887899e-004,
          6.60651363e-004, 6.82577607e-004, 1.81454816e-004,
          -4.86633799e-004, -8.22376634e-004, -6.23636995e-004,
          1.69094259e-004, -6.13310112e-005, 1.28135543e-005,
          3.00395244e-004, 1.20942706e-004, 1.51204789e-004, 0., 0., 0.,
          0., 2.91504398e-006, 2.16517117e-004, 6.87091553e-004,
          7.19478587e-004, 9.64757521e-004, 7.19577482e-004,
          -1.59710835e-004, -6.45646127e-004, -7.11472181e-004,
          -3.03129840e-004, 1.31684181e-004, -1.43386833e-005,
          1.15432267e-004, 3.81225691e-004, 9.38051962e-005,
          2.45977644e-005, 0., 0., 0., 0., -7.01140307e-005,
          -2.38492416e-004, 3.39961378e-004, 3.99283250e-004,
          5.93219534e-004, 3.14108882e-004, 2.16906628e-005,
          -2.28923222e-004, 1.22961492e-005, -4.63849719e-005,
          1.82976346e-005, 2.06258512e-004, 8.17500913e-005,
          3.20689200e-004, 7.28901359e-005, -2.88119136e-005, 0., 0., 0.,
          0., -2.73319951e-004, -5.40455454e-004, 1.53033034e-004,
          4.99682559e-004, 3.96250718e-004, 1.57833376e-004,
          2.44324794e-004, 5.39185276e-005, -2.06877419e-004,
          -4.66815109e-004, 2.13725274e-004, -2.64062328e-005,
          -1.73456836e-004, -8.83656539e-005, 1.31759707e-005,
          -1.12173067e-004, 0., 0., 0., 0., -2.32710561e-004,
          -5.82195353e-004, -1.89790051e-004, 5.94978701e-005,
          2.44247174e-004, 2.24328600e-004, 3.62502935e-004,
          -2.84388643e-005, -1.96360576e-004, -1.48091334e-004,
          -2.53939834e-005, -4.24943340e-004, -5.93984907e-004,
          -3.23202694e-004, -9.99553013e-005, -1.66951751e-004, 0., 0.,
          0., 0., -2.93000685e-005, -2.22271105e-004, -2.88312494e-005,
          8.29881901e-005, -1.14940678e-006, 3.86852444e-005,
          2.84605230e-005, 7.46668011e-005, 3.21551342e-005,
          -7.69732724e-005, -2.74955150e-004, -3.57866025e-004,
          -2.08357975e-004, -3.64201478e-005, -7.45932775e-005,
          -1.25076722e-005, 0., 0., 0., 0., -3.81735044e-005,
          -2.59987515e-004, -2.24621272e-005, -3.28636706e-005,
          -9.64033370e-006, 1.99979942e-004, 4.24084661e-004,
          4.53582674e-004, 2.32462975e-004, -5.80690394e-005,
          -9.13516997e-005, -3.81622340e-005, -3.86072679e-005,
          -3.58346842e-005, 0., 0., 0., 0., 0., 0., -3.01163109e-005,
          -2.58646498e-004, -2.30035803e-004, -2.32170758e-004,
          -2.42019436e-004, -4.33687601e-005, 9.00136947e-005,
          1.49711952e-004, 1.96806854e-004, 1.61876334e-004,
          1.03024155e-004, -7.43202236e-006, -6.47572670e-005,
          -1.19244096e-005, 0., 0., 0., 0., 0., 0., -8.30333192e-006,
          -6.38929414e-005, -6.94727059e-005, -1.13113318e-004,
          -1.70739382e-004, -1.99646922e-004, -1.79116294e-004,
          -9.14373741e-005, -2.00228828e-006, 0., 0., 0., 0., 0., 0., 0.,
          0., 0., 0., 0., 0., 0., 0., 0., 0., 0., 0., 0., 0., 0., 0., 0.,
          0., 0., 0., 0., 0., 0. ]
      - [ 0., 0., 0., 0., 0., 0., 0., 0., 0., 0., 0., 0., 0., 0., 0., 0.,
          0., 0., 0., 0., 0., 0., 0., 0., 0., 0., 0., 0., 0., 0., 0., 0.,
          0., 0., 0., 0., 0., 0., 0., 0., 0., 0., 0., 0., 0., 0.,
          -5.69103804e-006, -1.57153736e-005, -4.33329888e-006, 0.,
          -1.77277127e-006, 8.01072529e-005, 2.44866562e-004,
          -8.91828768e-006, 1.75629375e-005, 4.13245607e-006,
          2.06622803e-006, 0., 0., 0., 0., 0., 0., 0., 0., 0.,
          -6.76135824e-005, -1.06572654e-004, -1.79555645e-005,
          2.00705457e-004, 4.30201646e-004, 2.26758129e-004,
          3.18010920e-004, 1.16471121e-004, 2.30103833e-004,
          8.08238328e-005, 2.34536801e-005, -3.16894671e-006,
          -4.53291568e-006, 0., 0., 0., 0., 0., 0., 1.10528026e-005,
          -2.71453191e-005, -2.81840730e-005, 2.31982180e-004,
          3.11015523e-004, 2.41848553e-004, 3.71195521e-004,
          4.34663641e-004, 4.26855026e-004, 4.16642230e-004,
          -2.14603439e-004, -2.40957772e-004, -5.61795241e-006,
          -2.71974955e-006, 0., 0., 0., 0., 0., -2.13665498e-006,
          -6.31982839e-005, -3.45006920e-005, 1.64906567e-004,
          2.99313804e-004, -1.28061671e-004, 1.12071764e-004,
          3.37105448e-004, 5.33731247e-004, 5.13814623e-004,
          -2.27020173e-005, -2.62077374e-004, -1.95446046e-004,
          4.70596342e-006, 0., 0., 0., 0., 0., -9.82997426e-006,
          -5.29969475e-005, -1.49592102e-004, -8.26340693e-005,
          2.40327950e-004, 1.31215813e-004, 1.55047546e-005,
          4.13008675e-004, 3.43786087e-004, 2.34803185e-004,
          4.66950296e-004, -2.81597459e-005, -8.17589316e-005,
          -1.42240926e-004, 1.68135521e-005, 0., 0., 0., 0., 0.,
          -4.34304820e-005, -6.56663615e-005, -7.65371515e-005,
          1.41402170e-005, -8.76355716e-006, -7.01441095e-005,
          1.14961942e-004, 2.93834280e-004, -1.15174793e-004,
          -1.18188051e-004, 2.67507450e-004, 1.09913599e-004,
          4.95083586e-005, 3.03543329e-005, 5.22847367e-005, 0., 0., 0.,
          0., -1.08647082e-005, -1.06816944e-004, 2.22828385e-005,
          -6.35490187e-006, -2.34648614e-004, -1.72947941e-004,
          -1.49746164e-004, 8.13371516e-005, 1.96682613e-005,
          -2.92587938e-004, -4.04740946e-004, -9.49438618e-006,
          2.68068135e-004, -6.32620577e-005, 1.30665227e-004,
          1.27251173e-004, 0., 0., 0., 1.65405181e-005, -1.54713616e-005,
          -9.45714128e-005, 5.97596372e-005, -1.80171031e-004,
          -3.00397456e-004, -1.53085464e-004, -1.66771133e-004,
          -1.70869200e-004, -2.37428132e-004, -3.54870310e-004,
          -5.81234170e-004, -1.20434979e-005, 2.58060987e-004,
          -6.11751093e-005, 8.17673717e-005, 1.58610215e-004, 0., 0., 0.,
          1.74110710e-006, -1.60383788e-005, -6.68592620e-005,
          -7.73749780e-005, -3.45086621e-004, -9.12280375e-005,
          1.56274589e-004, -2.44932162e-004, -5.07368473e-004,
          -5.14531741e-004, -5.55192062e-004, -6.66994427e-004,
          -5.89209085e-005, -2.19090434e-005, -9.87395179e-005,
          8.94269615e-005, 1.52439607e-004, 0., 0., 0., 0.,
          -5.75173885e-007, -1.30034850e-005, -1.60007796e-004,
          -2.52151629e-004, -2.56081239e-005, 7.80470073e-005,
          -3.02481843e-004, -5.31140540e-004, -6.28878421e-004,
          -6.41555409e-004, -5.26537944e-004, 2.90074204e-005,
          7.59645191e-005, 5.91939388e-005, 1.15197341e-004,
          9.48136949e-005, 0., 0., 0., 0., 0., 4.82842479e-005,
          1.05645413e-004, -3.64920816e-005, -7.91244020e-005,
          -3.53649120e-005, -2.82656809e-004, -6.55090495e-004,
          -5.79247368e-004, -5.33034327e-004, -3.02368717e-004,
          6.78130236e-005, 1.34491100e-004, 1.16556192e-004,
          6.91375608e-005, 4.02488004e-005, 0., 0., 0., 0., 0.,
          9.11978277e-005, 3.94417177e-004, 2.80036678e-004,
          -1.34888251e-004, -3.74855663e-005, -1.66169397e-004,
          -4.50934778e-004, -1.54374837e-004, -3.62978491e-004,
          1.85212430e-005, 1.49470114e-004, 6.37042613e-005,
          -1.45986696e-005, 9.68665845e-005, 2.50011799e-005, 0., 0., 0.,
          0., 1.34304819e-005, 2.11006089e-004, 4.33095149e-004,
          4.29838721e-004, 5.30330406e-004, 6.66968641e-004,
          9.74191178e-004, 4.25444712e-004, -1.01105048e-004,
          1.24063963e-005, -2.95225959e-006, -1.05661173e-004,
          -3.74791271e-005, -2.31533207e-007, 7.68258178e-005,
          8.22412676e-006, 0., 0., 0., 0., 1.65298243e-005,
          2.08072888e-004, 2.94677156e-004, 3.92464222e-004,
          6.76353928e-004, 6.44261774e-004, 5.77607309e-004,
          3.74311901e-004, 2.53363833e-004, 1.78698116e-004,
          -1.82985925e-004, -7.33931229e-005, -7.38940216e-005,
          2.08539695e-005, 2.44179337e-005, 0., 0., 0., 0., 0., 0.,
          9.71127156e-005, 2.10154554e-004, 1.81894909e-004,
          1.74439876e-004, 1.26158178e-004, 1.28546788e-004,
          2.98470586e-005, 1.95560744e-004, -4.08631458e-005,
          -1.31283450e-004, -1.12643669e-004, -7.09837113e-005,
          -2.10480885e-005, 0., 0., 0., 0., 0., 0., 0., 5.16556975e-006,
          3.61286266e-006, -2.58212231e-006, -1.26684216e-004,
          -2.08438723e-004, 2.46249365e-005, 2.08283291e-005,
          1.98953392e-004, -3.97797994e-005, -1.11700676e-004,
          -3.49489383e-005, -3.24956964e-005, -2.06946834e-006, 0., 0.,
          0., 0., 0., 0., 0., 0., 0., -1.28467982e-005, -1.07048989e-004,
          -4.76165296e-005, 0., 0., 0., 0., 0., 0., 0., 0., 0., 0., 0.,
          0., 0., 0., 0., 0., 0., -1.03997891e-005, -2.44700914e-005, 0.,
          0., 0., 0., 0., 0., 0., 0., 0., 0., 0., 0., 0. ]
      - [ 0., 0., 0., 0., 0., 0., 0., 0., 0., 0., 0., 0., 0., 0., 0., 0.,
          0., 0., 0., 0., 0., 0., 0., 0., 0., 0., 0., 0., 0., 0., 0., 0.,
          0., 0., 0., 0., 0., 0., 0., 0., 0., 0., 0., 0., 0., 0., 0., 0.,
          0., -3.63779109e-005, -8.73735116e-005, -9.51795446e-005,
          1.09561763e-004, 3.28385970e-004, 5.74895166e-005,
          -4.75967172e-005, -1.17662221e-005, -1.97833178e-005, 0., 0.,
          0., 0., 0., 0., -3.65551296e-006, -1.13727065e-005,
          -1.13727065e-005, -2.49047825e-005, 2.72113521e-005,
          2.00756127e-004, 4.11227578e-004, -1.55668313e-004,
          5.19755085e-005, 4.32217465e-004, 2.34578867e-004,
          -9.67000742e-005, 2.07573554e-004, 2.32194070e-004, 0., 0., 0.,
          0., 0., 0., -2.82286837e-005, -1.20473351e-005,
          1.46550783e-005, -7.42174743e-005, 1.79026654e-004,
          4.23705351e-004, 2.16317945e-004, -1.57928676e-004,
          2.48759607e-004, 5.98728308e-004, 2.40119960e-004,
          -5.04610070e-004, -3.90778965e-004, -5.57600470e-006,
          -1.11701593e-005, -1.20837808e-006, 0., 0., 0.,
          -9.34186664e-006, -1.50925607e-005, 5.79019070e-006,
          -5.63276808e-005, 1.00433572e-005, 2.20270216e-004,
          -2.53738166e-004, -5.36923530e-004, 3.46107438e-004,
          6.20115548e-004, 4.00910532e-004, -1.45447964e-004,
          -3.20907362e-004, -4.57837305e-004, -2.69604032e-004,
          -3.02987144e-004, -1.51047261e-005, 0., 0., 0.,
          -1.92929856e-005, 4.79603841e-005, -3.48917238e-005,
          -2.65335111e-004, 1.03791754e-004, 9.35669595e-006,
          -2.79968051e-004, 2.04957716e-004, 2.50419165e-004,
          1.06757165e-004, 5.14881744e-004, 5.00794558e-004,
          1.43700934e-004, 1.09268360e-004, -3.28261231e-004,
          -2.23330251e-004, -6.04189040e-007, 0., 0., -4.06168112e-007,
          -2.15238433e-005, 1.31366163e-004, -1.71145675e-005,
          -1.15814546e-004, 4.81434654e-005, -3.27656337e-004,
          -1.53058500e-004, -5.61882625e-004, -7.43442157e-004,
          -1.22634432e-004, 5.89656236e-004, 1.08148216e-003,
          7.82099087e-004, 7.82585063e-004, 1.50485532e-004,
          -2.14454994e-005, 1.05104812e-006, 0., 0., -3.85859676e-006,
          -2.83494119e-005, 2.33425948e-004, -4.22534977e-005,
          -2.34097257e-004, 6.44999236e-005, -1.25812716e-004,
          -4.38500749e-004, -1.31841481e-003, -1.34328613e-003,
          -3.28328839e-004, 4.47735190e-004, 6.53563882e-004,
          9.00757732e-004, 7.47364655e-004, 3.80794721e-004,
          1.69218747e-005, 6.62160301e-006, 0., 0., -4.06168112e-007,
          4.77557805e-005, 3.61343933e-004, -1.05885782e-004,
          -8.90430383e-005, -2.19323283e-005, 1.93111366e-004,
          -5.19724796e-004, -1.29889045e-003, -1.33970997e-003,
          -2.04936689e-004, 4.57694434e-004, 1.77544644e-004,
          6.23518659e-004, 4.61935764e-004, 3.77553020e-004,
          6.20118408e-006, 1.78678181e-006, 0., 0., 0., 1.72926841e-004,
          4.32881847e-004, 5.12408325e-004, 2.93099583e-004,
          2.83482688e-004, -8.98120052e-005, -9.57177777e-004,
          -1.15438295e-003, -9.58197168e-004, -2.84478068e-004,
          1.72105676e-004, 3.13348719e-004, 1.32218891e-004,
          3.27713788e-004, 2.79820757e-004, 0., 0., 0., 0.,
          -2.22111544e-006, 1.72893226e-004, 3.61071958e-004,
          6.52732269e-004, 4.01372032e-004, 1.13753784e-004,
          -4.98046109e-004, -8.07894627e-004, -1.10235030e-003,
          -5.25727926e-004, -2.50602810e-004, -1.41922239e-004,
          1.54839508e-004, -2.83109803e-005, 2.09260324e-004,
          1.29870852e-004, 0., 0., 0., 0., -2.22111557e-005,
          -1.46141392e-005, 3.48412432e-004, 3.88499582e-004,
          6.99317781e-004, 6.98303920e-004, 2.71258788e-004,
          -2.34983658e-004, -3.22262058e-004, -1.71704101e-004,
          -3.79556179e-004, 1.96882029e-004, 7.61061528e-005,
          -5.49439537e-005, -1.84422952e-005, 6.21518120e-006, 0., 0.,
          0., 0., -2.96369126e-006, 5.60887165e-005, 4.11755726e-004,
          4.88563790e-004, 4.58864815e-004, 4.47841798e-004,
          3.23065353e-004, -1.36415969e-004, -2.65969022e-004,
          -1.96154666e-004, 5.50025761e-005, 2.16390799e-005,
          -1.40835720e-004, -2.48362572e-004, -6.34352327e-005,
          -9.23082462e-006, 0., 0., 0., 0., -2.45117029e-004,
          -1.18015989e-004, 1.02874030e-004, -2.08266341e-004,
          5.05913340e-005, 1.70166037e-004, 2.20038812e-004,
          1.91102692e-004, 4.33055247e-005, 6.19394268e-005,
          -1.95573084e-004, -4.20826575e-004, -3.22527718e-004,
          -1.40517848e-004, -2.28068111e-005, -3.38654468e-006,
          8.51348977e-006, 3.57356362e-006, 0., 0., -2.97780236e-004,
          -2.16955770e-004, 2.28613790e-004, -2.84313457e-004,
          -2.84949841e-004, 1.23987003e-004, 3.23286076e-004,
          2.51427991e-004, -1.33041740e-005, -1.80653340e-004,
          -2.91167467e-004, -2.67956231e-004, -1.15723182e-004,
          7.42810080e-005, 1.77378770e-005, 7.35733693e-007,
          1.75525038e-005, 7.35733693e-006, 0., 0., 4.80271683e-006,
          3.35642289e-005, 3.01261403e-004, 1.42341072e-004,
          2.25417243e-004, 3.93829891e-004, 3.75867414e-004,
          2.88158772e-004, -4.54406254e-005, -1.88117756e-005,
          -8.38391352e-005, -3.18783095e-005, 1.23586171e-004,
          3.75065938e-005, 0., 1.05104810e-007, 4.30929731e-006,
          1.78678181e-006, 0., 0., 0., 1.32568412e-005, 3.32664831e-006,
          -1.82300530e-004, -2.58823362e-004, -2.53572740e-004,
          -1.20891738e-004, 7.53497443e-005, 1.35867827e-004,
          1.12170863e-004, 6.70990194e-005, 1.99433671e-005,
          1.44694686e-005, 0., 0., 0., 0., 0., 0., 0., 0., 0., 0., 0.,
          -9.96387371e-006, -3.50158989e-005, -4.29869979e-005,
          -4.27023151e-005, -3.60004196e-005, -7.73243737e-005,
          -9.81020057e-005, -2.57957472e-005, 0., 0., 0., 0., 0., 0., 0.,
          0., 0., 0., 0., 0., 0., 0., 0., 0., -7.03520345e-006,
          -2.89225045e-005, -2.26689899e-005, 0., 0., 0., 0., 0., 0., 0. ]
      - [ 0., 0., 0., 0., 0., 0., 0., 0., 0., 0., -1.45476861e-006,
          -1.60024538e-005, -6.30399745e-006, 0., 0., 0., 0., 0., 0., 0.,
          0., 0., 0., 0., 0., 0., 0., 0., 0., 0., -4.58187460e-005,
          -1.78496688e-004, -1.32189525e-004, -1.81817832e-005,
          -1.60108284e-005, -3.61233033e-005, -1.20411014e-005, 0., 0.,
          0., 0., 0., 0., 0., -1.10036144e-005, -6.91655805e-005, 0.,
          -1.99415081e-004, -8.47377465e-004, -4.34193615e-004,
          -3.72644921e-004, -3.13383178e-004, -3.76612952e-005,
          -2.67575640e-004, -1.90124687e-004, -1.28900429e-004,
          -1.64869143e-005, 0., 0., 0., 0., 0., 0., 0., -1.36759219e-004,
          -1.91777290e-004, -1.08591094e-005, -6.96695584e-004,
          -3.47465393e-004, 1.57835111e-005, -2.06779456e-004,
          -3.69118789e-004, 1.49337953e-004, 1.10324596e-004,
          -4.19730568e-005, 6.81417077e-005, 1.32035711e-004,
          1.80048701e-005, 0., 0., 0., 0., 0., 0., -2.31075916e-004,
          -3.14536701e-005, 1.61289761e-004, -3.54756223e-004,
          2.47342949e-004, 7.10226479e-004, 1.85949670e-004,
          -1.06560030e-004, -3.32788659e-005, 6.30751369e-004,
          -2.89377167e-005, 1.31291381e-004, 2.18630565e-004,
          3.17228660e-005, 0., 0., 0., 0., 0., -5.97339094e-005,
          -2.49551376e-004, 1.78894770e-004, 1.88941165e-004,
          -5.66014147e-004, 4.89534636e-004, 5.68667485e-004,
          4.39048192e-004, 6.20996114e-004, 9.53450508e-004,
          1.35931070e-003, 3.91813257e-004, -8.67899289e-005,
          3.06737747e-005, 2.80440399e-005, 0., 0., 0., 0., 0.,
          -9.72905400e-005, -1.68397703e-004, 3.28703260e-004,
          -1.91682819e-004, 1.56900918e-004, 3.56974197e-004,
          -1.71329928e-004, 1.41867378e-004, -2.08308320e-005,
          4.78188362e-004, 1.29258051e-003, 1.00330485e-003,
          3.65025131e-004, -2.43585833e-004, -7.25852806e-005, 0., 0.,
          0., 0., 0., -9.11011375e-005, -4.27548330e-005,
          5.25600684e-004, -5.04337258e-005, 5.66777424e-004,
          -1.74675457e-004, -3.96914118e-007, 2.26382526e-005,
          -1.13704176e-004, -7.89430851e-006, 6.08812843e-004,
          3.57374229e-004, 7.18779280e-004, 3.34059121e-004,
          -1.66135316e-004, 0., 0., 0., 0., 0., -1.14498318e-004,
          2.40780442e-004, 6.37318066e-004, -2.90073629e-004,
          4.36298957e-004, -7.92665669e-005, 3.97281896e-004,
          -6.13736338e-005, -1.75602967e-004, -2.13178631e-004,
          5.80451684e-004, 2.69119599e-004, 1.35112990e-004,
          2.07411402e-004, 2.19647100e-005, 0., 0., 0., 5.23215078e-007,
          1.65225799e-007, -4.98968147e-005, 5.27137716e-004,
          3.29114904e-004, -3.20069725e-004, 3.55763586e-005,
          -6.15855752e-005, 1.60039184e-004, -3.43191845e-004,
          -6.54136937e-004, -7.28788960e-004, 8.33459897e-004,
          3.86554399e-004, -7.05714992e-005, -5.28475386e-004,
          1.03647450e-004, 0., 0., 0., 5.50752688e-008, 0.,
          3.66092281e-005, 2.62566173e-004, 1.97283996e-004,
          -2.02920215e-004, -2.19238122e-004, -7.30440370e-005,
          -3.45345354e-004, -7.87110766e-004, -8.89637740e-004,
          -5.92810218e-004, 2.27438097e-004, -7.26343933e-005,
          -4.06900799e-005, -5.75604790e-004, 1.16200659e-004, 0., 0.,
          0., 0., 0., 7.83360301e-005, 1.05819585e-004, 3.82037892e-004,
          -2.88748764e-004, -3.57574841e-004, -5.02123148e-004,
          -7.87133817e-004, -7.96333421e-004, -7.20476964e-004,
          -4.29384294e-004, 4.29718020e-005, 4.45447513e-005,
          -1.72318523e-005, -3.89818277e-004, 1.34040805e-004, 0., 0.,
          0., 0., 0., 1.49873740e-004, 1.93104337e-004, -3.76129792e-005,
          -2.75888800e-004, -2.85183341e-004, -4.12924041e-004,
          -6.88186730e-004, -5.60345768e-004, -4.97769157e-004,
          -1.24741608e-004, 1.68654951e-004, 4.42141281e-005,
          -5.23017407e-005, -4.15072194e-004, 3.72823233e-005, 0., 0.,
          0., 0., 0., 9.14717966e-005, 4.90677892e-004, 1.89020808e-004,
          -4.81676136e-004, -5.49853838e-004, 2.23695490e-004,
          -1.28861298e-004, -2.54868617e-004, -4.63171338e-004,
          -8.36871841e-005, 2.21798909e-004, 1.94963559e-005,
          -4.67545178e-004, -3.78106459e-004, 7.30349348e-006, 0., 0.,
          0., 0., 1.11458721e-005, 1.71379696e-004, 3.65493470e-004,
          2.16136279e-004, 3.41417239e-004, -1.32018860e-004,
          2.95502366e-004, 7.58671886e-005, -3.34601878e-004,
          2.67962547e-004, 1.15632829e-004, -3.46865621e-004,
          -5.06108045e-004, -5.27727359e-004, 5.55711158e-005,
          -1.81800497e-005, -3.71857845e-006, 0., 0., 0.,
          1.37179959e-005, 1.97422778e-004, 3.73451679e-004,
          1.70819665e-004, 3.38365644e-004, 2.13022999e-004,
          -5.28552737e-005, -4.76225141e-005, -1.13956985e-005,
          3.06067290e-004, 7.99488189e-005, -4.85188939e-004,
          -3.16957739e-004, 5.37545595e-004, 2.48643861e-004,
          -7.43715691e-006, 0., 0., 0., 0., 0., 8.77512502e-005,
          2.56682251e-004, 2.08139856e-004, 1.33327645e-004,
          2.39282279e-004, 3.21466185e-004, 5.59059263e-004,
          5.35648665e-004, 4.36797563e-004, 1.40979537e-004,
          -8.95023986e-005, 2.14561951e-004, 2.05436721e-004, 0., 0., 0.,
          0., 0., 0., 0., 4.28687372e-006, 1.62901197e-005,
          1.62901197e-005, 1.02884969e-005, 6.89748185e-006,
          9.57042575e-005, 1.22560275e-004, 2.39379151e-004,
          2.39229688e-004, 9.11445459e-005, 9.18372916e-006,
          -1.90499777e-005, 0., 0., 0., 0., 0., 0., 0., 0., 0., 0., 0.,
          0., 0., 0., 0., 0., 0., 0., 0., 0., 0., 0., 0., 0., 0., 0., 0.,
          0., 0., 0., 0., 0., 0., 0., 0., 0., 0., 0., 0., 0., 0., 0., 0.,
          0., 0. ]
      - [ 0., 0., 0., 0., 0., 0., 0., 0., 0., 0., 0., 0., 0., 0., 0., 0.,
          0., 0., 0., 0., 0., 0., 0., 0., 0., 0., 0., 0., 0., 0., 0., 0.,
          0., 0., 0., 0., 0., 0., 0., 0., 0., 0., 0., 0., 0., 0., 0.,
          1.34618140e-005, 1.34618140e-005, 0., 1.57558388e-005,
          4.33081877e-005, 1.89414626e-004, 1.95475368e-004,
          5.65871305e-005, 1.02730291e-005, 3.01133173e-006,
          1.43396747e-007, 0., 0., 0., 0., 0., 0., 0., 0.,
          6.73090699e-006, 1.54810856e-004, 1.34039758e-004,
          3.07080918e-004, 4.99041693e-004, 2.17896857e-004,
          4.04521415e-004, 3.53096169e-004, 2.08189798e-004,
          1.37201656e-004, 9.02731335e-005, 2.05588076e-005, 0., 0., 0.,
          0., 0., 0., -3.71218647e-007, -1.14723771e-005,
          4.91798528e-005, 1.65931269e-004, 4.28873638e-004,
          6.33842603e-004, 2.69034237e-004, 1.47981162e-004,
          4.18177398e-004, 4.16101422e-004, 2.17884415e-004,
          1.57029644e-004, 1.28940723e-004, 4.08997184e-005, 0., 0., 0.,
          0., 0., 0., -6.25295579e-005, -3.32498981e-004,
          -2.67693162e-004, -7.01405270e-006, 2.87559640e-004,
          -2.51659105e-004, -3.64260457e-004, -1.30898596e-004,
          1.67216913e-005, 2.26912191e-004, -1.72772387e-004,
          2.84668149e-005, 1.04560386e-004, 3.72127070e-005, 0., 0.,
          -1.65114415e-007, -2.31160172e-007, 0., 0., -9.88239335e-005,
          -5.65486611e-004, -4.48506762e-004, 2.43021990e-004,
          5.72805147e-005, -3.21109896e-004, -1.00190780e-004,
          -1.09585599e-004, -2.40297741e-004, 2.01031464e-004,
          -1.25641105e-004, -7.33975030e-005, 2.24941650e-005,
          2.12070499e-005, 0., 0., -7.70533930e-008, -1.10076272e-007,
          -6.67570857e-005, -1.54595356e-004, -2.05076474e-004,
          -1.62670054e-004, -1.63489633e-004, 4.00645840e-005,
          -2.25213793e-004, 2.47746560e-004, 1.11550908e-005,
          -5.56720595e-004, -6.99881581e-004, -2.18891786e-004,
          -1.46523322e-004, 1.11261135e-004, 3.10727715e-004,
          3.59680926e-005, 0., 0., 0., 0., -2.44842755e-004,
          -3.09880881e-004, 1.37725692e-005, 1.74352201e-004,
          -8.39401691e-005, 1.89352082e-004, 1.84358665e-004,
          2.30931546e-004, -6.91017485e-005, -3.84087180e-004,
          -3.77121614e-004, -9.56409713e-005, -1.72398650e-005,
          -1.05349551e-004, 2.75563973e-004, 2.22658331e-004, 0., 0., 0.,
          4.23368817e-007, -1.46579521e-004, -2.85199960e-004,
          2.14855289e-004, 7.18661977e-005, -6.00791864e-005,
          3.46619956e-004, 4.25351493e-004, 1.04049352e-004,
          -1.23995182e-004, -2.61329609e-004, -4.52643755e-004,
          -1.68481260e-004, -4.18496202e-005, 2.01213825e-005,
          1.44196456e-004, 3.43789492e-004, 0., 0., 0., 4.45651374e-008,
          -7.16064460e-005, -5.46776864e-005, 4.10098291e-005,
          -3.62032915e-006, 2.06239114e-004, 4.88671998e-004,
          4.06458275e-004, -6.19969724e-005, -2.06694618e-004,
          -4.70444356e-004, -5.52653393e-004, -2.28117322e-004,
          2.15240289e-005, 3.48848189e-005, 2.43541857e-004,
          3.95751267e-004, 0., 0., 0., 0., 0., 1.54253648e-004,
          9.28987720e-005, -1.08316926e-004, 1.76633417e-004,
          2.99567328e-004, -3.02419667e-005, -4.15759452e-004,
          -5.98451239e-004, -6.02816639e-004, -4.10942797e-004,
          -2.90137483e-004, 4.75175184e-005, 1.78603907e-004,
          3.44145956e-004, 2.86365859e-004, 0., 0., 0., 0., 0.,
          2.17170062e-004, 3.67423607e-004, -4.94214255e-005,
          1.52350200e-004, 2.56479514e-004, -1.47433500e-004,
          -5.10663318e-004, -5.29116660e-004, -2.61847483e-004,
          -8.76599588e-005, -7.58892420e-005, 3.22406704e-004,
          2.81455083e-004, 1.40185090e-004, 1.67431310e-004, 0., 0., 0.,
          0., 1.08695815e-006, 1.31894238e-004, 5.81115892e-004,
          5.48361626e-004, 5.63858892e-004, 3.85309278e-004,
          1.79974304e-004, -1.30511136e-004, -1.01541205e-004,
          1.25371342e-004, 1.72088941e-004, 1.00569247e-004,
          1.56939248e-004, -3.81318823e-005, 1.35459501e-004,
          1.00122241e-004, 0., 0., 0., 0., 8.69566520e-006,
          1.25216553e-004, 3.95360490e-004, 5.59293549e-004,
          1.00612279e-003, 7.47963204e-004, 7.01756333e-004,
          3.20529711e-004, 6.53011739e-005, 2.25392723e-004,
          1.11949324e-004, -7.21019169e-005, -3.18319144e-005,
          8.06725802e-005, 1.90989478e-004, 4.62749849e-005, 0., 0., 0.,
          0., 1.68478509e-005, 1.75202178e-004, 3.37642792e-004,
          2.95885518e-004, 5.72515652e-004, 7.27176899e-004,
          2.90812284e-004, 1.02648315e-004, 2.04440439e-004,
          1.08825727e-004, -6.49784488e-005, 3.83360129e-005,
          3.67909670e-005, 1.88848862e-004, 7.65640652e-005, 0., 0., 0.,
          0., 0., 1.14130607e-005, 8.51805817e-005, 3.23631721e-005,
          -6.25511675e-005, -1.23602644e-004, 3.41539446e-004,
          3.56268720e-004, 2.77261075e-004, 4.46555030e-004,
          1.25329054e-004, 1.44187958e-004, -1.59918727e-006,
          1.11218760e-004, 4.57181559e-005, 0., 0., 0., 0., 0., 0., 0.,
          -9.45680586e-005, -2.26076852e-004, -3.78869590e-004,
          -2.96597020e-004, -8.10507336e-005, -1.02417507e-004,
          1.54186419e-004, -8.02241266e-005, -2.54869054e-004,
          -1.81807089e-004, -4.56633607e-005, -1.88831800e-005, 0., 0.,
          0., 0., 0., 0., 0., 0., -4.30811997e-005, -1.34756032e-004,
          -1.95358589e-004, -1.11038709e-004, -1.22483631e-004,
          -1.74851142e-004, -2.79287371e-004, -4.39836382e-004,
          -2.01181829e-004, -2.44221519e-005, -3.89779598e-005,
          -1.29926530e-005, 0., 0., 0., 0., 0., 0., 0., 0., 0.,
          -4.65037147e-006, -6.09359040e-006, -9.11121515e-006,
          -2.38435896e-005, -2.31527138e-005, -4.86116078e-005,
          -3.28200476e-005, 0., -9.28046632e-007, -9.65168510e-006,
          -2.96974918e-006, 0., 0., 0., 0., 0. ]
      - [ 0., 0., 0., 0., 0., 0., 0., 0., 0., 0., 0., 0., 0., 0., 0., 0.,
          0., 0., 0., 0., 0., 0., 0., 0., 0., 0., 0., 0., 0., 0., 0., 0.,
          0., 0., 0., 0., 0., 0., 0., 0., 0., 0., 0., 0., 0., 0., 0., 0.,
          0., -3.92814087e-007, -2.03462805e-005, 3.01146592e-005,
          1.83794429e-004, 8.61853259e-005, 5.31971309e-005,
          -1.67867838e-005, -6.37721359e-006, 2.37824452e-007, 0., 0.,
          0., 0., 0., 0., 0., 0., 0., -6.83190092e-006, -4.38558236e-005,
          -1.73812168e-007, 6.17689220e-005, -7.58014285e-005,
          1.03223916e-004, 9.90944391e-005, 1.57238086e-004,
          3.88370354e-005, -2.12116720e-005, 2.70547898e-005,
          -1.11282379e-005, -2.17136358e-006, 0., 0., 0., 0., 0.,
          4.42607634e-005, 1.05196945e-004, -9.26611319e-005,
          -7.22697587e-005, 4.20186261e-005, 1.45802376e-004,
          -1.32415998e-005, -6.64981126e-005, 8.84032561e-005,
          1.77528185e-004, 8.14875020e-005, -9.24352644e-005,
          -4.15727345e-006, -5.45555085e-005, -9.22829531e-006, 0., 0.,
          0., -1.15653017e-006, -3.06575312e-005, 9.73767455e-005,
          5.85327762e-005, -9.17923026e-005, 2.64272414e-004,
          2.64383329e-004, -1.04353123e-004, -1.23364633e-004,
          2.47791846e-004, 4.57037531e-004, 3.00715881e-004,
          2.12339379e-004, -1.82992051e-004, -6.38967613e-005,
          -3.73518269e-005, 0., 0., 0., 0., -4.57628630e-005,
          -2.47723328e-005, 1.17911412e-004, -8.82749009e-005,
          1.95011908e-005, 1.77571434e-004, 7.83619980e-005,
          1.68672341e-004, 2.57031032e-004, 2.50673562e-004,
          4.75881476e-004, 8.10599231e-005, 7.19162199e-005,
          -2.08939571e-004, -2.81185814e-004, -7.72703715e-005, 0., 0.,
          0., -7.76375941e-007, -6.20757055e-005, 1.05703832e-004,
          1.23712147e-004, -1.30515371e-004, 3.89033848e-005,
          -1.61318123e-004, 4.52352697e-006, 2.82257679e-004,
          -1.17688156e-004, -3.93090915e-004, 2.94800353e-004,
          2.87158269e-004, 2.20856702e-004, -4.86820718e-005,
          -2.11105609e-004, -2.47718344e-005, 0., 0., 0.,
          -1.09267728e-006, -2.42279475e-006, 1.21185927e-004,
          2.64466144e-005, -6.68746652e-005, 1.27705920e-004,
          2.13213425e-004, -1.26972634e-004, -3.67889821e-004,
          -6.10838528e-004, -3.63337371e-004, 3.26407026e-004,
          3.30750801e-004, 2.69761258e-005, 8.09950579e-005,
          6.29328497e-005, 0., 0., 0., 0., -4.31319961e-007,
          5.28768505e-005, 1.41701035e-004, -6.91664027e-005,
          2.91752513e-005, 3.13113298e-004, 2.97639617e-005,
          -3.65298853e-004, -9.81430640e-004, -1.09751662e-003,
          -5.96995524e-004, 3.49039270e-004, 4.32529137e-004,
          8.80080770e-005, 1.13216222e-004, 1.13395785e-004, 0., 0., 0.,
          0., 0., 5.70187694e-005, 2.25930999e-004, 1.23211896e-004,
          2.45516596e-004, -1.09497501e-004, -5.76468999e-004,
          -7.29819818e-004, -1.20591640e-003, -1.23906764e-003,
          -3.36954807e-004, 4.55205067e-004, 4.87594341e-004,
          1.09947985e-004, 4.70739433e-005, 1.26052561e-004, 0., 0., 0.,
          0., 0., 4.26963998e-005, 2.77412968e-004, 2.79552885e-004,
          3.39105463e-004, -1.94392283e-004, -4.21319011e-004,
          -7.40780204e-004, -9.18046804e-004, -6.51204493e-004,
          -1.55625239e-004, 2.89648713e-004, 3.32603639e-004,
          1.97210873e-004, 1.96597684e-004, 1.45422731e-004, 0., 0., 0.,
          0., 0., 2.63450183e-005, 2.89283838e-004, 3.62794322e-004,
          2.77313666e-004, 5.99818159e-005, -3.31228104e-004,
          -7.36277492e-004, -4.14503622e-004, -1.68521419e-005,
          -2.87644270e-005, 1.25734499e-004, 1.47939005e-004,
          1.04447776e-004, 1.99810529e-004, 1.04409155e-004, 0., 0., 0.,
          0., 5.51943558e-008, 1.65227448e-005, 9.59093886e-005,
          3.40053200e-004, 9.01885360e-005, -4.04468701e-005,
          1.45639206e-004, -1.34996575e-004, -1.34705044e-006,
          1.59535120e-004, 6.94742557e-005, 5.17707049e-005,
          1.03086306e-004, -1.02359161e-004, 1.72441069e-004,
          7.13343325e-005, 0., 0., 0., 0., 5.51943558e-008,
          1.20792802e-005, 2.31652957e-005, -4.68061626e-005,
          9.56610966e-005, -9.61100814e-005, 5.29174693e-004,
          4.95795335e-004, 1.79146824e-004, 2.04827898e-004,
          -7.53601707e-005, -7.72759449e-005, 3.10483229e-005,
          8.23240862e-006, 9.88023530e-005, 1.65680540e-005, 0., 0., 0.,
          0., 5.51943558e-008, 8.88619470e-005, 1.77217385e-004,
          -1.16709751e-004, 1.48925727e-004, 9.59345634e-005,
          1.76303060e-004, 2.57043430e-004, 6.11003543e-006,
          -6.31254225e-005, -3.18942970e-004, -7.09676824e-005,
          4.95233689e-005, 1.01686332e-004, -6.13764314e-006,
          -4.88829301e-007, 0., 0., 0., 0., 0., 8.71117591e-005,
          2.15762295e-004, 2.60765555e-005, 7.12213878e-005,
          -3.40014740e-005, -1.84954784e-004, -1.36373186e-004,
          -6.95919298e-005, -1.00530306e-004, -1.22597208e-004,
          4.60883857e-005, 1.59038886e-004, 2.80366694e-005,
          -9.24906999e-006, 0., 0., 0., 0., 0., 0., 1.51715631e-005,
          3.12535667e-005, -1.19824490e-005, -4.82505529e-005,
          -1.13749295e-004, -8.71350785e-005, 9.43362757e-005,
          1.33763227e-004, 4.62701355e-005, 4.89514241e-005,
          9.72346024e-005, 2.08382426e-005, 0., 0., 0., 0., 0., 0., 0.,
          0., 0., 0., 0., 0., 0., 0., 0., 0., 0., 0., 0., 0., 0., 0., 0.,
          0., 0., 0., 0., 0., 0., 0., 0., 0., 0., 0., 0., 0., 0., 0., 0.,
          0., 0., 0., 0., 0., 0. ]
      - [ 0., 0., 0., 0., 0., 0., 0., 0., 0., 0., 0., 0., 0., 0., 0., 0.,
          0., 0., 0., 0., 0., 0., 0., 0., 0., 0., 0., 0., 0., 0., 0., 0.,
          0., 0., 0., 0., 0., 0., 0., 0., 0., 0., 0., 0., 0., 0., 0.,
          2.89508705e-007, 2.99922522e-005, -6.15216413e-005,
          -1.43849087e-004, 4.09945096e-005, 5.18931658e-004,
          2.60634319e-004, 5.32350678e-005, 4.99925591e-006, 0., 0., 0.,
          0., 0., 0., 0., 0., 0., 0., 3.91865397e-005, 1.18115146e-004,
          -2.86703260e-004, -7.96431777e-005, 2.66560353e-004,
          1.27371441e-005, 6.05841167e-004, 8.73026438e-004,
          6.36904093e-004, 1.45182115e-004, 3.17649028e-005,
          8.90604724e-007, 0., 0., 0., 0., 0., 0., 0., 0.,
          1.30230677e-004, -1.79955721e-004, -7.87323370e-005,
          8.14815052e-004, 4.90996055e-004, 1.15633375e-004,
          -5.51795412e-004, -2.21246315e-004, 4.71149651e-005,
          4.97145520e-004, 8.22746588e-005, 5.72076760e-006, 0., 0., 0.,
          0., 0., 0., 0., -9.68584118e-006, 4.43884528e-005,
          -5.07246412e-004, 2.26893841e-004, 6.32930605e-005,
          -2.25089927e-004, 4.20499739e-004, 4.75784298e-004,
          8.30977224e-004, -2.63929745e-004, 5.05712698e-004,
          1.90000748e-004, 1.14796185e-005, 0., 0., 0., 0., 0., 0.,
          -2.44556886e-005, -2.33330102e-005, -1.67984574e-004,
          -4.45374433e-004, -1.36595569e-004, -1.55781709e-005,
          4.58800961e-004, 2.57348409e-004, 1.84536795e-004,
          4.43412864e-004, -3.62920196e-004, 2.41626301e-004,
          1.07552703e-004, 3.34618235e-005, 0., 0., 0., 0., 0.,
          -2.41195703e-005, -9.33714182e-005, 8.21879294e-005,
          -5.26798976e-005, -2.49659934e-004, -8.06858996e-004,
          2.23718642e-004, 2.52438855e-004, 4.07078653e-004,
          -2.31008686e-004, -1.15123839e-004, -4.10154957e-004,
          -8.56032202e-005, 3.32389318e-004, 1.13880073e-004, 0., 0., 0.,
          0., 0., -5.02977709e-005, 5.10453674e-006, -6.81145757e-005,
          -1.53589805e-004, 4.96214896e-004, -2.63072987e-004,
          -7.09765241e-004, -6.50498900e-004, -7.04085105e-004,
          -6.33023796e-004, -3.38642159e-004, -6.99032506e-004,
          -3.29833711e-005, 3.74045223e-004, 2.95022997e-004, 0., 0., 0.,
          0., -4.08795768e-006, -3.33846401e-005, 1.90286097e-004,
          -3.22096690e-004, 2.11519466e-004, 1.08227879e-003,
          1.45624479e-004, -3.58953024e-004, -7.36985297e-004,
          -9.19660495e-004, -3.19886924e-004, 3.04574700e-004,
          -5.83339541e-004, 1.73700741e-004, 2.29646786e-004,
          3.20453837e-004, 0., 0., 0., 0., -1.29451992e-005,
          5.36695879e-005, -1.58769020e-004, -4.15472576e-004,
          3.97847471e-004, 8.78833293e-004, -8.22219008e-005,
          -5.63653361e-004, -8.00008012e-004, -9.31010116e-004,
          -4.25893173e-004, -1.92619744e-004, -4.88949241e-004,
          4.31605382e-004, 2.64026894e-004, 2.80790584e-004, 0., 0., 0.,
          0., -2.34816571e-006, 2.03472038e-004, -2.07138364e-004,
          -1.08728906e-004, 2.76711071e-004, 2.30071237e-004,
          -3.06514179e-004, -7.76961970e-004, -9.28693858e-004,
          -1.07656012e-003, -5.34124032e-004, 2.27613127e-004,
          -3.90568530e-005, 7.04374223e-004, 4.30081127e-004,
          1.45627157e-004, 0., 0., 0., -7.13100462e-006, 9.55465021e-006,
          3.91712034e-004, 2.58802083e-005, 4.88003221e-004,
          4.41649201e-004, 4.10916342e-004, -1.50651380e-004,
          -8.71567463e-004, -1.02581305e-003, -7.29408348e-004,
          -1.87901111e-004, 6.90893445e-004, 1.33086447e-004,
          6.27331669e-004, 1.80882387e-004, 4.73796972e-005, 0., 0., 0.,
          -8.48011314e-006, 1.13755550e-005, 3.00279440e-004,
          -3.03249963e-005, 7.82867777e-004, 9.27929708e-004,
          4.29919630e-004, 2.79540167e-004, -3.39914259e-004,
          7.04053164e-005, -4.55892237e-004, 5.04601012e-005,
          1.39814671e-004, -1.03511324e-004, 7.61634074e-005,
          1.12727801e-004, 2.47404059e-005, 0., 0., 0., 0.,
          1.74922898e-005, 2.93756515e-004, -7.90829581e-005,
          -9.22735344e-005, 7.79177586e-004, 6.09804527e-004,
          9.70188994e-004, 8.33957805e-004, -2.98250845e-004,
          -6.27378118e-004, -1.62651966e-004, -7.76348810e-004,
          1.32372243e-005, 8.29842611e-005, 7.46295409e-005,
          5.62218156e-006, 0., 0., 0., 0., 1.02539952e-005,
          1.39323107e-004, 3.44868487e-004, -1.39801938e-004,
          3.24352761e-004, 3.70114052e-004, -1.25446910e-004,
          -8.79234649e-005, -1.25351260e-004, -2.25643889e-004,
          -1.03639590e-003, -1.71541702e-004, 8.76153863e-005,
          2.62631020e-005, -1.26904142e-005, -3.09565678e-007, 0., 0.,
          0., 0., 6.23423330e-006, 8.22473303e-005, 1.46742488e-004,
          1.70754603e-004, 1.08782275e-004, 9.58802353e-004,
          9.29840666e-004, 7.06162828e-004, 5.29909390e-004,
          -5.74857520e-004, -7.45128084e-004, 2.29896013e-005,
          5.68661198e-005, -4.67409809e-005, -7.67722886e-005,
          -2.78609114e-005, 0., 0., 0., 0., 0., -7.51759853e-006,
          -2.01669754e-004, -1.81020572e-004, -7.61569318e-005,
          -1.95140223e-004, 2.42985843e-004, 5.92381693e-004,
          3.45642591e-004, -6.17565005e-004, -4.34346613e-004,
          -3.97461408e-005, 5.25518089e-007, -2.66226489e-005,
          -7.89392507e-005, -3.74574483e-005, 0., 0., 0., 0., 0.,
          -2.32680377e-005, -1.70809435e-004, -1.90587321e-004,
          -6.71565722e-005, -1.41933633e-004, -1.81607800e-004,
          -1.34646849e-004, -2.84374750e-004, -7.02330508e-005,
          -2.73865262e-005, -6.43761232e-005, -2.84535327e-006,
          -7.12001065e-006, -3.99339733e-005, -1.30017588e-005, 0., 0.,
          0., 0., 0., 0., -1.48813724e-005, -3.31969059e-005,
          -4.00652334e-006, 0., 0., 0., 0., 0., -1.95618049e-005,
          -6.61544691e-005, -7.82472216e-006, 0., 0., 0., 0., 0. ]
      - [ 0., 0., 0., 0., 0., 0., 0., 0., 0., 0., 0., 0., 0., 0., 0., 0.,
          0., 0., 0., 0., 0., 0., 0., 0., 0., 0., 0., 0.,
          -1.99422848e-005, -7.47835657e-005, -8.14309969e-005,
          -6.64742811e-006, 0., 0., 0., 0., 0., 0., 0., 0., 0., 0., 0.,
          0., 0., 3.86331485e-005, 6.62282546e-005, 0., -5.19725327e-005,
          -2.34742096e-004, -2.19422727e-004, 2.12020663e-004,
          1.74116518e-004, 3.69506088e-005, -2.66243933e-005,
          4.33348469e-005, 1.62683646e-005, 0., 0., 0., 0., 0., 0., 0.,
          6.34687458e-005, 4.59724572e-004, 3.80020530e-004,
          -6.64254942e-004, -1.20496075e-003, -9.93146678e-004,
          -9.00809595e-004, -4.59084149e-005, 1.56610375e-004,
          2.67463678e-004, 1.82571326e-004, 3.91863461e-004,
          3.51239287e-004, 6.51338923e-005, 0., 0., 0., 0., 0., 0.,
          1.88232458e-004, -1.65343648e-004, -4.30362794e-004,
          -1.45215786e-003, -1.66441302e-003, -4.36434319e-004,
          -5.38020278e-004, -2.27916127e-004, 3.36255471e-004,
          -1.55196205e-004, 7.90170816e-005, 3.55761760e-004,
          4.81652241e-004, 1.20233322e-004, 0., 0., 0., 0., 0.,
          -2.00736002e-004, -8.58633080e-004, -9.05534544e-004,
          -8.29842465e-005, 3.89394379e-004, -4.40361880e-004,
          5.09080477e-004, 5.16757660e-004, -7.76468005e-005,
          -2.58334912e-004, -1.20027136e-004, 3.96247138e-004,
          3.32189200e-004, 6.73652030e-005, -6.46105764e-006, 0., 0., 0.,
          0., 0., -2.12318133e-004, -1.03177549e-003, -1.65958784e-003,
          -1.13736733e-003, 2.33166691e-004, -2.29206518e-004,
          1.17211672e-003, 5.40228677e-004, -1.51226282e-004,
          6.78900324e-005, 2.86112860e-004, 1.27001651e-004,
          -3.77859862e-004, -2.23906958e-004, -1.38836313e-005, 0., 0.,
          0., 0., 0., -4.43951139e-005, -3.27546877e-004,
          -8.91602424e-004, -6.37651538e-004, 2.71846424e-004,
          4.54394292e-004, 1.04048534e-003, 9.12153686e-004,
          3.25613422e-004, -4.75195702e-005, 1.21410914e-004,
          -6.41321880e-004, -6.47571112e-004, -9.69612374e-005, 0., 0.,
          0., 0., 0., 0., -9.28268346e-005, -1.27334832e-004,
          6.58406760e-004, 4.89426136e-004, 7.53534376e-004,
          1.10026461e-003, 1.16924022e-003, 9.67181229e-004,
          2.74762308e-004, -2.40661233e-004, -3.09075258e-004,
          -7.83646130e-004, -1.94368549e-004, -1.32372988e-005, 0., 0.,
          0., 0., 0., 0., -3.33476200e-005, 2.71498779e-004,
          5.80074789e-004, -2.37403419e-005, -1.85024939e-004,
          4.39564668e-004, 1.41772861e-003, 1.41061156e-003,
          5.44973474e-004, -1.04505110e-004, -5.91089833e-004,
          -2.92074925e-004, -3.36458434e-005, 0., 0., 0., 0., 0., 0., 0.,
          7.47379236e-005, 1.43338169e-004, -4.77587222e-004,
          -8.12275975e-004, -6.57295925e-004, -4.15127521e-004,
          1.24222145e-003, 1.21622521e-003, 2.75449769e-004,
          2.82383873e-004, -4.58341499e-004, -9.76214505e-005,
          -1.20572067e-005, 0., 0., 0., 0., 0., 0., 0., -5.92789802e-005,
          -4.48669132e-004, -8.91982927e-004, -5.99625520e-004,
          -1.11672143e-003, -6.30200317e-004, 1.04741252e-003,
          1.13939960e-003, -6.15202182e-004, -2.08095262e-005,
          -5.86921640e-004, -5.12078812e-004, -2.27192053e-004,
          -1.88102189e-004, -1.10270768e-004, 0., 0., 0., 0.,
          -6.84914585e-006, -2.50561017e-004, -7.18204945e-004,
          -6.72427064e-004, -3.08055081e-004, -4.22452082e-004,
          -1.39415555e-003, 6.78985612e-004, 6.27319445e-004,
          -7.07696076e-004, -1.61056363e-004, 5.36961830e-004,
          9.49443984e-006, -8.43939255e-004, -5.92696655e-004,
          -4.88758145e-004, 0., 0., 0., 0., -2.37030272e-005,
          -2.98096711e-004, -5.25402371e-004, -4.78027971e-004,
          -1.84684730e-004, -2.01613293e-004, -1.33532053e-003,
          -4.46593040e-004, 1.18486576e-004, -2.57171225e-004,
          2.76141363e-004, 7.33160588e-004, -5.87307877e-005,
          -1.69409008e-003, -1.26676320e-003, -6.01151318e-004, 0., 0.,
          0., 0., -3.76162425e-005, -2.92277575e-004, -2.06592813e-004,
          -1.32320347e-004, -4.08018590e-004, -4.76877409e-004,
          -4.94983920e-004, -3.00785410e-004, 6.68149805e-005,
          -3.82263301e-004, 8.31397920e-005, -2.24520627e-004,
          -1.07049500e-003, -7.82270741e-004, -7.19442556e-004,
          -1.57086077e-004, 0., 0., 0., 0., -1.64186968e-005,
          -2.18058776e-004, 2.40260444e-004, 2.09017962e-004,
          9.34997297e-005, 2.24493648e-004, -3.62564984e-004,
          -4.17748612e-004, -1.64733647e-005, -1.07601925e-004,
          -9.64367820e-004, -1.20481092e-003, -2.62205896e-004,
          -4.13966773e-005, -3.31664021e-004, -2.35869782e-004,
          -1.12118387e-005, 0., 0., 0., 0., -5.65922091e-005,
          2.49638717e-004, 2.17306049e-004, 3.21287138e-004,
          -1.46989551e-005, -3.05848152e-005, -3.39826103e-004,
          -7.14683032e-004, -5.05414791e-004, -6.44123415e-004,
          -8.47690622e-004, -2.89804564e-004, 5.64689508e-005, 0., 0.,
          0., 0., 0., 0., 0., 1.59944429e-005, 1.97267596e-004,
          1.13160568e-004, 2.79240834e-004, 4.90943712e-005,
          2.09172271e-004, 1.51647109e-004, -7.02355639e-004,
          -6.12972653e-004, 1.20805315e-004, -5.15870925e-004,
          -1.00306340e-003, -4.74573870e-004, 0., 0., 0., 0., 0., 0., 0.,
          0., 0., 0., 0., 0., 0., 0., 0., 0., 0., 0., 0., 0., 0., 0., 0.,
          0., 0., 0., 0., 0., 0., 0., 0., 0., 0., 0., 0., 0., 0., 0., 0.,
          0., 0., 0., 0., 0. ]
      - [ 0., 0., 0., 0., 0., 0., 0., 0., 0., 0., 0., 0., 0., 0., 0., 0.,
          0., 0., 0., 0., 0., 0., 0., 0., 0., 0., 0., 0., 0., 0., 0., 0.,
          0., 0., 0., 0., 0., 0., 0., 0., 0., 0., 0., 0., 0.,
          2.08600559e-005, -4.58861432e-005, -1.77069116e-004,
          -1.57184972e-004, -1.08792075e-004, 5.60581339e-006,
          2.10991129e-004, 4.11452820e-005, -1.76927024e-005,
          -2.59140597e-005, -7.19711011e-007, 0., 0., 0., 0., 0., 0., 0.,
          0., -8.68054940e-006, 2.61921814e-004, 3.76500102e-004,
          -1.86559613e-004, -1.29979438e-004, 1.37799580e-004,
          2.82040928e-005, -1.75189663e-004, -1.39237600e-004,
          4.01518737e-005, -8.02224022e-005, -1.88593738e-004,
          1.16014344e-004, 3.54865588e-005, 0., 0., 0., 0.,
          -7.54611174e-005, -2.78340100e-004, -4.96507331e-004,
          -2.91938923e-004, -2.98580155e-004, -4.68482758e-004,
          -8.43317539e-004, -4.55507688e-004, -4.52841850e-005,
          1.32384463e-004, -5.37497772e-006, 5.01705399e-005,
          5.21865659e-005, -3.26083013e-004, 8.48825148e-005,
          6.45651671e-005, 0., 0., 0., 0., -2.58723827e-004,
          -3.16909311e-004, -6.86771469e-004, -2.13837367e-004,
          -1.10409950e-004, -5.76756080e-004, -7.17102143e-004,
          -3.14078614e-004, 3.53295072e-005, 3.44698055e-004,
          -3.30433017e-004, -4.24708305e-005, -1.29903987e-004,
          5.17223307e-005, -1.27741121e-004, -2.66129337e-005, 0., 0.,
          0., 0., -8.85212066e-005, -1.20284589e-004, -2.71882833e-004,
          -1.83889104e-004, 2.30882171e-004, 5.63040521e-005,
          5.72382414e-004, 6.72565075e-004, -3.15591256e-004,
          -6.47988287e-004, -3.06554226e-004, 4.11827728e-004,
          -2.26084521e-004, -1.72857122e-004, -1.14688533e-004,
          -5.37719734e-006, 0., 0., 0., 0., -1.25800681e-004,
          -1.25165330e-004, -8.06903408e-005, 9.80635104e-006,
          3.91905254e-004, 5.21718932e-004, 5.58341446e-004,
          9.55798256e-004, 2.40761816e-004, -6.36314566e-004,
          -6.65074331e-005, -1.38057541e-004, -3.81537422e-004,
          -1.75239504e-004, -1.92680982e-005, 0., 0., 0., 0., 0.,
          -3.30385628e-005, -1.77899965e-005, 1.54901951e-004,
          7.39819370e-004, 2.45050644e-004, -3.64712061e-004,
          1.23771373e-004, 5.11510356e-004, 2.34306572e-004,
          5.19607333e-004, -3.17927101e-004, -7.19081610e-004,
          -2.73860933e-004, -4.15498798e-005, -3.89416846e-006, 0., 0.,
          0., 0., 0., 0., 4.04986240e-005, 5.12819330e-004,
          5.61608758e-004, -1.99583068e-004, -9.26868233e-004,
          -6.41132647e-004, -8.53377933e-005, 4.04886814e-004,
          6.99948287e-004, -5.97489998e-004, -8.58823012e-004,
          -3.33048229e-004, -9.04511908e-005, -4.31603657e-005, 0., 0.,
          0., 0., 0., 0., 8.90969677e-005, 2.18692556e-004,
          5.83413748e-006, -4.08230844e-004, -9.57419979e-004,
          -9.07121808e-004, -1.47406317e-004, 7.82643212e-004,
          2.70368590e-004, -5.31611498e-004, -1.01291342e-003,
          -4.67339210e-004, -2.96637794e-004, -8.97196151e-005,
          -2.79082051e-005, 0., 0., 0., 0., 0., 0., -7.04052654e-005,
          -2.43978342e-004, -4.35655966e-004, -3.75195406e-004,
          1.64992860e-004, 6.89861918e-005, 7.40393065e-004,
          -3.22728185e-004, -5.31834550e-004, -5.91941061e-004,
          -5.36014966e-004, -4.12252528e-004, -1.70125320e-004,
          -6.94460032e-005, 0., 0., 0., 0., 0., -2.40429381e-005,
          -1.31519060e-004, -4.30645479e-004, -3.27713788e-004,
          6.42863233e-005, 6.25889050e-004, 1.07159046e-003,
          1.00870326e-003, -2.12758227e-004, -5.25681302e-004,
          -3.60894046e-004, -4.40771197e-004, -5.23221795e-004,
          -2.51742167e-004, -7.23666235e-005, 0., 0., 0.,
          -2.87884404e-006, -8.58870771e-005, -1.76110669e-004,
          -4.23196063e-004, -5.24404459e-004, 1.77424823e-004,
          4.62671858e-004, 4.06778592e-004, 9.22223378e-004,
          8.48590920e-004, -1.20960132e-004, 1.59473566e-004,
          -1.61638178e-004, -2.98981235e-004, -4.13873175e-004,
          -2.10388622e-004, -7.23666235e-005, 0., 0., 0.,
          -4.10235261e-005, -1.80723204e-004, -3.84060317e-004,
          -7.43643672e-004, -3.85104591e-004, 4.00617893e-004,
          4.71341307e-004, 1.80338000e-004, 2.25130600e-004,
          -4.23280348e-004, -7.35221372e-004, 4.51890519e-004,
          8.51147415e-005, -1.20064637e-004, 2.18838031e-005,
          -1.09436070e-004, -5.35448125e-005, 0., 0., 0.,
          -6.11754367e-005, -1.79927752e-004, -3.10213043e-004,
          -2.56717438e-004, 9.70372639e-005, 1.34563365e-004,
          2.69846969e-005, -2.17402936e-004, -1.39417652e-005,
          -3.32405005e-004, -1.99181930e-004, 2.76689272e-004,
          9.21371684e-005, 2.09523350e-004, 2.57601321e-004,
          -3.92661968e-005, -3.24514031e-006, 0., 0., 0.,
          -3.59855494e-006, -8.07260585e-005, -1.96083769e-004,
          -5.74797668e-005, -1.84014425e-004, -5.23278082e-004,
          -4.36868402e-004, 6.18947233e-005, -2.86251074e-004,
          -6.47861045e-004, -8.09751218e-005, 5.56385385e-005,
          -1.09225039e-004, 2.10862301e-004, 2.09401551e-004, 0., 0., 0.,
          0., 0., 0., -7.29433013e-005, -3.15437006e-004,
          -1.36896866e-004, -3.64898267e-004, -7.07617844e-004,
          -6.95950876e-004, -7.06921623e-004, -7.56868976e-004,
          -3.70712049e-004, -1.20493576e-004, 2.28445260e-005,
          -7.30853644e-004, -4.49665356e-004, 7.45166653e-006, 0., 0.,
          0., 0., 0., 0., -1.29052733e-005, -9.46386717e-005,
          -9.24877968e-005, -6.14467717e-005, -1.92167918e-005,
          -4.21751502e-005, -2.33396713e-004, -1.16223768e-004, 0., 0.,
          -2.85810711e-005, -2.21127237e-004, -7.52133419e-005, 0., 0.,
          0., 0., 0., 0., 0., 0., 0., 0., 0., 0., 0., 0., 0., 0., 0., 0.,
          0., 0., 0., 0., 0., 0., 0. ]
      - [ 0., 0., 0., 0., 0., 0., 0., 0., 0., 0., 0., 0., 0., 0., 0., 0.,
          0., 0., 0., 0., 0., 0., 0., 0., 0., 0., 0., 0., 0., 0., 0., 0.,
          0., 0., 0., 0., 0., 0., 0., 0., 0., 0., 0., 0., 0.,
          2.55314153e-005, 3.49099610e-005, -2.81851171e-005,
          -3.87214732e-006, 4.96318989e-006, -1.84975761e-005,
          1.24633108e-004, 1.60069743e-004, 4.43352183e-005,
          4.54355268e-006, 0., 0., 0., 0., 0., 0., 0., 0., 0.,
          4.19444696e-005, 3.31908406e-004, 2.89804855e-004,
          -1.61194708e-004, -3.02297522e-005, -1.29882974e-005,
          -2.40310357e-004, 1.15260635e-004, 3.68934387e-004,
          1.27091203e-004, 4.01347133e-005, 4.55548688e-005,
          8.73785539e-005, -9.48129964e-005, -3.85330422e-005, 0., 0.,
          0., 0., 0., 2.02427647e-004, 4.44098987e-004, 1.80800795e-004,
          5.66099743e-006, 1.14714756e-004, 4.62293174e-005,
          1.42096804e-004, 6.22925465e-004, 6.31025410e-004,
          1.69436622e-004, 6.60177466e-005, 1.64956393e-004,
          4.96639077e-005, -8.32360165e-005, -3.76881544e-005,
          -3.11289068e-006, 0., 0., 0., 0., -3.32300692e-006,
          6.35381293e-005, 6.17720507e-005, 2.84116075e-004,
          7.96828681e-005, 1.44553225e-004, 3.64501408e-004,
          5.66121249e-004, 3.62400868e-004, 9.40643804e-005,
          2.08595768e-004, 1.61607633e-004, -7.04169579e-005,
          -4.19992539e-005, -1.85528279e-005, -3.36192193e-006, 0., 0.,
          0., -1.53004930e-005, -1.53747416e-004, -3.78008059e-004,
          2.34869985e-005, 1.29139662e-004, 1.56703521e-004,
          3.59940110e-004, 5.25004907e-005, -1.24924423e-004,
          -2.66564399e-004, 2.36228443e-004, 2.51845195e-004,
          2.72787456e-005, -2.52818951e-004, -4.31627668e-005, 0., 0.,
          0., 0., 0., -7.48918828e-005, -2.17736495e-004,
          -4.34146408e-004, -1.26993778e-004, 6.00034218e-006,
          1.72618136e-004, 1.05569707e-004, 1.66911806e-004,
          -8.26332762e-005, -3.96215328e-004, 1.78345654e-004,
          1.37967785e-004, -1.87617305e-004, -1.94894281e-004,
          -2.20842703e-005, 0., 0., 0., 0., -1.69110699e-005,
          -1.76358313e-004, -1.45476995e-004, -1.48735460e-004,
          -2.31703103e-004, -4.91374230e-004, -4.28933417e-004,
          9.27033216e-006, 7.06680526e-004, -4.15320255e-006,
          -5.17163484e-004, 3.62515384e-005, -2.76219434e-005,
          -2.19696041e-004, -1.40523349e-004, -9.78625849e-006, 0., 0.,
          0., 0., -3.22115629e-005, -1.98863985e-004, -5.53296704e-005,
          -1.70144442e-004, -4.18836396e-004, -1.51267194e-003,
          -1.00928033e-003, 5.18315879e-004, 9.70330264e-004,
          -1.05364154e-004, -5.11259830e-004, -2.90722732e-004,
          -3.68800305e-004, -4.44710226e-004, -1.10385998e-004, 0., 0.,
          0., 0., 0., -2.49639616e-005, -2.02778319e-004,
          -2.82385619e-004, -3.77342687e-004, -4.23968013e-004,
          -1.01439410e-003, -6.92933449e-004, 4.00737452e-004,
          3.12782911e-004, -5.51462290e-004, -1.03537878e-003,
          -9.00997664e-004, -5.41567220e-004, -4.88529855e-004,
          -2.07581761e-004, -2.66899387e-005, 0., 0., 0., 0., 0.,
          -1.45669590e-004, -3.91440233e-004, -5.53582737e-004,
          -6.15142984e-004, -9.18209495e-004, -3.16105026e-004,
          3.12382152e-004, 1.29725580e-004, -4.85780358e-004,
          -6.10470597e-004, -5.03492134e-004, -3.69874702e-004,
          -3.99517710e-004, -2.47593649e-004, -3.30287512e-005, 0., 0.,
          0., 0., 0., -2.09950595e-005, -1.81426891e-004,
          -4.21383738e-004, -3.83355742e-004, -1.22984900e-004,
          5.46743686e-005, 3.27942107e-004, -1.41753393e-004,
          -1.04814855e-004, -2.65821494e-004, -1.27880252e-004,
          -2.16824861e-004, -2.15535882e-004, -7.98505062e-005,
          -8.56297629e-006, 0., 0., 0., 0., 0., 0., -2.33946157e-005,
          -1.41522192e-004, 7.89160258e-005, 8.59003339e-005,
          1.02227030e-004, 4.46385471e-004, -1.00017089e-004,
          7.70567785e-005, 1.47132785e-004, 2.77236337e-004,
          1.71676089e-004, -7.06151113e-005, 0., 0., 0., 0., 0., 0., 0.,
          0., 1.43350953e-005, 2.90729979e-004, 4.42643970e-004,
          2.77134415e-004, 2.90882628e-004, 5.05897275e-004,
          -3.16540463e-005, 1.48656793e-004, 2.09859863e-004,
          3.66006076e-004, 3.86812462e-004, 5.27598168e-005, 0., 0., 0.,
          0., 0., 0., 0., 0., 2.29615136e-004, 5.70186356e-004,
          2.34121573e-004, 1.93736429e-004, 2.80915003e-004,
          4.52271706e-005, -9.69844914e-005, 3.42932239e-004,
          2.55164457e-004, 2.13375999e-004, 2.87953706e-004,
          1.06028405e-004, 0., 0., 0., 0., 0., 0., 0., 3.79623884e-006,
          3.22616979e-004, 2.12002211e-004, 1.01438112e-004,
          7.94224907e-005, 2.09124686e-004, -2.16408880e-004,
          -3.21606378e-004, 3.16659367e-004, 2.86783121e-004,
          1.16068404e-004, 2.39750763e-004, 1.58159091e-004, 0., 0., 0.,
          0., 0., 0., 0., 1.70830754e-005, 1.84632110e-004,
          -4.74590197e-005, -1.17548443e-005, -1.21501987e-004,
          9.14711854e-005, -2.49523699e-004, -1.77616253e-004,
          -6.05882269e-005, 6.89843000e-005, -1.31325098e-004,
          -1.78228966e-005, 2.96049493e-005, 0., 0., 0., 0., 0., 0., 0.,
          0., 0., -2.56889289e-005, -1.90832041e-004, -6.72805254e-005,
          0., -1.42537276e-004, -1.20454033e-005, 0., 0., 0., 0., 0., 0.,
          0., 0., 0., 0., 0., 0., 0., 0., -2.07958001e-005,
          -4.89312915e-005, 0., 0., -2.60983743e-005, -2.00756722e-006,
          0., 0., 0., 0., 0., 0., 0., 0., 0. ]
      - [ 0., 0., 0., 0., 0., 0., 0., 0., 0., 0., 0., 0., 0., 0., 0., 0.,
          0., 0., 0., 0., 0., 0., 0., 0., 0., 0., 0., 0., 0., 0., 0., 0.,
          0., 0., 0., 0., 0., 0., 0., 0., 0., 0., 0., 0., 0.,
          4.79827650e-005, 8.22561706e-005, 0., 2.85250553e-005,
          9.88917818e-005, 1.13987298e-005, 4.64988058e-004,
          2.40490204e-004, 3.49218062e-005, 5.44847026e-005,
          5.49478464e-005, -1.42019388e-007, -1.06814230e-006, 0., 0.,
          0., 0., 0., 0., 7.88288307e-005, 6.23775937e-004,
          7.47652492e-004, 7.58459428e-005, -1.61301301e-004,
          -2.58294924e-004, -9.09561175e-004, -4.68922372e-004,
          5.99525229e-004, 3.61726852e-004, 4.27054765e-004,
          3.14405886e-004, 1.40783886e-004, 6.47801301e-007, 0., 0., 0.,
          0., 0., 0., 3.80434794e-004, 8.30703357e-004, 5.24296891e-004,
          5.05510034e-005, -1.07031711e-003, -6.68251247e-004,
          -8.04435767e-005, 8.55150211e-005, 7.56552836e-005,
          -4.32063127e-004, -3.28648050e-004, -3.14136676e-004,
          -3.56596545e-004, -4.04830527e-004, -2.13940148e-004, 0., 0.,
          0., 0., 0., 5.14101084e-005, 3.31233459e-004, 1.43720958e-004,
          9.81886769e-005, -5.21540234e-004, -1.16979551e-004,
          4.83763841e-004, 1.70850268e-004, -6.92542060e-004,
          -1.44924386e-004, -1.81048090e-004, -3.69634217e-004,
          -9.33827541e-004, -8.07775126e-004, -2.38779350e-004, 0., 0.,
          0., 0., 0., 0., -4.18218769e-005, 6.27645932e-005,
          6.97016294e-005, 1.54483569e-004, 4.92328254e-004,
          2.69103213e-004, 4.64470868e-005, 1.28996791e-004,
          3.41560983e-004, -3.43446649e-004, -8.14174768e-004,
          -8.02291848e-004, -5.30670106e-004, -1.44121848e-004, 0., 0.,
          0., 0., 0., 0., 1.54833015e-005, 2.55787541e-004,
          -2.31085978e-005, 7.50862600e-005, 8.16425891e-005,
          -4.25601065e-005, 1.48065941e-004, 5.69402764e-004,
          2.07480567e-004, -2.84981536e-004, -2.77197047e-004,
          -1.51074404e-004, -1.01778525e-004, -5.62334390e-006, 0., 0.,
          0., 0., 0., 1.65534686e-004, 8.23436771e-004, 5.69314579e-004,
          -2.26006014e-004, -1.38647258e-004, 2.04532648e-006,
          3.66598455e-004, 6.84395840e-004, 6.21538959e-004,
          -1.39263575e-004, -3.01762397e-004, -2.18739180e-004,
          -2.19564652e-004, -1.19762532e-004, 0., 0., 0., 0., 0.,
          3.27990092e-005, 3.74159077e-004, 3.25177592e-004,
          -1.30840068e-004, -9.97175230e-004, -1.20457320e-003,
          1.73228269e-004, 9.72962705e-004, 9.33868519e-004,
          3.37619975e-004, -4.90900944e-004, -5.36102336e-004,
          -3.21086030e-004, -1.28464002e-004, -2.85148894e-006, 0., 0.,
          0., 0., 0., -3.53020332e-005, -3.95211595e-004,
          -5.87026472e-004, -5.42939641e-004, -1.48589863e-003,
          -1.60824007e-003, 6.45912776e-004, 9.03035689e-004,
          -5.89750649e-004, -5.31864527e-004, -5.04498370e-004,
          -2.31671700e-004, -1.32294124e-004, -1.30828048e-005, 0., 0.,
          0., 0., 0., -4.40993432e-007, -2.42547394e-004,
          -5.32708480e-004, -3.40964092e-004, -2.35566244e-004,
          -6.78080658e-004, -2.67602183e-004, 1.11721258e-003,
          8.80015665e-004, -5.42578404e-004, -6.73735747e-004,
          -4.59594972e-004, -3.73669725e-004, -1.38106683e-004,
          -2.93995618e-005, -2.05796937e-006, 0., 0., 0., 0.,
          -4.40993426e-006, -7.18622323e-005, -4.03596816e-004,
          -4.18160867e-004, -2.75399769e-004, -9.63877610e-005,
          2.71557394e-004, 7.69145903e-004, 5.97340695e-005,
          -7.89165497e-004, -8.26925563e-004, -2.65343493e-004,
          -4.19830118e-004, -1.86765246e-004, -3.74844421e-005,
          -5.14492331e-006, 0., 0., 0., 0., -7.34989044e-007,
          -1.84862845e-004, -7.65651115e-004, -8.32840393e-004,
          -6.33267045e-004, 2.05961915e-004, 1.59850955e-004,
          6.75566960e-004, 5.12295694e-004, -5.15717606e-004,
          -8.70130025e-004, 2.02465308e-004, 3.14913981e-004,
          3.03096731e-005, -3.67494504e-005, -4.55693225e-006, 0., 0.,
          0., 0., 0., -7.13830595e-005, -5.54161554e-004,
          -7.60707655e-004, -2.46721378e-004, 1.05929561e-004,
          -4.76624809e-005, 6.62104343e-004, 1.07962720e-003,
          8.99231163e-005, -9.23292755e-005, 7.14739959e-004,
          5.63119305e-004, 1.24146638e-004, -1.88157192e-005,
          -7.34989044e-007, 0., 0., 0., 0., 0., -8.62842626e-006,
          1.72224391e-004, 4.54210385e-004, 2.30242716e-004,
          -8.84774199e-004, -1.02598639e-003, -3.92490707e-004,
          -1.54682362e-004, 7.22880010e-004, 2.98125233e-004,
          -1.87674348e-004, 1.45040598e-004, 9.25413260e-005, 0., 0., 0.,
          0., 0., 0., 0., 1.85605728e-007, 8.91245218e-005,
          -6.16633861e-006, -3.43702792e-004, -6.95098191e-004,
          -4.12592111e-004, -7.18872121e-004, -6.55745273e-004,
          1.08775124e-003, 4.17017058e-004, -3.87220934e-004,
          3.66356137e-004, 3.50197166e-004, 0., 0., 0., 0., 0., 0., 0.,
          8.35225762e-007, 1.56836832e-005, -7.25186183e-005,
          -8.81175874e-005, -1.04962761e-004, -3.02995701e-004,
          -3.02247121e-004, -2.50673125e-004, -8.94395052e-005,
          -3.02589528e-004, -6.31971750e-004, -8.13542938e-005,
          6.16921316e-005, 0., 0., 0., 0., 0., 0., 0., 0., 0., 0., 0.,
          0., 0., 0., -1.36562057e-005, -2.13680963e-004,
          -5.81127999e-004, -1.33109352e-004, 0., 0., 0., 0., 0., 0., 0.,
          0., 0., 0., 0., 0., 0., 0., 0., 0., -1.22905849e-005,
          -5.05279604e-005, -3.96029973e-005, 0., 0., 0., 0., 0., 0., 0. ]
      - [ 0., 0., 0., 0., 0., 0., 0., 0., 0., 0., 0., 0., 0., 0., 0., 0.,
          0., 0., 0., 0., 0., 0., 0., 0., 0., 0., 0., 0., 0., 0., 0.,
          -1.72627813e-006, -5.00620663e-005, -9.20681669e-006, 0., 0.,
          0., 0., 0., 0., 0., 0., 0., 0., -6.10560892e-006,
          -1.15098665e-005, 4.04520615e-005, -2.41134971e-004,
          -8.58719941e-005, -9.98473934e-006, -5.29589597e-004,
          -1.51619141e-004, -4.71614796e-004, -5.53722784e-004,
          -4.89936850e-004, -4.09631230e-006, 6.83121516e-006, 0., 0.,
          0., 0., 0., 0., 0., -3.17433041e-005, 2.42875161e-004,
          3.14047502e-004, -3.20338819e-004, -1.03745464e-004,
          2.64444301e-004, -3.49275855e-004, -4.16558789e-004,
          -1.00034755e-004, -3.59582482e-004, -1.04600862e-004,
          1.57503062e-004, 2.17376219e-004, 4.52333443e-005, 0., 0., 0.,
          0., 0., 0., 8.48090276e-005, 4.30696906e-004, 1.94042310e-004,
          2.26353768e-005, 2.27104960e-004, 5.07597870e-004,
          -3.46597226e-004, 2.55880295e-004, 2.17875277e-004,
          -1.95776825e-004, -6.23919404e-005, 3.19237501e-004,
          4.04451595e-004, 8.89589064e-005, 0., 0., 0., 0., 0.,
          -3.31447336e-005, -1.39552954e-004, 3.24665045e-004,
          2.15536653e-004, 3.17731552e-004, 6.71374844e-004,
          2.72790174e-004, -1.13328941e-004, 9.57616372e-004,
          2.96102953e-004, 1.84697798e-004, 2.24409785e-004,
          2.68224336e-004, 1.57421295e-004, 1.20622244e-005, 0., 0., 0.,
          0., 0., -6.19283164e-005, -1.60490294e-004, 6.81198144e-005,
          1.59890551e-004, 3.12536402e-004, 5.77748346e-004,
          1.63779026e-004, 5.46513206e-007, 3.59958416e-004,
          2.39820918e-004, 1.63755598e-004, 1.86822290e-005,
          -4.35246948e-005, -1.95931309e-004, -5.86711030e-005, 0., 0.,
          0., 0., 0., -7.15228452e-005, -1.09900961e-004,
          -7.85249285e-005, -2.92187207e-004, 9.00403320e-005,
          4.92933614e-004, 3.69157642e-004, 2.06414363e-004,
          4.61694872e-004, 5.09104109e-004, 1.16280658e-004,
          -3.43970838e-004, -4.15553310e-004, -6.10574862e-005,
          -1.44790145e-004, 0., 0., 0., 0., 0., -9.59452809e-005,
          -6.26085748e-005, 1.48871375e-004, -2.21245311e-004,
          1.48134335e-004, 4.43656259e-004, 3.74335432e-005,
          4.96498775e-004, 1.20072253e-003, 3.00370069e-004,
          -9.65345243e-005, -2.66113406e-004, -3.65641812e-004,
          -6.45505934e-005, -1.50895765e-004, 0., 0., 0., 0., 0.,
          -1.03795348e-004, -8.80037987e-005, 2.52112059e-005,
          -4.63672099e-004, -6.20869221e-004, -3.31687072e-004,
          -1.85844765e-004, 5.68582145e-005, 4.12574445e-004,
          -3.01382126e-004, -5.60144137e-004, -2.21013222e-004,
          -3.46303888e-004, -2.07979072e-004, -1.13389877e-004, 0., 0.,
          0., 0., 0., -9.76897427e-005, -1.02923121e-004,
          -8.13878432e-005, -6.78189623e-004, -9.69734450e-004,
          -7.21455261e-004, 1.01828206e-004, -3.13726123e-005,
          -3.85685737e-004, -3.87269829e-004, -9.91515233e-004,
          -3.57181852e-004, -3.84204614e-004, -4.17701202e-004,
          -5.66949384e-005, 0., 0., 0., 0., 0., -6.28005509e-005,
          -1.50895765e-004, -9.84715953e-005, -6.89077249e-004,
          -9.38551384e-004, -7.93579442e-004, 2.83320725e-004,
          6.99940429e-004, -3.47328314e-004, -9.30874201e-004,
          -1.03319495e-003, -2.68931850e-004, -5.10046724e-004,
          -3.38699901e-004, -1.74445961e-006, 0., 0., 0., 0., 0.,
          -5.23337894e-006, -1.41819939e-004, -2.55079765e-004,
          -4.48435341e-004, -8.87827075e-004, -1.12857379e-003,
          1.93055123e-004, 2.21775132e-004, -6.89960143e-004,
          -1.18475722e-003, -4.87216690e-004, -2.40137946e-004,
          -5.07108052e-004, -1.29851396e-004, 0., 0., 0., 0., 0., 0., 0.,
          -3.19453757e-005, -2.22608985e-004, -1.99635731e-004,
          -7.89305835e-004, -5.40728215e-004, 5.40421926e-004,
          1.90059000e-004, -1.03058806e-003, -6.21695595e-004,
          7.20153730e-006, 1.91435000e-004, -2.36566950e-004,
          -5.60779017e-006, 0., 0., 0., 0., 0., 0., 0., -2.15140926e-006,
          2.37218614e-004, 1.23949227e-004, 3.70434609e-005,
          -2.09035759e-004, 7.79270795e-006, 3.09654133e-005,
          -1.53229383e-004, -1.87387879e-004, -4.30540786e-005,
          2.43556002e-004, 4.98172740e-005, 0., 0., 0., 0., 0., 0., 0.,
          0., 2.09253340e-004, 5.08906436e-004, 1.19867553e-004,
          1.17098534e-004, -2.20320289e-004, -9.45887121e-004,
          -3.79338249e-004, -1.34348593e-004, -4.45259706e-004,
          -2.83118890e-004, 2.08948579e-004, 2.48939818e-004, 0., 0., 0.,
          0., 0., 0., 0., 3.01555610e-006, 2.96720769e-004,
          3.59552039e-004, 2.59938679e-004, 3.64763167e-004,
          3.07395472e-004, -2.55156319e-005, 4.50229636e-005,
          1.58188559e-004, 3.87558219e-004, 2.27913944e-004,
          3.97419499e-004, 2.49490869e-004, 0., 0., 0., 0., 0., 0., 0.,
          1.35700029e-005, 2.54814484e-004, 1.17042488e-004,
          3.63064100e-005, 6.29012429e-005, 5.24725256e-005,
          3.16873120e-005, 4.77759713e-005, 9.98390024e-005,
          4.38472285e-004, 6.54801115e-005, 6.32607698e-005,
          3.45448898e-005, 0., 0., 0., 0., 0., 0., 0., 0., 0., 0., 0.,
          0., 0., 0., 0., 0., 0., 0., 0., 0., 0., 0., 0., 0., 0., 0., 0.,
          0., 0., 0., 0., 0., 0., 0., 0., 0., 0., 0., 0., 0., 0., 0., 0.,
          0. ]
      - [ 0., 0., 0., 0., 0., 0., 0., 0., 0., 0., 0., 0., 0., 0., 0., 0.,
          0., 0., 0., 0., 0., 0., 0., 0., 0., 0., 0., 0., 0., 0., 0., 0.,
          0., 0., 0., 0., 0., 0., 0., 0., 0., 0., 0., 0., 0.,
          1.94219665e-005, 3.32948002e-005, 0., 0., 3.69299996e-005,
          1.47697589e-004, 1.79106602e-004, 8.64833783e-005,
          5.33853381e-005, 2.66926691e-005, 0., 0., 0., 0., 0., 0., 0.,
          0., 0., 3.19075152e-005, 2.50349054e-004, 2.95758829e-004,
          6.52176604e-005, -8.02213890e-006, 1.23081511e-004,
          4.27594496e-004, 7.39947543e-004, 1.20512000e-003,
          8.85429850e-004, 4.72124084e-004, 1.20404671e-004,
          6.09333874e-005, 1.61020380e-005, 0., 0., 0., 0., 0., 0.,
          1.51679837e-004, 2.99332896e-004, 1.87571655e-004,
          6.06318972e-005, -8.16859188e-004, -1.05896126e-003,
          -1.00743596e-003, 1.20156124e-004, 7.76364643e-004,
          9.52424540e-004, 7.37768307e-004, 4.22717450e-004,
          1.36867326e-004, 3.16673395e-005, 0., 0., 0., 0., 0., 0.,
          -8.71101147e-005, -9.32879921e-005, -1.22031815e-004,
          -8.94385041e-004, -1.71649316e-003, -1.56906783e-003,
          -9.19495360e-004, -6.86847023e-004, -6.74081093e-004,
          6.47683919e-005, 3.12707998e-004, 5.90493612e-004,
          1.37885028e-004, 4.29387683e-006, 0., 0., -3.50794326e-005,
          -4.91112041e-005, 0., -7.34414280e-005, -2.92871846e-004,
          -5.75614278e-004, -4.16461320e-004, -8.94304831e-004,
          -9.30033217e-004, 1.30572720e-004, -3.79933801e-004,
          -6.39963720e-004, -8.66717892e-004, -4.97102854e-004,
          -2.78796157e-004, 9.79820979e-005, 3.88106346e-005, 0., 0., 0.,
          -1.63704008e-005, -2.33862884e-005, -5.30363177e-005,
          -1.72131622e-004, -4.05959669e-004, -5.39967441e-004,
          -1.91545638e-004, -5.04541735e-004, -4.32983710e-004,
          3.41579609e-004, -8.69467840e-005, -2.97921128e-004,
          -1.32698694e-003, -8.72857869e-004, -1.06410845e-003,
          -1.79833674e-004, 0., 0., 0., 0., 0., 0., -1.91675106e-004,
          -2.16797576e-004, -6.97553696e-005, 9.69015673e-005,
          -1.86747071e-004, -4.49853367e-004, 2.59867484e-005,
          3.04884859e-004, 4.33633017e-004, 1.73011649e-005,
          -5.53597463e-004, -8.45887524e-004, -7.72379397e-004,
          -2.25185053e-004, -6.23409360e-005, 0., 0., 0., 0., 0.,
          -7.81587805e-005, -1.55517890e-004, 3.47764610e-004,
          5.48116950e-005, -3.83238541e-004, -2.97422666e-004,
          4.33517736e-004, 7.41200289e-004, 1.05446100e-003,
          -4.66262063e-005, -5.85516791e-005, -4.97631787e-004,
          -2.47080810e-004, -1.87812926e-004, -1.05142171e-004, 0., 0.,
          0., 0., 0., 0., -3.54591793e-005, -7.84337772e-006,
          -1.98256050e-004, -2.03815769e-004, -3.12706175e-006,
          2.60304747e-004, 1.03324093e-003, 4.27849591e-004,
          -3.54587421e-004, -2.26495555e-004, -3.66531924e-004,
          -2.60286441e-004, -1.91604937e-004, -9.58375531e-005, 0., 0.,
          0., 0., 0., 0., -2.06670593e-005, -1.45337341e-004,
          -1.96493987e-004, -2.45867064e-004, 1.03787161e-005,
          3.01028660e-004, 2.87884497e-004, 1.46343576e-004,
          -5.82338544e-004, -7.00622215e-004, -7.23458361e-004,
          -4.39412775e-004, -2.62219051e-004, -5.67581628e-005, 0., 0.,
          0., 0., 0., 0., 1.55669059e-005, 3.81296632e-005,
          -4.48327628e-005, -8.71678858e-005, 1.90223465e-004,
          -7.37454393e-004, -2.14146814e-004, -8.47980482e-005,
          -5.04231721e-004, -2.41591653e-004, 1.18543467e-004,
          -3.00165004e-004, -3.93512310e-004, -1.71212712e-004,
          -5.45564872e-005, 0., 0., 0., 0., 0., 0., 0., 4.29387683e-006,
          1.81720490e-004, 1.04607636e-004, -6.03593187e-004,
          3.80961719e-004, 2.06084427e-004, 3.68557230e-004,
          5.04383293e-004, 3.66933848e-004, -4.33484711e-005,
          -7.00313176e-005, -3.88190383e-005, -3.25240617e-005, 0., 0.,
          0., 0., 0., 0., 1.64185767e-005, 2.05609933e-004,
          7.45193829e-005, -2.31959566e-004, 6.67428467e-005,
          4.84740303e-004, 3.36957863e-004, 4.83616546e-004,
          7.78087880e-004, 5.57679567e-004, 1.30387634e-005,
          1.27330364e-004, 0., 0., 1.72678097e-006, 1.03606862e-006, 0.,
          0., 0., 0., 4.11077868e-004, 7.53967091e-004, -3.92886686e-005,
          2.62528338e-004, 3.95468116e-004, 2.27808705e-004,
          4.94968321e-004, 8.17271182e-004, 7.76330999e-004,
          1.83966433e-004, 2.37595614e-005, 1.73653971e-004, 0., 0.,
          1.51956729e-005, 1.07060423e-005, 0., 0., 0., 2.71940771e-005,
          3.98500852e-004, 4.30426066e-004, 5.22345421e-004,
          1.06170645e-003, -1.44146194e-004, -2.94541300e-004,
          5.64705879e-005, 3.14478879e-004, 2.38318578e-004,
          -1.79399904e-005, 1.20776283e-004, 1.76883914e-004, 0., 0., 0.,
          0., 0., 0., 0., 3.43881402e-005, 1.96872119e-004,
          -4.30943561e-004, -1.26938365e-004, -1.44169229e-004,
          -8.50858109e-004, -7.97940767e-004, -9.87452455e-004,
          -4.88574908e-004, -1.51986882e-004, -2.10731989e-004,
          -1.07964675e-004, 2.49710993e-005, 0., 0., 0., 0., 0., 0., 0.,
          -1.56718343e-005, -1.69897234e-004, -4.72783402e-004,
          -4.13031317e-004, -5.07738965e-004, -5.56724088e-004,
          -4.42954159e-004, -5.13514387e-004, -3.08354589e-004,
          -8.93939214e-005, -2.42404160e-004, -8.08013865e-005, 0., 0.,
          0., 0., 0., 0., 0., 0., -1.38280893e-005, -5.80779742e-005, 0.,
          0., -7.04263657e-005, -1.13109010e-004, -8.53652909e-006,
          -2.79138521e-006, -2.09528807e-005, -1.41526798e-005,
          -6.00238855e-005, -1.84688888e-005, 0., 0., 0., 0., 0. ]
      - [ 0., 0., 0., 0., 0., 0., 0., 0., 0., 0., 0., 0., 0., 0., 0., 0.,
          0., 0., 0., 0., 0., 0., 0., 0., 0., 0., 0., 0., 0., 0., 0., 0.,
          0., 0., 0., 0., 0., 0., 0., 0., 0., 0., 0., 0., 0.,
          7.18315641e-005, 1.23139820e-004, 4.13879604e-007,
          1.47335295e-005, 7.66251615e-005, 2.40587542e-004,
          2.25156648e-004, 3.80466881e-005, 1.03315790e-004,
          -8.37912667e-005, 8.30612044e-005, 3.11295698e-005,
          -8.69729229e-006, 0., 0., 0., 0., 0., 0., 1.18008997e-004,
          9.33810312e-004, 1.13530527e-003, 1.26638217e-004,
          -2.55545689e-004, 2.23899769e-004, 2.62326444e-004,
          -3.53747891e-004, -3.45470064e-004, 1.04616178e-004,
          -4.84075390e-005, 2.13016610e-004, 2.99460022e-004,
          1.14729010e-005, 0., 0., 0., 0., 0., 0., 5.69521682e-004,
          1.18537829e-003, 6.72717288e-004, -4.39412863e-004,
          -1.20350241e-003, -1.44060899e-003, -9.12383141e-004,
          -1.19954627e-003, -4.92985651e-004, -7.96930690e-004,
          -2.14523825e-004, 1.20117744e-004, -1.26495404e-004,
          1.12808135e-004, -2.30399546e-005, -5.69935728e-005, 0., 0.,
          0., 0., 7.21573451e-005, 4.91934363e-004, 2.59097782e-004,
          -1.11563934e-003, -1.37275888e-003, -9.71555201e-005,
          2.10290782e-005, -2.76920735e-004, 2.14892396e-004,
          8.00333219e-004, 4.14452312e-004, 1.64877216e-003,
          1.46338600e-004, -7.30150205e-005, -1.25567560e-004,
          -4.54735964e-005, 0., 0., 0., -6.88723376e-005,
          -2.25837197e-004, -2.92739394e-004, -3.87492008e-004,
          -1.24335079e-003, -1.18310563e-004, 9.31372051e-004,
          -1.72066313e-004, 8.43570335e-004, 7.29436360e-005,
          -2.06283774e-004, -4.92665684e-004, -4.99530812e-004,
          -9.91398818e-004, -8.58281390e-004, -4.04347404e-004, 0., 0.,
          0., -4.32454181e-005, -3.58776801e-004, -4.11051034e-004,
          -3.37816193e-004, 2.33757033e-004, 4.29908978e-005,
          -3.67306668e-004, -2.10293409e-004, 1.42175646e-003,
          7.28384359e-004, -9.75461211e-004, -3.58481484e-005,
          -5.13472827e-004, -5.62866451e-004, -3.16450489e-004,
          -2.03113392e-004, -8.69648575e-005, 0., 0., 0.,
          -6.08639239e-005, -4.08428954e-004, -7.10853201e-005,
          1.00879103e-003, 6.26210880e-004, -2.26851567e-004,
          -1.41836912e-003, -7.80079747e-004, 6.60979887e-004,
          -1.89814207e-004, -1.02731938e-004, -1.07853243e-003,
          -1.05656614e-003, -4.29038366e-004, -2.87653005e-004,
          -1.33792091e-005, 0., 0., 0., 0., -2.40252339e-005,
          -7.30532993e-005, 9.14823497e-004, 7.43408920e-004,
          -3.62621009e-004, -9.69971472e-004, -1.39802950e-003,
          -2.78866675e-004, -3.33522999e-004, -8.55556340e-004,
          -1.16162596e-003, -1.38293917e-003, -7.05825107e-004,
          -2.34734820e-004, -3.34480210e-005, 0., 0., 0., 0., 0., 0.,
          2.12795028e-004, 4.12306719e-004, -1.65337260e-004,
          -4.04079183e-004, -8.61224369e-004, -1.07178162e-003,
          -1.98534763e-005, -2.71627883e-004, -4.70551953e-004,
          -1.60019743e-004, -1.51650544e-004, 0., 0., 0., 0., 0., 0., 0.,
          0., 0., 1.52320354e-006, 8.63148671e-006, -7.32560293e-005,
          -9.98771866e-004, -1.78276282e-003, -1.78153685e-004,
          1.00187329e-003, 5.64368500e-004, -1.36170813e-004,
          -8.58053449e-004, -5.50534867e-004, -1.37494746e-004, 0., 0.,
          0., 0., 0., 0., 0., 0., 9.13922122e-006, -7.80928021e-005,
          -9.53504583e-004, -1.54691318e-003, -1.47221819e-003,
          5.15943757e-005, 1.58528704e-003, -6.14960212e-004,
          -5.89959614e-004, -9.10603267e-004, -7.80552160e-004,
          -3.84957966e-004, -2.86916329e-004, -9.93042995e-005, 0., 0.,
          0., 0., 0., 0., 0., -8.66570859e-004, -1.12818379e-003,
          -1.00114767e-003, -1.41796008e-005, -2.82310910e-004,
          1.12881826e-003, 4.07520602e-005, -4.89729573e-004,
          -3.30355600e-004, -1.67389517e-004, 1.90418839e-004,
          -2.49772798e-004, -3.50768416e-004, -3.68386900e-005, 0., 0.,
          0., 0., 0., -1.99879651e-006, -8.68536707e-004,
          -1.00276701e-003, -4.74108936e-004, -4.70532133e-004,
          -6.49453083e-004, 9.22338280e-004, 4.41216835e-004,
          -5.92600729e-004, 2.90681201e-004, 9.06700210e-004,
          7.02165184e-004, 1.07228800e-004, -4.08428954e-004,
          -5.92622418e-005, 0., 0., 0., 0., 0., -1.33253093e-006,
          4.88136662e-004, 9.19856771e-004, 2.57722160e-004,
          7.59282673e-004, 1.07595850e-004, -1.81122872e-004,
          7.94156687e-004, 1.42033430e-004, 1.14046514e-003,
          5.25833515e-004, 6.05151465e-004, 3.16564750e-004,
          -2.89904478e-004, -2.72285979e-005, 0., 0., 0., 0., 0.,
          4.16094554e-006, 4.91690880e-004, 7.71777413e-004,
          -4.53016808e-004, -9.23400105e-004, -7.56863388e-004,
          -1.35541533e-003, -1.46109657e-003, -4.56611888e-004,
          5.82154607e-004, 2.60471803e-004, 1.06874458e-003,
          5.94931655e-004, -3.20336439e-005, 0., 0., 0., 0., 0., 0.,
          1.87242549e-005, 3.58150428e-004, -4.89315535e-005,
          -8.15557782e-004, -8.27377196e-004, -7.69892882e-004,
          -8.13880528e-004, -1.42363261e-003, -1.58688729e-003,
          -9.44751664e-005, -2.89783366e-005, 1.89840561e-004,
          9.23548650e-005, 0., 0., 0., 0., 0., 0., 0., 0., 0., 0., 0.,
          0., 0., -5.24416555e-006, -2.94984311e-005, -5.76858183e-005,
          -2.35987445e-005, 0., 0., 0., 0., 0., 0., 0., 0., 0., 0., 0.,
          0., 0., 0., 0., 0., 0., 0., 0., 0., 0., 0., 0., 0., 0., 0., 0. ]
      - [ 0., 0., 0., 0., 0., 0., 0., 0., 0., 0., 0., 0., 0., 0., 0., 0.,
          0., 0., 0., 0., 0., 0., 0., 0., 0., 0., 0., 0., 0., 0., 0., 0.,
          0., 0., 0., 0., 0., 0., 0., 0., 0., 0., 0., 0., 0.,
          3.60686354e-005, 6.18319464e-005, 0., 5.81894938e-006,
          1.24244798e-005, 5.69030562e-005, 3.03070759e-004,
          1.31450579e-004, 7.07046129e-005, 3.53523064e-005, 0., 0., 0.,
          0., 0., 0., 0., 0., 0., 5.92556135e-005, 4.68892249e-004,
          5.79674495e-004, 1.31177832e-004, -1.25829480e-004,
          -3.56704622e-005, 2.27328448e-004, 5.27939526e-004,
          9.14158765e-004, 6.40843704e-004, 3.47941415e-004,
          4.76576788e-005, 4.97759647e-005, 1.46399898e-005, 0., 0., 0.,
          0., 0., 0., 2.85972754e-004, 6.56964432e-004, 5.92790195e-004,
          1.66020196e-004, -4.20642173e-004, -2.34314342e-004,
          -1.33113776e-004, 2.98919418e-004, 5.20066300e-004,
          2.76880834e-004, 4.83450021e-005, 2.32724618e-004,
          1.24439917e-004, 2.87919793e-005, 0., 0., 0., 0., 0., 0.,
          3.86449647e-005, 3.70891532e-004, 4.03669052e-004,
          -4.44551770e-005, -5.55626058e-004, -8.16744752e-004,
          -7.06581573e-004, -1.28021886e-004, -9.34197276e-004,
          1.68914907e-004, 1.91836996e-004, 5.79875719e-004,
          1.48862207e-004, 3.90399737e-006, 0., 0., 0., 0., 0., 0.,
          -5.87988798e-005, -9.10308518e-005, 1.12731512e-004,
          -6.25934801e-004, -7.44275225e-004, 2.33764527e-004,
          -4.13667178e-004, -1.94613443e-004, -7.94300577e-004,
          5.21582951e-005, -4.80701492e-005, 3.45922999e-005,
          3.92612310e-005, 0., 0., 0., 0., 0., 0., -2.32826710e-006,
          -2.23073279e-004, -2.49842124e-004, 6.09704548e-005,
          -4.75219713e-004, -5.77456318e-004, 5.09317149e-004,
          3.06449307e-004, 1.76200076e-004, -1.42736506e-004,
          -3.94735718e-004, -6.51256065e-004, -3.02204513e-004,
          -1.44042315e-006, 0., 0., 0., 0., 0., 0., -1.00891575e-005,
          -1.22420373e-004, 4.27415682e-004, 9.85170118e-005,
          -4.28859727e-004, -7.11822591e-004, -1.14322160e-004,
          -1.84236254e-004, 2.20662314e-005, -9.83877035e-005,
          -8.05731572e-004, -6.56188815e-004, -1.65704114e-004, 0., 0.,
          0., 0., 0., 0., 0., 4.41903794e-005, 3.79200763e-004,
          6.64996332e-005, -6.60019286e-004, -1.24830927e-003,
          -5.43522183e-004, 3.31441552e-004, 4.69487604e-005,
          -3.20237072e-004, -5.06963057e-004, -8.56790866e-004,
          -4.15819377e-004, -1.08678774e-004, 0., 0., 0., 0., 0., 0., 0.,
          9.72188354e-005, 6.96438365e-005, -5.59826440e-004,
          -6.08864997e-004, -1.12418691e-003, -6.62942010e-004,
          4.24072612e-004, 1.07059942e-003, -8.14777566e-004,
          -6.14419754e-004, -6.75207877e-004, -3.76830576e-004,
          -6.72620736e-005, 0., 0., 0., 0., 0., 0., 0., 2.07378957e-006,
          -1.56659953e-004, -4.49444633e-004, -4.87586047e-004,
          -5.14936110e-004, 1.49768515e-004, 8.89674877e-004,
          6.41580089e-004, -8.49693839e-004, -4.52608219e-004,
          -4.79501963e-004, -3.06836329e-004, -5.32561216e-006, 0., 0.,
          0., 0., 0., 0., 0., 3.43040051e-006, -1.84779885e-004,
          -2.47189164e-004, -3.67813860e-004, -4.54991561e-004,
          3.79255616e-005, 7.56830559e-004, -2.07603269e-004,
          1.53401430e-004, -2.50806770e-004, -2.58751970e-004,
          -1.94034161e-004, 9.06444257e-006, 0., 0., 0., 0., 0., 0., 0.,
          -1.80246752e-005, -2.38826949e-004, -2.11908089e-004,
          4.68469079e-005, 1.95944049e-005, -2.68631484e-005,
          8.73912359e-004, 3.56071367e-004, 4.83795768e-004,
          -1.63539135e-005, 3.44028049e-005, 3.70771915e-004,
          1.41664917e-004, 0., 0., 0., 0., 0., 0., 0., -3.09977008e-006,
          -1.47196202e-004, 1.92216066e-005, 2.84341222e-004,
          1.11580572e-004, 2.02795389e-004, 5.38271561e-004,
          5.07818128e-004, 3.61490238e-004, 3.99954093e-004,
          5.54145023e-004, 6.85845967e-004, 3.00753280e-004, 0., 0., 0.,
          0., 0., 0., 0., -4.50875677e-006, 4.23723599e-004,
          7.96111592e-004, 7.07506842e-005, 3.56718374e-005,
          -2.45978008e-004, -3.16922349e-004, 5.15907945e-004,
          8.25123105e-004, 4.00360004e-004, 2.79482949e-004,
          3.95500712e-004, 3.09070427e-004, 0., 0., 0., 0., 0., 0., 0.,
          9.75999342e-007, 2.20186965e-004, 2.26163829e-004,
          4.15373506e-004, 7.05687387e-004, -2.27288794e-004,
          1.46394668e-004, -1.77992217e-004, 2.91951088e-004,
          1.66436657e-004, 1.38359886e-004, 4.09143948e-004,
          2.09285514e-004, 0., 0., 0., 0., 0., 0., 0., -7.07596428e-006,
          -2.74579070e-004, -5.85174246e-004, 1.71166379e-004,
          -4.46604914e-004, -6.43800187e-004, 8.75244514e-005,
          -6.52081741e-004, -4.08856838e-004, 3.57607023e-005,
          -2.78231979e-004, -1.57980088e-004, -8.06609969e-005, 0., 0.,
          0., 0., 0., 0., 0., -5.49389988e-005, -2.77368817e-004,
          -3.03775625e-004, -2.78842257e-004, -7.36971444e-004,
          -2.78059684e-004, -1.34257381e-004, -2.51962891e-004,
          -1.52521083e-004, -8.06868920e-005, -2.34859792e-004,
          -1.11427762e-004, -1.39260501e-005, 0., 0., 0., 0., 0., 0., 0.,
          0., 0., -3.78892946e-005, -5.62598616e-005, -1.14816044e-006,
          0., 0., -5.80898813e-006, -3.02146709e-005, -4.65980302e-005,
          -1.44352554e-004, -1.70739586e-005, 0., 0., 0., 0., 0. ]
      - [ 0., 0., 0., 0., 0., 0., 0., 0., 0., 0., 0., 0., 0., 0., 0., 0.,
          0., 0., 0., 0., 0., 0., 0., 0., 0., 0., 0., 0.,
          1.81036776e-005, 6.78887882e-005, 7.39233437e-005,
          6.03455874e-006, 0., 0., 0., 0., 0., 0., 0., 0., 0., 0., 0.,
          0., 0., -2.14658357e-005, -9.35690259e-005, -1.75923065e-004,
          -1.34009228e-004, 1.64565805e-004, 5.84844500e-004,
          5.15719257e-005, -5.32911625e-004, -4.19231452e-004,
          -2.17409950e-004, -1.05914718e-004, 0., 0., 0., 0., 0., 0.,
          2.19782178e-005, 3.04661749e-004, 2.40908805e-004,
          -3.60760634e-004, -3.67457978e-004, -2.22225004e-004,
          -1.77491493e-005, 2.68706208e-004, 3.04416753e-004,
          2.55676510e-004, -4.11861198e-004, -1.81940268e-004,
          -8.25923926e-005, -2.86775932e-004, 1.62522974e-005,
          -1.15864771e-006, 0., 0., 0., 0., 2.10814196e-005,
          3.78059485e-004, -9.36070224e-004, -5.91211952e-004,
          -2.73164245e-004, -8.47353149e-005, 4.48211445e-004,
          7.05107086e-005, -2.39088331e-004, -2.46167241e-004,
          -2.63654452e-004, -7.05067825e-004, -2.05386561e-004,
          -1.93365340e-004, -1.58260635e-004, -4.62312746e-005, 0., 0.,
          0., 0., -3.38557671e-004, -2.53010832e-004, -8.08562443e-004,
