%YAML:1.0
opencv_ml_svm:
   format: 3
   svmType: C_SVC
   kernel:
      type: LINEAR
   C: 2.6699999999999999e+000
   term_criteria: { iterations:10000000 }
   var_count: 400
   class_count: 10
   class_labels: !!opencv-matrix
      rows: 10
      cols: 1
      dt: i
      data: [ 0, 1, 2, 3, 4, 5, 6, 7, 8, 9 ]
   sv_total: 45
   support_vectors:
      - [ 0., 0., 0., 0., 0., 0., 0., 0., 0., 0., 0., 0., 0., 0., 0., 0.,
          0., 0., 0., 0., 0., 0., 0., 0., 0., 0., 0., 0., 0., 0., 0., 0.,
          0., 0., 0., 0., 0., 0., 0., 0., 0., 0., 0., 0., 0.,
          -3.25170686e-006, -5.57435442e-006, 0., 0., 3.50182381e-005,
          4.78452639e-005, -3.43006075e-004, -1.37914612e-004,
          2.01687028e-004, 4.83507574e-005, 0., 0., 0., 0., 0., 0., 0.,
          0., 0., -5.34208993e-006, -4.22721896e-005, -5.22595728e-005,
          -1.41681512e-005, -7.32650233e-006, 3.01134452e-004,
          6.13705430e-004, -5.60667650e-005, -3.36199038e-004,
          2.78509724e-005, 1.05203253e-004, 3.41986452e-005, 0., 0., 0.,
          0., 0., 0., 0., 0., -2.57813899e-005, -3.97408476e-005,
          -1.10839792e-005, 3.47845526e-005, 8.44588940e-005,
          2.28068166e-004, 2.34899737e-004, 1.37157389e-004,
          3.56986740e-004, -2.38930879e-004, -5.35988329e-005,
          -1.89519778e-005, -3.88844419e-005, 0., 0., 0., 0., 0., 0., 0.,
          1.02713248e-005, 2.54123242e-005, 1.44029882e-005,
          1.23304126e-004, 8.53169695e-005, -2.04213229e-005,
          -8.96945858e-005, 3.49968977e-005, 4.55415138e-004,
          -1.94247186e-004, -2.15785956e-004, -2.64324826e-005,
          -9.47745139e-006, 0., 0., 0., 0., 0., 0., 0., 3.58210855e-005,
          5.71795645e-005, 9.89386026e-005, 2.61591544e-004,
          -7.30780221e-006, -3.85095889e-004, 1.79400784e-004,
          2.48136348e-004, 1.64264624e-004, 2.94865258e-005,
          7.11847169e-005, 3.32431431e-004, 1.36508490e-004,
          7.13446184e-007, 0., 0., 0., 0., 0., 3.72539284e-006,
          6.85649065e-005, 1.55818067e-004, 3.17033788e-004,
          1.62003518e-004, -2.59383291e-004, 8.32152436e-005,
          1.38949981e-004, -2.04429685e-004, -2.18263362e-004,
          -3.65555825e-005, 3.47834895e-004, 4.86600009e-004,
          3.86479660e-004, 3.50842456e-005, -6.78354263e-005, 0., 0., 0.,
          0., 1.39984422e-005, 1.42933757e-004, -4.03943923e-005,
          -7.62191485e-005, -3.84251558e-004, 6.32832234e-005,
          1.39340424e-004, -6.09023773e-005, -4.83798125e-004,
          -1.31541427e-004, 1.95472618e-004, 4.37617040e-004,
          2.16064174e-004, 3.29226081e-004, 1.97757399e-004,
          -5.90824675e-005, 0., 0., 0., 0., 6.86660424e-005,
          2.14575310e-004, -1.40294424e-005, 8.32861406e-005,
          3.46349872e-004, 4.72296990e-004, -3.19804094e-004,
          -9.02252330e-004, -6.36527198e-004, -3.58051475e-005,
          1.01693819e-004, 4.68294311e-004, 1.86767938e-004,
          1.92225329e-004, 2.80090346e-004, -1.32611660e-006, 0., 0., 0.,
          0., 1.28671731e-004, 2.44934345e-004, 2.03662203e-004,
          3.64934356e-004, 8.45470349e-004, 3.12068558e-004,
          -4.40469768e-004, -1.20924169e-003, -3.65373708e-004,
          3.28733644e-004, 2.36465508e-004, 3.57805897e-004,
          1.67757753e-004, 2.14041749e-004, 2.45900039e-004,
          -1.85656318e-005, -3.31529145e-006, 0., 0., 1.61489282e-007,
          1.49106316e-004, 2.27913421e-004, 9.97161696e-005,
          5.20322821e-004, 7.95650471e-004, 1.96519672e-004,
          -8.03837727e-004, -1.10489724e-003, -3.54349067e-005,
          4.19107499e-004, 9.57145239e-005, 2.92697310e-004,
          3.54663091e-004, 3.05947673e-004, 1.10647161e-004,
          -3.31529145e-006, 0., 0., 0., 3.45852163e-006, 1.23782025e-004,
          1.86528312e-004, 1.56401453e-004, 2.54958315e-004,
          6.89419045e-004, 2.97592953e-004, -6.75977732e-004,
          -4.07790998e-004, 2.05996228e-004, 7.38905859e-004,
          3.55658121e-004, 3.39349150e-004, 4.36237722e-004,
          1.60713986e-004, 1.57532941e-005, 0., 0., 0., 0.,
          1.69771592e-005, 5.47064119e-005, 2.61408772e-004,
          4.78087488e-004, 1.25097227e-004, 1.24210550e-004,
          2.27309836e-004, -9.47951979e-004, -4.50545398e-004,
          4.68919578e-004, 5.33593760e-004, 3.67937355e-005,
          -1.47589017e-004, 5.88196635e-005, 1.05683001e-004,
          5.73137368e-006, 0., 0., 0., 0., 2.45186111e-005,
          1.29484433e-005, 3.59792066e-005, 2.23786454e-004,
          -1.87539859e-004, 1.08867847e-004, 4.84786142e-004,
          -3.50630376e-004, -4.67468024e-004, 3.75781092e-004,
          -1.04397135e-004, -3.56410950e-004, -2.22824267e-004,
          7.22046752e-005, 4.73382788e-005, 0., 0., 0., 0., 0.,
          2.75023576e-005, 4.04447128e-005, 6.06980320e-005,
          -1.81194380e-004, -3.72213777e-004, 3.66505847e-004,
          5.18869085e-004, 1.96924317e-004, -2.32612529e-005,
          2.24368327e-004, -1.50071312e-004, 6.99887678e-005,
          1.33716050e-004, 1.22505138e-004, 8.59706051e-006, 0., 0., 0.,
          0., 0., 1.25836259e-005, 5.70338234e-005, 2.34009422e-004,
          -4.04868570e-006, -9.82355632e-005, 2.06743134e-004,
          3.43023130e-004, 5.04227763e-004, 3.67999892e-004,
          1.03930899e-004, -1.50700784e-004, 1.31594134e-004,
          1.09761786e-004, 2.74500303e-006, 0., 0., 0., 0., 0., 0., 0.,
          8.20080168e-005, 1.80900024e-004, 1.55848902e-004,
          1.39637006e-004, 1.63399134e-004, 2.51483958e-004,
          2.63042195e-004, 2.66947463e-004, 1.80335031e-004,
          -1.26948391e-004, 4.43364661e-005, 5.10181657e-008,
          -4.18076570e-006, 0., 0., 0., 0., 0., 0., 0., 0., 0., 0., 0.,
          0., 0., 0., 0., 0., 0., 0., 0., 0., 0., 0., 0., 0., 0., 0., 0.,
          0., 0., 0., 0., 0., 0., 0., 0., 0., 0., 0., 0., 0., 0., 0., 0.,
          0. ]
      - [ 0., 0., 0., 0., 0., 0., 0., 0., 0., 0., 0., 0., 0., 0., 0., 0.,
          0., 0., 0., 0., 0., 0., 0., 0., 0., 0., -6.49780413e-005,
          -8.51934383e-005, -2.77108520e-005, -1.03915692e-004,
          -1.13152644e-004, -9.23695006e-006, 0., 0., 0., 0., 0., 0., 0.,
          0., 0., 0., 0., 0., 0., -4.23860110e-005, -2.80531909e-004,
          -2.80244742e-004, 7.24283655e-006, 3.45579087e-004,
          -2.08610421e-004, -6.40453887e-004, 1.09465887e-004,
          1.31799059e-003, -1.56481707e-004, -4.01176454e-004,
          2.54081751e-005, 1.71878819e-005, 0., 0., 0., 0.,
          -1.05054896e-005, -1.53688656e-004, -2.86341499e-004,
          -3.67197819e-004, -5.82594424e-004, -2.97369988e-005,
          -4.04222927e-004, -3.80396319e-004, 4.99900838e-004,
          -8.40583525e-004, -1.21794699e-003, 3.69893794e-004,
          -3.61344282e-005, -5.34392253e-004, 1.22062665e-004,
          1.48712556e-004, 0., 0., 0., 0., -5.42783637e-005,
          -5.99765161e-004, -7.82590767e-004, -7.59828894e-004,
          -5.49279386e-004, 5.98893792e-004, -2.64990842e-004,
          3.33977281e-004, 8.35915504e-004, -2.32921026e-004,
          -1.57457383e-004, -7.60850264e-004, 2.19517518e-004,
          -3.60512524e-004, 4.49965664e-005, 1.53943649e-004, 0., 0., 0.,
          0., -4.68134022e-005, -4.53491783e-004, -4.76836343e-004,
          -2.36821870e-004, -1.35846087e-004, 7.35802518e-004,
          6.38767786e-004, 1.62903219e-004, 1.00984599e-003,
          -6.84891129e-004, -1.96206558e-004, 7.00318313e-004,
          4.52903216e-004, -4.70943778e-004, -8.66928021e-005,
          1.16578682e-004, 0., 0., 0., 0., -3.34508914e-005,
          -2.86947004e-004, -1.75567504e-004, 1.63265649e-004,
          1.46010920e-004, 7.08768057e-005, -2.56473373e-004,
          -5.57115360e-004, 4.19522665e-004, -6.75766554e-004,
          -6.43020379e-004, 3.72032693e-004, 3.17577142e-005,
          5.30095276e-005, 1.24709841e-004, 2.25069034e-005, 0., 0., 0.,
          0., 0., 5.16711370e-005, 2.91242788e-004, 2.77393032e-004,
          1.91967483e-004, 5.96355880e-004, 8.92194745e-004,
          1.17636775e-003, 2.42459777e-004, 2.82652531e-004,
          9.02033178e-004, -1.14806229e-004, 9.01239255e-005,
          1.18442613e-005, 8.73495708e-004, 1.16560172e-004, 0., 0., 0.,
          0., 0., 2.64271570e-004, 1.10295485e-003, 5.78574138e-004,
          7.88055477e-004, 1.27839856e-003, 1.37981051e-003,
          4.54812602e-004, 6.35332952e-004, 1.07710878e-003,
          1.24379806e-003, 6.59308163e-004, 7.30616914e-004,
          5.08079946e-004, 1.44966797e-003, 6.03126944e-004, 0., 0., 0.,
          0., 0., 3.51124880e-004, 1.09440857e-003, 2.19152309e-004,
          1.13094505e-003, 1.43720885e-003, 3.44930450e-005,
          -6.89607114e-004, -8.04417534e-004, 3.68897512e-004,
          3.99730285e-004, -6.52088929e-005, 1.23855844e-003,
          1.26684341e-003, 1.47944398e-003, 9.83672100e-004, 0., 0., 0.,
          0., 0., 3.97201860e-004, 7.90342281e-004, -6.70143869e-004,
          7.87298413e-005, 7.47457379e-004, -3.89938155e-004,
          -3.32220050e-004, -2.09221151e-003, 2.38400680e-004,
          5.27273980e-004, 8.64363392e-004, 1.10199139e-003,
          8.97390302e-004, 8.71335214e-004, 5.10199578e-004,
          -2.39828514e-004, -2.93725298e-005, 0., 0., 0.,
          8.00373236e-005, 3.27601418e-004, 2.34812440e-004,
          3.95605632e-004, -6.91149617e-005, -1.58688577e-004,
          -1.91237126e-003, -2.44429032e-003, 4.30646702e-004,
          -2.76638661e-004, -9.08536022e-004, -2.16478773e-004,
          -4.09823842e-004, 2.12589817e-004, -2.09768667e-004,
          -7.41380500e-004, -6.16823163e-005, 0., 0., 0.,
          -2.09669990e-004, -3.24349588e-004, 7.82477437e-004,
          1.17587551e-005, -5.08234545e-004, 5.70197182e-004,
          -1.51063979e-003, -3.03412759e-004, -1.14667651e-004,
          -2.45953357e-004, -4.11915535e-004, -5.72287070e-004,
          -3.38560174e-004, -4.14973911e-005, -6.34280208e-004,
          -5.44032140e-004, -1.46862646e-006, 0., 0., -4.65448175e-005,
          -4.19217802e-004, -5.37150307e-004, 6.83932914e-004,
          -3.81977065e-004, -2.09540274e-004, 1.17392803e-003,
          -1.73446489e-003, -1.17096934e-003, -1.01170049e-003,
          -3.82638886e-004, -8.04797106e-004, 2.33548228e-004,
          -2.67250580e-004, -2.58875429e-004, -3.86393338e-004,
          -6.68274733e-005, 0., 0., 0., -1.26778337e-004,
          -4.82392119e-004, -2.83947331e-004, 8.21422262e-004,
          -5.77226281e-004, 6.38060388e-004, 4.82820731e-004,
          1.56852417e-004, -5.61153749e-004, 7.29650492e-004,
          -3.56147124e-004, -1.55615120e-003, -9.71289352e-004,
          -9.84063838e-004, -1.35348426e-004, -8.36258259e-005, 0., 0.,
          0., 0., -1.57241433e-004, -8.54236569e-005, 7.49392086e-004,
          9.33830976e-004, -6.93640846e-004, -9.30393435e-005,
          -2.52966624e-004, -6.84348342e-004, 9.83751495e-004,
          5.63587470e-004, -1.98009890e-003, -7.31677748e-004,
          3.44287022e-004, 7.97441608e-005, -3.30782146e-004,
          -2.80587810e-005, -1.31509387e-006, 0., 0., 0.,
          -9.03320397e-005, -4.39840042e-005, 8.21310387e-004,
          1.33323352e-004, -3.80398676e-004, -1.26045212e-004,
          6.93136943e-004, 1.40011066e-003, 1.46810256e-003,
          3.93893977e-004, -7.59068411e-004, -4.63565026e-004,
          -1.95976332e-004, -6.12287840e-004, -5.87516464e-004,
          -7.44361896e-005, -4.86584722e-005, -2.49867826e-005, 0., 0.,
          -3.18771963e-005, 9.31070535e-005, 3.68070992e-004,
          2.08953730e-004, -5.62958703e-005, -1.75865876e-004,
          5.14437153e-004, 1.01117080e-003, 6.78272045e-004,
          1.16654752e-004, -1.22927432e-003, -1.63583097e-003,
          -8.57600302e-004, -1.42478530e-004, -1.81378768e-004,
          -3.34856159e-005, -1.18358448e-005, -5.26037547e-006, 0., 0.,
          0., 0., 0., 0., 0., 0., 0., 0., 0., 0., -1.32587651e-004,
          -7.53097876e-004, -4.61405027e-004, 0., 0., 0., 0., 0., 0., 0.,
          0., 0., 0., 0., 0., 0., 0., 0., 0., 0., 0., 0., 0., 0., 0., 0.,
          0., 0. ]
      - [ 0., 0., 0., 0., 0., 0., 0., 0., 0., 0., 0., 0., 0., 0., 0., 0.,
          0., 0., 0., 0., 0., 0., 0., 0., 0., 0., 0., 0., 0., 0., 0., 0.,
          0., 0., 0., 0., 0., 0., 0., 0., 0., 0., 0., 0., 0., 0., 0.,
          -3.51720737e-005, -5.52556477e-004, -8.85298010e-004,
          -3.12220072e-004, -2.51792662e-004, -3.72398237e-004,
          -1.18763666e-004, -2.82383786e-004, -9.06220012e-005,
          2.98580180e-005, 2.01980711e-005, 0., 0., 0., 0., 0., 0.,
          -8.47826523e-005, -2.64945789e-004, -3.33827455e-004,
          -4.23379446e-004, -1.18080946e-003, -1.13410351e-003,
          5.51311998e-004, 2.85296090e-004, -5.06631368e-005,
          -5.09115962e-005, -8.73684112e-005, -3.41268315e-005,
          1.58875584e-004, 1.67288657e-004, 0., 0., 0., 0., 0.,
          -7.75670560e-005, -5.08053810e-004, -6.30325230e-004,
          -6.82374462e-004, -8.01518559e-004, -7.26783474e-004,
          -4.92495194e-004, -7.40981923e-005, 1.25597158e-004,
          4.86205070e-004, -6.60893624e-004, 5.97163198e-005,
          2.57978187e-004, -1.73628985e-004, 1.34443646e-004, 0., 0., 0.,
          0., -1.04197970e-004, -2.56214436e-004, -5.11347316e-004,
          -5.63969894e-004, -6.09604060e-004, -2.79082597e-004,
          -7.86652599e-005, 5.74582409e-005, 3.50859569e-004,
          2.04493816e-004, 1.40632896e-004, -4.10574663e-004,
          1.95337838e-004, 3.65260581e-004, -3.70545720e-004,
          3.94862873e-005, 0., 0., 0., 0., -1.84313612e-004,
          -2.02584692e-004, -6.83113103e-006, -8.15084422e-005,
          1.47600615e-004, 2.78963445e-004, -2.18283996e-004,
          -2.69331009e-004, 5.21210255e-004, 1.22121259e-004,
          2.90583965e-004, -6.32605806e-005, -2.32271035e-004,
          2.45693140e-004, 9.97899042e-005, 5.78310282e-005, 0., 0., 0.,
          0., -1.22512993e-005, 5.89356969e-005, 3.54589458e-004,
          2.49203353e-004, 1.67914972e-004, 1.24705504e-004,
          1.47128711e-004, 3.01333203e-004, -3.27067159e-004,
          -4.26853483e-004, -1.58446070e-004, -2.23034847e-004,
          -1.14167124e-004, 6.87882421e-004, 5.40042529e-004,
          6.97485666e-006, 0., 0., 0., 0., 0., 1.23405829e-004,
          6.74260431e-004, 6.35322998e-004, 2.63882248e-004,
          -1.13705151e-004, -3.16763733e-004, -7.57438771e-004,
          -5.84434252e-004, -8.19314213e-004, -1.25454564e-003,
          -3.03440931e-004, 4.63187636e-004, 3.55000608e-004,
          4.71487117e-004, 9.60228790e-005, 0., 0., 0., 0., 0.,
          1.53514324e-004, 6.46079367e-004, 2.20626447e-004,
          1.30806366e-004, -2.23399446e-004, -3.01650056e-004,
          -5.98786515e-004, -1.64766144e-003, -1.11584889e-003,
          -1.27688947e-003, -8.44113645e-004, 8.20629066e-004,
          4.58737049e-005, 1.74447545e-004, 2.18768080e-004, 0., 0., 0.,
          0., 0., 3.05652851e-004, 5.14051411e-004, 5.73348021e-004,
          7.14085298e-004, 1.11805403e-003, 8.15129315e-004,
          -3.21676373e-004, -2.63444567e-003, -5.80711232e-004,
          1.28778251e-004, -2.74234335e-004, 7.39665003e-004,
          -1.01032820e-005, -4.27538216e-005, 5.70221600e-005, 0., 0.,
          0., -3.41345803e-005, -7.94121806e-005, 3.38222744e-004,
          9.68660228e-004, 1.67226687e-003, 1.55346864e-003,
          1.51938165e-003, 6.66960026e-004, -1.35042984e-003,
          -2.10385770e-003, 2.99294625e-005, -6.62400635e-005,
          -5.60399203e-004, 9.32355688e-005, 2.55116844e-004,
          1.75955589e-004, -1.84024786e-004, 0., 0., 0.,
          -5.17190638e-005, -2.84288457e-004, -2.79370841e-004,
          2.13937557e-004, 5.35627187e-004, -3.27354530e-004,
          8.76668608e-004, 1.10332598e-003, -1.65644655e-004,
          3.50956980e-004, 5.44798968e-004, -5.04958225e-005,
          2.31091602e-004, -2.57708511e-004, 1.88216654e-004,
          2.00813694e-004, -3.07116570e-004, 0., 0., 0., 0.,
          -3.75699019e-004, -4.68406128e-004, -1.82580319e-004,
          4.16272320e-004, 3.13337572e-004, 3.55789467e-004,
          1.34003046e-003, -3.71798451e-005, -1.97323970e-004,
          -9.00871237e-004, -5.74788428e-005, 4.54117544e-005,
          -1.62385113e-004, 1.94376524e-004, -8.83377070e-005,
          -4.43439058e-004, 0., 0., 0., 0., -2.26801800e-004,
          -5.47482981e-004, -5.40811743e-004, 4.71149629e-004,
          -2.39722358e-004, 6.04858156e-004, 1.22539955e-003,
          3.32423922e-004, -2.39451751e-004, -2.24330593e-004,
          -1.41700613e-004, -2.34427280e-004, -2.66755960e-004,
          -2.97174789e-004, -4.97559377e-004, -4.14343289e-004, 0., 0.,
          0., 0., -3.02657991e-005, -2.66189774e-004, 1.64182653e-004,
          5.42046211e-004, -4.99370275e-004, 5.63557667e-004,
          6.01437467e-004, 1.26565297e-004, -3.25724686e-005,
          3.25667170e-005, -6.41133811e-004, -4.80922114e-004,
          -2.15132255e-004, -2.48715689e-004, -2.88046722e-004,
          -2.64945793e-005, 0., 0., 0., 0., -7.12801702e-005,
          -3.27350455e-004, 3.69430898e-004, 8.72857527e-006,
          -2.14833985e-004, 4.61704149e-005, 8.67429364e-004,
          1.52141089e-003, 9.47209715e-004, 1.80039206e-004,
          -5.56208688e-005, 8.06401076e-005, 3.33932476e-005,
          -4.50165207e-005, 0., 0., 0., 0., 0., 0., -1.15568961e-004,
          -3.79617501e-004, -4.65234552e-005, -4.17451316e-004,
          -2.78119318e-004, -3.55588563e-004, -4.20295459e-004,
          1.01564336e-004, 4.57910006e-004, 4.64402081e-004,
          3.13322875e-004, 1.67671678e-004, 2.07016747e-005, 0., 0., 0.,
          0., 0., 0., 0., -2.61679252e-005, -1.91898114e-004,
          -1.94845081e-004, -2.95638223e-004, -4.39075753e-004,
          -5.33881539e-004, -4.74373024e-004, -2.40546520e-004,
          -5.22020946e-006, 0., 0., 0., 0., 0., 0., 0., 0., 0., 0., 0.,
          0., 0., 0., 0., 0., 0., 0., 0., 0., 0., 0., 0., 0., 0., 0., 0.,
          0., 0. ]
      - [ 0., 0., 0., 0., 0., 0., 0., 0., 0., 0., 0., 0., 0., 0., 0., 0.,
          0., 0., 0., 0., 0., 0., 0., 0., 0., 0., 0., 0., 0., 0., 0., 0.,
          0., 0., 0., 0., 0., 0., 0., 0., 0., 0., 0., 0., 0., 0.,
          -2.47341177e-006, -8.48416585e-006, -9.37242476e-006,
          3.88578374e-005, 1.27794628e-004, 8.56612751e-005,
          1.03745944e-004, 1.80568586e-005, -5.21822731e-005,
          -1.39091979e-004, -3.06554248e-005, 0., 0., 0., 0., 0., 0., 0.,
          0., -1.01338337e-005, -4.45435580e-005, -9.17344587e-005,
          -5.18012203e-005, 4.42019576e-004, 9.50327958e-004,
          4.47395927e-004, 1.79551316e-005, 9.46922228e-005,
          -1.97598303e-004, -3.74760770e-004, -1.69045452e-004,
          -3.23441709e-005, -1.11765421e-005, 0., 0., 0., 0., 0., 0.,
          -1.13800372e-004, -2.58451793e-004, -2.73017922e-005,
          3.97630269e-004, 4.24784870e-004, 3.18276492e-004,
          3.20568535e-004, 4.16705501e-004, 5.02830735e-005,
          -1.98928872e-004, -1.84169417e-004, -1.12020360e-004,
          -2.68905769e-005, -9.16795034e-006, -5.26073734e-007, 0., 0.,
          0., 0., -6.24765744e-006, -3.32160271e-004, -3.97809577e-004,
          2.02598458e-004, 5.72680554e-004, 4.17776973e-005,
          1.31689114e-004, 1.82635253e-004, 6.49521651e-004,
          2.54663610e-004, -1.04933068e-004, 2.46002510e-005,
          3.84120416e-004, 5.04392265e-005, -3.13539954e-006,
          -5.68159635e-007, 0., 0., 0., -4.27225677e-006,
          -3.93344526e-005, -3.01257416e-004, 2.08642650e-005,
          2.77168496e-004, 1.11257228e-004, 1.85164725e-004,
          7.32122920e-004, 3.63173574e-004, 4.33451642e-004,
          4.70796716e-004, -6.95976050e-005, 1.61551841e-004,
          1.43742087e-004, -1.98512371e-005, 0., 0., 0., 0., 0.,
          -2.00481063e-005, -2.43864779e-005, 2.63709098e-005,
          -2.28120734e-006, -1.33821144e-004, 1.29052642e-004,
          5.04614960e-004, 8.78156570e-004, 4.46657941e-004,
          4.39642754e-004, 5.75996761e-004, 1.21160920e-004,
          3.72367096e-004, 4.18846575e-005, 3.91232970e-006, 0., 0., 0.,
          0., -4.72196780e-006, -4.80478120e-005, 1.67736929e-004,
          -1.12829861e-004, -3.13512894e-004, -2.20415950e-005,
          7.77742462e-005, 1.32607704e-004, 3.07169132e-004,
          -6.54678224e-005, -9.91328125e-005, 1.69014296e-004,
          4.53645131e-004, 3.20557388e-004, 2.83892412e-004,
          -3.91284811e-006, -1.14855011e-005, 0., 0., 1.82753595e-007,
          -8.93651304e-006, 2.42683727e-005, -1.20075219e-005,
          -3.41905718e-004, -1.86383797e-004, -1.66487633e-004,
          -4.53943503e-004, -4.36728238e-004, -2.87618313e-004,
          -4.69580234e-004, -5.49429795e-004, -5.44375041e-004,
          1.73752705e-004, -5.22084447e-005, 1.75576846e-004,
          8.40236971e-005, -3.63707550e-005, 0., 0., 1.92372198e-008,
          -6.97052428e-006, 1.22524347e-004, 3.47389105e-005,
          -1.14511604e-004, -1.48858177e-004, 5.96385053e-006,
          -2.35073618e-004, -4.44521545e-004, -1.01260282e-003,
          -6.20470906e-004, -5.03647490e-004, -3.67884175e-004,
          -6.77704811e-005, 8.78422579e-005, 2.17969995e-004,
          2.12766157e-004, 0., 0., 0., 0., 0., 1.00221572e-004,
          1.81197334e-004, -2.09557766e-005, -7.59306495e-005,
          1.55069967e-004, 4.43796762e-006, -5.35539002e-004,
          -9.74658469e-004, -4.24525613e-004, -4.50172724e-004,
          -5.08602127e-004, -1.88657068e-004, 2.14928645e-004,
          -1.01116793e-005, -8.70267686e-005, 0., 0., 0., 0.,
          -4.83123085e-006, 4.30067012e-005, 4.55646405e-005,
          2.32039110e-005, -2.67944590e-004, -1.88101476e-005,
          -5.51559788e-004, -9.52872797e-004, -7.39251496e-004,
          -5.43219910e-004, -3.10763571e-004, -3.31418560e-004,
          -1.87821293e-004, -5.46620977e-005, -4.06586943e-004,
          -2.80327047e-004, 0., 0., 0., 0., 8.46440525e-005,
          1.68003942e-004, 1.27237581e-005, 3.94523609e-004,
          -1.36698494e-004, -4.49855361e-005, -2.14915635e-004,
          -6.01603475e-004, -6.37912715e-004, -3.08904302e-004,
          2.41020753e-004, -2.25184103e-005, -7.47756640e-005,
          3.44799410e-005, -8.33442318e-005, -1.99333299e-005, 0., 0.,
          0., 0., 1.04745188e-004, 3.97749274e-004, 4.35640162e-004,
          5.66771603e-004, 3.18403298e-004, 9.02886852e-004,
          1.12114102e-003, 6.27711881e-004, -2.36535780e-004,
          3.40822153e-005, -2.24990727e-005, -2.72208039e-004,
          -7.96269887e-005, 2.69262295e-004, 3.76523531e-005, 0., 0., 0.,
          0., 0., 1.09293753e-004, 1.98764566e-004, 4.35248803e-004,
          7.66675978e-004, 6.56456221e-004, 9.79824457e-004,
          1.11800281e-003, 6.04149071e-004, 5.94852201e-004,
          3.70764494e-004, -3.52644362e-004, -3.33592441e-004,
          4.85517485e-005, 1.92515290e-004, 1.99261558e-006, 0., 0., 0.,
          0., 0., 4.38433672e-005, 1.21008437e-004, 1.88886173e-004,
          -5.60621338e-005, 8.73276513e-005, 2.91014672e-004,
          5.00100083e-004, 4.64006473e-004, 5.90145704e-004,
          -5.03507435e-005, -1.48660285e-004, 1.28763801e-004,
          1.15764356e-004, 1.79604940e-005, 0., 0., 0., 0., 0., 0., 0.,
          2.67090381e-005, -8.29749042e-005, -1.67102655e-004,
          -1.52407840e-004, -1.43996716e-004, -3.47771893e-005,
          -6.03897279e-005, 1.95639877e-004, -8.01713031e-005,
          -2.58459258e-005, 9.88304309e-005, -9.30900654e-008,
          -8.99422446e-007, 0., 0., 0., 0., 0., 0., 0., 0., 0.,
          -3.59947308e-006, -2.67389423e-005, -9.42719089e-006, 0., 0.,
          0., 0., 0., 0., 0., 0., 0., 0., 0., 0., 0., 0., 0., 0., 0.,
          -2.91385913e-006, -6.85613895e-006, 0., 0., 0., 0., 0., 0., 0.,
          0., 0., 0., 0., 0., 0. ]
      - [ 0., 0., 0., 0., 0., 0., 0., 0., 0., 0., 0., 0., 0., 0., 0., 0.,
          0., 0., 0., 0., 0., 0., 0., 0., 0., 0., 0., 0., 0., 0., 0., 0.,
          0., 0., 0., 0., 0., 0., 0., 0., 0., 0., 0., 0., 0.,
          -5.04897230e-007, -1.56518145e-005, -8.43324051e-006,
          -4.79274022e-005, -2.24236079e-004, -4.50618332e-004,
          -7.24905345e-004, -4.88341553e-004, 5.81604036e-005,
          -2.08083758e-004, -9.43889172e-005, 4.39589166e-005,
          -1.42186236e-005, -4.66292695e-005, 0., 0., 0., 0., 0.,
          -7.57345833e-006, -8.16808897e-005, -1.52449677e-004,
          -3.08767747e-004, -5.98645129e-004, -2.15868160e-004,
          1.53986830e-003, 9.02726490e-004, 1.07240863e-004,
          -1.95015789e-004, -7.87841564e-004, -6.12355827e-004,
          2.54813989e-004, -2.24109717e-005, -2.40307796e-004, 0., 0.,
          0., 0., 0., -6.57198107e-005, -2.28935620e-004,
          -5.19960595e-004, -1.63971679e-004, 6.45944892e-005,
          -4.31928085e-004, 7.19124626e-004, 1.77820667e-003,
          1.11370021e-003, 4.17696545e-004, 7.03070400e-005,
          -2.74943101e-004, -1.51150656e-004, -8.83008353e-004,
          -3.65847140e-004, 0., 0., 0., 0., 0., -8.61964145e-005,
          -2.73718091e-004, -5.29380399e-004, 2.82338820e-004,
          -5.86939335e-004, -1.34492153e-003, -4.98655660e-004,
          9.96658346e-004, 1.29155233e-003, -3.77989578e-004,
          -6.49185560e-004, -8.53670062e-004, -2.82265246e-004,
          -1.11506658e-003, -7.79683061e-004, -3.64954758e-005, 0., 0.,
          0., 0., -1.29303968e-004, -1.43757745e-004, -7.26207567e-004,
          1.19361423e-004, -6.48295274e-004, -8.58020212e-004,
          1.18324831e-004, 9.99096432e-004, 1.01380749e-003,
          6.47378154e-004, -1.05595871e-004, 2.01745541e-004,
          5.56998246e-004, -8.20332440e-004, -9.14955919e-004,
          -1.30340995e-004, 0., 0., 0., 4.97807059e-006, 1.37975203e-005,
          -7.98143621e-004, -1.89258863e-004, -4.27254010e-004,
          -8.85870308e-004, -6.66595122e-004, -1.17340102e-003,
          3.67476605e-004, 6.51495531e-004, 5.44128357e-004,
          1.18604023e-003, 1.11333933e-003, 8.87740462e-004,
          1.31465549e-005, -2.87707197e-004, -1.04272794e-005, 0., 0.,
          0., 3.38939640e-006, 9.92321147e-005, -9.76006850e-004,
          -8.11333375e-005, -4.30867949e-004, -8.21060821e-005,
          -6.79996796e-004, -1.38154801e-003, -1.06140017e-003,
          3.21899919e-004, 8.77153536e-004, 1.23563258e-003,
          1.02314388e-003, 7.22695375e-004, 3.52635223e-004,
          -1.04357459e-004, 0., 0., 0., 0., 1.78232556e-004,
          5.72691264e-004, -9.01417341e-004, -2.65544717e-004,
          -2.78839318e-004, 1.89322891e-004, -4.18334559e-004,
          -1.31998223e-003, -1.07803417e-003, -4.76045214e-004,
          2.43144605e-005, 4.04527760e-004, 9.26341163e-004,
          1.10451400e-003, 4.21425444e-004, 6.56351476e-005, 0., 0., 0.,
          0., 5.67380048e-004, 1.10528758e-003, 1.23822037e-003,
          2.85190996e-004, 6.28545997e-004, 1.82661126e-004,
          -1.16629782e-003, -2.37439713e-003, -4.88663907e-004,
          -3.50676390e-004, -6.87133055e-004, 3.68430250e-004,
          2.06466866e-004, 1.22429011e-003, 3.85583407e-004,
          1.18769203e-004, 0., 0., 0., 3.58635371e-005, 7.81544833e-004,
          1.01088721e-003, 1.89832912e-003, 7.21787510e-004,
          4.74478962e-004, 1.22907921e-004, -1.70273019e-003,
          -2.45148037e-003, 5.22313814e-004, -1.99462913e-004,
          -5.83356014e-004, -2.26424658e-004, 2.41008311e-005,
          9.27885878e-004, 3.90323257e-004, 6.91959722e-005, 0., 0., 0.,
          5.35408362e-005, 3.76696873e-004, -5.24413645e-006,
          9.17715486e-004, 6.22259337e-004, 1.51243049e-003,
          1.81912008e-004, -1.62013411e-003, -3.97958531e-004,
          4.25313629e-004, 6.61361264e-005, 7.27547565e-004,
          2.76839186e-004, 1.92616848e-004, 3.34195385e-004,
          2.10541330e-004, 1.03277569e-006, 0., 0., -1.57283812e-005,
          5.68942414e-005, 3.72931332e-004, 1.97827234e-004,
          9.55461175e-004, 6.13036100e-004, 1.43391499e-003,
          1.18815585e-003, -2.12265900e-003, -1.00243720e-003,
          -4.59264193e-005, -9.30971437e-005, 3.63829458e-004,
          -2.13398715e-004, 2.90609780e-004, 1.63896941e-004,
          5.03021547e-005, 0., 0., 0., -3.22431806e-005,
          -1.61045216e-004, 1.82271378e-005, -1.76333982e-004,
          2.32204184e-004, -1.24236068e-003, 9.59451427e-005,
          9.27267422e-004, -1.78827555e-004, 1.47030907e-004,
          2.82632594e-004, -3.40426137e-004, -3.57648569e-005,
          -6.82621030e-004, 1.70072031e-004, -2.86963805e-005,
          -4.43548088e-005, 0., 0., 0., -1.04855872e-006,
          -1.25236053e-004, -2.09557853e-004, -1.39466156e-005,
          2.57957814e-004, -3.12146527e-004, 1.20689638e-003,
          8.34927021e-004, 5.01722214e-004, 3.21956060e-004,
          -6.36774173e-004, -6.51627255e-004, -4.66180209e-004,
          -3.43360880e-004, 1.02155471e-004, -1.71694730e-004,
          -6.78869983e-005, 0., 0., 0., 0., 2.16666849e-005,
          2.84294976e-004, 1.13451877e-003, -2.16531727e-004,
          -6.46703178e-004, 6.96414267e-004, 9.97969764e-004,
          1.27127499e-003, 2.04196709e-004, -8.99186067e-004,
          -4.45431186e-004, -1.69171079e-004, 7.95510932e-005,
          -4.08570995e-005, -6.21937288e-005, -4.45973001e-006, 0., 0.,
          0., 0., 0., 3.82970757e-004, 8.56668688e-004, 2.08925514e-004,
          -2.27908458e-004, -3.06334958e-004, 2.43901177e-005,
          2.19572161e-004, -1.84716730e-004, 5.80452252e-005,
          -1.61095898e-006, -9.94064067e-006, -3.32146169e-006,
          -2.97315319e-006, 0., 0., 0., 0., 0., 0., 0., 0., 0.,
          -1.34669699e-005, -1.43193800e-004, -1.73196633e-004,
          -3.63533509e-005, -6.41553343e-005, -2.45438976e-004, 0., 0.,
          0., 0., 0., 0., 0., 0., 0., 0., 0., 0., 0., 0., 0., 0., 0., 0.,
          0., 0., 0., 0., 0., 0., 0., 0., 0., 0., 0. ]
      - [ 0., 0., 0., 0., 0., 0., 0., 0., 0., 0., 0., 0., 0., 0., 0., 0.,
          0., 0., 0., 0., 0., 0., 0., 0., 0., 0., 0., 0., 0., 0., 0.,
          -6.75761694e-005, -1.26138824e-004, -3.09668867e-005, 0., 0.,
          0., 0., 0., 0., 0., 0., 0., 0., -1.19160413e-005,
          -7.18785232e-005, 7.01832732e-006, -3.18400620e-004,
          -1.05947955e-003, -5.88576542e-004, -2.81992194e-004,
          -5.45185874e-004, -1.89687344e-004, -7.13042915e-004,
          -4.50894790e-004, -4.56458874e-005, -3.14697281e-005,
          -2.98695022e-006, 0., 0., 0., 0., 0., 0., -1.48099367e-004,
          -1.50255742e-004, 1.89552025e-004, -6.02651562e-004,
          -1.22147922e-005, 5.67120442e-004, 8.53201549e-004,
          4.79710172e-004, 3.05548679e-006, -6.17855345e-004,
          -6.35947683e-004, -7.02937978e-005, -9.02459287e-005,
          -5.29584904e-005, 0., 0., 0., 0., 0., 0., -2.50236859e-004,
          -1.13164882e-004, 1.42098448e-004, -2.85204558e-004,
          -9.34624913e-005, 5.44962822e-004, 1.04562135e-003,
          6.90794142e-004, 5.06171316e-004, 1.13533380e-004,
          -2.90983648e-004, 3.11554701e-004, 1.92722524e-004,
          -1.31067936e-004, 0., 0., 0., 0., 0., -6.46870831e-005,
          -3.28542286e-004, 5.27992161e-005, 8.24448798e-005,
          -3.95771873e-004, 8.12343962e-004, 7.62914482e-004,
          5.54249506e-004, 7.50415085e-004, 1.09963573e-003,
          1.58427341e-003, 1.04012911e-003, 3.83258332e-004,
          2.68439559e-004, 8.05790623e-005, 0., 0., 0., 0., 0.,
          -1.20862707e-004, -2.52860016e-004, 3.99406854e-004,
          -2.68928823e-004, 4.38124029e-004, 3.97632306e-004,
          -4.66128375e-004, 2.61189969e-004, 2.83939764e-004,
          4.19245975e-004, 1.39870332e-003, 1.32214348e-003,
          8.04380164e-004, 3.23806918e-004, 2.59583263e-004, 0., 0., 0.,
          0., 0., -9.59933968e-005, 3.21665284e-005, 5.72710531e-004,
          -2.07234509e-004, 7.02151447e-004, -5.15084015e-004,
          -1.01396457e-004, 3.39123799e-004, 8.30064819e-004,
          9.93287540e-004, 5.64929796e-004, 2.26059143e-004,
          4.19558288e-004, 3.00005719e-004, 8.67920025e-005, 0., 0., 0.,
          0., 0., -4.97923065e-005, 1.25374543e-004, 6.01217558e-004,
          -4.94160515e-004, 3.06948874e-004, -2.31158265e-004,
          1.81710333e-004, -9.75493895e-005, 6.27729984e-004,
          7.18213327e-004, 5.36217354e-004, 3.77402641e-004,
          7.23132456e-004, 8.50069773e-005, -2.08885787e-004,
          -1.52350558e-005, 0., 0., 0., 0., -1.46915088e-004,
          5.04217169e-004, 4.75623965e-004, -8.03977251e-004,
          -3.60568811e-004, -2.28995268e-004, -6.02958084e-004,
          -1.14422897e-003, -3.98690056e-004, -8.28932330e-004,
          1.50559295e-004, -1.21683195e-004, 5.41804300e-004,
          -1.83399286e-004, -1.01409787e-004, -8.56065017e-005, 0., 0.,
          0., 0., -9.48800516e-005, 5.83641930e-004, 1.50476306e-004,
          -8.93657620e-004, 5.86760143e-005, -2.24648044e-004,
          -1.05569570e-003, -1.26612419e-003, -6.60685531e-004,
          -3.85070249e-004, 3.95732844e-004, -1.44251069e-004,
          4.98448906e-004, -2.83163972e-004, 1.97619884e-004,
          -5.51363919e-005, 0., 0., 0., 0., 2.39539058e-005,
          4.78348054e-004, 3.60558217e-004, -1.01103797e-003,
          5.51234989e-004, -2.62718560e-004, -1.42196938e-003,
          -1.46802515e-003, -5.20178757e-004, -4.40907257e-004,
          6.02859727e-005, 2.45685747e-004, 1.34949310e-004,
          -2.74482736e-004, 2.61806243e-004, -2.90191542e-006, 0., 0.,
          0., 0., 9.09543742e-005, 3.35430377e-004, 6.69051879e-005,
          -1.09350926e-003, 4.18967393e-005, 1.29299351e-005,
          -4.90051869e-004, -5.23834489e-004, -2.98680388e-004,
          6.06486865e-004, 2.70769902e-004, -5.80433989e-004,
          1.38389994e-004, 3.11851873e-005, -3.63446670e-005, 0., 0., 0.,
          0., 0., 4.30580185e-005, 6.55537937e-004, 5.73432597e-004,
          -1.34727347e-003, -4.92331746e-004, 9.59141995e-004,
          -4.83406533e-004, -1.10843132e-004, -2.43003145e-004,
          -3.78203287e-004, -1.75120673e-004, -1.75753434e-004,
          1.25948136e-004, -3.74461117e-004, -8.26402757e-005, 0., 0.,
          0., 0., 9.01370731e-006, 1.33818889e-004, 5.04423399e-004,
          6.91996189e-004, -1.21660363e-004, -9.55611322e-005,
          5.80339460e-004, -1.24221924e-005, -4.19450487e-004,
          -1.61846929e-005, -8.33268336e-004, -7.14846770e-004,
          -5.51472709e-004, -4.00697201e-004, -1.01414007e-004,
          -5.19728055e-005, -5.51201720e-006, 0., 0., 0.,
          1.10937935e-005, 1.80817166e-004, 5.05200296e-004,
          4.59640170e-004, 2.78165564e-004, 8.81807064e-004,
          5.37009619e-004, -4.40069096e-004, -3.59080150e-004,
          -4.41003867e-005, -1.89087266e-004, -7.63766584e-004,
          -4.54023335e-004, 6.11703203e-004, 2.82083027e-004,
          -1.10240344e-005, 0., 0., 0., 0., 0., 7.68021710e-005,
          2.73493526e-004, 2.72569567e-004, 1.32434332e-004,
          9.21894098e-004, 1.52501732e-003, 1.31731865e-003,
          8.94983066e-004, 7.44436693e-004, 1.49051470e-004,
          -3.78084515e-004, 9.04720218e-005, 2.46426178e-004, 0., 0., 0.,
          0., 0., 0., 0., 3.46681031e-006, 1.31738798e-005,
          1.31738798e-005, 2.42303067e-005, 3.43462198e-005,
          2.12043873e-004, 2.06188808e-004, 1.36428600e-004,
          1.19631033e-004, -5.58976935e-005, -9.01580424e-005,
          -3.38496502e-005, 0., 0., 0., 0., 0., 0., 0., 0., 0., 0., 0.,
          0., 0., 0., 0., 0., 0., 0., 0., 0., 0., 0., 0., 0., 0., 0., 0.,
          0., 0., 0., 0., 0., 0., 0., 0., 0., 0., 0., 0., 0., 0., 0., 0.,
          0., 0. ]
      - [ 0., 0., 0., 0., 0., 0., 0., 0., 0., 0., 0., 0., 0., 0., 0., 0.,
          0., 0., 0., 0., 0., 0., 0., 0., 0., 0., 0., 0., 0., 0., 0., 0.,
          0., 0., 0., 0., 0., 0., 0., 0., 0., 0., 0., 0., 0., 0., 0.,
          4.71595968e-007, 4.71595968e-007, 2.90794596e-005,
          1.26997227e-004, 1.28355838e-004, 1.07283442e-004,
          4.37271483e-005, 1.07131518e-005, 3.57795898e-006,
          6.83064900e-006, 3.25269014e-007, 0., 0., 0., 0., 0., 0.,
          -2.99001795e-006, -4.10059583e-005, -4.97402143e-005,
          -4.17594420e-005, 7.65004370e-006, 4.92541352e-004,
          1.21146871e-003, 9.64059611e-004, 4.88542311e-004,
          1.69948849e-004, 1.74201443e-004, 1.20221659e-004,
          7.28602536e-005, 4.29355096e-005, 0., 0., 0., 0., 0., 0.,
          -2.13572707e-006, -5.69469885e-005, -8.66230112e-005,
          1.29412947e-004, 4.28796950e-004, 5.71721524e-004,
          4.39915864e-004, 5.27794473e-004, 8.53249570e-004,
          1.81625830e-004, 2.40058471e-005, 2.48776545e-004,
          1.70201747e-004, 7.05833736e-005, 0., 0., 0., 0.,
          -1.77248774e-006, -8.41931615e-006, -1.20082932e-005,
          -2.60042489e-005, -1.09575391e-004, 3.71824921e-004,
          4.08920430e-004, -2.24968477e-004, -3.67530418e-004,
          -7.97096072e-005, 3.38431448e-004, 1.99408198e-004,
          1.70274405e-004, 4.75301378e-004, 5.01391361e-004,
          1.11395762e-004, 0., 0., 0., 0., -6.15939498e-005,
          -9.57010561e-005, -9.98993273e-005, -2.77445099e-004,
          -3.02621571e-004, 1.80280826e-004, -7.48732782e-005,
          2.89254007e-004, 4.60969255e-004, 2.35089465e-004,
          -2.81275396e-004, 1.85117242e-005, 5.06861034e-005,
          1.66652666e-004, 1.51365166e-005, -2.23053994e-005, 0., 0., 0.,
          0., -1.38286123e-004, -2.31808619e-004, -2.47170246e-004,
          -3.68078559e-004, -2.36884589e-004, -2.38716730e-005,
          1.17066571e-004, 3.23579035e-004, 2.16823682e-004,
          -1.19452787e-004, -6.31945964e-004, -3.64076317e-004,
          -2.41232556e-004, 1.61777898e-005, -8.62848829e-005,
          -3.82873695e-005, 0., 0., 0., 0., -1.83292359e-004,
          -1.79740673e-004, -2.60701636e-005, -3.18808907e-006,
          2.38526874e-004, 1.58019859e-004, 2.30529651e-004,
          -6.26026886e-005, -2.25808661e-004, -3.37771518e-004,
          -5.68108633e-004, -3.99930112e-004, -4.41309057e-005,
          -2.18210014e-004, 8.06145399e-005, 1.27154708e-004, 0., 0., 0.,
          0., -6.37184494e-005, -2.47891385e-005, 1.13028982e-004,
          6.55384356e-005, 3.05856462e-004, 1.25608622e-005,
          -2.15966793e-004, -2.81105371e-004, -3.23171640e-004,
          -2.07274061e-004, -5.78699226e-004, -6.42252329e-004,
          -1.34789952e-004, -1.90291699e-004, 1.73109060e-004,
          3.09124414e-004, 0., 0., 0., 0., 0., -3.36092526e-005,
          -3.51737894e-004, 4.18987729e-005, -1.21975827e-004,
          2.23689804e-005, 2.80670007e-004, 2.38359571e-004,
          -4.55627916e-004, -2.74016842e-004, -4.53171524e-004,
          -2.60944187e-004, -3.64763720e-004, 8.01320130e-005,
          2.84822221e-004, 3.43771622e-004, 0., 0., 0., 0.,
          -5.32794184e-005, -5.12703729e-004, -2.42163835e-004,
          -1.08038956e-004, -4.15242946e-004, 2.15173830e-004,
          4.93512023e-004, -5.75002865e-004, -1.09270785e-003,
          -3.17068596e-004, -4.52688866e-004, -6.34128228e-004,
          -4.50913270e-004, 4.46514226e-004, 3.22174979e-004,
          1.73629087e-004, 0., 0., 0., 0., -1.07870117e-004,
          -1.74688481e-004, 2.73714279e-004, -4.99378293e-005,
          -7.05310376e-005, 5.71081124e-004, -3.91851754e-005,
          -8.63453432e-004, -6.37863704e-004, -2.86738708e-004,
          -4.39898758e-005, -2.07773395e-004, 2.21364957e-004,
          5.52347745e-004, 1.96389519e-004, 1.60126092e-005, 0., 0., 0.,
          0., 2.17610970e-004, 4.75565292e-004, 8.86544702e-004,
          1.30871916e-003, 1.08444656e-003, 1.12642057e-003,
          4.40228148e-004, -1.29338485e-004, -1.03641678e-005,
          1.94941909e-004, 3.30245268e-004, 3.66394233e-004,
          1.78115195e-004, 2.02553623e-004, 1.22848025e-004,
          3.50749497e-006, 0., 0., 0., 0., 4.55424481e-004,
          5.72655641e-004, 7.98979192e-004, 1.38962513e-003,
          1.06684200e-003, 1.07280293e-003, 8.51400429e-004,
          4.15333547e-004, -9.09937589e-005, 4.63569857e-004,
          5.30664693e-004, 1.41624929e-004, -8.06720200e-005,
          2.19450420e-004, 4.90294333e-005, 1.62111110e-006, 0., 0., 0.,
          0., 4.99304908e-004, 1.78632035e-004, 3.84234008e-004,
          7.15632224e-004, 3.06047121e-004, 7.49150873e-004,
          4.30220738e-004, 2.81960019e-005, 2.79011554e-004,
          3.45007953e-004, -1.08793232e-004, -1.08199943e-004,
          2.65728828e-004, 1.15437724e-004, 2.68220197e-006, 0., 0., 0.,
          0., 0., 2.28455552e-004, 1.63420205e-004, -3.01738601e-005,
          -3.67917179e-004, -2.70282151e-004, 3.41184234e-004,
          4.49337007e-004, 4.02876205e-004, 1.75693858e-004,
          -4.43901263e-005, -2.45183965e-005, 3.11587297e-004,
          3.04510730e-004, -1.41021403e-004, 0., 0., 0., 0., 0., 0., 0.,
          -7.47175291e-005, -2.83535657e-004, -4.46438469e-004,
          -3.96820949e-004, -3.61800572e-004, -3.97701981e-004,
          -5.13505183e-005, 7.29083476e-005, -6.18169506e-005,
          -1.27823814e-005, 1.24272396e-004, -4.49490399e-005,
          -1.91424595e-004, 0., 0., 0., 0., 0., 0., -2.58320284e-007,
          -8.44756942e-005, -2.80573440e-004, -3.35534307e-004,
          -2.79068539e-004, -5.38462133e-004, -6.01012434e-004,
          -2.72503996e-004, -2.81516579e-004, -2.21644848e-004,
          -1.97696736e-005, 0., -5.18698907e-005, -2.16124536e-004,
          -6.17498699e-006, 0., 0., 0., 0., 0., 0., -3.87480395e-006,
          -3.44427031e-006, 0., 0., -3.18506864e-005, -5.11541293e-005,
          -3.86068905e-006, -2.27565897e-006, 0., 0., 0.,
          -2.84049402e-005, -2.18594534e-004, -5.43398855e-005, 0., 0.,
          0. ]
      - [ 0., 0., 0., 0., 0., 0., 0., 0., 0., 0., 0., 0., 0., 0., 0., 0.,
          0., 0., 0., 0., 0., 0., 0., 0., 0., 0., 0., 0., 0., 0., 0., 0.,
          0., 0., 0., 0., 0., 0., 0., 0., 0., 0., 0., 0., 0.,
          -1.40209329e-006, -2.62892490e-006, 1.65321387e-006,
          9.31923059e-005, 1.32000408e-004, 2.05535485e-004,
          5.28168894e-005, 4.30983018e-005, 9.48780580e-005,
          -5.06786455e-006, -6.72857786e-005, -1.16503088e-005,
          3.29738242e-007, 0., 0., 0., 0., 0., 0., -1.40209329e-006,
          -1.64745961e-005, -4.05391766e-005, 1.04339706e-004,
          -1.56151902e-004, 1.96705107e-004, 1.27657084e-003,
          4.79572220e-004, -5.09282108e-004, -1.34103742e-004,
          -2.12957493e-005, -2.25218435e-004, -7.02789403e-005,
          1.66364021e-006, 0., 0., 0., 0., 0., 0., -6.48468176e-006,
          5.34815990e-005, 6.08358164e-007, -2.66911084e-004,
          -9.79319797e-004, -7.20403972e-004, 8.56840226e-004,
          9.13926691e-004, 3.42064101e-004, -3.09745286e-004,
          -6.31818984e-005, -1.19208780e-004, -1.32314701e-004,
          -4.75195520e-005, 0., 0., 0., 0., 0., -2.04256466e-007,
          2.47496564e-006, -5.18770066e-005, -4.12819150e-004,
          -9.16100340e-004, -6.76739321e-004, -1.67561710e-004,
          8.12551763e-004, 1.08862521e-004, 7.24015932e-004,
          -3.13923723e-004, -6.38633908e-004, -2.45052943e-004,
          -2.98066225e-005, -1.79780065e-004, -8.34224647e-006, 0., 0.,
          0., 0., -7.86387409e-006, -2.05873032e-004, -5.17852488e-004,
          -7.06464634e-004, -8.27028882e-004, -1.10634987e-003,
          -1.20712277e-004, 2.04737971e-005, -4.50479820e-005,
          6.04703091e-004, -3.00380198e-004, -1.03148608e-003,
          -3.49879374e-005, -5.72069894e-006, -4.21303761e-004,
          -1.59646122e-004, 0., 0., 0., 0., 1.83443646e-007,
          -1.84429169e-004, -2.64293863e-004, -1.58640323e-004,
          1.63174685e-004, -9.94788948e-004, 1.60118419e-004,
          4.03337297e-004, 4.29258682e-004, -3.70657690e-005,
          2.04902753e-004, -2.06641180e-005, 1.26667874e-004,
          3.92616173e-004, -1.23036662e-004, -4.53639987e-005, 0., 0.,
          0., 0., 9.32769108e-005, 2.24748743e-004, -1.89769285e-004,
          2.15502063e-004, 6.79485092e-004, 1.98011228e-004,
          1.95028464e-004, 3.36909114e-004, 4.06293606e-004,
          4.38570307e-004, 7.72898493e-005, -1.34274605e-005,
          -6.67356580e-005, 3.44758097e-004, 1.76607762e-004,
          -6.29779333e-006, 0., 0., 0., 0., 1.89247745e-004,
          5.44451585e-004, -1.46502323e-004, 1.04612292e-004,
          6.26097550e-004, 1.28617772e-004, -2.72881472e-004,
          -2.14733812e-003, -1.29735575e-003, -2.50481768e-004,
          -8.13466177e-005, 5.84718422e-004, 5.63929098e-005,
          5.61543624e-004, 2.85143062e-004, -1.20626159e-004, 0., 0., 0.,
          0., 1.50150736e-004, 6.27037778e-004, 5.93587029e-005,
          1.35021983e-004, 3.86454776e-004, -4.57395363e-004,
          -1.02220196e-003, -2.67561199e-003, -1.91151223e-003,
          -4.22484358e-004, 3.30844574e-004, 9.07671580e-004,
          2.23721599e-005, 3.45450317e-005, -2.14529340e-004,
          -3.92035035e-005, 0., 0., 0., 0., 4.89586200e-005,
          5.89875563e-004, 4.64870158e-004, 3.96673800e-004,
          -2.74613936e-004, -6.89167762e-004, -1.68354495e-003,
          -1.89403060e-003, -9.06133850e-004, -1.25268451e-003,
          -3.05229129e-004, 5.00114984e-005, 4.38056122e-005,
          4.11568908e-004, -5.77511382e-005, 0., 0., 0., 0., 0.,
          5.27297416e-005, 4.52790759e-004, 2.63486640e-004,
          5.08274497e-005, -7.00757082e-004, -1.39678188e-004,
          -7.01680605e-004, -1.05332481e-004, -1.48693143e-004,
          -5.95059792e-005, 7.78043352e-004, 1.55395857e-004,
          5.23800612e-004, 7.19599135e-004, -4.65446028e-005, 0., 0., 0.,
          0., 0., -9.93704671e-005, -7.07278668e-005, 5.30763413e-004,
          -5.57473140e-005, -4.45263198e-004, 5.83683839e-004,
          -8.37301428e-004, 1.27798470e-004, 1.88700898e-004,
          9.87025909e-004, 9.84139551e-005, -3.21321655e-004,
          5.24684612e-004, 2.85398477e-004, -7.53287022e-005, 0., 0., 0.,
          0., 0., -2.18865200e-004, -2.15641339e-004, 4.42596793e-004,
          2.21917471e-005, 2.39975361e-005, 1.02251570e-003,
          7.25741615e-004, 1.42824152e-004, 7.54780078e-004,
          2.25024283e-004, -6.00078434e-004, -4.27466410e-004,
          3.58170597e-004, 1.32784116e-004, 1.09935163e-005, 0., 0., 0.,
          0., 0., -2.71702720e-005, 2.59746274e-004, 6.48831774e-005,
          1.93034604e-004, 8.31619953e-004, 7.52297638e-004,
          4.04501188e-004, 8.21359299e-006, 8.33056856e-006,
          -7.85042008e-004, -1.19391741e-004, -5.95931442e-006,
          1.81399169e-004, 2.33209794e-005, 0., 0., 0., 0., 0., 0.,
          1.25493680e-004, 4.75890469e-004, 2.38812481e-005,
          3.63443687e-004, 5.89744304e-004, 7.97976318e-005,
          4.69170278e-004, 2.15122680e-004, 1.41750163e-004,
          2.71670695e-004, 2.09836013e-004, 5.66470626e-005,
          6.26120673e-005, -1.53192354e-006, 0., 0., 0., 0., 0., 0.,
          2.17709108e-004, 4.21390869e-004, 1.75211127e-004,
          8.39626737e-005, 6.05177702e-005, -8.72628661e-005,
          -1.52384964e-004, -3.39188380e-004, 4.50552798e-005,
          1.10145484e-004, 5.14856874e-005, 2.36333599e-005, 0., 0., 0.,
          0., 0., 0., 0., 0., 0., 0., 0., 0., -9.11522704e-007,
          -2.90029971e-006, -7.63857388e-005, -1.56814014e-004, 0., 0.,
          0., 0., 0., 0., 0., 0., 0., 0., 0., 0., 0., 0., 0., 0., 0., 0.,
          0., 0., 0., 0., 0., 0., 0., 0., 0., 0., 0. ]
      - [ 0., 0., 0., 0., 0., 0., 0., 0., 0., 0., 0., 0., 0., 0., 0., 0.,
          0., 0., 0., 0., 0., 0., 0., 0., 0., 0., 0., 0., 0., 0., 0., 0.,
          0., 0., 0., 0., 0., 0., 0., 0., 0., 0., 0., 0., 0., 0., 0.,
          5.27654629e-006, -2.62345293e-005, 4.21314762e-005,
          -2.78724292e-005, 7.43207920e-007, 2.94086349e-004,
          1.18680859e-004, 1.58275870e-005, 0., 0., 0., 0., 0., 0., 0.,
          0., 0., 0., 0., -1.18148355e-005, -1.62841345e-004,
          -5.11621241e-004, 3.90558620e-004, 7.27310719e-004,
          3.51592840e-004, 5.35056985e-004, 7.51367945e-004,
          4.37299401e-004, 8.74218240e-005, 0., 0., 0., 0., 0., 0., 0.,
          0., 0., 2.59619901e-005, -2.36889508e-004, -3.09075927e-004,
          2.71861772e-005, 8.23655922e-004, 6.90516317e-004,
          4.03212558e-004, -6.33202377e-004, -1.28721294e-004,
          -2.24627016e-004, 7.26969854e-004, 2.08059151e-004,
          6.81638494e-006, 0., 0., 0., 0., 0., 0., 1.25551951e-005,
          -1.91566694e-004, -4.06810810e-004, -2.23543990e-004,
          1.50207052e-004, -3.71933274e-005, -2.45473959e-004,
          4.13314614e-004, 3.56305653e-004, 4.27541061e-004,
          -4.88298712e-004, 6.89726090e-004, 8.36151303e-004,
          4.23359626e-004, 0., 0., 0., 0., 0., 7.92803894e-006,
          -1.21294826e-004, -5.40622452e-004, -2.28215882e-004,
          -8.80056177e-005, -3.12641903e-004, 1.95516295e-005,
          2.58394779e-004, 3.00028099e-004, 5.23837516e-004,
          1.92526732e-005, -8.15521693e-004, 1.94530308e-004,
          6.67164510e-004, 3.89660825e-004, 0., 0., 0., 0., 0.,
          -3.14089157e-005, -2.92761804e-004, -4.46578109e-004,
          -2.80977198e-004, -5.66622824e-004, -9.91592417e-004,
          1.15627037e-004, 5.90587908e-004, 7.98596127e-004,
          2.72935955e-004, -2.55328836e-004, -6.77527220e-004,
          -3.70728987e-004, 5.68358402e-004, 1.44113161e-004, 0., 0., 0.,
          0., -8.34197817e-006, -1.78820963e-004, -2.11460880e-004,
          -5.44444018e-004, -1.05410302e-003, -4.47318831e-004,
          -7.12126843e-004, -1.07298023e-003, -8.69409065e-004,
          -8.81757995e-004, -5.44251350e-004, -5.68140007e-004,
          -3.74811847e-004, -1.73563982e-004, 2.01762537e-004,
          1.35934577e-004, 0., 0., 0., 0., -5.88008479e-005,
          -2.73537327e-004, -1.49483935e-006, -7.63669159e-005,
          1.53020665e-004, 6.60088437e-004, -1.17041658e-004,
          -5.29543147e-004, -9.30235372e-004, -8.22311442e-004,
          -4.46566817e-004, -4.73313208e-004, -1.03587423e-004,
          -1.87843892e-004, -2.34818108e-005, 2.00933879e-004, 0., 0.,
          0., 0., -7.53882632e-005, 8.06554908e-006, 3.43921507e-004,
          3.82204540e-004, 1.06203312e-003, 1.34336902e-003,
          4.71087144e-004, -8.71718876e-005, -7.91109225e-004,
          -6.89533306e-004, -5.91190648e-004, -9.10538249e-004,
          -7.69345730e-004, 4.90869163e-004, 1.52820357e-004,
          2.02036783e-004, 0., 0., 0., 0., -2.33275750e-005,
          4.29171996e-005, 1.49273532e-004, 3.66502441e-004,
          4.91239305e-004, 6.56782358e-004, 4.12186753e-004,
          -8.17251741e-004, -1.33435219e-003, -9.89375287e-004,
          -1.45960352e-004, -6.36721437e-004, -4.11008950e-004,
          9.19207232e-004, 3.13570723e-004, 1.35013266e-004, 0., 0., 0.,
          0., 3.94816516e-006, 4.51887929e-004, 4.66094352e-004,
          7.72600819e-004, -7.32534172e-005, 9.09401104e-004,
          5.43883827e-004, -1.05366856e-003, -1.18605513e-003,
          -3.05169990e-004, 3.12809716e-004, 4.99800430e-004,
          8.66223127e-005, 9.22438223e-004, 1.90818231e-004,
          6.43420062e-005, 0., 0., 0., 0., 3.23094609e-005,
          5.54198923e-004, 4.93601314e-004, 1.23784808e-003,
          5.92341123e-004, 8.46898591e-004, 7.39217212e-004,
          -5.32381411e-004, -2.64992035e-004, -1.92999607e-004,
          1.59582960e-005, 3.11862153e-004, -4.00975376e-004,
          4.71679028e-004, 1.88436752e-004, 3.67860994e-005, 0., 0., 0.,
          0., 8.03395324e-006, 3.83556850e-004, 6.97197320e-005,
          2.96323007e-004, 7.44794845e-004, 1.23987615e-003,
          1.05698011e-003, 1.26533012e-003, -6.61167724e-004,
          -8.95883073e-004, -9.42860352e-005, -4.97109839e-004,
          -3.42671585e-004, 3.40885483e-004, 4.86286299e-005,
          5.07394498e-006, 0., 0., 0., 0., 0., 6.01446482e-006,
          3.58293531e-004, 1.00845951e-004, 2.98197818e-004,
          6.21687155e-004, 1.67495295e-004, -3.74920171e-004,
          -9.86295781e-005, -7.85387892e-005, -1.18786504e-003,
          -4.00519901e-004, -3.03128363e-005, 1.31863024e-004,
          -9.06302157e-005, -5.10405926e-007, 0., 0., 0., 0.,
          4.16619969e-007, 3.32120362e-005, 1.06865344e-004,
          -8.28169505e-005, 9.01905296e-005, 1.19782961e-003,
          1.56740216e-003, 1.26594992e-003, 8.59472319e-004,
          -6.73086382e-004, -1.14503829e-003, 9.53546114e-005,
          1.28540501e-004, -1.75484340e-004, -1.63347169e-004,
          -4.59365365e-005, 0., 0., 0., 0., 2.08309984e-007,
          3.52324496e-005, -9.91707930e-005, -2.58955057e-004,
          -2.20776623e-004, -2.77425774e-004, 3.23419808e-004,
          2.21499809e-004, 4.68137179e-004, -5.04075608e-004,
          -6.52781746e-004, -5.17246335e-005, -1.21848811e-004,
          -1.04995444e-004, -1.43129932e-004, -6.17591213e-005, 0., 0.,
          0., 0., 0., -2.08281654e-005, -1.19499724e-004,
          -1.62509721e-004, -1.43657075e-004, -2.99238949e-004,
          -3.15198646e-004, -6.12532662e-004, -4.23409627e-004, 0.,
          -2.13016810e-005, -7.86525925e-005, -3.40632723e-005,
          -1.18942808e-005, -6.58423669e-005, -2.14370502e-005, 0., 0.,
          0., 0., 0., 0., 0., 0., 0., 0., 0., 0., 0., 0.,
          -1.47727906e-005, -4.99588932e-005, -5.90911623e-006, 0., 0.,
          0., 0., 0. ]
      - [ 0., 0., 0., 0., 0., 0., 0., 0., 0., 0., 0., 0., 0., 0., 0., 0.,
          0., 0., 0., 0., 0., 0., 0., 0., 0., 0., 0., 0.,
          -1.47198971e-005, -5.51996127e-005, -6.01062457e-005,
          -4.90663251e-006, 0., 0., 0., 0., 0., 0., 0., 0., 0., 0., 0.,
          0., 0., 3.95645511e-005, 6.78249417e-005, 3.10290561e-005,
          -2.57860720e-005, -4.03084821e-004, -4.88574617e-004,
          3.36097495e-004, -6.12829308e-006, 4.33275236e-005,
          3.27247515e-004, -8.35072569e-005, -7.58879905e-005, 0., 0.,
          0., 0., 0., 0., 0., 6.66393898e-005, 4.12850844e-004,
          2.46553827e-004, -6.32958254e-004, -9.82963946e-004,
          -1.19668792e-003, -1.04272377e-003, 8.09302495e-004,
          -4.36676055e-004, 1.23396385e-004, 6.60349848e-004,
          2.07053495e-006, 1.46043400e-004, 6.41387960e-005, 0., 0., 0.,
          0., 0., 0., 1.83583354e-004, -4.01253521e-004,
          -9.13231110e-004, -1.41060480e-003, -1.26859068e-003,
          -2.89607880e-004, -1.12838100e-003, 5.56043706e-005,
          1.24664773e-004, 2.83182715e-004, 5.34528634e-004,
          3.96872812e-004, 4.56482143e-004, 1.25551975e-004, 0., 0., 0.,
          0., 0., -2.46245210e-004, -1.01999496e-003, -1.29724049e-003,
          -5.83343615e-004, 4.88472986e-004, -3.11584503e-004,
          5.12604718e-004, 5.34832827e-004, -3.08144692e-004,
          -4.19305201e-004, -1.83105411e-004, 3.59406084e-004,
          5.46970463e-004, 2.65397626e-004, 1.18146618e-005, 0., 0.,
          1.23470227e-006, 1.81089661e-006, 0., -3.15945101e-004,
          -1.27049559e-003, -1.65558746e-003, -1.22878375e-003,
          3.33932316e-004, -6.09365088e-005, 4.72323067e-004,
          4.06817155e-004, 4.96031680e-005, -2.37902772e-004,
          -2.16224158e-004, 7.28131054e-005, -1.47879662e-004,
          -3.34693905e-005, -1.82756339e-005, 0., 0., 2.96328540e-006,
          4.28030125e-006, 0., -5.50262257e-006, -8.47265837e-005,
          -3.82111786e-004, -4.98649664e-004, 1.91539482e-004,
          1.63476929e-004, 1.28843973e-003, 9.45116859e-004,
          4.15036717e-004, -6.81650126e-005, -3.76978096e-005,
          -3.66978988e-004, -3.94381408e-004, -4.54037654e-005,
          -1.38907053e-004, -1.25567467e-005, 0., 0., 0., 0., 0.,
          1.63671342e-004, 7.40238116e-004, 3.74879019e-004,
          5.16821514e-004, 9.28964873e-004, 1.99538516e-003,
          1.05319696e-003, 1.87690704e-004, -4.26265433e-005,
          -4.55865054e-004, -7.55509653e-004, -2.38416978e-004,
          -3.15809302e-005, -1.64140831e-004, -4.20597826e-006, 0., 0.,
          0., 0., 3.10329960e-005, 4.14375827e-004, 5.74932259e-004,
          7.48600869e-005, -2.02580442e-004, 2.17144552e-004,
          2.04167096e-003, 1.46926765e-003, 7.96067703e-004,
          -6.66947526e-005, -6.00265979e-004, -6.87214138e-004,
          -3.90962930e-004, -3.80485610e-004, -2.58255866e-004, 0., 0.,
          0., 0., 0., 6.82725949e-005, 1.11667512e-004, -4.83211450e-004,
          -8.01549410e-004, -3.56102362e-004, 3.11799115e-004,
          1.48960017e-003, 1.26319355e-003, 4.13176749e-004,
          2.83562724e-004, -9.63203609e-004, -6.51226728e-004,
          -5.18012268e-004, -3.79659177e-004, -7.34662972e-005, 0., 0.,
          0., 0., 0., -7.43495912e-005, -3.19666957e-004,
          -8.16050859e-004, -1.24193158e-003, -1.32813386e-003,
          -7.73933949e-004, 3.30246025e-004, 1.16898899e-003,
          -1.93400832e-004, 1.06943138e-004, -8.40446854e-004,
          -6.46868197e-004, -2.54725310e-004, -9.02912288e-005,
          -2.14763281e-006, 0., 0., 0., 0., -2.09534010e-005,
          -2.41452624e-004, -5.54164406e-004, -5.43640868e-004,
          -6.98958000e-004, -6.38689729e-004, -2.12293840e-003,
          -1.67036706e-004, 2.64723378e-004, -1.49173813e-003,
          -2.83931324e-004, 4.94738226e-004, 2.60016881e-004,
          -1.23780884e-003, -1.07370643e-003, -7.98383320e-004,
          -5.56813320e-004, -3.35148681e-004, 0., 0., -3.10110336e-005,
          -4.69412305e-004, -6.84188213e-004, -6.21884828e-004,
          1.00551704e-004, -4.32567467e-004, -1.53258233e-003,
          -1.77721216e-004, -3.00234853e-004, -5.67001174e-004,
          2.95903767e-004, 5.70199860e-004, -6.93473121e-005,
          -1.91928132e-003, -1.37336238e-003, -7.54854293e-004,
          -8.62668530e-005, -1.81317555e-005, 0., 0., -3.63000545e-005,
          -4.43466270e-004, -5.82319743e-004, -1.95553192e-004,
          -2.92945886e-004, -6.62528269e-004, -1.07360829e-004,
          -6.73122704e-004, -4.33344685e-005, -4.22334706e-004,
          1.20081269e-004, -3.33644974e-004, -1.34759687e-003,
          -9.03532025e-004, -5.38047694e-004, -1.27179432e-004, 0.,
          7.45227635e-006, 0., 0., -2.34341769e-005, -2.75344326e-004,
          -8.05484233e-005, -1.37071664e-004, -4.01219841e-005,
          4.01453493e-004, -2.41190544e-004, -1.07084657e-003,
          -2.03279502e-004, -3.76792101e-004, -8.65982380e-004,
          -1.31329545e-003, -5.95187012e-004, -2.56922853e-004,
          -1.82335905e-004, -8.58660678e-006, 0., 0., 0., 0., 0.,
          -1.76082794e-005, 1.03242259e-004, 2.10073733e-004,
          8.11564561e-004, 2.73343700e-004, 7.92902501e-005,
          -3.96478630e-004, -1.36530871e-004, -1.71664811e-004,
          -5.80375665e-004, -6.62686303e-004, -3.98623321e-004,
          -6.76504060e-005, -7.48963066e-006, 0., 0., 0., 0., 0., 0.,
          7.15390779e-005, 5.36826323e-004, 2.31866085e-004,
          3.03673514e-005, -3.36114135e-005, 1.33495836e-004,
          -2.77968206e-006, -5.37634187e-004, -6.43711130e-004,
          -8.92507669e-005, -5.75154671e-004, -1.12091564e-003,
          -5.30448277e-004, 0., 0., 0., 0., 0., 0., 0., 0., 0., 0., 0.,
          0., 0., 0., 0., 0., 0., 0., 0., 0., 0., 0., 0., 0., 0., 0., 0.,
          0., 0., 0., 0., 0., 0., 0., 0., 0., 0., 0., 0., 0., 0., 0., 0.,
          0. ]
      - [ 0., 0., 0., 0., 0., 0., 0., 0., 0., 0., 0., 0., 0., 0., 0., 0.,
          0., 0., 0., 0., 0., 0., 0., 0., 0., 0., 0., 0., 0., 0., 0., 0.,
          0., 0., 0., 0., 0., 0., 0., 0., 0., 0., 0., 0., 0.,
          4.78541660e-005, 8.20357091e-005, 0., -5.12152910e-005,
          -3.23256711e-004, -6.64409774e-004, -2.06990560e-004,
          -6.78381184e-004, 4.42470664e-005, 1.07717642e-005, 0., 0., 0.,
          0., 0., 0., 0., 0., 0., 2.48402430e-005, 4.76589048e-004,
          5.81726024e-004, 3.80138154e-005, 1.45233105e-004,
          -9.24401160e-004, -8.93092249e-004, -8.48072741e-005,
          -6.59305952e-004, 5.09562844e-004, 1.90563762e-004,
          -1.54563560e-004, 1.06536092e-004, 3.27419730e-005, 0., 0., 0.,
          0., -8.58259009e-005, -3.05544905e-004, -4.02597594e-004,
          -1.21362427e-004, -7.29019928e-004, -7.45058816e-004,
          -6.51103212e-004, -7.85437413e-004, -1.92884079e-004,
          1.53080691e-004, -3.04703746e-004, -1.72416767e-004,
          6.09349692e-004, 3.40954488e-004, 1.76502450e-004,
          5.49535107e-005, 0., 0., 0., 0., -3.10952804e-004,
          -4.79857670e-004, -8.28156364e-004, -5.71578101e-004,
          -1.05420779e-003, -5.67924813e-004, -5.80948428e-004,
          -9.21960047e-004, 9.05132620e-004, -5.53599733e-004,
          -1.26051228e-003, -7.15383096e-004, 3.42829589e-005,
          1.02656696e-003, -1.62127952e-004, -7.45444195e-005, 0., 0.,
          0., 0., -2.23471769e-004, -4.90804960e-004, -7.20934884e-004,
          -7.01599522e-004, -2.39874673e-004, 3.51950439e-004,
          5.78579900e-004, 1.09748321e-003, 8.17284570e-004,
          -9.53266979e-004, -2.61626206e-004, 1.36288189e-004,
          -4.96825960e-005, -4.25824750e-004, -3.57810553e-004,
          -2.91520901e-005, 0., 0., 0., 0., -3.80451907e-004,
          -3.85795400e-004, -2.97531340e-004, -2.68648408e-004,
          1.15594121e-004, -5.13614577e-006, 8.44726688e-004,
          1.99425640e-003, 1.43936987e-003, -1.19996956e-004,
          -1.61873162e-004, -8.03062518e-004, -9.53608309e-004,
          -4.33532463e-004, -1.16835734e-004, 1.18465425e-004,
          3.81399441e-004, 0., 0., 0., -9.95354567e-005,
          -5.35960135e-005, 2.72638455e-004, 9.81045072e-004,
          3.08334973e-004, -5.66933188e-004, -2.97761231e-004,
          7.28192448e-004, 8.01875314e-004, 1.54854998e-003,
          -1.28800166e-004, -1.28340977e-003, -6.63980842e-004,
          -4.33832356e-005, -5.47998752e-006, 1.04577266e-004,
          3.32186610e-004, 0., 0., 0., 0., 6.84544211e-005,
          6.51491224e-004, 2.66779913e-004, -6.26749475e-004,
          -1.17166003e-003, -1.36074459e-003, -1.17780175e-004,
          3.52336647e-004, 1.43817987e-003, -2.29627432e-004,
          -1.30436884e-003, -4.15623072e-004, -2.56431804e-006, 0., 0.,
          3.09671373e-006, 0., 0., 0., 0., 1.50599721e-004,
          -3.11836156e-005, -7.75792461e-004, -8.40788474e-004,
          -4.00928198e-004, -5.15637570e-004, -8.27916432e-004,
          2.83234491e-004, -1.28643253e-004, 3.05578782e-004,
          -1.31588045e-003, -4.34348447e-004, -1.64982688e-004,
          -1.05092940e-005, 6.19342745e-006, 4.33539899e-005,
          7.74178443e-006, 0., 0., -1.00466441e-005, -6.43898529e-005,
          -6.42383166e-005, -1.25056540e-004, 5.72466997e-005,
          5.62101952e-004, 1.12405105e-004, -1.28345098e-004,
          1.25201733e-003, -1.18166942e-003, 6.56304648e-004,
          -1.44807715e-003, -1.00768032e-003, -4.77256050e-004,
          -1.01589845e-004, 0., 7.74178443e-006, 0., 0., 0.,
          -1.41566343e-005, -3.46571644e-004, -6.01225300e-004,
          -1.31831650e-004, 3.07789334e-004, 1.05695799e-003,
          1.17460510e-003, 9.07697366e-004, 1.53154694e-003,
          -1.39529305e-003, -4.16361145e-004, -1.04477233e-003,
          -6.93938346e-004, -8.19593726e-004, -2.57463078e-004, 0., 0.,
          0., 0., 0., -1.05033096e-005, -5.77616680e-004,
          -8.68710107e-004, -5.41043351e-004, -8.97081220e-004,
          6.03043358e-004, 1.31431769e-003, 1.55521184e-003,
          8.95626552e-004, -9.92083224e-004, 1.03238119e-004,
          -2.08122205e-004, 2.89235559e-005, -5.72788762e-004,
          -2.84608599e-004, 0., 0., 0., 0., 0., 0., -5.75306651e-004,
          -6.91284542e-004, -5.49655640e-004, -1.17099297e-003,
          7.16328668e-006, 6.69720757e-004, 4.71368199e-004,
          -6.18289749e-004, -1.15049304e-003, 5.29641518e-004,
          7.42683653e-004, -4.17175834e-005, -2.32014121e-004,
          -1.24665574e-004, 0., 0., 0., 0., 0., -1.20297818e-005,
          -2.66652321e-004, 7.17986695e-005, 1.68544444e-004,
          -5.70291770e-004, -1.05488591e-003, -1.32782012e-003,
          -5.60131093e-006, -2.11646373e-004, -8.53735721e-004,
          4.62104304e-004, 3.07466602e-004, 2.04346230e-004,
          9.57732773e-005, -9.94295478e-005, 0., 0., 0., 0., 0.,
          -4.42662713e-005, -2.25709387e-004, 5.82785578e-005,
          -3.62611812e-004, 3.52384377e-004, 6.44767308e-004,
          -1.81689145e-004, -1.71429507e-004, -2.80918728e-004,
          -3.80446087e-004, 2.56923289e-004, 1.12660833e-004,
          3.57065030e-004, 1.40072603e-004, -1.39346521e-004,
          -8.70915756e-006, 0., 0., 0., 0., -8.02780123e-005,
          -5.77326864e-004, -4.32123343e-004, -8.60216562e-004,
          -9.98987234e-004, -7.68709113e-004, -1.06825400e-003,
          -6.23549335e-004, -2.62636662e-004, -2.90663476e-004,
          -1.85962650e-004, -6.61327154e-004, -4.34098969e-004,
          -1.64666635e-004, -1.00881072e-004, 0., 0., 0., 0., 0.,
          -2.83171103e-005, -2.07658813e-004, -2.02939293e-004,
          -1.25067236e-004, -7.07927757e-006, -6.26343754e-005,
          -6.73278410e-004, -5.18725428e-004, -1.02149615e-005,
          -2.90305229e-006, -7.19983072e-005, -3.47293972e-004,
          -2.63497059e-004, -1.16122093e-004, -2.61274708e-005, 0., 0.,
          0., 0., 0., 0., 0., 0., 0., 0., 0., 0., 0., 0.,
          -2.17728939e-006, -2.97562874e-005, -5.29807076e-005,
          -4.93518892e-005, -1.45152615e-006, 0., 0., 0., 0. ]
      - [ 0., 0., 0., 0., 0., 0., 0., 0., 0., 0., 0., 0., 0., 0., 0., 0.,
          0., 0., 0., 0., 0., 0., 0., 0., 0., 0., 0., 0., 0., 0., 0., 0.,
          0., 0., 0., 0., 0., 0., 0., 0., 0., 0., 0., 0., 0.,
          5.36518346e-005, 7.83279247e-005, -4.34211506e-005,
          3.89650586e-006, 3.43473439e-005, 6.36953482e-005,
          1.43505385e-004, 3.55624914e-004, 1.73664579e-004,
          3.01409418e-005, -1.35664042e-004, -3.06769289e-005, 0., 0.,
          0., 0., 0., 0., 0., 8.81422966e-005, 5.24621690e-004,
          4.47585859e-004, -7.56543377e-005, 1.10807901e-004,
          2.65383715e-004, 3.56309291e-004, 9.48337023e-004,
          -7.08607113e-005, 3.48793023e-004, -1.10811612e-004,
          -2.66998220e-004, 2.99870517e-005, 2.57273205e-005, 0., 0., 0.,
          0., 0., 0., 4.25382401e-004, 3.39991500e-004, -1.29270848e-004,
          4.34153539e-004, 2.70243123e-004, 4.15781746e-004,
          1.79299650e-006, 7.74276676e-004, -3.51276918e-004,
          9.71149188e-004, 1.01751408e-004, -7.87862373e-005,
          9.30826063e-005, 3.51722192e-005, 0., 0., 0., 0., 0., 0.,
          1.22701085e-005, 1.89204395e-004, 3.95720126e-004,
          4.68464976e-004, -2.56501080e-005, 6.07314694e-004,
          4.89836602e-005, -2.67316733e-004, 4.80515628e-005,
          6.01653010e-004, 2.30060192e-004, 2.87616655e-004,
          -6.13207085e-005, -2.85379574e-005, 0., 0., 0., 0., 0.,
          -2.35714833e-005, -2.51067337e-004, -3.21890606e-004,
          5.73434518e-004, -1.84574208e-004, 3.50340233e-005,
          7.43982906e-004, -4.70111932e-004, -8.97875463e-004,
          9.54102783e-004, 4.18590353e-004, 3.44500237e-004,
          -3.36214725e-005, -2.47193471e-004, -1.98496691e-005, 0., 0.,
          0., 0., 0., -1.15376206e-004, -3.44091037e-004,
          -3.83429753e-004, -3.36670724e-004, -6.92592002e-004,
          1.80548144e-004, 4.13429341e-004, -3.53949523e-004,
          4.79304348e-004, 8.52209225e-004, 2.99670239e-004,
          7.42338234e-005, -2.72495177e-004, -1.76165820e-004,
          2.15238251e-005, 6.67238564e-005, 0., 0., 0., -2.60526904e-005,
          -2.71692348e-004, -2.32354738e-004, -1.97597925e-004,
          -1.09516759e-003, -1.27622916e-003, -4.28899766e-005,
          1.17140400e-004, 8.62263725e-004, 8.24691379e-004,
          -6.15964411e-004, 2.01638395e-005, -1.79577022e-004,
          -3.16749531e-004, -1.65278834e-004, 1.82952517e-005,
          5.81143286e-005, 0., 0., 0., -4.96241737e-005,
          -3.15113488e-004, -1.40778822e-004, -2.71624740e-004,
          -1.22998969e-003, -2.05967296e-003, -1.11541001e-003,
          8.52282610e-005, 1.69107225e-003, 1.57470393e-004,
          -1.38083298e-003, -3.44930391e-004, -3.70118389e-004,
          -4.77403024e-004, -1.62519165e-004, 0., 0., 0., 0., 0.,
          -3.84587329e-005, -3.11391690e-004, -3.23828979e-004,
          -4.64948069e-004, -8.28804681e-004, -1.36396463e-003,
          -1.78861734e-003, -7.73654785e-004, -1.67150545e-004,
          -1.05522387e-003, -1.34132896e-003, -8.67216615e-004,
          -3.96450487e-004, -3.71667877e-004, -1.62519165e-004, 0., 0.,
          0., 0., 0., 0., -1.89609549e-004, -2.74190446e-004,
          -1.72392407e-004, 1.19334327e-004, -6.85049396e-004,
          -3.59937520e-004, -9.39356760e-005, 3.94310555e-005,
          -8.27099255e-004, -7.94626947e-004, -1.09607237e-003,
          -5.86554524e-004, -3.94979492e-004, -1.56316150e-004, 0., 0.,
          0., 0., 0., 0., -2.10953549e-005, 1.98337759e-004,
          1.17143667e-004, -1.76723726e-004, -6.74381154e-004,
          -2.36221575e-004, -4.97228000e-004, -4.76957677e-004,
          -7.86457909e-004, -1.08894939e-003, -8.63355002e-004,
          -4.61378047e-004, -2.77274405e-004, -6.69926376e-005, 0., 0.,
          6.91154355e-006, 0., 0., 0., -1.04301551e-004, 8.45338590e-008,
          2.36789638e-005, 1.06638872e-004, 2.83360801e-004,
          -2.96017824e-004, 5.58934757e-004, 3.34051379e-004,
          1.01228525e-005, 3.27528076e-004, 4.78330796e-004,
          1.44193153e-004, -1.83069656e-004, 0., 0., 0., 3.40260594e-005,
          0., 0., 0., -3.33063799e-005, 6.63187384e-005, 2.49008619e-004,
          6.66220032e-004, 6.65657106e-004, 6.30695431e-005,
          1.36356312e-003, 8.37768603e-004, -5.60195840e-005,
          3.85401101e-004, 7.25602324e-004, 6.76414231e-004,
          1.16619245e-004, 0., 0., 0., 3.72160048e-006, 0., 0., 0., 0.,
          2.38671986e-004, 5.52097452e-004, 7.52339838e-004,
          6.04450644e-004, 8.15302425e-004, 8.37171334e-004,
          9.28506255e-004, 2.39207366e-004, 6.32120471e-004,
          6.76127500e-004, 7.02877471e-004, 2.97328166e-004, 0., 0., 0.,
          0., 0., 0., 0., 2.79034521e-006, 2.59637076e-004,
          4.95081826e-004, 8.03386210e-004, -5.57430845e-004,
          4.22087498e-004, 2.24376199e-004, 1.66417929e-004,
          1.61501870e-004, 7.80582603e-004, 7.00931938e-004,
          7.22458353e-004, 3.76616372e-004, 0., 0., 0., 0., 0., 0., 0.,
          1.25565530e-005, 2.35784173e-004, 1.62540600e-004,
          1.81144685e-004, -9.88997272e-005, -8.03209696e-005,
          -6.05250989e-006, -4.12223744e-004, -7.62071926e-004,
          1.17719588e-004, 8.08399564e-005, 1.12019632e-004,
          6.40185099e-005, 0., 0., 0., 0., 0., 0., 0., 0., 0., 0., 0.,
          0., 0., -1.48138555e-004, -3.39894963e-004, -1.86930309e-004,
          0., 0., 0., 0., 0., 0., 0., 0., 0., 0., 0., 0., 0., 0., 0., 0.,
          0., -2.60017750e-005, -2.00013665e-006, 0., 0., 0., 0., 0., 0.,
          0., 0., 0. ]
      - [ 0., 0., 0., 0., 0., 0., 0., 0., 0., 0., 0., 0., 0., 0., 0., 0.,
          0., 0., 0., 0., 0., 0., 0., 0., 0., 0., 0., 0., 0., 0., 0., 0.,
          0., 0., 0., 0., 0., 0., 0., 0., 0., 0., 0., 0., 0.,
          3.71335882e-005, 6.36575787e-005, 0., 5.47803102e-005,
          1.34485526e-004, -2.87426701e-005, 5.31659869e-004,
          2.37657616e-004, 2.47985990e-005, 3.40751067e-005,
          2.59409644e-005, -3.29058912e-006, -4.45698279e-005,
          -2.55979576e-005, 0., 0., 0., 0., 0., 6.10051829e-005,
          4.79364156e-004, 5.80770429e-004, 1.31074325e-004,
          3.71866830e-004, -2.75625178e-004, -8.64914851e-004,
          1.88889753e-004, 3.84782383e-004, 3.16922844e-004,
          1.41276498e-004, -1.88964303e-004, -3.30965122e-004,
          -3.40505823e-004, -1.23335616e-004, 0., 0., 0., 0., 0.,
          2.81769433e-004, 5.90628479e-004, 3.58332472e-004,
          1.25033461e-004, -5.65093069e-004, -7.21527962e-004,
          -3.16045684e-004, 3.11590440e-004, -2.10054757e-004,
          -3.66984692e-004, -3.56316770e-004, -4.04145772e-004,
          -6.17556565e-004, -5.74651815e-004, -1.97951129e-004, 0., 0.,
          0., 0., -5.91780963e-006, -9.55875566e-006, 1.34127476e-004,
          -9.98796677e-005, 2.53245787e-004, -1.56556653e-005,
          -1.28055282e-004, 2.42525683e-004, 3.69086571e-004,
          -2.91164935e-004, 1.85783661e-004, -5.28332612e-006,
          -1.70600659e-004, -1.00994459e-003, -9.56710137e-004,
          -2.09157690e-004, -1.08897002e-005, 0., 0., 0.,
          -2.47808293e-005, -1.91584215e-004, -4.03146172e-004,
          -2.55056191e-004, 1.46061328e-004, 5.62468776e-004,
          3.93389782e-004, -3.21464351e-004, 5.65553491e-004,
          6.61049271e-004, 1.31132634e-004, -4.67253645e-004,
          -1.28924870e-003, -1.15712767e-003, -8.33924918e-004,
          -4.61774762e-004, -5.68684336e-005, 0., 0., 0.,
          -1.99726073e-005, -3.20986670e-004, -4.16101480e-004,
          -4.68345679e-005, -4.54320369e-004, 1.30097920e-004,
          -3.44976899e-004, -4.18934796e-004, 5.79103944e-004,
          8.01151560e-004, 1.54377951e-004, -4.97868110e-004,
          -4.27957508e-004, -2.91843404e-004, -1.80512652e-004,
          7.27126171e-005, -1.33096328e-005, 0., 0., 0.,
          -3.47671339e-005, -1.69724663e-004, 4.87562444e-004,
          5.03615884e-004, -3.59878410e-004, -3.38074955e-004,
          -2.65544688e-004, 4.74183995e-004, 1.01801648e-003,
          9.17809957e-004, -1.67316510e-004, -4.57746326e-004,
          -2.43374074e-004, -1.64219469e-004, -3.73017392e-005,
          1.53518471e-004, 0., 0., 0., 0., 5.58426837e-006,
          9.87355816e-005, -6.10652023e-006, -3.37390142e-004,
          -1.15601963e-003, -1.27296045e-003, 3.29914765e-004,
          1.39924628e-003, 1.69518229e-003, 2.30969235e-004,
          -5.94946847e-004, -6.36495417e-004, -3.46534740e-004,
          -1.60912576e-004, -1.27648782e-005, 1.30408671e-006, 0., 0.,
          0., 0., 1.82315143e-005, -3.93594266e-004, -9.49389185e-004,
          -9.51931695e-004, -1.29936310e-003, -1.14620023e-003,
          7.76337110e-004, 1.66493398e-003, 1.74141693e-004,
          -4.97638655e-004, -5.80656109e-004, -3.99647892e-004,
          -1.78035058e-004, -8.10000201e-005, -6.10082825e-005,
          1.82572130e-005, 3.26021677e-006, 0., 0., 0., -1.44758233e-004,
          -4.20027907e-004, -3.52680043e-004, -2.65243609e-004,
          -3.39616294e-004, -1.76210306e-004, 1.10489887e-003,
          1.33474695e-003, -4.36767878e-004, -5.27398253e-004,
          -6.58545701e-004, -5.85892703e-004, -2.71637633e-004,
          -7.15184724e-005, -7.58219394e-005, 3.26021677e-006, 0., 0.,
          0., 0., -2.27955534e-005, -7.43560086e-004, -4.54650493e-004,
          -5.51600642e-005, -5.06819561e-005, -8.31649304e-005,
          8.23781942e-004, 2.87115865e-004, -1.37491594e-003,
          -8.01878632e-004, -4.18637559e-004, -5.61376568e-004,
          -4.16712777e-004, -1.08195927e-004, -6.80548110e-005, 0., 0.,
          0., -3.41828381e-005, -5.18439701e-005, -3.93396098e-004,
          -1.09683501e-003, -7.85916345e-004, -7.65286444e-004,
          -2.13998617e-004, -4.21061595e-005, 1.28911913e-003,
          7.55325193e-004, -7.34932488e-004, -9.86869331e-004,
          -7.49038081e-005, 1.76738045e-004, -1.44542108e-004,
          -1.10408662e-004, -2.33013761e-005, 0., 0., 0.,
          -7.00748205e-005, -1.41858778e-004, -2.76254112e-004,
          -3.89419438e-004, -4.76313900e-004, -4.08259133e-004,
          -2.51820864e-004, -1.02374695e-004, 4.50419087e-004,
          9.92701040e-004, -1.47325758e-004, -1.79726776e-004,
          5.48194221e-004, 4.58132854e-004, 1.02942060e-004,
          -8.54509271e-005, -1.74245997e-005, 0., 0., 0.,
          -2.27885585e-006, -1.76611320e-005, -1.13360707e-004,
          2.76737730e-004, 8.24810588e-004, 2.80323700e-004,
          -1.02442747e-003, -1.35097152e-003, -7.38439849e-004,
          1.30391825e-004, 6.58064673e-004, 1.82216492e-004,
          -2.90513290e-005, 1.62646582e-004, 1.20907629e-004,
          -7.35585345e-005, -3.85027452e-005, 0., 0., 0., 0., 0.,
          -1.00951513e-006, 5.28502496e-005, -1.10739144e-004,
          -3.30209237e-004, -1.08807266e-003, -9.50173184e-004,
          -5.36891166e-004, -1.61599033e-004, 1.00863224e-003,
          5.11778169e-004, -2.15451946e-004, 3.47286899e-004,
          2.58690881e-004, -2.75421098e-005, -2.52937753e-006, 0., 0.,
          0., 0., 0., 0., 0., -6.42267478e-005, -9.86641535e-005,
          -3.40517465e-004, -6.40451966e-004, -5.93752426e-004,
          -5.60788321e-004, -3.03904584e-004, -2.56773579e-004,
          -4.24789265e-004, -4.42385317e-005, 4.60569354e-005, 0., 0.,
          0., 0., 0., 0., 0., 0., 0., 0., -6.07671564e-006,
          -3.47723180e-005, -3.32228919e-005, -1.88337333e-004,
          -1.85704295e-004, -1.37092327e-004, -3.34422599e-004,
          -7.18594019e-005, 0., 0., 0., 0., 0., 0., 0., 0., 0., 0., 0.,
          0., 0., 0., -4.25432108e-006, -3.11983567e-005, 0., 0., 0., 0.,
          0., 0., 0., 0., 0., 0. ]
      - [ 0., 0., 0., 0., 0., 0., 0., 0., 0., 0., 0., 0., 0., 0., 0., 0.,
          0., 0., 0., 0., 0., 0., 0., 0., 0., 0., 0., 0.,
          -4.76963214e-005, -1.46403298e-004, -2.09664620e-004,
          -2.11616607e-005, -9.95138325e-005, -1.69164850e-005, 0., 0.,
          0., 0., 0., 0., 0., 0., 2.52442476e-007, 7.57327371e-007, 0.,
          2.44465809e-005, 3.84221930e-005, -1.80023824e-004,
          -2.64091854e-004, -1.91665109e-004, -6.15644094e-004,
          -1.80815288e-004, -2.99700390e-004, -5.42113557e-004,
          -2.73684680e-004, 3.27770904e-005, 0., 0., 0., 0., 0., 0.,
          7.57327371e-007, 2.77686718e-006, 4.01622383e-005,
          3.17805534e-004, 3.19656334e-004, -2.95821665e-004,
          -1.14960749e-004, 2.61815178e-004, 8.75425249e-005,
          -1.60400348e-004, -6.65756757e-004, -4.97405359e-004,
          -3.10681899e-005, 5.94243938e-005, 8.76880877e-005,
          2.57906140e-005, 0., 0., 0., 0., 0., 0., 1.93826461e-004,
          4.42952849e-004, 2.18197980e-004, 1.90358442e-005,
          2.55513645e-004, 5.26265765e-004, 6.17189740e-004,
          4.37993294e-004, -1.79164330e-004, 3.45392327e-004,
          2.87066156e-004, 3.02826666e-004, 2.66974559e-004,
          5.07215409e-005, 0., 0., 0., 0., 0., 0., 2.61927653e-005,
          3.16065503e-004, 2.15645094e-004, 3.73583898e-004,
          5.42548834e-004, 6.54370640e-004, 4.61920747e-004,
          6.61231403e-004, 1.36176066e-004, 7.59756542e-004,
          3.82547179e-004, 2.45029049e-004, 1.02795588e-004,
          6.87749707e-006, 0., 0., 0., 0., 0., 0., 0., 2.02617448e-005,
          3.95635143e-005, 4.44563222e-004, 5.87162620e-004,
          4.99439251e-004, 6.84077168e-005, 5.23127383e-005,
          5.52730286e-004, 8.28346063e-004, 1.71789041e-004,
          -5.56410705e-005, -8.38830310e-005, -3.15189936e-006, 0., 0.,
          0., 0., 0., 0., -3.65799169e-005, -2.60396337e-004,
          -5.07160672e-004, 7.85480006e-005, 4.27737221e-004,
          4.61425632e-004, 4.35038208e-004, 1.06872665e-003,
          1.38050318e-003, 7.89378944e-004, -2.23970579e-004,
          -4.86510486e-004, -1.34297938e-004, -2.55494228e-006,
          8.00207854e-005, 0., 0., 0., 0., -2.23958682e-006,
          -1.08694352e-004, -6.23133456e-005, -3.92413815e-004,
          -8.67921117e-005, 5.20847738e-004, 1.41035329e-004,
          9.26816254e-004, 9.54491377e-004, 5.41940797e-004,
          2.11691404e-005, -3.92734597e-004, -4.29906679e-004,
          -1.29710912e-004, -1.10194436e-004, 6.96955249e-005, 0., 0.,
          0., 0., -6.94271948e-005, -1.21826291e-004, -1.10942114e-004,
          -5.34207211e-004, -7.02838064e-004, -4.50610096e-004,
          -1.34767673e-004, 2.04351658e-004, 1.71016916e-004,
          6.99827069e-005, -6.99342228e-004, -5.75963641e-004,
          -3.71623435e-004, -1.72706510e-004, -1.41137090e-004,
          5.65863547e-006, 0., 0., 0., 0., -9.10765302e-005,
          -7.46528967e-005, -1.91652172e-004, -7.44971854e-004,
          -8.00328329e-004, -7.46696838e-004, -3.19163519e-004,
          3.07045673e-004, 3.81540391e-004, 8.55805411e-005,
          -7.96184584e-004, -7.50206003e-004, -1.96921377e-004,
          -3.09220282e-004, -4.77285939e-005, 7.92208957e-005,
          1.41465889e-005, 0., 0., 0., -8.13716542e-005,
          -1.24670332e-004, -1.93744243e-004, -8.02800467e-004,
          -5.19371941e-004, -1.05103781e-003, 2.11601480e-004,
          6.94436661e-004, 2.50663870e-004, -7.12551351e-004,
          -1.47895247e-003, -9.95059148e-004, -3.92802584e-004,
          -2.82247987e-004, -7.53267295e-006, 1.41465889e-005, 0., 0.,
          0., 0., -1.86632242e-005, -1.39532116e-004, -2.60362867e-004,
          -4.80806426e-004, -1.06365466e-003, -1.63125049e-003,
          1.03887374e-004, 8.47756673e-005, -8.00234964e-004,
          -1.15532905e-003, -8.92472803e-004, -8.05442221e-004,
          -4.27747378e-004, -1.00215715e-004, -6.73834890e-008, 0., 0.,
          0., 0., 0., 0., 9.93746726e-005, 2.19711437e-005,
          -4.77032590e-004, -1.43309298e-003, -8.05407588e-004,
          4.60649928e-004, -4.68082326e-005, -1.15397281e-003,
          -7.16633862e-004, -3.76815471e-004, 1.59562158e-004,
          -1.72606757e-004, -4.07920697e-006, -5.92974700e-008, 0., 0.,
          0., 0., 0., 0., 2.31276630e-004, 3.96449323e-004,
          1.13207716e-004, -1.45618906e-004, -9.31996110e-005,
          -3.68528184e-004, -2.11561128e-004, -5.81066648e-004,
          -6.18867518e-004, -2.27940400e-004, 3.14252655e-004,
          4.26089828e-005, -2.66838612e-007, 0., 0., 0., 0., 0., 0., 0.,
          2.90818076e-004, 3.87309759e-004, 2.12434839e-004,
          6.43990526e-004, 1.08475520e-004, -1.23053754e-003,
          -1.19445549e-005, -2.89104762e-004, -5.02173207e-004,
          -2.40799913e-004, 2.28308025e-004, 2.24667412e-004, 0., 0., 0.,
          0., 0., 0., 0., 1.71937427e-006, 1.96284571e-004,
          1.57483184e-004, 6.54147807e-005, 5.80223917e-004,
          9.77795105e-004, -3.36985424e-004, -1.34650836e-004,
          2.26386081e-004, 6.02828397e-004, 3.01155291e-004,
          4.27936175e-004, 2.27003955e-004, 0., 0., 0., 0., 0., 0., 0.,
          7.73718421e-006, 1.47811545e-004, 6.90682209e-005,
          8.20560274e-007, 5.45295770e-005, 2.83561152e-004,
          7.75597000e-005, -2.39476649e-005, 1.61211909e-004,
          6.28460955e-004, 9.74722861e-005, 6.46088229e-005,
          3.14313183e-005, 0., 0., 0., 0., 0., 0., 0., 0., 0., 0., 0.,
          0., 0., 0., 0., 0., 0., 0., 0., 0., 0., 0., 0., 0., 0., 0., 0.,
          0., 0., 0., 0., 0., 0., 0., 0., 0., 0., 0., 0., 0., 0., 0., 0.,
          0. ]
      - [ 0., 0., 0., 0., 0., 0., 0., 0., 0., 0., 0., 0., 0., 0., 0., 0.,
          0., 0., 0., 0., 0., 0., 0., 0., 0., 0., 0., 0., 0., 0., 0., 0.,
          0., 0., 0., 0., 0., 0., 0., 0., 0., 0., 0., 0., 0.,
          2.78766620e-005, 4.77885624e-005, 0., 3.23884960e-005,
          1.49796790e-004, 3.59407532e-005, 1.14408525e-004,
          9.80847108e-006, 4.53673565e-005, 2.26836783e-005, 0., 0., 0.,
          0., 0., 0., 0., 0., 0., 4.57973729e-005, 3.61617771e-004,
          4.42046701e-004, 1.35114809e-004, 7.68603932e-004,
          5.85881236e-004, 7.39628915e-004, 1.65117043e-003,
          1.52383337e-003, 1.09051622e-003, 4.33131005e-004,
          1.38110670e-004, 1.08632375e-004, 2.87165767e-005, 0., 0., 0.,
          0., 0., 0., 2.21022099e-004, 5.06715034e-004, 4.89275379e-004,
          6.60669815e-004, -5.91162825e-004, -1.30433415e-003,
          -1.22485752e-003, 1.87560421e-004, 6.64846099e-004,
          1.16333866e-003, 1.02231966e-003, 2.26803124e-004,
          1.08614520e-004, 5.64759357e-005, 0., 0., 0., 0., 0., 0.,
          -3.96649411e-005, 2.09807331e-004, -4.67422273e-004,
          -1.37634424e-003, -1.78005116e-003, -1.91595894e-003,
          -1.06451800e-003, -4.65218727e-005, -8.21736001e-004,
          5.92365832e-005, -3.52415460e-004, 1.44590784e-004,
          1.50706619e-005, 2.49636901e-006, 0., 0., 1.12910516e-006,
          5.53622112e-006, -3.19475002e-005, -2.91286007e-004,
          -4.05921164e-004, -4.99761140e-004, -9.58867546e-004,
          -1.62487954e-003, -1.14289590e-003, -1.62680299e-005,
          -1.17479307e-004, -6.39014528e-004, -1.33807806e-003,
          -8.25868221e-004, -3.39319842e-004, -1.63540244e-004,
          -2.34893319e-004, -3.09683091e-005, 0., 0., 1.15235664e-004,
          1.66882644e-004, -1.53959249e-004, -7.50386913e-004,
          -4.87388636e-004, -4.53307293e-004, -3.49698006e-004,
          -9.67828499e-004, -3.63583415e-004, 3.85472551e-004,
          9.47401713e-006, -5.06136334e-004, -1.85171736e-003,
          -1.15700718e-003, -9.24969791e-004, -5.83534187e-004,
          -3.29038274e-004, -4.25814251e-005, 0., 0., 0.,
          -4.02918995e-005, -4.09945234e-004, -3.82696249e-004,
          -8.78064748e-005, 5.27004195e-005, -7.27380917e-004,
          -1.20787614e-003, -9.67962769e-005, 7.30999513e-004,
          1.10263075e-003, 1.81613097e-004, -4.24823666e-004,
          -7.79640279e-004, -1.02967815e-003, -3.29015747e-004,
          -2.61940266e-004, -1.93551932e-005, 0., 0., 0.,
          -2.91523756e-004, -3.22335196e-004, 2.83545978e-005,
          3.49706708e-004, 3.09562543e-004, -7.56886613e-004,
          -1.35259202e-003, -1.10069326e-004, 9.22135951e-004,
          1.11626287e-003, 8.82137538e-005, 4.48538980e-004,
          -6.93504349e-004, -3.54698830e-004, -2.96779617e-004,
          -1.47099461e-004, 0., 0., 0., 0., -6.39930222e-005,
          -1.65907823e-005, 5.59283835e-005, 3.44029722e-005,
          -2.64525152e-004, -6.78192882e-004, -7.83508585e-004,
          -6.67065760e-005, 7.97951303e-004, 5.71791606e-004,
          -1.88740698e-004, 2.06157943e-004, -5.18753252e-004,
          -3.16174293e-004, -3.01517342e-004, -7.21996184e-005, 0., 0.,
          0., 0., 0., -1.03227694e-005, -1.85809855e-004,
          -3.24815774e-004, -3.21685977e-004, -2.53098173e-004,
          -1.41933619e-004, 1.13277743e-003, 7.64150405e-004,
          7.21869059e-004, -3.25353263e-004, -6.09030889e-004,
          -1.32354756e-003, -6.86563435e-004, -4.66038269e-004,
          -3.85249266e-004, -3.75852942e-005, 0., 0., 0., 0.,
          -2.96779635e-005, -2.85231479e-004, -2.89667340e-004,
          -1.34890768e-004, 5.43232954e-006, 2.51988182e-004,
          -6.91366382e-004, -1.96261462e-004, -3.20674560e-004,
          -7.88952515e-004, -1.36405681e-004, -5.05513279e-004,
          -5.64774964e-004, -4.79212496e-004, -4.64178360e-004,
          -6.38950005e-005, 0., 0., 0., 0., -2.83876161e-005,
          -1.58712588e-004, -4.75014276e-005, 8.44550050e-006,
          3.49020906e-004, 5.46267140e-004, 7.24031706e-005,
          2.13437743e-004, -2.68417411e-004, 6.79259654e-004,
          4.98971087e-004, 2.44754210e-005, -9.54491334e-005,
          -2.59338529e-004, -1.12755879e-004, -5.63779395e-006, 0., 0.,
          0., 0., 0., 0., 5.67091956e-006, 2.20901056e-004,
          2.64089380e-004, -1.20355100e-004, 6.90221612e-004,
          -5.02484851e-004, 5.65399358e-004, 5.71745972e-004,
          3.03178880e-004, 7.01074256e-004, 4.69920866e-004,
          1.61286400e-004, 0., 0., 0., 0., 0., 0., 0., 0.,
          4.29402513e-004, 8.94004828e-004, 3.13618261e-006,
          8.23736249e-004, 3.18101753e-004, 1.36168266e-004,
          9.95197450e-004, 1.32204662e-003, 7.32771587e-004,
          6.30623370e-004, 5.07753459e-004, 2.60845904e-004, 0., 0., 0.,
          0., 0., 0., 0., 4.83420627e-005, 5.72446326e-004,
          3.88690969e-004, 5.15815103e-004, 2.03985814e-003,
          1.57801289e-004, 1.39709818e-003, 7.81831739e-004,
          5.74738835e-004, 7.12434645e-004, 4.71090316e-004,
          5.07753459e-004, 2.58854707e-004, 0., 0., 0., 0., 0., 0., 0.,
          6.11514915e-005, 2.88490439e-004, -7.87257042e-004,
          -5.31280530e-004, 1.83845186e-004, -1.19711144e-003,
          1.90257313e-004, -1.05796952e-003, -4.24792233e-004,
          2.84687587e-004, 8.78210049e-005, 7.36740330e-005,
          3.58414218e-005, 0., 0., 0., 0., 0., 0., 0., 0.,
          -6.69595902e-005, -4.89576894e-004, -7.13371206e-004,
          -7.76997593e-004, -1.41901476e-003, -1.09650858e-003,
          -9.45825537e-004, -3.65651824e-004, -2.61181412e-004, 0., 0.,
          0., 0., 0., 0., 0., 0., 0., 0., 0., 0., -3.95198140e-006,
          -3.27449889e-005, -2.90526586e-005, -2.84180511e-004,
          -9.47268418e-005, 0., -7.38121380e-005, -9.08457077e-005, 0.,
          0., 0., 0., 0., 0., 0. ]
      - [ 0., 0., 0., 0., 0., 0., 0., 0., 0., 0., 0., 0., 0., 0., 0., 0.,
          0., 0., 0., 0., 0., 0., 0., 0., 0., 0., 0., 0., 0., 0., 0., 0.,
          0., 0., 0., 0., 0., 0., 0., 0., 0., 0., 1.66077268e-006,
          4.98231793e-006, 0., 1.21706151e-004, -8.72825512e-006,
          -1.16691960e-003, -1.69340114e-003, -8.13565275e-004,
          -4.07263055e-004, 8.30842124e-004, -2.70652617e-005,
          3.21876927e-004, 7.61612144e-004, 4.82636678e-004,
          8.89735456e-005, 0., 0., 0., 0., 0., 4.98231793e-006,
          1.82684998e-005, 1.99945818e-004, 1.06736249e-003,
          -5.14166750e-005, -1.47305883e-003, -1.11140765e-003,
          -1.59656093e-003, -2.45669833e-003, 1.23391743e-003,
          -1.82119431e-003, -1.90854655e-003, -2.07562582e-003,
          3.87915992e-004, 6.55393000e-004, -7.41427402e-006, 0., 0., 0.,
          0., 0., 0., 9.64955892e-004, 5.80804539e-004, 6.73180213e-004,
          1.33053306e-003, -1.63612620e-003, -2.25095591e-003,
          -2.27795867e-003, -2.43092771e-003, -2.27593305e-003,
          -2.04866496e-003, -1.28966710e-003, -1.40537368e-003,
          3.40732331e-005, -6.54759278e-005, 0., 0., 0., 0., 0., 0.,
          1.27994761e-004, 1.32918212e-004, 4.04423772e-004,
          1.36811750e-005, -1.78515969e-003, -7.55951914e-004,
          1.62105076e-003, -4.54117253e-005, 2.02395880e-004,
          2.77771335e-003, -3.50276008e-004, 2.08740658e-003,
          1.97219968e-004, -6.17475831e-004, -2.06953246e-005, 0., 0.,
          0., 0., -3.44671098e-005, -1.18907861e-004, -6.10823743e-004,
          -2.02373229e-003, -1.41496523e-004, 5.54298633e-004,
          2.29163677e-003, -2.12387007e-004, 2.02538725e-003,
          -3.22388398e-004, -1.09648425e-003, -1.49135711e-003,
          -2.22085626e-003, -1.94801076e-003, -2.13575969e-003,
          -5.73172118e-004, 0., 0., 0., -2.16421377e-005,
          -1.79549592e-004, -3.39249935e-004, -8.48728290e-004,
          2.41508591e-004, -1.60572969e-003, -1.07650249e-003,
          -7.46101869e-005, 1.88548851e-003, 1.76161050e-003,
          -1.16943754e-003, 9.58743476e-005, -1.07782672e-003,
          -1.47576339e-003, -1.02503551e-003, -1.36231782e-003,
          2.97321618e-004, 0., 0., 0., -3.04593068e-005,
          -2.04397977e-004, 2.87879549e-004, 1.40357239e-003,
          1.08753075e-003, -1.27388036e-003, -2.96064629e-003,
          -6.55230950e-004, 2.61765439e-003, -5.34985156e-004,
          5.39884313e-005, -4.24673781e-004, -1.84104708e-003,
          -1.50036032e-003, -1.66953821e-003, -8.97795428e-004,
          6.75143849e-004, 0., 0., 0., -1.20234099e-005, 1.15532690e-004,
          2.26009893e-003, 1.36253890e-003, -9.44998348e-004,
          -2.04169285e-003, -2.10725656e-003, 1.62686326e-003,
          -1.10990775e-003, -1.01954350e-003, -4.80269897e-004,
          -5.27572352e-004, -2.22017546e-003, -1.43672002e-003,
          -7.17010698e-004, -1.28294952e-004, 1.00918660e-005, 0., 0.,
          0., 0., 4.41095850e-004, 1.02569989e-003, -1.11519330e-004,
          -4.10997018e-004, 4.39615338e-004, 7.11128465e-004,
          1.77465542e-003, 4.46535531e-004, -1.00567215e-003,
          2.39074184e-003, 7.01165001e-004, 2.75487633e-004,
          2.59237160e-004, -3.36446078e-006, 2.01837320e-005,
          1.41286117e-004, 2.52296650e-005, 0., 0., 0., 0.,
          4.24909194e-005, 9.04484878e-008, -1.27842149e-003,
          -1.44384499e-003, -9.13707190e-004, 5.00820170e-005,
          1.71210710e-003, 2.32075690e-004, 1.60961761e-003,
          -1.04064541e-003, -4.51629137e-004, 6.05511923e-005, 0., 0.,
          2.52296650e-005, 0., 0., 0., 0., 1.77573984e-005,
          -1.36030012e-005, -1.07722101e-003, -1.97527511e-003,
          -2.54365453e-003, 4.72298969e-004, 2.36495072e-003,
          3.90136585e-004, -1.82080758e-003, -1.71111489e-003,
          -1.62385323e-003, -1.44669693e-003, -2.61213369e-004,
          -4.96967623e-005, 0., 0., 1.21499907e-004, 0., 0., 0.,
          -7.99774643e-005, -7.53147390e-007, -5.17570705e-004,
          -1.03208073e-003, 7.64851051e-004, -2.50971934e-004,
          1.09500694e-003, 2.94538127e-004, -3.93308728e-004,
          -1.10503938e-003, -4.91084880e-004, -2.24660209e-004,
          -1.58225372e-003, -2.67064897e-004, -1.84358960e-005, 0.,
          5.98153390e-004, 0., 0., 0., -3.60767386e-004, 1.17079922e-004,
          -1.02958991e-003, -4.36195434e-004, -3.78003198e-004,
          -1.26155920e-003, 7.73108506e-004, -7.55801564e-004,
          -1.48402265e-004, 1.08714739e-003, 1.91798911e-003,
          -6.54765827e-005, -1.65983615e-003, -3.30242241e-004,
          -2.96577455e-005, 0., 6.54230244e-005, 0., 0., 0.,
          -4.05080296e-004, 1.15953060e-003, 1.68265402e-003,
          6.73994480e-004, -4.69952996e-004, 4.69561579e-004,
          -1.42565917e-003, -1.08548138e-005, 1.76916248e-004,
          1.47732929e-003, -6.61289552e-004, -1.33500213e-003,
          -1.83163429e-004, -1.45082478e-004, -1.36265317e-005, 0., 0.,
          0., 0., 0., -3.43298278e-004, -2.52520957e-004,
          1.27747934e-003, 1.81852185e-004, 3.00456159e-004,
          -8.90232855e-004, 6.58557226e-004, -3.54972406e-004,
          1.50851949e-004, 1.16090314e-003, -5.65275026e-004,
          1.10592786e-003, 1.09405827e-003, -1.60312138e-005, 0., 0., 0.,
          0., 0., 0., -1.42525489e-004, -5.77846775e-004,
          -3.26618610e-004, -8.80834181e-004, -1.62356580e-003,
          -2.16209446e-003, -1.96789904e-003, -2.43744999e-003,
          -3.52755259e-003, -5.00339025e-004, -3.41114704e-004,
          3.21651954e-004, 1.56479335e-004, 0., 0., 0., 0., 0., 0., 0.,
          0., 0., 0., 0., -9.25226686e-006, -2.94390320e-005,
          -5.26961885e-005, -2.39640780e-004, -4.68630868e-004,
          -1.91712621e-004, 0., 0., 0., 0., 0., 0., 0., 0., 0., 0., 0.,
          0., 0., 0., 0., 0., 0., 0., 0., 0., 0., 0., 0., 0., 0., 0., 0. ]
      - [ 0., 0., 0., 0., 0., 0., 0., 0., 0., 0., 0., 0., 0., 0., 0., 0.,
          0., 0., 0., 0., 0., 0., 0., 0., 0., 0., 0., 0., 0., 0., 0., 0.,
          0., 0., 0., 0., 0., 0., 0., 0., 0., 0., 0., 0., 0.,
          3.50702976e-005, 6.01205102e-005, -1.03955733e-006,
          -2.05652691e-006, 3.12318953e-005, 6.73050890e-005,
          3.77888733e-004, 1.62442913e-004, 6.06995818e-005,
          3.03497909e-005, 0., 0., 0., 0., 0., 0., 0., 0., 0.,
          5.76154889e-005, 4.55913862e-004, 5.39719942e-004,
          1.58464791e-005, -4.12076442e-005, 4.48462633e-005,
          2.66120187e-004, 9.52396891e-004, 7.78776943e-004,
          6.88966014e-004, 3.11547017e-004, 2.24982796e-005,
          9.56176882e-005, 2.81228495e-005, 0., 0., 0., 0., 0., 0.,
          2.78057356e-004, 6.29424409e-004, 4.25596168e-004,
          1.25929175e-004, -2.20241927e-004, -1.81729469e-004,
          -3.92993650e-004, 3.45916720e-004, 3.40551051e-004,
          6.56791148e-004, 2.69296550e-004, 3.08311777e-004,
          2.52186903e-004, 5.48286953e-005, 0., 0., 0., 0., 0., 0.,
          3.75753189e-005, 2.97085324e-004, 1.16693729e-004,
          -6.90368252e-005, -4.95845277e-004, -1.03572733e-003,
          -1.12552603e-003, -2.55794166e-005, -1.11858372e-003,
          -5.56936793e-005, 7.79320835e-005, 6.40458602e-004,
          2.12197207e-004, 7.49942637e-006, 0., 0., 0., 0., 0., 0.,
          -4.20636898e-005, -2.20285699e-004, -1.10245273e-004,
          -6.69826637e-004, -5.44282724e-004, 3.15561541e-004,
          -6.42155064e-004, -2.50081241e-004, -7.27414852e-004,
          4.56113994e-005, -1.38673306e-004, -1.92233142e-006,
          1.57310933e-005, 0., 0., 0., 0., 0., 0., -1.62082188e-006,
          -1.40029850e-004, -3.90212954e-004, -2.91491655e-004,
          -7.63508258e-004, -7.35204725e-004, 4.50578082e-004,
          6.97990821e-004, 2.23970943e-004, 2.60604458e-004,
          -2.57681444e-004, -6.70027919e-004, -2.95207748e-004,
          -9.26506709e-006, 1.36713179e-005, 4.23810852e-005, 0., 0., 0.,
          -1.84263590e-005, -7.65963414e-005, -7.90036065e-005,
          1.44495629e-004, -3.00435117e-004, -6.95408555e-004,
          -1.13244588e-003, 1.61772245e-004, 1.87345038e-004,
          4.10686953e-005, -1.01008940e-004, -8.43138434e-004,
          -7.74721731e-004, -2.48578930e-004, -1.17961967e-007,
          1.16206202e-005, 3.69125592e-005, 0., 0., 0., -1.13287984e-004,
          -1.11862173e-004, 2.90400290e-004, 1.08197499e-004,
          -7.11626606e-004, -1.67809450e-003, -5.99879655e-004,
          1.07612158e-003, 5.01683498e-005, -3.82184953e-004,
          -9.35364980e-004, -9.60091013e-004, -4.94109467e-004,
          -1.90074119e-004, 0., 0., 0., 0., 0., 0., -1.13970440e-004,
          -5.42422058e-005, 3.25003639e-005, -4.53677552e-004,
          -5.44142327e-004, -9.97958938e-004, -3.05286230e-004,
          6.31458184e-004, 1.00455794e-003, -5.92602766e-004,
          -8.30914185e-004, -7.36129587e-004, -4.36263537e-004,
          -1.82716059e-004, -1.50140704e-005, 0., 0., 0., 0., 0.,
          -4.36772934e-005, -1.41615106e-004, -1.49191314e-004,
          -1.28588028e-004, -1.34249931e-004, -2.71015975e-004,
          2.83969362e-004, 6.22067950e-004, 9.84826009e-004,
          -5.28682256e-004, -1.28774598e-004, -4.11053625e-004,
          -4.17342613e-004, -1.66483544e-004, -4.23123784e-005, 0., 0.,
          0., 0., 0., 0., 3.51565031e-005, 1.97766145e-004,
          2.41129615e-004, -1.92458814e-004, -4.11842339e-004,
          8.75273327e-005, 6.52214570e-004, 2.01748757e-004,
          2.18952817e-004, -2.81916509e-005, -2.60333094e-004,
          -3.22921696e-004, -1.35306836e-004, -4.62649405e-005, 0., 0.,
          0., 0., 0., 0., -1.22319998e-005, -4.33696587e-005,
          -1.06399719e-004, 4.20987781e-005, -2.66542847e-005,
          -2.41123835e-005, 1.16631004e-003, 6.02080137e-004,
          5.39665925e-004, 2.89790856e-004, 6.10129646e-005,
          2.77932064e-004, 1.62168726e-005, -8.71601442e-005,
          -2.25114150e-006, 0., 0., 0., 0., 0., 0., 8.32584738e-006,
          1.21442034e-004, 2.42079230e-004, -1.02608697e-004,
          5.55505976e-004, 7.21416087e-004, 8.57125153e-004,
          4.46779100e-004, 6.30620285e-004, 6.06739486e-004,
          5.42643829e-004, 1.54748152e-004, -1.00761827e-004,
          -1.67484923e-005, 0., 0., 0., 0., 0., 0., 5.46689902e-004,
          9.75264586e-004, 1.18724507e-004, 4.23967111e-004,
          -7.96342065e-005, -4.26393584e-004, 8.45082221e-004,
          5.19543071e-004, 4.61883901e-004, 2.70265562e-004,
          2.14164931e-004, 1.95405199e-004, -9.37003570e-005,
          -1.14357981e-005, 0., 0., 0., 0., 0., 1.87485659e-006,
          3.00993182e-004, 3.90160363e-004, 6.78078388e-004,
          9.65081214e-004, -3.48359928e-004, 3.13851371e-004,
          -3.60505837e-005, 7.78777976e-005, 3.33144184e-004,
          1.37052833e-004, 3.28637281e-004, 1.49302126e-004,
          -8.12124708e-005, 0., 0., 0., 0., 0., 0., 3.49609820e-007,
          -7.97591492e-005, -6.69451081e-004, -2.10806887e-004,
          -6.23181346e-004, -6.42409083e-004, 5.68362651e-004,
