%YAML:1.0
opencv_ml_svm:
   format: 3
   svmType: C_SVC
   kernel:
      type: POLY
      degree: 5.
      gamma: 5.3830000000000000e+000
      coef0: 0.
   C: 2.6699999999999999e+000
   term_criteria: { iterations:10000000 }
   var_count: 400
   class_count: 10
   class_labels: !!opencv-matrix
      rows: 10
      cols: 1
      dt: i
      data: [ 0, 1, 2, 3, 4, 5, 6, 7, 8, 9 ]
   sv_total: 1368
   support_vectors:
      - [ 0., 0., 0., 0., 0., 0., 0., 0., 0., 0., 0., 0., 0., 0., 0., 0.,
          0., 0., 0., 0., 0., 0., 0., 0., 0., 0., 0., 0., 0., 0., 0., 0.,
          0., 0., 0., 0., 0., 0., 0., 0., 0., 0., 0., 0., 0., 0., 0., 0.,
          0., 0., 0., 0., 0., 0., 0., 0., 0., 0., 0., 0., 0., 0., 0., 0.,
          0., 0., 0., 0., 0., 0., 41., 112., 111., 84., 5., 0., 0., 0.,
          0., 0., 0., 0., 0., 0., 0., 0., 0., 0., 0., 6., 176., 255.,
          255., 251., 137., 31., 0., 0., 0., 0., 0., 0., 0., 0., 0., 0.,
          0., 0., 2., 166., 254., 252., 255., 255., 252., 83., 0., 0.,
          0., 0., 0., 0., 0., 0., 0., 0., 0., 0., 37., 219., 255., 255.,
          178., 217., 254., 83., 0., 0., 0., 0., 0., 0., 0., 0., 0., 0.,
          0., 69., 233., 255., 223., 68., 13., 172., 255., 83., 0., 0.,
          0., 0., 0., 0., 0., 0., 0., 0., 0., 130., 255., 255., 176., 0.,
          4., 174., 255., 82., 0., 0., 0., 0., 0., 0., 0., 0., 0., 0.,
          0., 159., 255., 252., 86., 0., 92., 237., 254., 85., 0., 0.,
          0., 0., 0., 0., 0., 0., 0., 0., 22., 222., 255., 154., 8., 0.,
          190., 255., 238., 61., 0., 0., 0., 0., 0., 0., 0., 0., 0., 0.,
          136., 255., 246., 52., 0., 19., 207., 255., 153., 0., 0., 0.,
          0., 0., 0., 0., 0., 0., 0., 22., 192., 255., 242., 54., 0.,
          105., 252., 202., 29., 0., 0., 0., 0., 0., 0., 0., 0., 0., 0.,
          23., 195., 255., 185., 7., 82., 237., 255., 150., 2., 0., 0.,
          0., 0., 0., 0., 0., 0., 0., 0., 23., 196., 255., 177., 97.,
          232., 255., 176., 22., 0., 0., 0., 0., 0., 0., 0., 0., 0., 0.,
          0., 22., 198., 255., 249., 251., 255., 238., 48., 0., 0., 0.,
          0., 0., 0., 0., 0., 0., 0., 0., 0., 4., 110., 250., 255., 255.,
          212., 56., 3., 0., 0., 0., 0., 0., 0., 0., 0., 0., 0., 0., 0.,
          0., 0., 122., 216., 119., 55., 0., 0., 0., 0., 0., 0., 0., 0.,
          0., 0., 0., 0., 0., 0., 0., 0., 0., 0., 0., 0., 0., 0., 0., 0.,
          0., 0., 0., 0., 0., 0., 0., 0., 0., 0., 0., 0., 0., 0., 0., 0.,
          0., 0., 0., 0., 0., 0., 0., 0., 0. ]
      - [ 0., 0., 0., 0., 0., 0., 0., 0., 0., 0., 0., 0., 0., 0., 0., 0.,
          0., 0., 0., 0., 0., 0., 0., 0., 0., 0., 0., 0., 0., 0., 0., 0.,
          0., 0., 0., 0., 0., 0., 0., 0., 0., 0., 0., 0., 0., 0., 0., 0.,
          0., 0., 1., 26., 29., 0., 0., 0., 0., 0., 0., 0., 0., 0., 0.,
          0., 0., 0., 0., 0., 0., 0., 3., 181., 243., 125., 21., 0., 0.,
          0., 0., 0., 0., 0., 0., 0., 0., 0., 0., 0., 0., 11., 132.,
          226., 255., 219., 33., 0., 0., 0., 0., 0., 0., 0., 0., 0., 0.,
          0., 0., 0., 0., 42., 231., 255., 250., 254., 149., 13., 0., 0.,
          0., 0., 0., 0., 0., 0., 0., 0., 0., 7., 108., 175., 246., 255.,
          255., 254., 249., 74., 0., 0., 0., 0., 0., 0., 0., 0., 0., 0.,
          0., 20., 210., 255., 255., 196., 118., 204., 255., 144., 0.,
          0., 0., 0., 0., 0., 0., 0., 0., 0., 64., 168., 253., 210.,
          119., 35., 29., 215., 255., 193., 3., 0., 0., 0., 0., 0., 0.,
          0., 0., 14., 186., 255., 255., 156., 0., 0., 35., 213., 255.,
          225., 46., 0., 0., 0., 0., 0., 0., 0., 0., 75., 229., 255.,
          115., 3., 0., 0., 33., 211., 255., 134., 5., 0., 0., 0., 0.,
          0., 0., 0., 3., 190., 255., 239., 64., 0., 0., 0., 59., 255.,
          152., 7., 0., 0., 0., 0., 0., 0., 0., 0., 1., 169., 255., 237.,
          90., 0., 0., 74., 156., 228., 93., 0., 0., 0., 0., 0., 0., 0.,
          0., 0., 5., 204., 255., 208., 46., 47., 114., 215., 255., 136.,
          0., 0., 0., 0., 0., 0., 0., 0., 0., 0., 2., 175., 255., 252.,
          216., 223., 255., 255., 216., 37., 0., 0., 0., 0., 0., 0., 0.,
          0., 0., 0., 1., 162., 253., 253., 255., 255., 232., 180., 52.,
          0., 0., 0., 0., 0., 0., 0., 0., 0., 0., 0., 0., 21., 174.,
          255., 218., 147., 74., 8., 0., 0., 0., 0., 0., 0., 0., 0., 0.,
          0., 0., 0., 0., 0., 13., 37., 23., 0., 0., 0., 0., 0., 0., 0.,
          0., 0., 0., 0., 0., 0., 0., 0., 0., 0., 0., 0., 0., 0., 0., 0.,
          0., 0., 0., 0., 0., 0., 0., 0., 0., 0., 0., 0., 0., 0., 0., 0.,
          0., 0., 0., 0., 0., 0., 0., 0., 0., 0., 0., 0. ]
      - [ 0., 0., 0., 0., 0., 0., 0., 0., 0., 0., 0., 0., 0., 0., 0., 0.,
          0., 0., 0., 0., 0., 0., 0., 0., 0., 0., 0., 0., 0., 0., 0., 0.,
          0., 0., 0., 0., 0., 0., 0., 0., 0., 0., 0., 0., 0., 0., 0., 0.,
          0., 0., 0., 0., 0., 0., 0., 0., 0., 0., 0., 0., 0., 0., 0., 0.,
          0., 0., 0., 0., 0., 0., 18., 97., 103., 23., 0., 0., 0., 0.,
          0., 0., 0., 0., 0., 0., 0., 0., 0., 0., 0., 59., 164., 255.,
          255., 164., 14., 0., 0., 0., 0., 0., 0., 0., 0., 0., 0., 0.,
          0., 18., 153., 242., 255., 252., 252., 255., 170., 22., 0., 0.,
          0., 0., 0., 0., 0., 0., 0., 0., 0., 113., 255., 253., 252.,
          250., 250., 252., 255., 128., 0., 0., 0., 0., 0., 0., 0., 0.,
          0., 0., 68., 232., 255., 253., 253., 252., 255., 255., 255.,
          184., 9., 0., 0., 0., 0., 0., 0., 0., 0., 0., 149., 255., 251.,
          252., 253., 255., 206., 167., 237., 243., 91., 0., 0., 0., 0.,
          0., 0., 0., 0., 67., 220., 255., 184., 130., 248., 202., 38.,
          18., 204., 255., 144., 0., 0., 0., 0., 0., 0., 0., 29., 223.,
          255., 229., 35., 0., 59., 30., 0., 21., 207., 252., 104., 0.,
          0., 0., 0., 0., 0., 11., 144., 255., 255., 236., 46., 0., 0.,
          0., 0., 18., 204., 255., 155., 1., 0., 0., 0., 0., 0., 125.,
          255., 255., 222., 238., 189., 40., 0., 0., 17., 124., 253.,
          216., 62., 0., 0., 0., 0., 0., 1., 153., 255., 192., 50., 66.,
          86., 40., 0., 0., 146., 255., 226., 59., 0., 0., 0., 0., 0.,
          0., 1., 152., 255., 111., 0., 0., 0., 0., 45., 170., 254.,
          176., 34., 0., 0., 0., 0., 0., 0., 0., 1., 152., 255., 208.,
          103., 53., 57., 61., 204., 255., 156., 39., 0., 0., 0., 0., 0.,
          0., 0., 0., 0., 76., 195., 255., 255., 250., 251., 255., 238.,
          110., 6., 0., 0., 0., 0., 0., 0., 0., 0., 0., 0., 0., 40.,
          209., 218., 217., 220., 151., 71., 4., 0., 0., 0., 0., 0., 0.,
          0., 0., 0., 0., 0., 0., 0., 0., 0., 0., 0., 0., 0., 0., 0., 0.,
          0., 0., 0., 0., 0., 0., 0., 0., 0., 0., 0., 0., 0., 0., 0., 0.,
          0., 0., 0., 0., 0., 0., 0., 0., 0., 0. ]
      - [ 0., 0., 0., 0., 0., 0., 0., 0., 0., 0., 0., 0., 0., 0., 0., 0.,
          0., 0., 0., 0., 0., 0., 0., 0., 0., 0., 0., 0., 0., 0., 0., 0.,
          0., 0., 0., 0., 0., 0., 0., 0., 0., 0., 0., 0., 0., 0., 0., 0.,
          0., 13., 38., 25., 0., 0., 0., 0., 0., 0., 0., 0., 0., 0., 0.,
          0., 0., 0., 0., 10., 101., 200., 255., 222., 44., 0., 0., 0.,
          0., 0., 0., 0., 0., 0., 0., 0., 0., 0., 65., 199., 231., 119.,
          74., 207., 219., 64., 0., 0., 0., 0., 0., 0., 0., 0., 0., 0.,
          0., 126., 235., 150., 27., 0., 0., 119., 245., 233., 175., 21.,
          0., 0., 0., 0., 0., 0., 0., 0., 108., 255., 114., 0., 0., 0.,
          0., 42., 90., 67., 182., 203., 48., 0., 0., 0., 0., 0., 0.,
          22., 213., 131., 0., 0., 0., 0., 0., 0., 1., 0., 5., 162.,
          222., 23., 0., 0., 0., 0., 0., 105., 247., 5., 0., 0., 0., 0.,
          0., 0., 0., 0., 0., 14., 203., 121., 0., 0., 0., 0., 0., 114.,
          211., 4., 0., 0., 0., 0., 0., 0., 0., 0., 0., 0., 86., 171.,
          0., 0., 0., 0., 0., 106., 236., 6., 0., 0., 0., 0., 0., 0., 0.,
          0., 0., 0., 48., 196., 0., 0., 0., 0., 0., 60., 227., 32., 0.,
          0., 0., 0., 0., 0., 0., 0., 0., 0., 49., 198., 0., 0., 0., 0.,
          0., 4., 196., 168., 0., 0., 0., 0., 0., 0., 0., 0., 0., 0.,
          84., 206., 0., 0., 0., 0., 0., 0., 85., 249., 131., 0., 0., 0.,
          0., 0., 0., 0., 0., 0., 146., 165., 0., 0., 0., 0., 0., 0., 0.,
          118., 247., 117., 4., 0., 0., 0., 0., 0., 2., 84., 218., 54.,
          0., 0., 0., 0., 0., 0., 0., 0., 63., 209., 227., 149., 75.,
          74., 76., 109., 213., 224., 91., 0., 0., 0., 0., 0., 0., 0.,
          0., 0., 0., 29., 103., 173., 221., 221., 223., 200., 124., 42.,
          0., 0., 0., 0., 0., 0., 0., 0., 0., 0., 0., 0., 0., 5., 20.,
          20., 20., 13., 0., 0., 0., 0., 0., 0., 0., 0., 0., 0., 0., 0.,
          0., 0., 0., 0., 0., 0., 0., 0., 0., 0., 0., 0., 0., 0., 0., 0.,
          0., 0., 0., 0., 0., 0., 0., 0., 0., 0., 0., 0., 0., 0., 0., 0.,
          0., 0. ]
      - [ 0., 0., 0., 0., 0., 0., 0., 0., 0., 0., 0., 0., 0., 0., 0., 0.,
          0., 0., 0., 0., 0., 0., 0., 0., 0., 0., 0., 0., 0., 0., 0., 0.,
          0., 0., 0., 0., 0., 0., 0., 0., 0., 0., 0., 0., 0., 0., 0., 0.,
          0., 0., 0., 0., 0., 0., 0., 0., 0., 0., 0., 0., 0., 0., 0., 0.,
          0., 0., 0., 0., 33., 106., 108., 109., 81., 6., 0., 0., 0., 0.,
          0., 0., 0., 0., 0., 0., 0., 0., 0., 0., 124., 255., 255., 255.,
          249., 172., 44., 0., 0., 0., 0., 0., 0., 0., 0., 0., 0., 0.,
          0., 102., 235., 252., 249., 249., 255., 245., 79., 0., 0., 0.,
          0., 0., 0., 0., 0., 0., 0., 0., 95., 245., 254., 252., 252.,
          255., 255., 233., 85., 0., 0., 0., 0., 0., 0., 0., 0., 0., 0.,
          0., 83., 205., 252., 253., 249., 189., 182., 255., 235., 58.,
          0., 0., 0., 0., 0., 0., 0., 0., 0., 0., 58., 210., 254., 243.,
          109., 18., 186., 255., 245., 36., 0., 0., 0., 0., 0., 0., 0.,
          0., 0., 0., 77., 245., 255., 109., 0., 0., 114., 255., 252.,
          107., 0., 0., 0., 0., 0., 0., 0., 0., 0., 47., 194., 255.,
          187., 25., 0., 0., 152., 255., 247., 70., 0., 0., 0., 0., 0.,
          0., 0., 0., 0., 101., 250., 253., 122., 0., 0., 0., 151., 255.,
          249., 72., 0., 0., 0., 0., 0., 0., 0., 0., 0., 92., 249., 211.,
          50., 0., 0., 0., 112., 255., 213., 106., 0., 0., 0., 0., 0.,
          0., 0., 0., 0., 145., 255., 161., 1., 0., 0., 0., 216., 255.,
          100., 0., 0., 0., 0., 0., 0., 0., 0., 0., 0., 71., 246., 244.,
          118., 7., 29., 126., 239., 255., 99., 0., 0., 0., 0., 0., 0.,
          0., 0., 0., 0., 113., 233., 255., 251., 242., 243., 254., 255.,
          197., 24., 0., 0., 0., 0., 0., 0., 0., 0., 0., 0., 8., 65.,
          193., 255., 255., 255., 255., 255., 155., 10., 0., 0., 0., 0.,
          0., 0., 0., 0., 0., 0., 0., 0., 42., 184., 221., 192., 91.,
          66., 26., 0., 0., 0., 0., 0., 0., 0., 0., 0., 0., 0., 0., 0.,
          0., 0., 0., 0., 0., 0., 0., 0., 0., 0., 0., 0., 0., 0., 0., 0.,
          0., 0., 0., 0., 0., 0., 0., 0., 0., 0., 0., 0., 0., 0., 0., 0.,
          0. ]
      - [ 0., 0., 0., 0., 0., 0., 0., 0., 0., 0., 0., 0., 0., 0., 0., 0.,
          0., 0., 0., 0., 0., 0., 0., 0., 0., 0., 0., 0., 0., 0., 0., 0.,
          0., 0., 0., 0., 0., 0., 0., 0., 0., 0., 0., 0., 0., 0., 0., 0.,
          0., 0., 0., 0., 0., 0., 0., 0., 0., 0., 0., 0., 0., 0., 0., 0.,
          0., 0., 0., 0., 0., 4., 85., 110., 108., 109., 106., 22., 0.,
          0., 0., 0., 0., 0., 0., 0., 0., 0., 0., 0., 0., 114., 253.,
          255., 255., 255., 255., 53., 0., 0., 0., 0., 0., 0., 0., 0.,
          0., 0., 0., 3., 122., 247., 255., 255., 221., 177., 246., 51.,
          0., 0., 0., 0., 0., 0., 0., 0., 0., 0., 2., 64., 247., 255.,
          255., 244., 100., 86., 247., 52., 0., 0., 0., 0., 0., 0., 0.,
          0., 0., 0., 50., 213., 255., 255., 227., 84., 4., 174., 253.,
          51., 0., 0., 0., 0., 0., 0., 0., 0., 0., 0., 39., 218., 255.,
          222., 54., 0., 20., 199., 253., 51., 0., 0., 0., 0., 0., 0.,
          0., 0., 0., 0., 67., 243., 255., 114., 0., 0., 65., 249., 243.,
          47., 0., 0., 0., 0., 0., 0., 0., 0., 0., 1., 132., 253., 136.,
          0., 0., 0., 75., 255., 169., 3., 0., 0., 0., 0., 0., 0., 0.,
          0., 0., 111., 252., 224., 30., 0., 0., 0., 71., 255., 149., 0.,
          0., 0., 0., 0., 0., 0., 0., 0., 1., 171., 255., 117., 0., 0.,
          0., 0., 144., 255., 70., 0., 0., 0., 0., 0., 0., 0., 0., 0.,
          29., 217., 190., 9., 0., 0., 0., 59., 235., 238., 45., 0., 0.,
          0., 0., 0., 0., 0., 0., 0., 54., 255., 194., 44., 31., 35.,
          122., 221., 247., 105., 3., 0., 0., 0., 0., 0., 0., 0., 0., 0.,
          22., 203., 255., 245., 245., 245., 255., 255., 157., 0., 0.,
          0., 0., 0., 0., 0., 0., 0., 0., 0., 0., 130., 243., 255., 255.,
          255., 252., 148., 23., 0., 0., 0., 0., 0., 0., 0., 0., 0., 0.,
          0., 0., 12., 64., 122., 219., 216., 121., 16., 0., 0., 0., 0.,
          0., 0., 0., 0., 0., 0., 0., 0., 0., 0., 0., 0., 0., 0., 0., 0.,
          0., 0., 0., 0., 0., 0., 0., 0., 0., 0., 0., 0., 0., 0., 0., 0.,
          0., 0., 0., 0., 0., 0., 0., 0., 0., 0., 0., 0. ]
      - [ 0., 0., 0., 0., 0., 0., 0., 0., 0., 0., 0., 0., 0., 0., 0., 0.,
          0., 0., 0., 0., 0., 0., 0., 0., 0., 0., 0., 0., 0., 0., 0., 0.,
          0., 0., 0., 0., 0., 0., 0., 0., 0., 0., 0., 0., 0., 0., 0., 0.,
          0., 0., 10., 38., 33., 5., 0., 0., 0., 0., 0., 0., 0., 0., 0.,
          0., 0., 0., 0., 0., 0., 48., 171., 255., 251., 82., 0., 0., 0.,
          0., 0., 0., 0., 0., 0., 0., 0., 0., 0., 0., 73., 221., 255.,
          253., 255., 170., 19., 0., 0., 0., 0., 0., 0., 0., 0., 0., 0.,
          0., 0., 36., 229., 255., 255., 255., 238., 255., 132., 0., 0.,
          0., 0., 0., 0., 0., 0., 0., 0., 0., 0., 123., 255., 255., 219.,
          126., 206., 255., 208., 6., 0., 0., 0., 0., 0., 0., 0., 0., 0.,
          0., 70., 236., 255., 247., 106., 0., 207., 255., 203., 5., 0.,
          0., 0., 0., 0., 0., 0., 0., 0., 0., 143., 255., 255., 126., 0.,
          0., 124., 255., 203., 5., 0., 0., 0., 0., 0., 0., 0., 0., 0.,
          40., 212., 255., 193., 23., 0., 0., 95., 255., 203., 5., 0.,
          0., 0., 0., 0., 0., 0., 0., 0., 101., 255., 243., 75., 0., 0.,
          0., 17., 201., 208., 5., 0., 0., 0., 0., 0., 0., 0., 0., 2.,
          178., 255., 222., 4., 0., 0., 0., 3., 172., 213., 5., 0., 0.,
          0., 0., 0., 0., 0., 0., 6., 208., 255., 172., 2., 0., 0., 0.,
          80., 253., 155., 0., 0., 0., 0., 0., 0., 0., 0., 0., 5., 204.,
          255., 110., 0., 0., 7., 59., 224., 220., 48., 0., 0., 0., 0.,
          0., 0., 0., 0., 0., 5., 206., 255., 189., 46., 124., 184.,
          232., 255., 108., 0., 0., 0., 0., 0., 0., 0., 0., 0., 0., 5.,
          202., 255., 254., 247., 255., 255., 255., 175., 16., 0., 0.,
          0., 0., 0., 0., 0., 0., 0., 0., 0., 102., 243., 255., 255.,
          255., 232., 117., 5., 0., 0., 0., 0., 0., 0., 0., 0., 0., 0.,
          0., 0., 1., 30., 37., 36., 37., 27., 0., 0., 0., 0., 0., 0.,
          0., 0., 0., 0., 0., 0., 0., 0., 0., 0., 0., 0., 0., 0., 0., 0.,
          0., 0., 0., 0., 0., 0., 0., 0., 0., 0., 0., 0., 0., 0., 0., 0.,
          0., 0., 0., 0., 0., 0., 0., 0., 0., 0., 0. ]
      - [ 0., 0., 0., 0., 0., 0., 0., 0., 0., 0., 0., 0., 0., 0., 0., 0.,
          0., 0., 0., 0., 0., 0., 0., 0., 0., 0., 0., 0., 0., 0., 0., 0.,
          0., 0., 0., 0., 0., 0., 0., 0., 0., 0., 0., 0., 0., 0., 0., 0.,
          0., 0., 0., 0., 0., 0., 0., 0., 0., 0., 0., 0., 0., 0., 0., 0.,
          0., 0., 55., 141., 109., 11., 0., 0., 0., 0., 0., 0., 0., 0.,
          0., 0., 0., 0., 0., 0., 0., 118., 236., 255., 251., 164., 88.,
          137., 132., 77., 9., 0., 0., 0., 0., 0., 0., 0., 0., 0., 94.,
          249., 174., 78., 78., 203., 179., 175., 220., 227., 193., 42.,
          0., 0., 0., 0., 0., 0., 0., 25., 211., 192., 12., 0., 0., 109.,
          20., 14., 38., 61., 234., 213., 36., 0., 0., 0., 0., 0., 0.,
          66., 235., 82., 0., 0., 0., 7., 0., 0., 0., 0., 61., 239.,
          166., 6., 0., 0., 0., 0., 0., 102., 255., 61., 0., 0., 0., 0.,
          0., 0., 0., 0., 0., 113., 243., 58., 0., 0., 0., 0., 0., 110.,
          255., 60., 0., 0., 0., 0., 0., 0., 0., 0., 0., 43., 236., 135.,
          0., 0., 0., 0., 0., 73., 241., 100., 0., 0., 0., 0., 0., 0.,
          0., 0., 0., 13., 189., 164., 0., 0., 0., 0., 0., 21., 210.,
          198., 10., 0., 0., 0., 0., 0., 0., 0., 0., 1., 164., 212., 0.,
          0., 0., 0., 0., 0., 107., 252., 130., 2., 0., 0., 0., 0., 0.,
          0., 0., 11., 191., 193., 0., 0., 0., 0., 0., 0., 0., 154.,
          255., 155., 23., 0., 0., 0., 0., 0., 0., 97., 250., 116., 0.,
          0., 0., 0., 0., 0., 0., 15., 137., 255., 211., 133., 88., 45.,
          26., 71., 154., 249., 182., 16., 0., 0., 0., 0., 0., 0., 0.,
          0., 6., 114., 212., 248., 255., 248., 244., 245., 234., 162.,
          21., 0., 0., 0., 0., 0., 0., 0., 0., 0., 0., 0., 17., 79.,
          126., 98., 90., 84., 49., 2., 0., 0., 0., 0., 0., 0., 0., 0.,
          0., 0., 0., 0., 0., 0., 0., 0., 0., 0., 0., 0., 0., 0., 0., 0.,
          0., 0., 0., 0., 0., 0., 0., 0., 0., 0., 0., 0., 0., 0., 0., 0.,
          0., 0., 0., 0., 0., 0., 0., 0., 0., 0., 0., 0., 0., 0., 0., 0.,
          0., 0., 0., 0., 0., 0., 0., 0. ]
      - [ 0., 0., 0., 0., 0., 0., 0., 0., 0., 0., 0., 0., 0., 0., 0., 0.,
          0., 0., 0., 0., 0., 0., 0., 0., 0., 0., 0., 0., 0., 0., 0., 0.,
          0., 0., 0., 0., 0., 0., 0., 0., 0., 0., 0., 0., 0., 0., 0., 0.,
          0., 0., 0., 5., 34., 17., 0., 0., 0., 0., 0., 0., 0., 0., 0.,
          0., 0., 0., 0., 0., 0., 0., 0., 76., 250., 201., 146., 100.,
          6., 0., 0., 0., 0., 0., 0., 0., 0., 0., 0., 0., 0., 3., 106.,
          205., 254., 255., 255., 221., 42., 0., 0., 0., 0., 0., 0., 0.,
          0., 0., 0., 0., 3., 136., 255., 255., 253., 253., 255., 244.,
          97., 0., 0., 0., 0., 0., 0., 0., 0., 0., 0., 43., 154., 247.,
          255., 255., 255., 250., 249., 255., 149., 0., 0., 0., 0., 0.,
          0., 0., 0., 0., 51., 219., 255., 255., 223., 214., 250., 118.,
          138., 255., 147., 0., 0., 0., 0., 0., 0., 0., 0., 53., 211.,
          255., 224., 161., 68., 58., 91., 13., 126., 255., 147., 0., 0.,
          0., 0., 0., 0., 0., 1., 159., 255., 230., 112., 0., 0., 0., 0.,
          0., 133., 255., 146., 0., 0., 0., 0., 0., 0., 7., 127., 254.,
          253., 69., 0., 0., 0., 0., 0., 25., 197., 241., 78., 0., 0.,
          0., 0., 0., 0., 48., 228., 255., 154., 5., 0., 0., 0., 0., 0.,
          128., 254., 231., 49., 0., 0., 0., 0., 0., 0., 111., 254.,
          211., 31., 0., 0., 0., 0., 30., 157., 254., 238., 92., 18., 0.,
          0., 0., 0., 0., 0., 153., 255., 201., 87., 0., 0., 6., 39.,
          130., 255., 243., 100., 0., 0., 0., 0., 0., 0., 0., 0., 98.,
          247., 255., 240., 142., 128., 157., 222., 250., 232., 76., 11.,
          0., 0., 0., 0., 0., 0., 0., 0., 24., 177., 255., 255., 255.,
          255., 255., 244., 145., 17., 0., 0., 0., 0., 0., 0., 0., 0.,
          0., 0., 0., 30., 198., 255., 255., 255., 224., 79., 11., 0.,
          0., 0., 0., 0., 0., 0., 0., 0., 0., 0., 0., 0., 17., 37., 36.,
          37., 25., 0., 0., 0., 0., 0., 0., 0., 0., 0., 0., 0., 0., 0.,
          0., 0., 0., 0., 0., 0., 0., 0., 0., 0., 0., 0., 0., 0., 0., 0.,
          0., 0., 0., 0., 0., 0., 0., 0., 0., 0., 0., 0., 0., 0., 0., 0.,
          0., 0., 0., 0., 0. ]
      - [ 0., 0., 0., 0., 0., 0., 0., 0., 0., 0., 0., 0., 0., 0., 0., 0.,
          0., 0., 0., 0., 0., 0., 0., 0., 0., 0., 0., 0., 0., 0., 0., 0.,
          0., 0., 0., 0., 0., 0., 0., 0., 0., 0., 0., 0., 0., 0., 0., 0.,
          0., 15., 36., 36., 37., 21., 0., 0., 0., 0., 0., 0., 0., 0.,
          0., 0., 0., 0., 0., 21., 45., 182., 255., 255., 255., 217.,
          52., 0., 24., 4., 0., 0., 0., 0., 0., 0., 0., 0., 44., 194.,
          221., 249., 255., 255., 255., 255., 192., 28., 172., 116., 0.,
          0., 0., 0., 0., 0., 0., 53., 203., 255., 255., 255., 204.,
          193., 190., 223., 182., 33., 212., 221., 0., 0., 0., 0., 0.,
          0., 3., 161., 255., 255., 217., 117., 20., 7., 4., 47., 29.,
          26., 209., 221., 0., 0., 0., 0., 0., 0., 106., 241., 255.,
          169., 65., 0., 0., 0., 0., 0., 0., 26., 206., 220., 0., 0., 0.,
          0., 0., 36., 216., 255., 225., 20., 0., 0., 0., 0., 0., 0., 0.,
          55., 223., 218., 0., 0., 0., 0., 0., 102., 255., 227., 74., 0.,
          0., 0., 0., 0., 0., 0., 0., 120., 255., 218., 0., 0., 0., 0.,
          0., 109., 255., 210., 29., 0., 0., 0., 0., 0., 0., 0., 0.,
          136., 255., 156., 0., 0., 0., 0., 0., 109., 255., 246., 100.,
          0., 0., 0., 0., 0., 0., 0., 23., 211., 255., 60., 0., 0., 0.,
          0., 0., 96., 255., 255., 211., 12., 0., 0., 0., 0., 0., 0.,
          136., 255., 249., 58., 0., 0., 0., 0., 0., 15., 195., 255.,
          255., 103., 4., 8., 0., 0., 10., 133., 254., 247., 118., 4.,
          0., 0., 0., 0., 0., 0., 95., 249., 252., 245., 193., 190., 84.,
          88., 190., 255., 255., 193., 26., 0., 0., 0., 0., 0., 0., 0.,
          21., 197., 255., 253., 255., 255., 248., 255., 255., 223.,
          127., 43., 0., 0., 0., 0., 0., 0., 0., 0., 0., 74., 193., 255.,
          255., 255., 255., 177., 117., 47., 1., 0., 0., 0., 0., 0., 0.,
          0., 0., 0., 0., 0., 14., 36., 35., 36., 35., 9., 0., 0., 0.,
          0., 0., 0., 0., 0., 0., 0., 0., 0., 0., 0., 0., 0., 0., 0., 0.,
          0., 0., 0., 0., 0., 0., 0., 0., 0., 0., 0., 0., 0., 0., 0., 0.,
          0., 0., 0., 0., 0., 0., 0., 0., 0., 0., 0., 0., 0. ]
      - [ 0., 0., 0., 0., 0., 0., 0., 0., 0., 0., 0., 0., 0., 0., 0., 0.,
          0., 0., 0., 0., 0., 0., 0., 0., 0., 0., 0., 0., 0., 0., 0., 0.,
          0., 0., 0., 0., 0., 0., 0., 0., 0., 0., 0., 0., 0., 0., 0., 0.,
          0., 0., 6., 37., 9., 0., 0., 0., 0., 0., 0., 0., 0., 0., 0.,
          0., 0., 0., 0., 0., 0., 33., 148., 255., 130., 16., 0., 0., 0.,
          0., 0., 0., 0., 0., 0., 0., 0., 0., 0., 0., 58., 208., 252.,
          254., 240., 157., 15., 0., 0., 0., 0., 0., 0., 0., 0., 0., 0.,
          0., 0., 26., 203., 255., 254., 255., 255., 214., 33., 0., 0.,
          0., 0., 0., 0., 0., 0., 0., 0., 0., 0., 81., 249., 254., 253.,
          219., 220., 212., 35., 0., 0., 0., 0., 0., 0., 0., 0., 0., 0.,
          0., 0., 144., 255., 255., 205., 20., 157., 255., 109., 0., 0.,
          0., 0., 0., 0., 0., 0., 0., 0., 0., 47., 236., 255., 255.,
          147., 0., 155., 255., 123., 0., 0., 0., 0., 0., 0., 0., 0., 0.,
          0., 22., 189., 255., 255., 163., 15., 0., 161., 255., 213.,
          10., 0., 0., 0., 0., 0., 0., 0., 0., 0., 34., 214., 255., 230.,
          44., 0., 0., 127., 255., 247., 16., 0., 0., 0., 0., 0., 0., 0.,
          0., 0., 90., 245., 230., 80., 0., 0., 0., 30., 250., 248., 15.,
          0., 0., 0., 0., 0., 0., 0., 0., 0., 123., 255., 159., 0., 0.,
          0., 0., 30., 193., 161., 3., 0., 0., 0., 0., 0., 0., 0., 0.,
          0., 146., 255., 151., 0., 0., 2., 60., 204., 213., 33., 0., 0.,
          0., 0., 0., 0., 0., 0., 0., 3., 166., 255., 206., 129., 129.,
          152., 229., 255., 164., 9., 0., 0., 0., 0., 0., 0., 0., 0., 0.,
          0., 115., 255., 255., 255., 255., 255., 255., 231., 65., 0.,
          0., 0., 0., 0., 0., 0., 0., 0., 0., 0., 32., 184., 255., 255.,
          255., 255., 189., 74., 0., 0., 0., 0., 0., 0., 0., 0., 0., 0.,
          0., 0., 0., 15., 36., 36., 36., 36., 12., 0., 0., 0., 0., 0.,
          0., 0., 0., 0., 0., 0., 0., 0., 0., 0., 0., 0., 0., 0., 0., 0.,
          0., 0., 0., 0., 0., 0., 0., 0., 0., 0., 0., 0., 0., 0., 0., 0.,
          0., 0., 0., 0., 0., 0., 0., 0., 0., 0., 0. ]
      - [ 0., 0., 0., 0., 0., 0., 0., 0., 0., 0., 0., 0., 0., 0., 0., 0.,
          0., 0., 0., 0., 0., 0., 0., 0., 0., 0., 0., 0., 0., 0., 0., 0.,
          0., 0., 0., 0., 0., 0., 0., 0., 0., 0., 0., 0., 0., 0., 2.,
          21., 37., 23., 6., 0., 0., 0., 0., 0., 0., 0., 0., 0., 0., 0.,
          0., 0., 0., 0., 48., 206., 255., 217., 169., 79., 13., 0., 0.,
          0., 0., 0., 0., 0., 0., 0., 0., 0., 0., 4., 138., 255., 255.,
          255., 255., 240., 194., 97., 8., 0., 0., 0., 0., 0., 0., 0.,
          0., 0., 0., 85., 252., 247., 185., 217., 219., 221., 236.,
          255., 169., 28., 0., 0., 0., 0., 0., 0., 0., 0., 0., 164.,
          255., 146., 8., 40., 42., 38., 84., 227., 255., 199., 47., 0.,
          0., 0., 0., 0., 0., 0., 64., 250., 196., 17., 0., 0., 0., 0.,
          0., 53., 212., 255., 122., 0., 0., 0., 0., 0., 0., 0., 152.,
          255., 150., 1., 0., 0., 0., 0., 0., 0., 74., 249., 233., 27.,
          0., 0., 0., 0., 0., 11., 192., 227., 49., 0., 0., 0., 0., 0.,
          0., 0., 6., 185., 246., 34., 0., 0., 0., 0., 0., 46., 228.,
          174., 3., 0., 0., 0., 0., 0., 0., 0., 2., 183., 255., 116., 0.,
          0., 0., 0., 0., 92., 255., 140., 0., 0., 0., 0., 0., 0., 0.,
          0., 3., 225., 255., 79., 0., 0., 0., 0., 0., 69., 243., 163.,
          0., 0., 0., 0., 0., 0., 0., 0., 79., 246., 220., 23., 0., 0.,
          0., 0., 0., 43., 223., 252., 126., 16., 0., 0., 0., 0., 2.,
          91., 238., 252., 87., 0., 0., 0., 0., 0., 0., 8., 182., 255.,
          253., 184., 71., 58., 23., 85., 171., 245., 255., 130., 8., 0.,
          0., 0., 0., 0., 0., 0., 53., 170., 243., 255., 254., 241.,
          217., 255., 255., 235., 119., 2., 0., 0., 0., 0., 0., 0., 0.,
          0., 0., 3., 95., 171., 202., 255., 255., 217., 150., 69., 2.,
          0., 0., 0., 0., 0., 0., 0., 0., 0., 0., 0., 0., 6., 18., 35.,
          37., 22., 1., 0., 0., 0., 0., 0., 0., 0., 0., 0., 0., 0., 0.,
          0., 0., 0., 0., 0., 0., 0., 0., 0., 0., 0., 0., 0., 0., 0., 0.,
          0., 0., 0., 0., 0., 0., 0., 0., 0., 0., 0., 0., 0., 0., 0., 0.,
          0., 0., 0. ]
      - [ 0., 0., 0., 0., 0., 0., 0., 0., 0., 0., 0., 0., 0., 0., 0., 0.,
          0., 0., 0., 0., 0., 0., 0., 0., 0., 0., 0., 0., 0., 0., 0., 0.,
          0., 0., 0., 0., 0., 0., 0., 0., 0., 0., 0., 0., 0., 0., 0., 0.,
          0., 0., 0., 0., 0., 0., 0., 0., 0., 0., 0., 0., 0., 0., 0., 0.,
          0., 0., 0., 0., 0., 39., 114., 97., 41., 0., 0., 0., 0., 0.,
          0., 0., 0., 0., 0., 0., 0., 0., 0., 0., 55., 212., 213., 222.,
          201., 6., 0., 0., 0., 0., 0., 0., 0., 0., 0., 0., 0., 0., 0.,
          25., 210., 213., 10., 13., 164., 160., 1., 0., 0., 0., 0., 0.,
          0., 0., 0., 0., 0., 0., 0., 111., 226., 58., 0., 0., 27., 197.,
          81., 0., 0., 0., 0., 0., 0., 0., 0., 0., 0., 0., 35., 195.,
          48., 0., 0., 0., 0., 125., 171., 0., 0., 0., 0., 0., 0., 0.,
          0., 0., 0., 0., 125., 134., 0., 0., 0., 0., 0., 59., 204., 15.,
          0., 0., 0., 0., 0., 0., 0., 0., 0., 23., 164., 40., 0., 0., 0.,
          0., 0., 1., 169., 68., 0., 0., 0., 0., 0., 0., 0., 0., 0., 56.,
          162., 13., 0., 0., 0., 0., 0., 0., 168., 125., 0., 0., 0., 0.,
          0., 0., 0., 0., 0., 55., 161., 14., 0., 0., 0., 0., 0., 0.,
          143., 117., 0., 0., 0., 0., 0., 0., 0., 0., 0., 55., 160., 14.,
          0., 0., 0., 0., 0., 0., 145., 114., 0., 0., 0., 0., 0., 0., 0.,
          0., 0., 56., 169., 15., 0., 0., 0., 0., 0., 14., 167., 28., 0.,
          0., 0., 0., 0., 0., 0., 0., 0., 35., 192., 38., 0., 0., 0., 0.,
          0., 87., 127., 0., 0., 0., 0., 0., 0., 0., 0., 0., 0., 0.,
          129., 188., 20., 0., 0., 10., 97., 142., 18., 0., 0., 0., 0.,
          0., 0., 0., 0., 0., 0., 0., 27., 166., 200., 118., 149., 188.,
          150., 16., 0., 0., 0., 0., 0., 0., 0., 0., 0., 0., 0., 0., 0.,
          8., 115., 210., 203., 104., 8., 0., 0., 0., 0., 0., 0., 0., 0.,
          0., 0., 0., 0., 0., 0., 0., 0., 0., 0., 0., 0., 0., 0., 0., 0.,
          0., 0., 0., 0., 0., 0., 0., 0., 0., 0., 0., 0., 0., 0., 0., 0.,
          0., 0., 0., 0., 0., 0., 0. ]
      - [ 0., 0., 0., 0., 0., 0., 0., 0., 0., 0., 0., 0., 0., 0., 0., 0.,
          0., 0., 0., 0., 0., 0., 0., 0., 0., 0., 0., 0., 0., 0., 0., 0.,
          0., 0., 0., 0., 0., 0., 0., 0., 0., 0., 0., 0., 0., 0., 0., 0.,
          0., 0., 0., 0., 0., 0., 0., 0., 0., 0., 0., 0., 0., 0., 0., 0.,
          0., 0., 0., 11., 76., 105., 96., 18., 0., 0., 0., 0., 0., 0.,
          0., 0., 0., 0., 0., 0., 0., 0., 0., 116., 247., 255., 255.,
          190., 36., 0., 0., 0., 0., 0., 0., 0., 0., 0., 0., 0., 0., 0.,
          0., 178., 255., 252., 176., 215., 203., 20., 0., 0., 0., 0.,
          0., 0., 0., 0., 0., 0., 0., 0., 0., 185., 255., 249., 54., 70.,
          247., 130., 0., 0., 0., 0., 0., 0., 0., 0., 0., 0., 0., 0., 0.,
          163., 255., 163., 4., 0., 185., 209., 23., 0., 0., 0., 0., 0.,
          0., 0., 0., 0., 0., 0., 40., 224., 255., 78., 0., 0., 61.,
          241., 72., 0., 0., 0., 0., 0., 0., 0., 0., 0., 0., 0., 111.,
          255., 196., 23., 0., 0., 26., 232., 176., 2., 0., 0., 0., 0.,
          0., 0., 0., 0., 0., 16., 187., 254., 90., 0., 0., 0., 5., 168.,
          208., 4., 0., 0., 0., 0., 0., 0., 0., 0., 0., 37., 222., 218.,
          1., 0., 0., 0., 0., 123., 222., 13., 0., 0., 0., 0., 0., 0.,
          0., 0., 0., 40., 225., 189., 0., 0., 0., 0., 0., 94., 254.,
          84., 0., 0., 0., 0., 0., 0., 0., 0., 0., 46., 233., 133., 0.,
          0., 0., 0., 0., 76., 248., 116., 0., 0., 0., 0., 0., 0., 0.,
          0., 0., 8., 182., 142., 0., 0., 0., 0., 0., 133., 250., 50.,
          0., 0., 0., 0., 0., 0., 0., 0., 0., 0., 110., 221., 52., 0.,
          0., 0., 85., 251., 184., 1., 0., 0., 0., 0., 0., 0., 0., 0.,
          0., 0., 22., 191., 229., 142., 109., 151., 239., 210., 65., 0.,
          0., 0., 0., 0., 0., 0., 0., 0., 0., 0., 0., 27., 110., 156.,
          208., 169., 89., 20., 0., 0., 0., 0., 0., 0., 0., 0., 0., 0.,
          0., 0., 0., 0., 0., 0., 0., 0., 0., 0., 0., 0., 0., 0., 0., 0.,
          0., 0., 0., 0., 0., 0., 0., 0., 0., 0., 0., 0., 0., 0., 0., 0.,
          0., 0., 0., 0. ]
      - [ 0., 0., 0., 0., 0., 0., 0., 0., 0., 0., 0., 0., 0., 0., 0., 0.,
          0., 0., 0., 0., 0., 0., 0., 0., 0., 0., 0., 0., 0., 0., 0., 0.,
          0., 0., 0., 0., 0., 0., 0., 0., 0., 0., 0., 0., 0., 0., 0., 0.,
          0., 0., 0., 34., 104., 0., 0., 0., 0., 0., 0., 0., 0., 0., 0.,
          0., 0., 0., 0., 0., 20., 109., 150., 62., 126., 24., 0., 0.,
          0., 0., 0., 0., 0., 0., 0., 0., 0., 0., 0., 5., 158., 209.,
          98., 38., 35., 87., 0., 0., 0., 0., 0., 0., 0., 0., 0., 0., 0.,
          0., 0., 42., 227., 72., 0., 0., 41., 166., 4., 0., 0., 0., 0.,
          0., 0., 0., 0., 0., 0., 0., 0., 120., 192., 14., 0., 0., 31.,
          159., 24., 0., 0., 0., 0., 0., 0., 0., 0., 0., 0., 0., 0.,
          202., 144., 0., 0., 0., 14., 182., 65., 0., 0., 0., 0., 0., 0.,
          0., 0., 0., 0., 0., 0., 217., 107., 0., 0., 0., 13., 201., 77.,
          0., 0., 0., 0., 0., 0., 0., 0., 0., 0., 0., 9., 207., 68., 0.,
          0., 0., 14., 190., 70., 0., 0., 0., 0., 0., 0., 0., 0., 0., 0.,
          0., 54., 222., 66., 0., 0., 0., 19., 156., 44., 0., 0., 0., 0.,
          0., 0., 0., 0., 0., 0., 0., 57., 222., 66., 0., 0., 0., 27.,
          206., 48., 0., 0., 0., 0., 0., 0., 0., 0., 0., 0., 0., 46.,
          228., 85., 0., 0., 0., 94., 209., 27., 0., 0., 0., 0., 0., 0.,
          0., 0., 0., 0., 0., 0., 215., 175., 5., 0., 33., 228., 147.,
          0., 0., 0., 0., 0., 0., 0., 0., 0., 0., 0., 0., 0., 81., 246.,
          90., 42., 194., 214., 25., 0., 0., 0., 0., 0., 0., 0., 0., 0.,
          0., 0., 0., 0., 5., 161., 250., 255., 221., 48., 0., 0., 0.,
          0., 0., 0., 0., 0., 0., 0., 0., 0., 0., 0., 0., 15., 93., 113.,
          48., 0., 0., 0., 0., 0., 0., 0., 0., 0., 0., 0., 0., 0., 0.,
          0., 0., 0., 0., 0., 0., 0., 0., 0., 0., 0., 0., 0., 0., 0., 0.,
          0., 0., 0., 0., 0., 0., 0., 0., 0., 0., 0., 0., 0., 0., 0., 0.,
          0., 0., 0., 0., 0., 0., 0., 0., 0., 0., 0., 0., 0., 0., 0., 0.,
          0., 0., 0., 0., 0., 0. ]
      - [ 0., 0., 0., 0., 0., 0., 0., 0., 0., 0., 0., 0., 0., 0., 0., 0.,
          0., 0., 0., 0., 0., 0., 0., 0., 0., 0., 0., 0., 0., 0., 0., 0.,
          0., 0., 0., 0., 0., 0., 0., 0., 0., 0., 0., 0., 0., 0., 0., 0.,
          0., 0., 0., 17., 18., 26., 6., 0., 0., 0., 0., 0., 0., 0., 0.,
          0., 0., 0., 0., 0., 0., 36., 143., 206., 211., 232., 131., 0.,
          0., 0., 0., 0., 0., 0., 0., 0., 0., 0., 0., 0., 65., 212.,
          235., 151., 138., 223., 238., 35., 0., 0., 0., 0., 0., 0., 0.,
          0., 0., 0., 0., 75., 243., 213., 54., 0., 0., 82., 242., 66.,
          0., 0., 0., 0., 0., 0., 0., 0., 0., 0., 39., 224., 208., 42.,
          0., 2., 0., 62., 232., 67., 0., 0., 0., 0., 0., 0., 0., 0., 0.,
          3., 167., 251., 55., 0., 0., 130., 177., 68., 208., 62., 0.,
          0., 0., 0., 0., 0., 0., 0., 0., 63., 247., 168., 0., 0., 0.,
          125., 241., 72., 52., 11., 0., 0., 0., 0., 0., 0., 0., 0., 0.,
          117., 255., 68., 0., 0., 0., 10., 190., 212., 35., 0., 0., 0.,
          0., 0., 0., 0., 0., 0., 3., 195., 227., 31., 0., 0., 0., 0.,
          81., 255., 125., 0., 0., 0., 0., 0., 0., 0., 0., 0., 18., 244.,
          158., 2., 0., 0., 0., 0., 31., 237., 168., 1., 0., 0., 0., 0.,
          0., 0., 0., 0., 62., 255., 116., 0., 0., 0., 0., 0., 23., 230.,
          166., 0., 0., 0., 0., 0., 0., 0., 0., 0., 40., 246., 187., 10.,
          0., 0., 0., 0., 24., 226., 110., 0., 0., 0., 0., 0., 0., 0.,
          0., 0., 0., 138., 255., 118., 12., 0., 0., 11., 142., 189.,
          18., 0., 0., 0., 0., 0., 0., 0., 0., 0., 0., 56., 210., 248.,
          192., 128., 140., 230., 223., 87., 0., 0., 0., 0., 0., 0., 0.,
          0., 0., 0., 0., 0., 20., 109., 210., 255., 228., 159., 43., 0.,
          0., 0., 0., 0., 0., 0., 0., 0., 0., 0., 0., 0., 0., 0., 18.,
          34., 24., 3., 0., 0., 0., 0., 0., 0., 0., 0., 0., 0., 0., 0.,
          0., 0., 0., 0., 0., 0., 0., 0., 0., 0., 0., 0., 0., 0., 0., 0.,
          0., 0., 0., 0., 0., 0., 0., 0., 0., 0., 0., 0., 0., 0., 0., 0.,
          0., 0., 0., 0. ]
      - [ 0., 0., 0., 0., 0., 0., 0., 0., 0., 0., 0., 0., 0., 0., 0., 0.,
          0., 0., 0., 0., 0., 0., 0., 0., 0., 0., 0., 0., 0., 0., 0., 0.,
          0., 0., 0., 0., 0., 0., 0., 0., 0., 0., 0., 0., 0., 0., 0., 0.,
          0., 0., 0., 0., 0., 0., 0., 0., 0., 0., 0., 0., 0., 0., 0., 0.,
          0., 0., 0., 0., 0., 2., 63., 110., 118., 107., 44., 0., 0., 0.,
          0., 0., 0., 0., 0., 0., 0., 68., 168., 110., 52., 166., 204.,
          151., 137., 215., 220., 46., 0., 0., 0., 0., 0., 0., 0., 0.,
          48., 237., 221., 239., 247., 170., 35., 0., 0., 17., 154.,
          181., 19., 0., 0., 0., 0., 0., 0., 0., 125., 211., 33., 108.,
          223., 63., 0., 0., 0., 0., 10., 191., 86., 0., 0., 0., 0., 0.,
          0., 13., 200., 133., 0., 1., 41., 21., 0., 0., 0., 0., 0.,
          105., 153., 5., 0., 0., 0., 0., 0., 18., 194., 58., 0., 0., 0.,
          0., 0., 0., 0., 0., 0., 22., 174., 33., 0., 0., 0., 0., 0.,
          18., 179., 18., 0., 0., 0., 0., 0., 0., 0., 0., 0., 8., 170.,
          70., 0., 0., 0., 0., 0., 19., 178., 12., 0., 0., 0., 0., 0.,
          0., 0., 0., 0., 0., 155., 88., 0., 0., 0., 0., 0., 19., 189.,
          40., 0., 0., 0., 0., 0., 0., 0., 0., 0., 13., 188., 86., 0.,
          0., 0., 0., 0., 14., 197., 93., 0., 0., 0., 0., 0., 0., 0., 0.,
          0., 31., 196., 41., 0., 0., 0., 0., 0., 0., 132., 169., 0., 0.,
          0., 0., 0., 0., 0., 0., 0., 90., 202., 20., 0., 0., 0., 0., 0.,
          0., 38., 229., 87., 0., 0., 0., 0., 0., 0., 0., 12., 191.,
          119., 0., 0., 0., 0., 0., 0., 0., 0., 108., 224., 88., 4., 0.,
          0., 0., 0., 19., 177., 204., 30., 0., 0., 0., 0., 0., 0., 0.,
          0., 1., 100., 225., 177., 142., 107., 78., 85., 188., 218.,
          60., 0., 0., 0., 0., 0., 0., 0., 0., 0., 0., 0., 29., 113.,
          206., 218., 208., 203., 112., 23., 0., 0., 0., 0., 0., 0., 0.,
          0., 0., 0., 0., 0., 0., 0., 0., 0., 0., 0., 0., 0., 0., 0., 0.,
          0., 0., 0., 0., 0., 0., 0., 0., 0., 0., 0., 0., 0., 0., 0., 0.,
          0., 0., 0., 0., 0., 0. ]
      - [ 0., 0., 0., 0., 0., 0., 0., 0., 0., 0., 0., 0., 0., 0., 0., 0.,
          0., 0., 0., 0., 0., 0., 0., 0., 0., 0., 0., 0., 0., 0., 0., 0.,
          0., 0., 0., 0., 0., 0., 0., 0., 0., 0., 0., 0., 0., 0., 0., 0.,
          0., 0., 0., 0., 0., 0., 0., 0., 0., 0., 0., 0., 0., 0., 0., 0.,
          0., 0., 0., 0., 0., 0., 0., 0., 0., 0., 0., 0., 0., 0., 0., 0.,
          0., 0., 0., 0., 0., 0., 0., 0., 0., 0., 0., 0., 0., 0., 0., 0.,
          0., 0., 0., 0., 0., 0., 0., 0., 0., 0., 0., 0., 0., 0., 20.,
          40., 37., 37., 8., 0., 0., 0., 0., 0., 0., 0., 0., 0., 0., 0.,
          45., 165., 86., 61., 148., 134., 149., 164., 181., 83., 9., 0.,
          0., 0., 0., 0., 0., 0., 0., 75., 211., 136., 11., 158., 141.,
          12., 20., 21., 98., 210., 200., 40., 0., 0., 0., 0., 0., 0.,
          113., 214., 108., 0., 0., 47., 87., 3., 0., 0., 0., 36., 198.,
          167., 0., 0., 0., 0., 0., 53., 226., 82., 0., 0., 0., 0., 0.,
          0., 0., 0., 0., 0., 86., 207., 0., 0., 0., 0., 0., 115., 177.,
          0., 0., 0., 0., 0., 0., 0., 0., 0., 0., 0., 115., 175., 0., 0.,
          0., 0., 0., 117., 150., 0., 0., 0., 0., 0., 0., 0., 0., 0., 0.,
          121., 191., 62., 0., 0., 0., 0., 0., 105., 200., 5., 0., 0.,
          0., 0., 0., 0., 13., 64., 151., 169., 42., 0., 0., 0., 0., 0.,
          0., 21., 191., 146., 23., 0., 0., 21., 89., 122., 124., 133.,
          83., 6., 0., 0., 0., 0., 0., 0., 0., 0., 32., 94., 144., 171.,
          176., 192., 155., 91., 34., 0., 0., 0., 0., 0., 0., 0., 0., 0.,
          0., 0., 0., 0., 10., 42., 47., 39., 4., 0., 0., 0., 0., 0., 0.,
          0., 0., 0., 0., 0., 0., 0., 0., 0., 0., 0., 0., 0., 0., 0., 0.,
          0., 0., 0., 0., 0., 0., 0., 0., 0., 0., 0., 0., 0., 0., 0., 0.,
          0., 0., 0., 0., 0., 0., 0., 0., 0., 0., 0., 0., 0., 0., 0., 0.,
          0., 0., 0., 0., 0., 0., 0., 0., 0., 0., 0., 0., 0., 0., 0., 0.,
          0., 0., 0., 0., 0., 0., 0., 0., 0., 0., 0., 0., 0., 0., 0., 0.,
          0., 0., 0. ]
      - [ 0., 0., 0., 0., 0., 0., 0., 0., 0., 0., 0., 0., 0., 0., 0., 0.,
          0., 0., 0., 0., 0., 0., 0., 0., 0., 0., 0., 0., 0., 0., 0., 0.,
          0., 0., 0., 0., 0., 0., 0., 0., 0., 0., 0., 0., 0., 0., 0., 0.,
          16., 37., 3., 0., 0., 0., 0., 0., 0., 0., 0., 0., 0., 0., 0.,
          0., 0., 0., 0., 32., 193., 255., 118., 145., 146., 84., 0., 0.,
          0., 0., 0., 0., 0., 0., 0., 0., 0., 0., 0., 136., 255., 236.,
          166., 255., 255., 230., 145., 82., 0., 0., 0., 0., 0., 0., 0.,
          0., 0., 22., 126., 241., 224., 57., 2., 55., 198., 252., 255.,
          197., 17., 0., 0., 0., 0., 0., 0., 0., 0., 63., 255., 255.,
          158., 0., 0., 0., 33., 129., 246., 252., 109., 0., 0., 0., 0.,
          0., 0., 0., 15., 171., 255., 232., 43., 0., 0., 0., 0., 33.,
          215., 255., 190., 23., 0., 0., 0., 0., 0., 0., 115., 255.,
          255., 151., 1., 0., 0., 0., 0., 8., 157., 255., 255., 78., 0.,
          0., 0., 0., 0., 14., 190., 255., 255., 97., 0., 0., 0., 0., 0.,
          0., 49., 233., 255., 77., 0., 0., 0., 0., 0., 17., 204., 255.,
          202., 20., 0., 0., 0., 0., 0., 0., 53., 234., 255., 77., 0.,
          0., 0., 0., 0., 16., 201., 255., 197., 13., 0., 0., 0., 0., 0.,
          0., 117., 255., 255., 78., 0., 0., 0., 0., 0., 16., 201., 255.,
          246., 92., 0., 0., 0., 0., 0., 0., 140., 255., 235., 59., 0.,
          0., 0., 0., 0., 17., 209., 255., 255., 208., 108., 0., 0., 0.,
          0., 88., 228., 255., 108., 0., 0., 0., 0., 0., 0., 5., 78.,
          206., 255., 255., 240., 168., 154., 155., 165., 235., 255.,
          184., 17., 0., 0., 0., 0., 0., 0., 0., 0., 58., 222., 246.,
          255., 255., 255., 255., 255., 255., 182., 18., 0., 0., 0., 0.,
          0., 0., 0., 0., 0., 10., 41., 99., 155., 242., 229., 137.,
          143., 129., 34., 0., 0., 0., 0., 0., 0., 0., 0., 0., 0., 0.,
          0., 0., 2., 31., 26., 0., 0., 0., 0., 0., 0., 0., 0., 0., 0.,
          0., 0., 0., 0., 0., 0., 0., 0., 0., 0., 0., 0., 0., 0., 0., 0.,
          0., 0., 0., 0., 0., 0., 0., 0., 0., 0., 0., 0., 0., 0., 0., 0.,
          0., 0., 0., 0., 0., 0., 0. ]
      - [ 0., 0., 0., 0., 0., 0., 0., 0., 0., 0., 0., 0., 0., 0., 0., 0.,
          0., 0., 0., 0., 0., 0., 0., 0., 0., 0., 0., 0., 0., 0., 0., 0.,
          0., 0., 0., 0., 0., 0., 0., 0., 0., 0., 0., 0., 0., 0., 0., 0.,
          13., 38., 11., 0., 25., 35., 2., 0., 0., 0., 0., 0., 0., 0.,
          0., 0., 0., 0., 0., 21., 185., 255., 185., 125., 226., 254.,
          155., 55., 0., 0., 0., 0., 0., 0., 0., 0., 0., 0., 25., 173.,
          255., 251., 211., 214., 255., 255., 255., 196., 26., 0., 0.,
          0., 0., 0., 0., 0., 0., 0., 92., 251., 254., 255., 108., 28.,
          177., 237., 255., 215., 31., 0., 0., 0., 0., 0., 0., 0., 0.,
          0., 91., 247., 255., 228., 60., 0., 15., 90., 237., 238., 84.,
          0., 0., 0., 0., 0., 0., 0., 0., 19., 183., 255., 227., 69., 0.,
          0., 0., 12., 199., 255., 147., 0., 0., 0., 0., 0., 0., 0., 2.,
          99., 236., 255., 135., 0., 0., 0., 0., 14., 199., 255., 146.,
          0., 0., 0., 0., 0., 0., 0., 45., 232., 255., 255., 137., 0.,
          0., 0., 0., 15., 200., 255., 146., 0., 0., 0., 0., 0., 0., 0.,
          57., 250., 255., 240., 51., 0., 0., 0., 0., 15., 199., 255.,
          151., 0., 0., 0., 0., 0., 0., 0., 55., 247., 255., 149., 0.,
          0., 0., 0., 0., 10., 201., 246., 93., 0., 0., 0., 0., 0., 0.,
          0., 55., 247., 255., 70., 0., 0., 0., 0., 59., 213., 249.,
          216., 33., 0., 0., 0., 0., 0., 0., 0., 55., 247., 255., 158.,
          31., 30., 26., 71., 225., 255., 255., 202., 29., 0., 0., 0.,
          0., 0., 0., 0., 57., 253., 255., 252., 212., 210., 209., 231.,
          255., 249., 178., 78., 2., 0., 0., 0., 0., 0., 0., 0., 43.,
          207., 249., 254., 255., 255., 255., 255., 224., 137., 10., 0.,
          0., 0., 0., 0., 0., 0., 0., 0., 2., 27., 155., 255., 255.,
          255., 181., 125., 48., 5., 0., 0., 0., 0., 0., 0., 0., 0., 0.,
          0., 0., 0., 9., 35., 36., 36., 11., 0., 0., 0., 0., 0., 0., 0.,
          0., 0., 0., 0., 0., 0., 0., 0., 0., 0., 0., 0., 0., 0., 0., 0.,
          0., 0., 0., 0., 0., 0., 0., 0., 0., 0., 0., 0., 0., 0., 0., 0.,
          0., 0., 0., 0., 0., 0., 0., 0., 0., 0. ]
      - [ 0., 0., 0., 0., 0., 0., 0., 0., 0., 0., 0., 0., 0., 0., 0., 0.,
          0., 0., 0., 0., 0., 0., 0., 0., 0., 0., 0., 0., 0., 0., 0., 0.,
          0., 0., 0., 0., 0., 0., 0., 0., 0., 0., 0., 0., 0., 0., 0., 0.,
          0., 14., 36., 37., 12., 0., 0., 0., 0., 0., 0., 0., 0., 0., 0.,
          0., 0., 0., 0., 0., 9., 162., 255., 255., 185., 127., 35., 0.,
          0., 0., 0., 0., 0., 0., 0., 0., 0., 0., 0., 0., 67., 236.,
          255., 255., 255., 255., 181., 21., 0., 0., 0., 0., 0., 0., 0.,
          0., 0., 0., 0., 0., 79., 234., 247., 176., 217., 254., 255.,
          154., 0., 0., 0., 0., 0., 0., 0., 0., 0., 0., 0., 58., 216.,
          255., 200., 0., 111., 255., 255., 192., 15., 0., 0., 0., 0.,
          0., 0., 0., 0., 0., 5., 163., 255., 228., 69., 0., 7., 162.,
          255., 240., 89., 0., 0., 0., 0., 0., 0., 0., 0., 10., 140.,
          254., 239., 82., 0., 0., 0., 107., 251., 255., 178., 10., 0.,
          0., 0., 0., 0., 0., 0., 61., 248., 255., 223., 38., 0., 0., 0.,
          44., 218., 255., 177., 10., 0., 0., 0., 0., 0., 0., 12., 192.,
          255., 192., 76., 0., 0., 0., 0., 30., 212., 255., 168., 7., 0.,
          0., 0., 0., 0., 0., 69., 237., 255., 100., 0., 0., 0., 0., 0.,
          70., 236., 218., 60., 0., 0., 0., 0., 0., 0., 12., 181., 255.,
          209., 34., 0., 0., 0., 0., 61., 224., 255., 165., 0., 0., 0.,
          0., 0., 0., 0., 17., 202., 255., 194., 6., 0., 19., 65., 131.,
          227., 255., 226., 71., 0., 0., 0., 0., 0., 0., 0., 16., 203.,
          255., 230., 162., 152., 186., 233., 253., 255., 224., 77., 0.,
          0., 0., 0., 0., 0., 0., 0., 6., 133., 232., 255., 255., 255.,
          255., 255., 254., 164., 61., 0., 0., 0., 0., 0., 0., 0., 0.,
          0., 0., 7., 67., 216., 255., 255., 253., 166., 115., 15., 0.,
          0., 0., 0., 0., 0., 0., 0., 0., 0., 0., 0., 0., 22., 37., 36.,
          35., 5., 0., 0., 0., 0., 0., 0., 0., 0., 0., 0., 0., 0., 0.,
          0., 0., 0., 0., 0., 0., 0., 0., 0., 0., 0., 0., 0., 0., 0., 0.,
          0., 0., 0., 0., 0., 0., 0., 0., 0., 0., 0., 0., 0., 0., 0., 0.,
          0., 0., 0., 0. ]
      - [ 0., 0., 0., 0., 0., 0., 0., 0., 0., 0., 0., 0., 0., 0., 0., 0.,
          0., 0., 0., 0., 0., 0., 0., 0., 0., 0., 0., 0., 0., 0., 0., 0.,
          0., 0., 0., 0., 0., 0., 0., 0., 0., 0., 0., 0., 0., 0., 0., 0.,
          0., 0., 0., 24., 38., 16., 0., 0., 0., 0., 0., 0., 0., 0., 0.,
          0., 0., 0., 0., 0., 0., 0., 117., 225., 255., 199., 136., 41.,
          0., 0., 0., 0., 0., 0., 0., 0., 0., 0., 0., 0., 0., 58., 237.,
          255., 255., 255., 255., 189., 29., 0., 0., 0., 0., 0., 0., 0.,
          0., 0., 0., 0., 68., 221., 255., 218., 208., 244., 255., 251.,
          112., 0., 0., 0., 0., 0., 0., 0., 0., 0., 0., 15., 210., 255.,
          254., 104., 28., 164., 255., 255., 181., 10., 0., 0., 0., 0.,
          0., 0., 0., 0., 7., 137., 255., 255., 172., 9., 0., 23., 153.,
          255., 177., 9., 0., 0., 0., 0., 0., 0., 0., 0., 118., 255.,
          255., 230., 34., 0., 0., 0., 112., 255., 177., 9., 0., 0., 0.,
          0., 0., 0., 0., 106., 220., 255., 244., 100., 1., 0., 0., 0.,
          119., 255., 179., 10., 0., 0., 0., 0., 0., 0., 38., 221., 255.,
          255., 174., 17., 0., 0., 0., 39., 217., 255., 166., 8., 0., 0.,
          0., 0., 0., 2., 137., 255., 255., 236., 38., 0., 0., 0., 59.,
          161., 252., 249., 94., 0., 0., 0., 0., 0., 0., 16., 200., 255.,
          241., 97., 0., 0., 50., 99., 226., 255., 255., 149., 4., 0.,
          0., 0., 0., 0., 0., 17., 203., 255., 211., 70., 56., 107.,
          241., 255., 255., 250., 196., 21., 0., 0., 0., 0., 0., 0., 0.,
          14., 193., 255., 249., 235., 233., 245., 255., 255., 255.,
          150., 24., 1., 0., 0., 0., 0., 0., 0., 0., 0., 81., 231., 255.,
          255., 255., 255., 231., 199., 118., 2., 0., 0., 0., 0., 0., 0.,
          0., 0., 0., 0., 11., 66., 167., 252., 248., 160., 60., 28., 0.,
          0., 0., 0., 0., 0., 0., 0., 0., 0., 0., 0., 0., 0., 6., 34.,
          32., 4., 0., 0., 0., 0., 0., 0., 0., 0., 0., 0., 0., 0., 0.,
          0., 0., 0., 0., 0., 0., 0., 0., 0., 0., 0., 0., 0., 0., 0., 0.,
          0., 0., 0., 0., 0., 0., 0., 0., 0., 0., 0., 0., 0., 0., 0., 0.,
          0., 0., 0., 0., 0. ]
      - [ 0., 0., 0., 0., 0., 0., 0., 0., 0., 0., 0., 0., 0., 0., 0., 0.,
          0., 0., 0., 0., 0., 0., 0., 0., 0., 0., 0., 0., 0., 0., 0., 0.,
          0., 0., 0., 0., 0., 0., 0., 0., 0., 0., 0., 0., 0., 0., 0., 0.,
          0., 0., 7., 38., 34., 5., 0., 0., 0., 0., 0., 0., 0., 0., 0.,
          0., 0., 0., 0., 0., 0., 6., 165., 255., 253., 166., 65., 1.,
          0., 0., 0., 0., 0., 0., 0., 0., 0., 0., 0., 0., 12., 153.,
          255., 253., 252., 255., 228., 42., 0., 0., 0., 0., 0., 0., 0.,
          0., 0., 0., 0., 18., 158., 255., 255., 242., 254., 255., 255.,
          130., 0., 0., 0., 0., 0., 0., 0., 0., 0., 0., 16., 153., 252.,
          255., 226., 108., 162., 230., 255., 221., 44., 0., 0., 0., 0.,
          0., 0., 0., 0., 22., 153., 251., 254., 255., 156., 0., 17.,
          184., 255., 255., 115., 0., 0., 0., 0., 0., 0., 0., 0., 115.,
          254., 254., 255., 191., 24., 0., 2., 133., 248., 255., 121.,
          0., 0., 0., 0., 0., 0., 0., 32., 210., 255., 254., 255., 82.,
          0., 0., 0., 51., 226., 255., 120., 0., 0., 0., 0., 0., 0., 2.,
          108., 255., 255., 250., 125., 2., 0., 0., 0., 94., 239., 255.,
          120., 0., 0., 0., 0., 0., 0., 84., 246., 255., 255., 141., 0.,
          0., 0., 0., 20., 192., 255., 222., 48., 0., 0., 0., 0., 0., 0.,
          126., 255., 251., 255., 101., 3., 9., 10., 68., 158., 248.,
          255., 138., 0., 0., 0., 0., 0., 0., 0., 125., 255., 251., 253.,
          206., 174., 176., 178., 229., 255., 255., 226., 40., 0., 0.,
          0., 0., 0., 0., 0., 69., 231., 255., 251., 255., 255., 255.,
          255., 255., 250., 169., 77., 4., 0., 0., 0., 0., 0., 0., 0.,
          0., 75., 231., 255., 255., 251., 255., 255., 222., 134., 12.,
          0., 0., 0., 0., 0., 0., 0., 0., 0., 0., 0., 68., 120., 202.,
          255., 167., 116., 47., 0., 0., 0., 0., 0., 0., 0., 0., 0., 0.,
          0., 0., 0., 0., 0., 18., 38., 6., 0., 0., 0., 0., 0., 0., 0.,
          0., 0., 0., 0., 0., 0., 0., 0., 0., 0., 0., 0., 0., 0., 0., 0.,
          0., 0., 0., 0., 0., 0., 0., 0., 0., 0., 0., 0., 0., 0., 0., 0.,
          0., 0., 0., 0., 0., 0., 0., 0., 0., 0., 0. ]
      - [ 0., 0., 0., 0., 0., 0., 0., 0., 0., 0., 0., 0., 0., 0., 0., 0.,
          0., 0., 0., 0., 0., 0., 0., 0., 0., 0., 0., 0., 0., 0., 0., 0.,
          0., 0., 0., 0., 0., 0., 0., 0., 0., 0., 0., 0., 0., 0., 0., 0.,
          8., 36., 37., 25., 0., 0., 0., 0., 0., 0., 0., 0., 0., 0., 0.,
          0., 0., 0., 0., 9., 130., 255., 255., 226., 130., 56., 10., 0.,
          0., 0., 0., 0., 0., 0., 0., 0., 0., 0., 0., 96., 241., 252.,
          235., 255., 253., 233., 148., 9., 0., 0., 0., 0., 0., 0., 0.,
          0., 0., 0., 70., 236., 255., 180., 54., 139., 247., 255., 255.,
          154., 14., 0., 0., 0., 0., 0., 0., 0., 0., 59., 228., 255.,
          201., 31., 0., 0., 87., 195., 255., 252., 97., 0., 0., 0., 0.,
          0., 0., 0., 0., 166., 255., 243., 92., 0., 0., 0., 0., 31.,
          214., 255., 191., 20., 0., 0., 0., 0., 0., 0., 74., 238., 255.,
          102., 0., 0., 0., 0., 0., 0., 117., 253., 254., 82., 0., 0.,
          0., 0., 0., 17., 195., 255., 255., 30., 0., 0., 0., 0., 0., 0.,
          54., 246., 255., 87., 0., 0., 0., 0., 0., 35., 216., 255.,
          210., 20., 0., 0., 0., 0., 0., 0., 59., 248., 255., 87., 0.,
          0., 0., 0., 0., 96., 255., 245., 96., 0., 0., 0., 0., 0., 0.,
          0., 56., 246., 255., 88., 0., 0., 0., 0., 0., 102., 255., 229.,
          71., 0., 0., 0., 0., 0., 0., 0., 119., 254., 218., 52., 0., 0.,
          0., 0., 0., 36., 218., 254., 226., 51., 8., 0., 0., 1., 21.,
          111., 245., 255., 106., 0., 0., 0., 0., 0., 0., 9., 159., 255.,
          255., 217., 168., 107., 104., 139., 204., 248., 255., 177.,
          47., 0., 0., 0., 0., 0., 0., 0., 15., 165., 245., 255., 255.,
          251., 252., 255., 255., 221., 129., 11., 0., 0., 0., 0., 0.,
          0., 0., 0., 0., 12., 94., 156., 232., 255., 255., 224., 151.,
          65., 0., 0., 0., 0., 0., 0., 0., 0., 0., 0., 0., 0., 0., 3.,
          27., 36., 37., 24., 1., 0., 0., 0., 0., 0., 0., 0., 0., 0., 0.,
          0., 0., 0., 0., 0., 0., 0., 0., 0., 0., 0., 0., 0., 0., 0., 0.,
          0., 0., 0., 0., 0., 0., 0., 0., 0., 0., 0., 0., 0., 0., 0., 0.,
          0., 0., 0., 0., 0. ]
      - [ 0., 0., 0., 0., 0., 0., 0., 0., 0., 0., 0., 0., 0., 0., 0., 0.,
          0., 0., 0., 0., 0., 0., 0., 0., 0., 0., 0., 0., 0., 0., 0., 0.,
          0., 0., 0., 0., 0., 0., 0., 0., 0., 0., 0., 0., 0., 0., 0., 0.,
          0., 0., 28., 37., 35., 9., 0., 0., 0., 0., 0., 0., 0., 0., 0.,
          0., 0., 0., 0., 0., 39., 91., 232., 255., 255., 159., 11., 0.,
          0., 0., 0., 0., 0., 0., 0., 0., 0., 7., 85., 162., 212., 240.,
          255., 255., 255., 255., 142., 0., 0., 0., 0., 0., 0., 0., 0.,
          0., 15., 168., 254., 255., 255., 255., 218., 203., 206., 250.,
          208., 4., 0., 0., 0., 0., 0., 0., 0., 10., 156., 255., 255.,
          236., 255., 201., 43., 19., 25., 81., 85., 0., 0., 0., 0., 0.,
          0., 0., 0., 11., 168., 255., 240., 91., 224., 166., 0., 0., 0.,
          0., 0., 2., 7., 0., 0., 0., 0., 0., 0., 20., 197., 255., 154.,
          1., 143., 170., 2., 0., 0., 0., 7., 127., 136., 3., 0., 0., 0.,
          0., 0., 23., 205., 255., 146., 0., 92., 171., 2., 0., 0., 0.,
          52., 247., 201., 18., 0., 0., 0., 0., 0., 23., 206., 255.,
          165., 0., 49., 89., 1., 0., 0., 0., 60., 249., 255., 84., 0.,
          0., 0., 0., 0., 23., 208., 255., 239., 27., 0., 0., 0., 0., 0.,
          0., 59., 246., 255., 87., 0., 0., 0., 0., 0., 10., 152., 253.,
          255., 100., 0., 0., 0., 0., 0., 0., 57., 246., 255., 90., 0.,
          0., 0., 0., 0., 0., 18., 213., 255., 237., 130., 40., 0., 0.,
          0., 0., 68., 251., 230., 56., 0., 0., 0., 0., 0., 0., 0., 85.,
          225., 255., 255., 218., 124., 34., 7., 71., 192., 255., 187.,
          10., 0., 0., 0., 0., 0., 0., 0., 0., 21., 200., 243., 255.,
          255., 228., 217., 240., 255., 254., 96., 0., 0., 0., 0., 0.,
          0., 0., 0., 0., 0., 43., 90., 151., 233., 255., 255., 255.,
          235., 129., 20., 0., 0., 0., 0., 0., 0., 0., 0., 0., 0., 0.,
          0., 1., 28., 36., 35., 36., 28., 0., 0., 0., 0., 0., 0., 0.,
          0., 0., 0., 0., 0., 0., 0., 0., 0., 0., 0., 0., 0., 0., 0., 0.,
          0., 0., 0., 0., 0., 0., 0., 0., 0., 0., 0., 0., 0., 0., 0., 0.,
          0., 0., 0., 0., 0., 0. ]
      - [ 0., 0., 0., 0., 0., 0., 0., 0., 0., 0., 0., 0., 0., 0., 0., 0.,
          0., 0., 0., 0., 0., 0., 0., 0., 0., 0., 0., 0., 0., 0., 0., 0.,
          0., 0., 0., 0., 0., 0., 0., 0., 0., 0., 0., 0., 0., 0., 0., 0.,
          0., 0., 0., 1., 0., 0., 0., 0., 0., 0., 0., 0., 0., 0., 0., 0.,
          0., 0., 0., 0., 0., 47., 139., 154., 21., 0., 0., 0., 0., 0.,
          0., 0., 0., 0., 0., 0., 0., 0., 0., 10., 140., 219., 255.,
          255., 36., 0., 0., 0., 0., 0., 0., 0., 0., 0., 0., 0., 0., 0.,
          0., 38., 228., 255., 251., 255., 105., 0., 0., 0., 0., 0., 0.,
          0., 0., 0., 0., 0., 0., 0., 0., 121., 255., 255., 255., 255.,
          224., 103., 7., 0., 0., 0., 0., 0., 0., 0., 0., 0., 0., 0.,
          84., 233., 255., 179., 124., 221., 255., 245., 50., 0., 0., 0.,
          23., 10., 0., 0., 0., 0., 0., 28., 207., 255., 169., 19., 0.,
          149., 255., 252., 112., 0., 0., 10., 161., 63., 0., 0., 0., 0.,
          0., 85., 240., 237., 48., 0., 0., 41., 227., 255., 213., 32.,
          0., 7., 59., 17., 0., 0., 0., 0., 9., 240., 255., 185., 14.,
          0., 0., 0., 91., 255., 249., 60., 0., 0., 0., 0., 0., 0., 0.,
          0., 10., 243., 255., 134., 0., 0., 0., 0., 94., 255., 243.,
          54., 0., 0., 0., 0., 0., 0., 0., 0., 10., 242., 255., 132., 0.,
          0., 0., 48., 219., 255., 128., 3., 0., 0., 0., 0., 0., 0., 0.,
          0., 10., 246., 255., 179., 32., 18., 63., 211., 255., 242.,
          49., 0., 0., 0., 0., 0., 0., 0., 0., 0., 4., 192., 255., 252.,
          214., 203., 227., 255., 223., 105., 10., 0., 0., 3., 81., 34.,
          0., 0., 0., 0., 0., 82., 238., 255., 255., 255., 255., 209.,
          101., 0., 0., 0., 0., 7., 167., 70., 0., 0., 0., 0., 0., 0.,
          91., 152., 150., 151., 143., 50., 0., 0., 0., 0., 0., 1., 41.,
          17., 0., 0., 0., 0., 0., 0., 0., 1., 1., 1., 0., 0., 0., 0.,
          0., 0., 0., 0., 0., 0., 0., 0., 0., 0., 0., 0., 0., 0., 0., 0.,
          0., 0., 0., 0., 0., 0., 0., 0., 0., 0., 0., 0., 0., 0., 0., 0.,
          0., 0., 0., 0., 0., 0., 0., 0., 0., 0., 0., 0., 0., 0. ]
      - [ 0., 0., 0., 0., 0., 0., 0., 0., 0., 0., 0., 0., 0., 0., 0., 0.,
          0., 0., 0., 0., 0., 0., 0., 0., 0., 0., 0., 0., 0., 0., 0., 0.,
          0., 0., 0., 0., 0., 0., 0., 0., 0., 0., 0., 0., 0., 0., 0., 0.,
          0., 0., 0., 0., 0., 0., 0., 0., 0., 0., 0., 0., 0., 0., 0., 0.,
          0., 0., 0., 0., 0., 0., 0., 58., 109., 59., 0., 0., 0., 0., 0.,
          0., 0., 0., 0., 0., 0., 0., 0., 0., 0., 0., 86., 226., 255.,
          223., 155., 73., 3., 0., 0., 0., 0., 0., 0., 0., 0., 0., 0.,
          0., 21., 121., 245., 255., 254., 255., 255., 233., 74., 0., 0.,
          0., 0., 0., 0., 0., 0., 0., 0., 48., 193., 255., 242., 207.,
          254., 255., 255., 255., 170., 6., 0., 0., 0., 0., 0., 0., 0.,
          0., 40., 190., 255., 247., 100., 42., 120., 121., 199., 255.,
          192., 14., 0., 0., 0., 0., 0., 0., 0., 19., 168., 255., 243.,
          103., 0., 0., 0., 0., 140., 255., 250., 33., 0., 0., 0., 0.,
          15., 46., 0., 121., 255., 251., 103., 0., 0., 0., 0., 24.,
          195., 255., 191., 13., 0., 0., 0., 0., 6., 13., 85., 243.,
          255., 165., 0., 0., 0., 0., 0., 137., 255., 246., 88., 0., 0.,
          0., 0., 0., 0., 14., 197., 255., 203., 24., 0., 0., 0., 0.,
          118., 250., 255., 146., 4., 0., 0., 0., 0., 0., 0., 131., 255.,
          232., 62., 0., 0., 2., 42., 173., 255., 255., 199., 11., 0.,
          0., 0., 0., 0., 0., 10., 182., 255., 178., 28., 34., 102.,
          159., 237., 255., 247., 224., 79., 0., 0., 0., 0., 0., 0., 0.,
          9., 178., 255., 234., 208., 218., 255., 255., 255., 223., 87.,
          35., 6., 0., 0., 0., 0., 0., 0., 0., 0., 109., 255., 255.,
          255., 255., 232., 180., 139., 37., 0., 0., 0., 0., 0., 0., 0.,
          0., 0., 0., 0., 20., 89., 100., 99., 96., 55., 6., 0., 0., 0.,
          0., 0., 0., 0., 0., 0., 0., 0., 0., 0., 0., 0., 0., 0., 0., 0.,
          0., 0., 0., 0., 0., 0., 0., 0., 0., 0., 0., 0., 0., 0., 0., 0.,
          0., 0., 0., 0., 0., 0., 0., 0., 0., 0., 0., 0., 0., 0., 0., 0.,
          0., 0., 0., 0., 0., 0., 0., 0., 0., 0., 0., 0., 0., 0., 0., 0.,
          0., 0., 0. ]
      - [ 0., 0., 0., 0., 0., 0., 0., 0., 0., 0., 0., 0., 0., 0., 0., 0.,
          0., 0., 0., 0., 0., 0., 0., 0., 0., 0., 0., 0., 0., 0., 0., 0.,
          0., 0., 0., 0., 0., 0., 0., 0., 0., 0., 0., 0., 0., 0., 0., 0.,
          0., 0., 0., 0., 0., 0., 0., 0., 0., 0., 0., 0., 0., 0., 0., 0.,
          0., 0., 0., 0., 0., 0., 0., 0., 0., 1., 16., 0., 0., 0., 0.,
          0., 0., 0., 0., 0., 0., 0., 0., 0., 0., 0., 0., 0., 0., 109.,
          210., 95., 0., 0., 0., 0., 0., 0., 0., 0., 0., 0., 0., 0., 0.,
          0., 43., 151., 171., 167., 217., 187., 0., 0., 0., 0., 0., 0.,
          0., 0., 0., 0., 0., 0., 0., 68., 209., 250., 240., 76., 145.,
          188., 0., 0., 0., 0., 0., 0., 0., 0., 0., 0., 0., 0., 86.,
          242., 203., 47., 91., 143., 209., 189., 0., 0., 0., 0., 0., 0.,
          0., 0., 0., 0., 0., 104., 244., 234., 41., 0., 1., 65., 247.,
          180., 0., 0., 0., 0., 0., 19., 6., 0., 0., 0., 78., 246., 239.,
          83., 0., 0., 6., 170., 254., 95., 0., 0., 0., 0., 0., 2., 0.,
          0., 0., 35., 210., 255., 91., 0., 0., 0., 114., 255., 180., 1.,
          0., 0., 0., 0., 0., 0., 0., 0., 36., 184., 255., 134., 4., 0.,
          0., 66., 248., 231., 64., 0., 0., 0., 0., 0., 0., 0., 0., 0.,
          116., 255., 137., 0., 0., 0., 77., 231., 235., 77., 0., 0., 0.,
          0., 0., 0., 0., 0., 0., 0., 151., 255., 135., 71., 107., 163.,
          247., 189., 63., 0., 0., 0., 0., 0., 0., 0., 0., 0., 0., 0.,
          138., 255., 255., 253., 255., 253., 121., 12., 0., 0., 0., 0.,
          0., 0., 0., 0., 0., 0., 0., 0., 15., 112., 188., 177., 123.,
          38., 0., 0., 0., 0., 0., 0., 0., 0., 0., 0., 0., 0., 0., 0.,
          0., 0., 8., 1., 0., 0., 0., 0., 0., 0., 0., 0., 0., 0., 0., 0.,
          0., 0., 0., 0., 0., 0., 0., 0., 0., 0., 0., 0., 0., 0., 0., 0.,
          0., 0., 0., 0., 0., 0., 0., 0., 0., 0., 0., 0., 0., 0., 0., 0.,
          0., 0., 0., 0., 0., 0., 0., 0., 0., 0., 0., 0., 0., 0., 0., 0.,
          0., 0., 0., 0., 0., 0., 0., 0., 0., 0., 0., 0. ]
      - [ 0., 0., 0., 0., 0., 0., 0., 0., 0., 0., 0., 0., 0., 0., 0., 0.,
          0., 0., 0., 0., 0., 0., 0., 0., 0., 0., 0., 0., 0., 0., 0., 0.,
          0., 0., 0., 0., 0., 0., 0., 0., 0., 0., 0., 0., 0., 0., 0., 0.,
          0., 0., 11., 21., 34., 8., 0., 0., 0., 0., 0., 0., 0., 0., 0.,
          0., 0., 0., 0., 0., 13., 79., 179., 213., 255., 142., 3., 0.,
          0., 0., 0., 0., 0., 0., 0., 0., 0., 0., 0., 21., 156., 253.,
          255., 255., 255., 248., 65., 0., 0., 0., 0., 0., 0., 0., 0.,
          0., 0., 0., 79., 196., 240., 228., 208., 163., 119., 238.,
          147., 0., 0., 0., 0., 0., 0., 0., 0., 0., 0., 0., 65., 111.,
          85., 63., 20., 0., 0., 166., 255., 57., 0., 0., 0., 0., 0., 0.,
          0., 0., 0., 0., 0., 0., 170., 208., 62., 0., 6., 169., 255.,
          102., 0., 0., 0., 0., 0., 0., 0., 0., 0., 0., 0., 108., 255.,
          255., 118., 0., 8., 173., 255., 66., 0., 0., 0., 0., 0., 0.,
          0., 0., 0., 0., 75., 247., 255., 237., 60., 0., 21., 216.,
          253., 71., 0., 0., 0., 0., 0., 0., 0., 0., 0., 16., 189., 255.,
          255., 136., 0., 0., 30., 238., 251., 52., 0., 0., 0., 0., 0.,
          0., 0., 0., 0., 58., 241., 255., 196., 40., 0., 0., 135., 255.,
          220., 4., 0., 0., 0., 0., 0., 0., 0., 0., 0., 100., 255., 245.,
          82., 0., 0., 31., 230., 255., 172., 1., 0., 0., 0., 0., 0., 0.,
          0., 0., 0., 79., 255., 214., 0., 0., 28., 192., 255., 224.,
          74., 0., 0., 0., 0., 0., 0., 0., 0., 0., 0., 26., 208., 253.,
          156., 144., 208., 251., 255., 183., 9., 0., 0., 0., 0., 0., 0.,
          0., 0., 0., 0., 0., 109., 255., 255., 255., 255., 255., 236.,
          74., 0., 0., 0., 0., 0., 0., 0., 0., 0., 0., 0., 0., 11., 127.,
          237., 255., 244., 170., 72., 0., 0., 0., 0., 0., 0., 0., 0.,
          0., 0., 0., 0., 0., 0., 0., 31., 35., 31., 6., 0., 0., 0., 0.,
          0., 0., 0., 0., 0., 0., 0., 0., 0., 0., 0., 0., 0., 0., 0., 0.,
          0., 0., 0., 0., 0., 0., 0., 0., 0., 0., 0., 0., 0., 0., 0., 0.,
          0., 0., 0., 0., 0., 0., 0., 0., 0., 0., 0., 0. ]
      - [ 0., 0., 0., 0., 0., 0., 0., 0., 0., 0., 0., 0., 0., 0., 0., 0.,
          0., 0., 0., 0., 0., 0., 0., 0., 0., 0., 0., 0., 0., 0., 0., 0.,
          0., 0., 0., 0., 0., 0., 0., 0., 0., 0., 0., 0., 0., 0., 0., 0.,
          0., 0., 0., 0., 0., 0., 0., 0., 0., 0., 0., 0., 0., 0., 0., 0.,
          0., 0., 0., 0., 30., 102., 105., 34., 0., 0., 0., 0., 0., 0.,
          0., 0., 0., 0., 0., 0., 0., 0., 0., 0., 128., 255., 255., 190.,
          26., 0., 0., 0., 0., 0., 0., 0., 0., 0., 0., 0., 0., 0., 0.,
          99., 241., 252., 253., 255., 183., 11., 0., 0., 0., 0., 0., 0.,
          0., 0., 0., 0., 0., 0., 0., 216., 255., 255., 237., 230., 255.,
          132., 10., 0., 0., 0., 0., 0., 0., 0., 0., 0., 0., 0., 73.,
          244., 255., 198., 32., 29., 197., 230., 37., 0., 0., 0., 0.,
          0., 0., 0., 0., 0., 0., 0., 132., 255., 252., 92., 0., 0., 76.,
          255., 89., 0., 0., 0., 0., 0., 0., 0., 0., 0., 0., 19., 193.,
          255., 160., 8., 0., 0., 6., 180., 216., 33., 0., 0., 0., 0.,
          0., 0., 0., 0., 0., 59., 248., 255., 111., 0., 0., 0., 0., 85.,
          242., 56., 0., 0., 0., 0., 0., 0., 0., 0., 0., 61., 252., 251.,
          95., 0., 0., 0., 0., 62., 229., 56., 0., 0., 0., 0., 0., 0.,
          0., 0., 0., 54., 242., 255., 122., 0., 0., 0., 0., 61., 228.,
          55., 0., 0., 0., 0., 0., 0., 0., 0., 0., 6., 158., 255., 121.,
          0., 0., 0., 0., 82., 236., 55., 0., 0., 0., 0., 0., 0., 0., 0.,
          0., 0., 67., 245., 204., 37., 0., 0., 37., 173., 254., 52., 0.,
          0., 0., 0., 0., 0., 0., 0., 0., 0., 0., 94., 243., 188., 34.,
          80., 213., 255., 182., 11., 0., 0., 0., 0., 0., 0., 0., 0., 0.,
          0., 0., 0., 98., 211., 215., 252., 255., 228., 63., 0., 0., 0.,
          0., 0., 0., 0., 0., 0., 0., 0., 0., 0., 0., 39., 187., 222.,
          161., 72., 3., 0., 0., 0., 0., 0., 0., 0., 0., 0., 0., 0., 0.,
          0., 0., 0., 0., 0., 0., 0., 0., 0., 0., 0., 0., 0., 0., 0., 0.,
          0., 0., 0., 0., 0., 0., 0., 0., 0., 0., 0., 0., 0., 0., 0., 0.,
          0. ]
      - [ 0., 0., 0., 0., 0., 0., 0., 0., 0., 0., 0., 0., 0., 0., 0., 0.,
          0., 0., 0., 0., 0., 0., 0., 0., 0., 0., 0., 0., 0., 0., 0., 0.,
          0., 0., 0., 0., 0., 0., 0., 0., 0., 0., 0., 0., 0., 0., 0., 1.,
          19., 5., 0., 0., 0., 0., 0., 0., 0., 0., 0., 0., 0., 0., 0.,
          0., 0., 0., 0., 83., 213., 91., 0., 0., 0., 0., 0., 0., 0., 0.,
          0., 0., 0., 0., 0., 0., 0., 0., 74., 227., 255., 201., 68.,
          13., 0., 0., 0., 0., 0., 0., 0., 0., 0., 0., 0., 0., 0., 25.,
          184., 255., 253., 255., 255., 214., 131., 44., 0., 0., 0., 0.,
          0., 0., 0., 0., 0., 0., 0., 89., 255., 254., 255., 243., 214.,
          244., 255., 227., 113., 0., 0., 0., 0., 0., 0., 0., 0., 0., 7.,
          181., 255., 236., 143., 129., 21., 77., 160., 225., 243., 100.,
          0., 0., 0., 0., 0., 0., 0., 0., 41., 249., 255., 187., 0., 1.,
          0., 0., 0., 28., 174., 193., 2., 0., 0., 0., 0., 0., 0., 0.,
          94., 252., 255., 129., 0., 0., 0., 0., 0., 0., 70., 219., 46.,
          0., 0., 0., 0., 0., 0., 0., 32., 249., 225., 26., 0., 0., 0.,
          0., 0., 0., 6., 223., 147., 0., 0., 0., 0., 0., 0., 0., 25.,
          245., 226., 25., 0., 0., 0., 0., 0., 0., 4., 208., 200., 16.,
          0., 0., 0., 0., 0., 0., 2., 163., 255., 96., 0., 0., 0., 0.,
          0., 0., 0., 170., 199., 15., 0., 0., 0., 0., 0., 0., 0., 89.,
          255., 218., 94., 29., 22., 21., 0., 37., 111., 251., 195., 15.,
          0., 0., 0., 0., 0., 0., 0., 25., 178., 255., 250., 211., 206.,
          204., 170., 218., 247., 255., 194., 14., 0., 0., 0., 0., 0.,
          0., 0., 0., 20., 162., 244., 255., 255., 255., 255., 255.,
          255., 237., 84., 0., 0., 0., 0., 0., 0., 0., 0., 0., 0., 1.,
          70., 160., 211., 239., 189., 181., 131., 69., 0., 0., 0., 0.,
          0., 0., 0., 0., 0., 0., 0., 0., 0., 4., 20., 29., 13., 11., 0.,
          0., 0., 0., 0., 0., 0., 0., 0., 0., 0., 0., 0., 0., 0., 0., 0.,
          0., 0., 0., 0., 0., 0., 0., 0., 0., 0., 0., 0., 0., 0., 0., 0.,
          0., 0., 0., 0., 0., 0., 0., 0., 0., 0., 0., 0., 0. ]
      - [ 0., 0., 0., 0., 0., 0., 0., 0., 0., 0., 0., 0., 0., 0., 0., 0.,
          0., 0., 0., 0., 0., 0., 0., 0., 0., 0., 0., 0., 0., 0., 0., 0.,
          0., 0., 0., 0., 0., 0., 0., 0., 0., 0., 0., 0., 0., 0., 0., 0.,
          0., 0., 21., 34., 20., 0., 0., 0., 0., 0., 0., 0., 0., 0., 0.,
          0., 0., 0., 0., 0., 0., 42., 210., 254., 217., 75., 0., 0., 0.,
          0., 0., 0., 0., 0., 0., 0., 0., 0., 0., 0., 0., 166., 255.,
          255., 255., 224., 53., 0., 0., 0., 0., 0., 0., 0., 0., 0., 0.,
          0., 0., 0., 117., 254., 255., 232., 196., 255., 180., 5., 0.,
          0., 0., 0., 0., 0., 0., 0., 0., 0., 0., 39., 243., 255., 255.,
          117., 28., 211., 250., 74., 0., 0., 0., 0., 0., 0., 0., 0., 0.,
          0., 15., 176., 255., 255., 164., 8., 3., 172., 255., 196., 20.,
          0., 0., 0., 0., 0., 0., 0., 0., 0., 106., 255., 255., 212.,
          22., 0., 4., 157., 255., 209., 24., 0., 0., 0., 0., 0., 0., 0.,
          0., 2., 160., 255., 233., 71., 0., 0., 10., 179., 255., 207.,
          24., 0., 0., 0., 0., 0., 0., 0., 0., 70., 233., 255., 203.,
          22., 0., 0., 12., 194., 255., 208., 24., 0., 0., 0., 0., 0.,
          0., 0., 0., 125., 255., 255., 128., 0., 0., 0., 125., 249.,
          255., 166., 3., 0., 0., 0., 0., 0., 0., 0., 0., 126., 255.,
          244., 76., 0., 11., 155., 255., 255., 216., 35., 0., 0., 0.,
          0., 0., 0., 0., 0., 0., 91., 244., 255., 171., 71., 172., 250.,
          255., 200., 68., 0., 0., 0., 0., 0., 0., 0., 0., 0., 0., 11.,
          183., 255., 245., 245., 255., 255., 230., 39., 0., 0., 0., 0.,
          0., 0., 0., 0., 0., 0., 0., 0., 97., 240., 255., 255., 255.,
          210., 90., 0., 0., 0., 0., 0., 0., 0., 0., 0., 0., 0., 0., 0.,
          10., 64., 149., 196., 111., 38., 0., 0., 0., 0., 0., 0., 0.,
          0., 0., 0., 0., 0., 0., 0., 0., 0., 2., 15., 0., 0., 0., 0.,
          0., 0., 0., 0., 0., 0., 0., 0., 0., 0., 0., 0., 0., 0., 0., 0.,
          0., 0., 0., 0., 0., 0., 0., 0., 0., 0., 0., 0., 0., 0., 0., 0.,
          0., 0., 0., 0., 0., 0., 0., 0., 0., 0., 0., 0., 0., 0. ]
      - [ 0., 0., 0., 0., 0., 0., 0., 0., 0., 0., 0., 0., 0., 0., 0., 0.,
          0., 0., 0., 0., 0., 0., 0., 0., 0., 0., 0., 0., 0., 0., 0., 0.,
          0., 0., 0., 0., 0., 0., 0., 0., 0., 0., 0., 0., 0., 0., 0., 0.,
          0., 0., 0., 0., 0., 0., 0., 0., 0., 0., 0., 0., 0., 0., 0., 0.,
          0., 0., 0., 0., 0., 0., 28., 70., 42., 0., 0., 0., 0., 0., 0.,
          0., 0., 0., 0., 0., 0., 0., 0., 0., 0., 80., 209., 243., 192.,
          14., 0., 0., 0., 0., 0., 0., 0., 0., 0., 0., 0., 0., 0., 20.,
          152., 245., 255., 255., 240., 52., 0., 0., 0., 0., 0., 0., 0.,
          0., 0., 0., 0., 0., 0., 80., 255., 237., 130., 196., 255.,
          163., 19., 0., 0., 0., 0., 0., 0., 0., 0., 0., 0., 0., 0.,
          148., 255., 239., 23., 11., 138., 251., 206., 54., 0., 0., 0.,
          0., 0., 0., 0., 0., 0., 0., 42., 217., 201., 158., 56., 0., 0.,
          102., 240., 138., 0., 0., 0., 0., 0., 0., 0., 0., 0., 0., 126.,
          248., 71., 0., 0., 0., 0., 0., 157., 202., 23., 0., 0., 0., 0.,
          0., 0., 0., 0., 12., 187., 187., 5., 0., 0., 0., 0., 0., 147.,
          218., 29., 0., 0., 0., 0., 0., 0., 0., 0., 75., 255., 94., 0.,
          0., 0., 0., 0., 0., 150., 178., 0., 0., 0., 0., 0., 0., 0., 0.,
          0., 111., 255., 76., 0., 0., 0., 0., 0., 41., 214., 112., 0.,
          0., 0., 0., 0., 0., 0., 0., 0., 112., 255., 79., 0., 0., 0.,
          0., 26., 200., 205., 16., 0., 0., 0., 0., 0., 0., 0., 0., 0.,
          96., 255., 74., 0., 0., 0., 14., 160., 226., 63., 0., 0., 0.,
          0., 0., 0., 0., 0., 0., 0., 85., 255., 105., 0., 5., 48., 186.,
          225., 70., 0., 0., 0., 0., 0., 0., 0., 0., 0., 0., 0., 23.,
          201., 241., 155., 173., 239., 203., 52., 0., 0., 0., 0., 0.,
          0., 0., 0., 0., 0., 0., 0., 0., 36., 157., 228., 224., 117.,
          15., 0., 0., 0., 0., 0., 0., 0., 0., 0., 0., 0., 0., 0., 0.,
          0., 0., 0., 0., 0., 0., 0., 0., 0., 0., 0., 0., 0., 0., 0., 0.,
          0., 0., 0., 0., 0., 0., 0., 0., 0., 0., 0., 0., 0., 0., 0., 0.,
          0., 0. ]
      - [ 0., 0., 0., 0., 0., 0., 0., 0., 0., 0., 0., 0., 0., 0., 0., 0.,
          0., 0., 0., 0., 0., 0., 0., 0., 0., 0., 0., 0., 0., 0., 0., 0.,
          0., 0., 0., 0., 0., 0., 0., 0., 0., 0., 0., 0., 0., 0., 0., 0.,
          0., 0., 105., 203., 86., 0., 0., 0., 0., 0., 0., 0., 0., 0.,
          0., 0., 0., 0., 0., 0., 0., 68., 246., 255., 230., 29., 0., 0.,
          0., 0., 0., 0., 0., 0., 0., 0., 0., 0., 0., 0., 1., 168., 152.,
          119., 255., 131., 0., 0., 0., 0., 0., 0., 0., 0., 0., 0., 0.,
          0., 0., 0., 99., 200., 10., 20., 203., 191., 14., 0., 0., 0.,
          0., 0., 0., 0., 0., 0., 0., 0., 0., 27., 234., 146., 0., 0.,
          120., 207., 25., 0., 0., 0., 0., 0., 0., 0., 0., 0., 0., 0.,
          6., 174., 205., 20., 0., 0., 87., 246., 58., 0., 0., 0., 0.,
          0., 0., 0., 0., 0., 0., 0., 100., 249., 102., 0., 0., 0., 43.,
          255., 107., 0., 0., 0., 0., 0., 0., 0., 0., 0., 0., 29., 214.,
          221., 3., 0., 0., 0., 45., 255., 121., 0., 0., 0., 0., 0., 0.,
          0., 0., 0., 0., 81., 255., 146., 0., 0., 0., 0., 125., 255.,
          87., 0., 0., 0., 0., 0., 0., 0., 0., 0., 3., 183., 255., 80.,
          0., 0., 0., 29., 216., 217., 31., 0., 0., 0., 0., 0., 0., 0.,
          0., 0., 5., 206., 225., 21., 0., 0., 0., 122., 255., 168., 8.,
          0., 0., 0., 0., 0., 0., 0., 0., 0., 5., 207., 217., 31., 8.,
          0., 79., 248., 226., 35., 0., 0., 0., 0., 0., 0., 0., 0., 0.,
          0., 0., 152., 255., 198., 188., 163., 232., 247., 83., 0., 0.,
          0., 0., 0., 0., 0., 0., 0., 0., 0., 0., 35., 175., 253., 255.,
          255., 211., 105., 0., 0., 0., 0., 0., 0., 0., 0., 0., 0., 0.,
          0., 0., 0., 7., 77., 111., 98., 26., 0., 0., 0., 0., 0., 0.,
          0., 0., 0., 0., 0., 0., 0., 0., 0., 0., 0., 0., 0., 0., 0., 0.,
          0., 0., 0., 0., 0., 0., 0., 0., 0., 0., 0., 0., 0., 0., 0., 0.,
          0., 0., 0., 0., 0., 0., 0., 0., 0., 0., 0., 0., 0., 0., 0., 0.,
          0., 0., 0., 0., 0., 0., 0., 0., 0., 0., 0., 0., 0., 0., 0. ]
      - [ 0., 0., 0., 0., 0., 0., 0., 0., 0., 0., 0., 0., 0., 0., 0., 0.,
          0., 0., 0., 0., 0., 0., 0., 0., 0., 0., 0., 0., 0., 0., 0., 0.,
          0., 0., 0., 0., 0., 0., 0., 0., 0., 0., 0., 0., 0., 0., 0., 0.,
          0., 0., 0., 0., 0., 0., 0., 0., 0., 0., 0., 0., 0., 0., 0., 0.,
          0., 0., 0., 0., 0., 0., 0., 0., 0., 0., 0., 0., 0., 0., 0., 0.,
          0., 0., 0., 0., 0., 0., 0., 0., 0., 0., 0., 0., 0., 0., 1., 0.,
          0., 0., 0., 0., 0., 0., 0., 0., 0., 0., 0., 0., 0., 0., 0.,
          32., 65., 108., 164., 149., 76., 11., 0., 0., 0., 0., 0., 0.,
          0., 0., 0., 0., 0., 0., 93., 215., 255., 255., 255., 255.,
          255., 135., 0., 0., 0., 0., 0., 0., 0., 0., 0., 0., 30., 179.,
          255., 255., 248., 209., 219., 255., 249., 88., 0., 0., 0., 0.,
          0., 0., 0., 0., 0., 36., 203., 255., 255., 148., 74., 20.,
          149., 255., 119., 0., 0., 0., 0., 0., 0., 0., 0., 0., 82.,
          211., 255., 211., 64., 2., 0., 100., 252., 203., 10., 0., 0.,
          0., 0., 0., 0., 0., 0., 58., 255., 255., 154., 8., 0., 0., 30.,
          236., 255., 74., 0., 0., 0., 0., 0., 0., 0., 0., 0., 170.,
          255., 179., 21., 0., 0., 56., 184., 255., 146., 0., 0., 0., 0.,
          0., 0., 0., 0., 0., 98., 255., 209., 14., 0., 0., 85., 206.,
          255., 151., 8., 0., 0., 0., 0., 0., 0., 0., 0., 46., 230.,
          250., 122., 95., 107., 141., 255., 254., 172., 34., 0., 0., 0.,
          0., 0., 0., 0., 0., 0., 60., 242., 250., 234., 255., 255.,
          255., 197., 95., 6., 0., 0., 0., 0., 0., 0., 0., 0., 0., 0.,
          13., 149., 231., 230., 226., 179., 102., 6., 0., 0., 0., 0.,
          0., 0., 0., 0., 0., 0., 0., 0., 0., 0., 46., 50., 46., 6., 0.,
          0., 0., 0., 0., 0., 0., 0., 0., 0., 0., 0., 0., 0., 0., 0., 0.,
          0., 0., 0., 0., 0., 0., 0., 0., 0., 0., 0., 0., 0., 0., 0., 0.,
          0., 0., 0., 0., 0., 0., 0., 0., 0., 0., 0., 0., 0., 0., 0., 0.,
          0., 0., 0., 0., 0., 0., 0., 0., 0., 0., 0., 0., 0., 0., 0., 0.,
          0., 0., 0., 0., 0., 0. ]
      - [ 0., 0., 0., 0., 0., 0., 0., 0., 0., 0., 0., 0., 0., 0., 0., 0.,
          0., 0., 0., 0., 0., 0., 0., 0., 0., 0., 0., 0., 0., 0., 0., 0.,
          0., 0., 0., 0., 0., 0., 0., 0., 0., 0., 0., 0., 0., 0., 0., 0.,
          0., 0., 0., 0., 14., 36., 36., 10., 0., 0., 0., 0., 0., 0., 0.,
          0., 0., 0., 0., 0., 0., 0., 0., 75., 194., 255., 255., 146.,
          1., 0., 0., 0., 0., 0., 0., 0., 0., 0., 0., 0., 0., 0., 91.,
          229., 255., 253., 255., 201., 10., 0., 0., 0., 0., 0., 0., 0.,
          0., 0., 0., 0., 0., 125., 253., 255., 255., 249., 255., 196.,
          9., 0., 0., 0., 0., 0., 0., 0., 0., 0., 0., 0., 105., 240.,
          255., 222., 113., 155., 255., 198., 12., 0., 0., 0., 0., 0.,
          0., 0., 0., 0., 0., 129., 251., 255., 202., 55., 0., 68., 246.,
          232., 57., 0., 0., 0., 0., 0., 0., 0., 0., 0., 78., 245., 255.,
          167., 22., 0., 0., 28., 212., 241., 65., 0., 0., 0., 0., 0.,
          0., 0., 0., 30., 212., 255., 184., 27., 0., 0., 0., 41., 222.,
          241., 65., 0., 0., 0., 0., 0., 0., 0., 0., 136., 255., 226.,
          31., 0., 0., 0., 0., 35., 220., 227., 45., 0., 0., 0., 0., 0.,
          0., 0., 50., 241., 255., 107., 0., 0., 0., 0., 0., 85., 251.,
          200., 8., 0., 0., 0., 0., 0., 0., 3., 173., 255., 183., 9., 0.,
          0., 0., 0., 36., 222., 255., 140., 0., 0., 0., 0., 0., 0., 0.,
          34., 219., 244., 69., 0., 0., 0., 0., 65., 201., 255., 207.,
          20., 0., 0., 0., 0., 0., 0., 0., 67., 245., 236., 62., 0., 36.,
          40., 103., 227., 255., 217., 62., 0., 0., 0., 0., 0., 0., 0.,
          0., 20., 171., 255., 218., 197., 238., 251., 255., 228., 164.,
          34., 0., 0., 0., 0., 0., 0., 0., 0., 0., 0., 20., 185., 255.,
          255., 255., 212., 115., 49., 2., 0., 0., 0., 0., 0., 0., 0.,
          0., 0., 0., 0., 0., 16., 36., 36., 37., 20., 0., 0., 0., 0.,
          0., 0., 0., 0., 0., 0., 0., 0., 0., 0., 0., 0., 0., 0., 0., 0.,
          0., 0., 0., 0., 0., 0., 0., 0., 0., 0., 0., 0., 0., 0., 0., 0.,
          0., 0., 0., 0., 0., 0., 0., 0., 0., 0., 0., 0., 0., 0. ]
      - [ 0., 0., 0., 0., 0., 0., 0., 0., 0., 0., 0., 0., 0., 0., 0., 0.,
          0., 0., 0., 0., 0., 0., 0., 0., 0., 0., 0., 0., 0., 0., 0., 0.,
          0., 0., 0., 0., 0., 0., 0., 0., 0., 0., 0., 0., 0., 0., 0., 0.,
          0., 0., 0., 0., 8., 26., 34., 7., 0., 0., 0., 0., 0., 0., 0.,
          0., 0., 0., 0., 0., 0., 0., 0., 92., 177., 228., 255., 115.,
          0., 0., 0., 0., 0., 0., 0., 0., 0., 0., 0., 0., 0., 0., 134.,
          243., 255., 255., 255., 231., 62., 0., 0., 0., 0., 0., 0., 0.,
          0., 0., 0., 0., 4., 106., 255., 255., 200., 171., 248., 255.,
          105., 0., 0., 0., 0., 0., 0., 0., 0., 0., 0., 5., 121., 246.,
          255., 180., 19., 69., 244., 255., 96., 0., 0., 0., 0., 0., 0.,
          0., 0., 0., 1., 91., 253., 255., 162., 23., 0., 95., 254.,
          210., 32., 0., 0., 0., 0., 0., 0., 0., 0., 0., 98., 240., 255.,
          204., 0., 0., 0., 150., 255., 162., 0., 0., 0., 0., 0., 0., 0.,
          0., 0., 52., 206., 255., 181., 35., 0., 0., 0., 147., 255.,
          167., 0., 0., 0., 0., 0., 0., 0., 0., 27., 190., 255., 203.,
          17., 0., 0., 0., 2., 155., 255., 141., 0., 0., 0., 0., 0., 0.,
          0., 0., 155., 255., 228., 73., 0., 0., 0., 0., 17., 209., 255.,
          72., 0., 0., 0., 0., 0., 0., 0., 58., 234., 255., 120., 0., 0.,
          0., 0., 0., 85., 255., 215., 22., 0., 0., 0., 0., 0., 0., 1.,
          150., 255., 179., 8., 0., 0., 0., 0., 19., 196., 255., 137.,
          0., 0., 0., 0., 0., 0., 0., 8., 172., 255., 175., 28., 11., 2.,
          1., 49., 172., 255., 211., 62., 0., 0., 0., 0., 0., 0., 0., 0.,
          42., 217., 255., 234., 202., 179., 183., 252., 255., 210., 66.,
          0., 0., 0., 0., 0., 0., 0., 0., 0., 0., 65., 171., 181., 203.,
          255., 255., 177., 121., 34., 0., 0., 0., 0., 0., 0., 0., 0.,
          0., 0., 0., 0., 7., 10., 17., 36., 35., 9., 0., 0., 0., 0., 0.,
          0., 0., 0., 0., 0., 0., 0., 0., 0., 0., 0., 0., 0., 0., 0., 0.,
          0., 0., 0., 0., 0., 0., 0., 0., 0., 0., 0., 0., 0., 0., 0., 0.,
          0., 0., 0., 0., 0., 0., 0., 0., 0., 0., 0., 0. ]
      - [ 0., 0., 0., 0., 0., 0., 0., 0., 0., 0., 0., 0., 0., 0., 0., 0.,
          0., 0., 0., 0., 0., 0., 0., 0., 0., 0., 0., 0., 0., 0., 0., 0.,
          0., 0., 0., 0., 0., 0., 0., 0., 0., 0., 0., 0., 0., 0., 0., 0.,
          25., 45., 27., 0., 0., 0., 0., 0., 0., 0., 0., 0., 0., 0., 0.,
          0., 0., 0., 40., 141., 188., 208., 235., 152., 60., 0., 0., 0.,
          0., 0., 0., 0., 0., 0., 0., 0., 0., 0., 110., 255., 162., 13.,
          85., 218., 243., 114., 1., 0., 0., 0., 0., 0., 0., 0., 0., 0.,
          0., 4., 169., 255., 149., 0., 0., 24., 178., 255., 150., 12.,
          0., 0., 0., 0., 0., 0., 0., 0., 0., 27., 204., 255., 95., 0.,
          0., 0., 17., 180., 255., 134., 2., 0., 0., 0., 0., 0., 0., 0.,
          0., 38., 222., 230., 30., 0., 0., 0., 0., 56., 235., 237., 58.,
          0., 0., 0., 0., 0., 0., 0., 0., 64., 255., 200., 0., 0., 0.,
          0., 0., 0., 192., 246., 66., 0., 0., 0., 0., 0., 0., 0., 0.,
          154., 255., 145., 0., 0., 0., 0., 0., 18., 209., 246., 66., 0.,
          0., 0., 0., 0., 0., 0., 3., 186., 255., 122., 0., 0., 0., 0.,
          0., 120., 255., 197., 31., 0., 0., 0., 0., 0., 0., 0., 3.,
          182., 255., 123., 0., 0., 0., 0., 93., 249., 253., 79., 0., 0.,
          0., 0., 0., 0., 0., 0., 1., 168., 255., 133., 0., 0., 0., 53.,
          230., 255., 117., 0., 0., 0., 0., 0., 0., 0., 0., 0., 0., 120.,
          254., 191., 0., 0., 47., 209., 255., 193., 17., 0., 0., 0., 0.,
          0., 0., 0., 0., 0., 0., 13., 197., 230., 32., 44., 193., 255.,
          232., 50., 0., 0., 0., 0., 0., 0., 0., 0., 0., 0., 0., 0.,
          130., 255., 225., 240., 255., 242., 98., 0., 0., 0., 0., 0.,
          0., 0., 0., 0., 0., 0., 0., 0., 19., 122., 216., 211., 183.,
          80., 0., 0., 0., 0., 0., 0., 0., 0., 0., 0., 0., 0., 0., 0.,
          0., 0., 21., 20., 11., 0., 0., 0., 0., 0., 0., 0., 0., 0., 0.,
          0., 0., 0., 0., 0., 0., 0., 0., 0., 0., 0., 0., 0., 0., 0., 0.,
          0., 0., 0., 0., 0., 0., 0., 0., 0., 0., 0., 0., 0., 0., 0., 0.,
          0., 0., 0., 0., 0., 0., 0. ]
      - [ 0., 0., 0., 0., 0., 0., 0., 0., 0., 0., 0., 0., 0., 0., 0., 0.,
          0., 0., 0., 0., 0., 0., 0., 0., 0., 0., 0., 0., 0., 0., 0., 0.,
          0., 0., 0., 0., 0., 0., 0., 0., 0., 0., 0., 0., 0., 0., 0., 0.,
          0., 0., 0., 0., 0., 5., 28., 7., 0., 0., 0., 0., 0., 0., 0.,
          0., 0., 0., 0., 0., 0., 0., 22., 57., 97., 163., 237., 154.,
          32., 0., 0., 0., 0., 0., 0., 0., 0., 0., 0., 0., 0., 19., 188.,
          230., 246., 255., 255., 234., 58., 0., 0., 0., 0., 0., 0., 0.,
          0., 0., 0., 0., 15., 153., 255., 255., 234., 218., 255., 227.,
          55., 0., 0., 0., 0., 0., 0., 0., 0., 0., 0., 0., 133., 251.,
          255., 228., 88., 179., 255., 230., 57., 0., 0., 0., 0., 0., 0.,
          0., 0., 0., 0., 23., 228., 255., 239., 84., 12., 217., 255.,
          191., 19., 0., 0., 0., 0., 0., 0., 0., 0., 0., 0., 44., 240.,
          255., 177., 7., 32., 222., 255., 136., 0., 0., 0., 0., 0., 0.,
          0., 0., 0., 0., 15., 171., 253., 250., 64., 0., 105., 255.,
          195., 31., 0., 0., 0., 0., 0., 0., 0., 0., 0., 0., 49., 238.,
          255., 229., 0., 61., 235., 223., 89., 0., 0., 0., 0., 0., 0.,
          0., 0., 0., 0., 22., 172., 255., 227., 86., 11., 176., 241.,
          66., 0., 0., 0., 0., 0., 0., 0., 0., 0., 0., 12., 178., 255.,
          255., 159., 44., 165., 255., 227., 28., 0., 0., 0., 0., 0., 0.,
          0., 0., 0., 0., 46., 249., 255., 252., 239., 228., 255., 203.,
          89., 2., 0., 0., 0., 0., 0., 0., 0., 0., 0., 0., 137., 255.,
          253., 252., 252., 255., 255., 117., 0., 0., 0., 0., 0., 0., 0.,
          0., 0., 0., 0., 48., 222., 255., 252., 251., 255., 242., 102.,
          12., 0., 0., 0., 0., 0., 0., 0., 0., 0., 0., 0., 58., 234.,
          255., 255., 255., 204., 92., 0., 0., 0., 0., 0., 0., 0., 0.,
          0., 0., 0., 0., 0., 8., 32., 36., 36., 36., 18., 0., 0., 0.,
          0., 0., 0., 0., 0., 0., 0., 0., 0., 0., 0., 0., 0., 0., 0., 0.,
          0., 0., 0., 0., 0., 0., 0., 0., 0., 0., 0., 0., 0., 0., 0., 0.,
          0., 0., 0., 0., 0., 0., 0., 0., 0., 0., 0., 0., 0., 0., 0., 0. ]
      - [ 0., 0., 0., 0., 0., 0., 0., 0., 0., 0., 0., 0., 0., 0., 0., 0.,
          0., 0., 0., 0., 0., 0., 0., 0., 0., 0., 0., 0., 0., 0., 0., 0.,
          0., 0., 0., 0., 0., 0., 0., 0., 0., 0., 0., 0., 0., 0., 0., 0.,
          0., 0., 0., 0., 0., 28., 37., 37., 15., 0., 0., 0., 0., 0., 0.,
          0., 0., 0., 0., 0., 0., 0., 0., 36., 139., 234., 255., 255.,
          175., 9., 0., 0., 0., 0., 0., 0., 0., 0., 0., 0., 0., 0., 62.,
          196., 255., 255., 255., 255., 213., 21., 0., 0., 0., 0., 0.,
          0., 0., 0., 0., 0., 0., 96., 241., 255., 255., 198., 165.,
          250., 255., 35., 0., 0., 0., 0., 0., 0., 0., 0., 0., 6., 121.,
          237., 255., 229., 133., 28., 43., 247., 255., 36., 0., 0., 0.,
          0., 0., 0., 0., 0., 9., 166., 255., 255., 241., 93., 0., 0.,
          49., 251., 217., 22., 0., 0., 0., 0., 0., 0., 0., 17., 166.,
          255., 255., 189., 61., 0., 0., 0., 86., 255., 177., 9., 0., 0.,
          0., 0., 0., 0., 0., 155., 255., 255., 211., 38., 0., 0., 0.,
          0., 162., 255., 161., 4., 0., 0., 0., 0., 0., 0., 96., 246.,
          255., 214., 33., 0., 0., 0., 0., 73., 247., 244., 74., 0., 0.,
          0., 0., 0., 0., 92., 240., 255., 230., 69., 0., 0., 0., 0., 6.,
          167., 255., 196., 17., 0., 0., 0., 0., 0., 12., 190., 255.,
          249., 123., 0., 0., 0., 0., 0., 126., 255., 255., 108., 0., 0.,
          0., 0., 0., 0., 36., 255., 255., 165., 0., 0., 0., 0., 29.,
          133., 249., 255., 177., 17., 0., 0., 0., 0., 0., 0., 37., 255.,
          255., 165., 44., 48., 87., 147., 204., 255., 251., 161., 26.,
          0., 0., 0., 0., 0., 0., 0., 26., 231., 255., 250., 247., 247.,
          254., 255., 255., 214., 66., 0., 0., 0., 0., 0., 0., 0., 0.,
          0., 1., 75., 187., 255., 255., 255., 229., 158., 101., 43., 0.,
          0., 0., 0., 0., 0., 0., 0., 0., 0., 0., 0., 12., 36., 36., 37.,
          26., 4., 0., 0., 0., 0., 0., 0., 0., 0., 0., 0., 0., 0., 0.,
          0., 0., 0., 0., 0., 0., 0., 0., 0., 0., 0., 0., 0., 0., 0., 0.,
          0., 0., 0., 0., 0., 0., 0., 0., 0., 0., 0., 0., 0., 0., 0., 0.,
          0., 0., 0., 0., 0. ]
      - [ 0., 0., 0., 0., 0., 0., 0., 0., 0., 0., 0., 0., 0., 0., 0., 0.,
          0., 0., 0., 0., 0., 0., 0., 0., 0., 0., 0., 0., 0., 0., 0., 0.,
          0., 0., 0., 0., 0., 0., 0., 0., 0., 0., 0., 0., 0., 0., 0., 0.,
          0., 0., 0., 0., 0., 5., 35., 37., 23., 1., 0., 0., 0., 0., 0.,
          0., 0., 0., 0., 0., 0., 0., 0., 0., 35., 166., 255., 255.,
          204., 17., 0., 0., 0., 0., 0., 0., 0., 0., 0., 0., 0., 0., 0.,
          92., 218., 255., 254., 255., 194., 15., 0., 0., 0., 0., 0., 0.,
          0., 0., 0., 0., 0., 15., 141., 242., 255., 187., 178., 255.,
          222., 24., 0., 0., 0., 0., 0., 0., 0., 0., 0., 0., 31., 164.,
          255., 255., 190., 17., 104., 253., 255., 37., 0., 0., 0., 0.,
          0., 0., 0., 0., 0., 35., 206., 255., 255., 146., 26., 0., 119.,
          255., 200., 17., 0., 0., 0., 0., 0., 0., 0., 0., 42., 200.,
          255., 244., 136., 6., 0., 19., 199., 255., 127., 0., 0., 0.,
          0., 0., 0., 0., 0., 56., 213., 255., 255., 121., 4., 0., 0.,
          76., 245., 234., 51., 0., 0., 0., 0., 0., 0., 0., 20., 216.,
          255., 254., 137., 6., 0., 0., 27., 211., 255., 164., 0., 0.,
          0., 0., 0., 0., 0., 9., 156., 255., 255., 141., 6., 0., 0., 9.,
          131., 255., 232., 40., 0., 0., 0., 0., 0., 0., 0., 107., 251.,
          255., 147., 5., 0., 0., 12., 152., 255., 245., 90., 0., 0., 0.,
          0., 0., 0., 0., 32., 247., 255., 187., 23., 0., 0., 85., 175.,
          255., 246., 124., 2., 0., 0., 0., 0., 0., 0., 0., 36., 255.,
          251., 100., 14., 54., 142., 245., 255., 237., 91., 2., 0., 0.,
          0., 0., 0., 0., 0., 0., 38., 255., 253., 244., 243., 248.,
          255., 243., 163., 49., 0., 0., 0., 0., 0., 0., 0., 0., 0., 0.,
          9., 152., 252., 255., 255., 251., 183., 84., 18., 0., 0., 0.,
          0., 0., 0., 0., 0., 0., 0., 0., 0., 1., 34., 36., 36., 33.,
          10., 0., 0., 0., 0., 0., 0., 0., 0., 0., 0., 0., 0., 0., 0.,
          0., 0., 0., 0., 0., 0., 0., 0., 0., 0., 0., 0., 0., 0., 0., 0.,
          0., 0., 0., 0., 0., 0., 0., 0., 0., 0., 0., 0., 0., 0., 0., 0.,
          0., 0., 0., 0., 0. ]
      - [ 0., 0., 0., 0., 0., 0., 0., 0., 0., 0., 0., 0., 0., 0., 0., 0.,
          0., 0., 0., 0., 0., 0., 0., 0., 0., 0., 0., 0., 0., 0., 0., 0.,
          0., 0., 0., 0., 0., 0., 0., 0., 0., 0., 0., 0., 0., 0., 0., 0.,
          0., 0., 18., 1., 0., 0., 0., 0., 0., 0., 0., 0., 0., 0., 0.,
          0., 0., 0., 0., 0., 16., 113., 208., 65., 0., 0., 0., 0., 0.,
          0., 0., 0., 0., 0., 0., 0., 0., 0., 0., 0., 92., 251., 255.,
          204., 85., 0., 0., 0., 0., 0., 0., 0., 0., 0., 0., 0., 0., 0.,
          0., 0., 152., 255., 255., 255., 244., 99., 0., 0., 0., 0., 0.,
          0., 0., 0., 0., 0., 0., 0., 0., 54., 239., 253., 177., 207.,
          255., 242., 90., 0., 0., 0., 0., 0., 0., 0., 0., 0., 0., 0.,
          0., 94., 255., 249., 38., 81., 244., 255., 147., 0., 0., 0.,
          0., 0., 0., 0., 0., 0., 0., 0., 3., 174., 255., 216., 18., 0.,
          216., 255., 144., 0., 0., 0., 0., 0., 0., 0., 0., 0., 0., 0.,
          70., 239., 255., 102., 0., 0., 217., 255., 144., 0., 0., 0.,
          0., 0., 0., 0., 0., 0., 0., 0., 144., 255., 210., 30., 0., 0.,
          215., 255., 143., 0., 0., 0., 0., 0., 0., 0., 0., 0., 0., 0.,
          145., 255., 194., 21., 0., 12., 223., 255., 146., 0., 0., 0.,
          0., 0., 0., 0., 0., 0., 0., 0., 144., 255., 193., 16., 0.,
          142., 255., 245., 75., 0., 0., 0., 0., 0., 0., 0., 0., 0., 0.,
          0., 146., 255., 208., 50., 95., 236., 255., 172., 11., 0., 0.,
          0., 0., 0., 0., 0., 0., 0., 0., 0., 117., 255., 249., 218.,
          238., 255., 244., 78., 0., 0., 0., 0., 0., 0., 0., 0., 0., 0.,
          0., 0., 29., 196., 255., 255., 255., 243., 96., 0., 0., 0., 0.,
          0., 0., 0., 0., 0., 0., 0., 0., 0., 0., 35., 153., 251., 186.,
          96., 0., 0., 0., 0., 0., 0., 0., 0., 0., 0., 0., 0., 0., 0.,
          0., 0., 5., 33., 12., 0., 0., 0., 0., 0., 0., 0., 0., 0., 0.,
          0., 0., 0., 0., 0., 0., 0., 0., 0., 0., 0., 0., 0., 0., 0., 0.,
          0., 0., 0., 0., 0., 0., 0., 0., 0., 0., 0., 0., 0., 0., 0., 0.,
          0., 0., 0., 0., 0., 0., 0. ]
      - [ 0., 0., 0., 0., 0., 0., 0., 0., 0., 0., 0., 0., 0., 0., 0., 0.,
          0., 0., 0., 0., 0., 0., 0., 0., 0., 0., 0., 0., 0., 0., 0., 0.,
          0., 0., 0., 0., 0., 0., 0., 0., 0., 0., 0., 0., 0., 0., 0., 0.,
          0., 0., 0., 0., 0., 20., 32., 11., 10., 1., 0., 0., 0., 0., 0.,
          0., 0., 0., 0., 0., 0., 0., 0., 16., 127., 212., 237., 172.,
          181., 25., 0., 0., 0., 0., 0., 0., 0., 0., 0., 0., 0., 0., 63.,
          181., 255., 255., 212., 213., 255., 37., 0., 0., 0., 0., 0.,
          0., 0., 0., 0., 0., 0., 96., 241., 255., 255., 187., 96., 234.,
          245., 31., 0., 0., 0., 0., 0., 0., 0., 0., 0., 2., 121., 237.,
          255., 255., 141., 28., 46., 250., 238., 29., 0., 0., 0., 0.,
          0., 0., 0., 0., 0., 97., 255., 255., 223., 77., 0., 0., 56.,
          247., 255., 37., 0., 0., 0., 0., 0., 0., 0., 17., 143., 253.,
          255., 213., 63., 0., 0., 0., 116., 255., 249., 33., 0., 0., 0.,
          0., 0., 0., 0., 121., 255., 255., 210., 55., 0., 0., 0., 0.,
          148., 255., 190., 13., 0., 0., 0., 0., 0., 0., 119., 246.,
          255., 214., 33., 0., 0., 0., 0., 43., 215., 255., 103., 0., 0.,
          0., 0., 0., 0., 37., 208., 255., 229., 69., 0., 0., 0., 0., 0.,
          119., 255., 222., 40., 0., 0., 0., 0., 0., 7., 169., 255.,
          255., 160., 0., 0., 0., 0., 12., 125., 244., 255., 114., 0.,
          0., 0., 0., 0., 0., 28., 234., 255., 199., 31., 0., 0., 0.,
          23., 96., 254., 255., 177., 16., 0., 0., 0., 0., 0., 0., 36.,
          255., 255., 165., 42., 56., 116., 155., 171., 162., 231., 161.,
          26., 0., 0., 0., 0., 0., 0., 0., 16., 201., 255., 254., 247.,
          248., 255., 255., 227., 178., 44., 0., 0., 0., 0., 0., 0., 0.,
          0., 0., 3., 64., 147., 213., 255., 255., 193., 107., 46., 6.,
          0., 0., 0., 0., 0., 0., 0., 0., 0., 0., 0., 0., 0., 21., 37.,
          35., 15., 0., 0., 0., 0., 0., 0., 0., 0., 0., 0., 0., 0., 0.,
          0., 0., 0., 0., 0., 0., 0., 0., 0., 0., 0., 0., 0., 0., 0., 0.,
          0., 0., 0., 0., 0., 0., 0., 0., 0., 0., 0., 0., 0., 0., 0., 0.,
          0., 0., 0., 0., 0., 0. ]
      - [ 0., 0., 0., 0., 0., 0., 0., 0., 0., 0., 0., 0., 0., 0., 0., 0.,
          0., 0., 0., 0., 0., 0., 0., 0., 0., 0., 0., 0., 0., 0., 0., 0.,
          0., 0., 0., 0., 0., 0., 0., 0., 0., 0., 0., 0., 0., 0., 0., 0.,
          0., 0., 0., 0., 19., 143., 221., 52., 0., 0., 0., 0., 0., 0.,
          0., 0., 0., 0., 0., 0., 0., 0., 0., 69., 215., 255., 255., 97.,
          0., 0., 0., 0., 0., 0., 0., 0., 0., 0., 0., 0., 0., 0., 75.,
          227., 255., 255., 255., 130., 0., 0., 0., 0., 0., 0., 0., 0.,
          0., 0., 0., 0., 3., 97., 250., 255., 179., 127., 245., 211.,
          24., 0., 0., 0., 0., 0., 0., 0., 0., 0., 0., 0., 127., 255.,
          255., 180., 5., 6., 204., 246., 66., 0., 0., 0., 0., 0., 0.,
          0., 0., 0., 2., 127., 255., 255., 190., 22., 0., 0., 180.,
          255., 106., 0., 0., 0., 0., 0., 0., 0., 0., 0., 100., 255.,
          255., 235., 29., 0., 0., 0., 190., 255., 112., 0., 0., 0., 0.,
          0., 0., 0., 0., 29., 216., 255., 241., 86., 0., 0., 0., 90.,
          238., 244., 65., 0., 0., 0., 0., 0., 0., 0., 6., 151., 255.,
          252., 80., 0., 0., 0., 23., 207., 255., 178., 10., 0., 0., 0.,
          0., 0., 0., 0., 103., 255., 255., 140., 0., 0., 0., 11., 170.,
          255., 253., 42., 0., 0., 0., 0., 0., 0., 0., 68., 238., 255.,
          189., 8., 0., 0., 71., 211., 255., 254., 87., 0., 0., 0., 0.,
          0., 0., 0., 0., 126., 255., 239., 55., 5., 72., 170., 255.,
          255., 205., 74., 1., 0., 0., 0., 0., 0., 0., 0., 7., 176.,
          255., 237., 183., 202., 250., 255., 237., 152., 31., 0., 0.,
          0., 0., 0., 0., 0., 0., 0., 0., 90., 246., 255., 255., 255.,
          234., 150., 11., 0., 0., 0., 0., 0., 0., 0., 0., 0., 0., 0.,
          0., 4., 64., 109., 109., 107., 53., 0., 0., 0., 0., 0., 0., 0.,
          0., 0., 0., 0., 0., 0., 0., 0., 0., 0., 0., 0., 0., 0., 0., 0.,
          0., 0., 0., 0., 0., 0., 0., 0., 0., 0., 0., 0., 0., 0., 0., 0.,
          0., 0., 0., 0., 0., 0., 0., 0., 0., 0., 0., 0., 0., 0., 0., 0.,
          0., 0., 0., 0., 0., 0., 0., 0., 0., 0., 0., 0., 0., 0., 0., 0. ]
      - [ 0., 0., 0., 0., 0., 0., 0., 0., 0., 0., 0., 0., 0., 0., 0., 0.,
          0., 0., 0., 0., 0., 0., 0., 0., 0., 0., 0., 0., 0., 0., 0., 0.,
          0., 0., 0., 0., 0., 0., 0., 0., 0., 0., 0., 0., 0., 0., 0., 0.,
          0., 0., 0., 0., 0., 9., 35., 28., 1., 0., 0., 0., 0., 0., 0.,
          0., 0., 0., 0., 0., 0., 0., 0., 4., 77., 180., 255., 220., 33.,
          0., 0., 0., 0., 0., 0., 0., 0., 0., 0., 0., 0., 0., 35., 182.,
          247., 255., 255., 219., 29., 0., 0., 0., 0., 0., 0., 0., 0.,
          0., 0., 0., 0., 47., 186., 255., 255., 255., 247., 148., 12.,
          0., 0., 0., 0., 0., 0., 0., 0., 0., 0., 0., 58., 225., 255.,
          255., 232., 255., 174., 0., 0., 0., 0., 0., 0., 0., 0., 0., 0.,
          0., 0., 81., 218., 255., 255., 173., 131., 255., 186., 3., 0.,
          0., 0., 0., 0., 0., 0., 0., 0., 0., 77., 251., 255., 255.,
          154., 16., 30., 255., 157., 0., 0., 0., 0., 0., 0., 0., 0., 0.,
          0., 29., 218., 255., 255., 150., 2., 0., 19., 212., 166., 0.,
          0., 0., 0., 0., 0., 0., 0., 0., 6., 151., 255., 255., 187.,
          16., 0., 0., 7., 179., 248., 9., 0., 0., 0., 0., 0., 0., 0.,
          0., 104., 255., 255., 184., 38., 0., 0., 0., 48., 229., 250.,
          10., 0., 0., 0., 0., 0., 0., 0., 19., 202., 255., 247., 71.,
          0., 0., 0., 0., 140., 255., 200., 4., 0., 0., 0., 0., 0., 0.,
          0., 49., 228., 255., 114., 0., 0., 0., 59., 154., 255., 231.,
          66., 0., 0., 0., 0., 0., 0., 0., 0., 69., 242., 249., 80., 39.,
          135., 188., 239., 255., 244., 112., 6., 0., 0., 0., 0., 0., 0.,
          0., 0., 54., 237., 255., 247., 248., 255., 255., 250., 178.,
          54., 0., 0., 0., 0., 0., 0., 0., 0., 0., 0., 18., 125., 233.,
          255., 255., 246., 190., 76., 13., 0., 0., 0., 0., 0., 0., 0.,
          0., 0., 0., 0., 0., 0., 26., 37., 37., 31., 13., 0., 0., 0.,
          0., 0., 0., 0., 0., 0., 0., 0., 0., 0., 0., 0., 0., 0., 0., 0.,
          0., 0., 0., 0., 0., 0., 0., 0., 0., 0., 0., 0., 0., 0., 0., 0.,
          0., 0., 0., 0., 0., 0., 0., 0., 0., 0., 0., 0., 0., 0., 0. ]
      - [ 0., 0., 0., 0., 0., 0., 0., 0., 0., 0., 0., 0., 0., 0., 0., 0.,
          0., 0., 0., 0., 0., 0., 0., 0., 0., 0., 0., 0., 0., 0., 0., 0.,
          0., 0., 0., 0., 0., 0., 0., 0., 0., 0., 0., 0., 0., 0., 0., 0.,
          0., 0., 0., 0., 0., 16., 36., 37., 21., 0., 0., 0., 0., 0., 0.,
          0., 0., 0., 0., 0., 0., 0., 0., 39., 104., 197., 255., 255.,
          216., 22., 0., 0., 0., 0., 0., 0., 0., 0., 0., 0., 0., 0., 99.,
          217., 255., 255., 253., 253., 255., 36., 0., 0., 0., 0., 0.,
          0., 0., 0., 0., 0., 40., 159., 253., 255., 249., 219., 251.,
          255., 122., 0., 0., 0., 0., 0., 0., 0., 0., 0., 0., 67., 200.,
          255., 255., 228., 111., 96., 250., 235., 57., 0., 0., 0., 0.,
          0., 0., 0., 0., 0., 51., 212., 255., 255., 212., 47., 2., 158.,
          255., 176., 6., 0., 0., 0., 0., 0., 0., 0., 0., 68., 215.,
          255., 255., 187., 64., 0., 23., 230., 255., 89., 0., 0., 0.,
          0., 0., 0., 0., 0., 6., 205., 255., 255., 157., 11., 0., 0.,
          49., 240., 253., 71., 0., 0., 0., 0., 0., 0., 0., 0., 138.,
          255., 255., 138., 0., 0., 0., 0., 123., 255., 225., 32., 0.,
          0., 0., 0., 0., 0., 0., 86., 244., 255., 213., 48., 0., 0., 0.,
          34., 227., 253., 108., 0., 0., 0., 0., 0., 0., 0., 28., 235.,
          255., 240., 79., 0., 0., 0., 0., 118., 255., 235., 43., 0., 0.,
          0., 0., 0., 0., 0., 37., 255., 255., 159., 1., 0., 0., 0., 99.,
          228., 255., 118., 4., 0., 0., 0., 0., 0., 0., 0., 36., 255.,
          255., 168., 35., 43., 108., 160., 251., 255., 178., 9., 0., 0.,
          0., 0., 0., 0., 0., 0., 10., 168., 255., 255., 253., 253.,
          255., 255., 242., 172., 25., 0., 0., 0., 0., 0., 0., 0., 0.,
          0., 0., 20., 96., 170., 181., 180., 182., 148., 66., 13., 0.,
          0., 0., 0., 0., 0., 0., 0., 0., 0., 0., 0., 0., 7., 10., 10.,
          11., 1., 0., 0., 0., 0., 0., 0., 0., 0., 0., 0., 0., 0., 0.,
          0., 0., 0., 0., 0., 0., 0., 0., 0., 0., 0., 0., 0., 0., 0., 0.,
          0., 0., 0., 0., 0., 0., 0., 0., 0., 0., 0., 0., 0., 0., 0., 0.,
          0., 0., 0., 0., 0. ]
      - [ 0., 0., 0., 0., 0., 0., 0., 0., 0., 0., 0., 0., 0., 0., 0., 0.,
          0., 0., 0., 0., 0., 0., 0., 0., 0., 0., 0., 0., 0., 0., 0., 0.,
          0., 0., 0., 0., 0., 0., 0., 0., 0., 0., 0., 0., 0., 0., 0., 0.,
          0., 0., 0., 8., 31., 3., 0., 0., 0., 0., 0., 0., 0., 0., 0.,
          0., 0., 0., 0., 0., 0., 0., 0., 130., 230., 77., 116., 35., 0.,
          0., 0., 0., 0., 0., 0., 0., 0., 0., 0., 0., 0., 0., 74., 244.,
          195., 160., 255., 119., 0., 0., 0., 0., 0., 0., 0., 0., 0., 0.,
          0., 0., 0., 14., 218., 255., 64., 72., 244., 159., 0., 0., 0.,
          0., 0., 0., 0., 0., 0., 0., 0., 0., 0., 133., 255., 146., 0.,
          16., 211., 211., 16., 0., 0., 0., 0., 0., 0., 0., 0., 0., 0.,
          0., 83., 250., 188., 9., 0., 15., 206., 219., 31., 0., 0., 0.,
          0., 0., 0., 0., 0., 0., 0., 45., 227., 241., 72., 0., 0., 26.,
          216., 202., 6., 0., 0., 0., 0., 0., 0., 0., 0., 0., 4., 182.,
          251., 105., 0., 0., 0., 54., 238., 176., 0., 0., 0., 0., 0.,
          0., 0., 0., 0., 0., 119., 255., 153., 0., 0., 0., 0., 102.,
          252., 118., 0., 0., 0., 0., 0., 0., 0., 0., 0., 52., 236.,
          220., 34., 0., 0., 0., 23., 222., 218., 28., 0., 0., 0., 0.,
          0., 0., 0., 0., 4., 170., 255., 73., 0., 0., 0., 10., 185.,
          255., 132., 0., 0., 0., 0., 0., 0., 0., 0., 0., 71., 255.,
          164., 0., 0., 0., 19., 163., 255., 150., 8., 0., 0., 0., 0.,
          0., 0., 0., 0., 0., 168., 237., 52., 0., 0., 60., 202., 255.,
          176., 13., 0., 0., 0., 0., 0., 0., 0., 0., 0., 43., 229., 159.,
          7., 58., 153., 255., 246., 149., 15., 0., 0., 0., 0., 0., 0.,
          0., 0., 0., 0., 45., 228., 225., 190., 253., 254., 174., 65.,
          2., 0., 0., 0., 0., 0., 0., 0., 0., 0., 0., 0., 6., 31., 41.,
          44., 38., 33., 8., 0., 0., 0., 0., 0., 0., 0., 0., 0., 0., 0.,
          0., 0., 0., 0., 0., 0., 0., 0., 0., 0., 0., 0., 0., 0., 0., 0.,
          0., 0., 0., 0., 0., 0., 0., 0., 0., 0., 0., 0., 0., 0., 0., 0.,
          0., 0., 0., 0., 0., 0., 0. ]
      - [ 0., 0., 0., 0., 0., 0., 0., 0., 0., 0., 0., 0., 0., 0., 0., 0.,
          0., 0., 0., 0., 0., 0., 0., 0., 0., 0., 0., 0., 0., 0., 0., 0.,
          0., 0., 0., 0., 0., 0., 0., 0., 0., 0., 0., 0., 0., 0., 0., 8.,
          34., 29., 1., 0., 0., 0., 0., 0., 0., 0., 0., 0., 0., 0., 0.,
          0., 0., 1., 93., 176., 254., 237., 47., 0., 0., 0., 0., 0., 0.,
          0., 0., 0., 0., 0., 0., 0., 0., 40., 217., 255., 253., 255.,
          184., 44., 0., 0., 0., 0., 0., 0., 0., 0., 0., 0., 0., 0., 26.,
          193., 255., 253., 254., 255., 255., 191., 88., 36., 5., 0., 0.,
          0., 0., 0., 0., 0., 0., 0., 72., 253., 254., 255., 242., 227.,
          249., 255., 255., 216., 139., 6., 0., 0., 0., 0., 0., 0., 0.,
          0., 86., 251., 255., 187., 65., 23., 86., 158., 223., 255.,
          255., 144., 9., 0., 0., 0., 0., 0., 0., 0., 180., 255., 246.,
          69., 0., 0., 0., 0., 13., 147., 255., 255., 127., 0., 0., 0.,
          0., 0., 0., 0., 185., 255., 237., 22., 0., 0., 0., 0., 0., 10.,
          144., 255., 236., 32., 0., 0., 0., 0., 0., 0., 174., 255.,
          244., 59., 0., 0., 0., 0., 0., 0., 9., 182., 255., 83., 0., 0.,
          0., 0., 0., 0., 100., 254., 255., 129., 0., 0., 0., 0., 0., 0.,
          0., 154., 255., 167., 0., 0., 0., 0., 0., 0., 61., 245., 255.,
