%YAML:1.0
opencv_ml_svm:
   format: 3
   svmType: C_SVC
   kernel:
      type: POLY
      degree: 6.
      gamma: 5.3830000000000000e+000
      coef0: 0.
   C: 2.6699999999999999e+000
   term_criteria: { iterations:10000000 }
   var_count: 400
   class_count: 10
   class_labels: !!opencv-matrix
      rows: 10
      cols: 1
      dt: i
      data: [ 0, 1, 2, 3, 4, 5, 6, 7, 8, 9 ]
   sv_total: 10
   support_vectors:
      - [ 0., 0., 0., 0., 0., 0., 0., 0., 0., 0., 0., 0., 0., 0., 0., 0.,
          0., 0., 0., 0., 0., 0., 0., 0., 0., 0., 0., 0., 0., 0., 0., 0.,
          0., 0., 0., 0., 0., 0., 0., 0., 0., 0., 0., 0., 0., 0., 0., 0.,
          0., 0., 0., 0., 2., 12., 12., 3., 0., 0., 0., 0., 0., 0., 0.,
          0., 0., 0., 0., 0., 0., 0., 12., 69., 155., 186., 189., 161.,
          51., 0., 0., 0., 0., 0., 0., 0., 0., 0., 0., 0., 14., 92.,
          196., 245., 255., 228., 191., 255., 176., 6., 0., 0., 0., 0.,
          0., 0., 0., 0., 0., 25., 219., 255., 255., 176., 53., 14., 0.,
          97., 255., 38., 0., 0., 0., 0., 0., 0., 0., 0., 19., 152.,
          253., 215., 109., 13., 0., 0., 0., 22., 198., 129., 0., 0., 0.,
          0., 0., 0., 0., 35., 184., 255., 191., 42., 0., 0., 0., 0., 0.,
          21., 200., 210., 0., 0., 0., 0., 0., 0., 25., 175., 255., 197.,
          20., 0., 0., 0., 0., 0., 0., 64., 250., 127., 0., 0., 0., 0.,
          0., 0., 138., 255., 212., 48., 0., 0., 0., 0., 0., 0., 0.,
          105., 250., 45., 0., 0., 0., 0., 0., 46., 227., 248., 84., 0.,
          0., 0., 0., 0., 0., 0., 29., 213., 184., 7., 0., 0., 0., 0.,
          0., 104., 255., 184., 0., 0., 0., 0., 0., 0., 0., 28., 183.,
          249., 97., 0., 0., 0., 0., 0., 0., 110., 255., 112., 0., 0.,
          0., 0., 0., 0., 27., 185., 255., 147., 0., 0., 0., 0., 0., 0.,
          0., 110., 255., 124., 0., 0., 0., 0., 0., 44., 188., 255.,
          184., 13., 0., 0., 0., 0., 0., 0., 0., 102., 255., 204., 42.,
          20., 23., 24., 99., 207., 250., 117., 24., 0., 0., 0., 0., 0.,
          0., 0., 0., 12., 157., 255., 254., 250., 251., 252., 254.,
          225., 99., 0., 0., 0., 0., 0., 0., 0., 0., 0., 0., 0., 10.,
          120., 184., 182., 182., 182., 109., 41., 0., 0., 0., 0., 0.,
          0., 0., 0., 0., 0., 0., 0., 0., 0., 11., 11., 11., 10., 0., 0.,
          0., 0., 0., 0., 0., 0., 0., 0., 0., 0., 0., 0., 0., 0., 0., 0.,
          0., 0., 0., 0., 0., 0., 0., 0., 0., 0., 0., 0., 0., 0., 0., 0.,
          0., 0., 0., 0., 0., 0., 0., 0., 0., 0., 0., 0., 0., 0., 0., 0. ]
      - [ 0., 0., 0., 0., 0., 0., 0., 0., 0., 0., 0., 0., 0., 0., 0., 0.,
          0., 0., 0., 0., 0., 0., 0., 0., 0., 0., 0., 0., 0., 0., 0., 0.,
          0., 0., 0., 0., 0., 0., 0., 0., 0., 0., 0., 0., 0., 0., 0., 0.,
          0., 0., 0., 0., 0., 0., 0., 0., 0., 0., 0., 0., 0., 0., 0., 0.,
          0., 0., 0., 0., 0., 0., 0., 5., 43., 110., 106., 28., 0., 0.,
          0., 0., 0., 0., 0., 0., 0., 0., 0., 0., 0., 0., 0., 65., 213.,
          255., 165., 17., 0., 0., 0., 0., 0., 0., 0., 0., 0., 0., 0.,
          0., 0., 0., 9., 175., 255., 230., 45., 0., 0., 0., 0., 0., 0.,
          0., 0., 0., 0., 0., 0., 0., 0., 0., 106., 242., 255., 176., 8.,
          0., 0., 0., 0., 0., 0., 0., 0., 0., 0., 0., 0., 0., 0., 106.,
          249., 255., 254., 140., 3., 0., 0., 0., 0., 0., 0., 0., 0., 0.,
          0., 0., 0., 0., 0., 83., 235., 255., 249., 112., 0., 0., 0.,
          0., 0., 0., 0., 0., 0., 0., 0., 0., 0., 0., 0., 99., 239.,
          255., 235., 74., 0., 0., 0., 0., 0., 0., 0., 0., 0., 0., 0.,
          0., 0., 1., 102., 241., 255., 236., 139., 0., 0., 0., 0., 0.,
          0., 0., 0., 0., 0., 0., 0., 0., 0., 65., 244., 255., 255.,
          139., 0., 0., 0., 0., 0., 0., 0., 0., 0., 0., 0., 0., 0., 0.,
          0., 186., 255., 255., 167., 14., 0., 0., 0., 0., 0., 0., 0.,
          0., 0., 0., 0., 0., 0., 0., 24., 229., 255., 225., 37., 0., 0.,
          0., 0., 0., 0., 0., 0., 0., 0., 0., 0., 0., 0., 0., 118., 255.,
          239., 131., 3., 0., 0., 0., 0., 0., 0., 0., 0., 0., 0., 0., 0.,
          0., 0., 39., 210., 255., 139., 0., 0., 0., 0., 0., 0., 0., 0.,
          0., 0., 0., 0., 0., 0., 0., 0., 95., 255., 190., 45., 0., 0.,
          0., 0., 0., 0., 0., 0., 0., 0., 0., 0., 0., 0., 0., 0., 82.,
          228., 42., 0., 0., 0., 0., 0., 0., 0., 0., 0., 0., 0., 0., 0.,
          0., 0., 0., 0., 0., 0., 0., 0., 0., 0., 0., 0., 0., 0., 0., 0.,
          0., 0., 0., 0., 0., 0., 0., 0., 0., 0., 0., 0., 0., 0., 0., 0.,
          0., 0., 0., 0., 0., 0., 0. ]
      - [ 0., 0., 0., 0., 0., 0., 0., 0., 0., 0., 0., 0., 0., 0., 0., 0.,
          0., 0., 0., 0., 0., 0., 0., 0., 0., 0., 0., 0., 0., 0., 0., 0.,
          0., 0., 0., 0., 0., 0., 0., 0., 0., 0., 0., 0., 0., 0., 0.,
          73., 119., 186., 175., 60., 6., 0., 0., 0., 0., 0., 0., 0., 0.,
          0., 0., 0., 0., 0., 0., 114., 255., 255., 255., 255., 148., 0.,
          0., 0., 0., 0., 0., 0., 0., 0., 0., 0., 0., 0., 0., 25., 183.,
          208., 207., 238., 253., 115., 1., 0., 0., 0., 0., 0., 0., 0.,
          0., 0., 0., 0., 0., 0., 2., 5., 6., 47., 207., 222., 35., 0.,
          0., 0., 0., 0., 0., 0., 0., 0., 0., 0., 0., 0., 0., 0., 0., 0.,
          164., 224., 37., 0., 0., 0., 0., 0., 0., 0., 0., 0., 0., 0.,
          0., 0., 0., 0., 0., 49., 242., 192., 15., 0., 0., 0., 0., 0.,
          0., 0., 0., 0., 0., 0., 0., 0., 0., 0., 58., 198., 236., 74.,
          0., 0., 0., 0., 0., 0., 0., 0., 0., 0., 0., 0., 0., 0., 4.,
          65., 223., 248., 84., 0., 0., 0., 0., 0., 0., 0., 0., 0., 0.,
          0., 0., 0., 0., 0., 96., 254., 241., 109., 0., 0., 0., 0., 0.,
          0., 0., 0., 0., 0., 0., 0., 0., 0., 43., 77., 199., 249., 109.,
          0., 0., 0., 0., 0., 0., 0., 0., 0., 0., 0., 0., 0., 31., 157.,
          235., 248., 198., 66., 0., 0., 0., 0., 0., 0., 0., 0., 0., 0.,
          0., 0., 0., 0., 79., 255., 255., 203., 40., 0., 10., 39., 47.,
          43., 89., 132., 44., 0., 0., 0., 0., 0., 0., 0., 66., 248.,
          255., 231., 187., 144., 189., 222., 230., 229., 255., 255.,
          138., 0., 0., 0., 0., 0., 0., 0., 1., 121., 221., 233., 255.,
          255., 255., 243., 196., 173., 169., 93., 30., 0., 0., 0., 0.,
          0., 0., 0., 0., 3., 38., 56., 109., 109., 107., 66., 11., 0.,
          0., 0., 0., 0., 0., 0., 0., 0., 0., 0., 0., 0., 0., 0., 0., 0.,
          0., 0., 0., 0., 0., 0., 0., 0., 0., 0., 0., 0., 0., 0., 0., 0.,
          0., 0., 0., 0., 0., 0., 0., 0., 0., 0., 0., 0., 0., 0., 0., 0.,
          0., 0., 0., 0., 0., 0., 0., 0., 0., 0., 0., 0., 0., 0., 0., 0.,
          0., 0. ]
      - [ 0., 0., 0., 0., 0., 0., 0., 0., 0., 0., 0., 0., 0., 0., 0., 0.,
          0., 0., 0., 0., 0., 0., 0., 0., 0., 0., 0., 0., 0., 0., 0., 0.,
          0., 0., 0., 0., 0., 0., 0., 0., 0., 0., 0., 0., 0., 0., 0., 0.,
          0., 0., 0., 0., 0., 0., 0., 0., 0., 0., 0., 0., 0., 0., 0., 0.,
          0., 0., 31., 63., 104., 110., 109., 109., 112., 68., 1., 0.,
          0., 0., 0., 0., 0., 0., 0., 0., 0., 73., 209., 237., 255.,
          255., 255., 255., 255., 244., 89., 0., 0., 0., 0., 0., 0., 0.,
          0., 0., 4., 148., 155., 128., 63., 56., 56., 52., 113., 255.,
          122., 0., 0., 0., 0., 0., 0., 0., 0., 0., 0., 2., 0., 0., 0.,
          0., 0., 0., 113., 255., 102., 0., 0., 0., 0., 0., 0., 0., 0.,
          0., 0., 0., 0., 0., 0., 0., 27., 108., 248., 165., 10., 0., 0.,
          0., 0., 0., 0., 0., 0., 0., 0., 0., 0., 9., 108., 144., 223.,
          255., 198., 36., 0., 0., 0., 0., 0., 0., 0., 0., 0., 0., 0.,
          0., 0., 19., 213., 255., 255., 255., 96., 0., 0., 0., 0., 0.,
          0., 0., 0., 0., 0., 0., 0., 0., 0., 0., 48., 103., 135., 230.,
          242., 102., 0., 0., 0., 0., 0., 0., 0., 0., 0., 0., 0., 0., 0.,
          0., 0., 0., 0., 49., 181., 226., 56., 0., 0., 0., 0., 0., 0.,
          0., 0., 3., 2., 0., 0., 0., 0., 0., 0., 0., 47., 242., 146.,
          0., 0., 0., 0., 0., 0., 0., 0., 90., 135., 13., 0., 0., 0., 0.,
          0., 0., 32., 218., 204., 5., 0., 0., 0., 0., 0., 0., 0., 135.,
          255., 179., 42., 0., 0., 0., 0., 0., 143., 255., 139., 0., 0.,
          0., 0., 0., 0., 0., 0., 27., 185., 255., 220., 92., 44., 46.,
          66., 138., 247., 217., 49., 0., 0., 0., 0., 0., 0., 0., 0., 0.,
          40., 151., 243., 255., 235., 236., 248., 255., 204., 53., 0.,
          0., 0., 0., 0., 0., 0., 0., 0., 0., 0., 1., 36., 140., 191.,
          137., 120., 60., 20., 0., 0., 0., 0., 0., 0., 0., 0., 0., 0.,
          0., 0., 0., 0., 0., 0., 0., 0., 0., 0., 0., 0., 0., 0., 0., 0.,
          0., 0., 0., 0., 0., 0., 0., 0., 0., 0., 0., 0., 0., 0., 0., 0.,
          0., 0., 0., 0., 0. ]
      - [ 0., 0., 0., 0., 0., 0., 0., 0., 0., 0., 0., 0., 0., 0., 0., 0.,
          0., 0., 0., 0., 0., 0., 0., 0., 0., 0., 0., 0., 0., 0., 0., 0.,
          0., 0., 0., 0., 0., 0., 0., 0., 0., 0., 0., 0., 0., 0., 0., 0.,
          0., 0., 0., 0., 0., 9., 25., 0., 0., 0., 0., 0., 0., 0., 0.,
          0., 0., 0., 0., 0., 0., 0., 0., 0., 0., 116., 193., 5., 0., 0.,
          0., 0., 0., 0., 0., 0., 0., 0., 2., 123., 103., 0., 0., 0.,
          21., 211., 146., 0., 0., 0., 0., 0., 0., 0., 0., 0., 0., 0.,
          113., 255., 136., 0., 0., 0., 91., 214., 31., 0., 0., 0., 0.,
          0., 0., 0., 0., 0., 0., 0., 145., 234., 51., 0., 0., 0., 169.,
          177., 5., 0., 0., 0., 0., 0., 0., 0., 0., 0., 0., 36., 216.,
          132., 0., 0., 0., 41., 235., 155., 0., 0., 0., 0., 0., 0., 0.,
          0., 0., 0., 0., 133., 227., 32., 0., 0., 0., 101., 245., 83.,
          0., 0., 0., 0., 0., 0., 0., 0., 0., 0., 58., 236., 126., 0.,
          0., 0., 9., 173., 205., 4., 0., 0., 0., 0., 0., 0., 0., 0., 0.,
          0., 109., 255., 115., 0., 0., 0., 60., 253., 165., 0., 35., 6.,
          0., 0., 0., 0., 0., 0., 0., 0., 27., 204., 247., 168., 93.,
          57., 115., 255., 162., 148., 191., 19., 0., 0., 0., 0., 0., 0.,
          0., 0., 0., 27., 129., 229., 249., 239., 244., 254., 248.,
          225., 114., 0., 0., 0., 0., 0., 0., 0., 0., 0., 0., 0., 0.,
          34., 106., 115., 227., 206., 109., 34., 0., 0., 0., 0., 0., 0.,
          0., 0., 0., 0., 0., 0., 0., 0., 0., 0., 193., 166., 0., 0., 0.,
          0., 0., 0., 0., 0., 0., 0., 0., 0., 0., 0., 0., 0., 0., 10.,
          248., 130., 0., 0., 0., 0., 0., 0., 0., 0., 0., 0., 0., 0., 0.,
          0., 0., 0., 0., 11., 254., 98., 0., 0., 0., 0., 0., 0., 0., 0.,
          0., 0., 0., 0., 0., 0., 0., 0., 0., 1., 35., 14., 0., 0., 0.,
          0., 0., 0., 0., 0., 0., 0., 0., 0., 0., 0., 0., 0., 0., 0., 0.,
          0., 0., 0., 0., 0., 0., 0., 0., 0., 0., 0., 0., 0., 0., 0., 0.,
          0., 0., 0., 0., 0., 0., 0., 0., 0., 0., 0., 0., 0. ]
      - [ 0., 0., 0., 0., 0., 0., 0., 0., 0., 0., 0., 0., 0., 0., 0., 0.,
          0., 0., 0., 0., 0., 0., 0., 0., 0., 0., 0., 0., 0., 0., 0., 0.,
          0., 0., 0., 0., 0., 0., 0., 0., 0., 0., 0., 0., 0., 0., 0., 0.,
          0., 0., 10., 29., 37., 32., 6., 0., 0., 0., 0., 0., 0., 0., 0.,
          0., 0., 0., 0., 0., 48., 131., 180., 235., 255., 251., 71., 0.,
          0., 0., 0., 0., 0., 0., 0., 0., 0., 0., 0., 13., 191., 255.,
          255., 254., 255., 255., 109., 0., 0., 0., 0., 0., 0., 0., 0.,
          0., 0., 0., 0., 20., 225., 255., 255., 255., 223., 225., 100.,
          0., 0., 0., 0., 0., 0., 0., 0., 0., 0., 0., 0., 89., 244.,
          254., 167., 94., 48., 42., 13., 0., 0., 0., 0., 0., 0., 0., 0.,
          0., 0., 0., 1., 198., 255., 245., 46., 0., 0., 0., 0., 0., 0.,
          0., 0., 0., 0., 0., 0., 0., 0., 0., 55., 234., 255., 251.,
          220., 156., 57., 0., 0., 0., 0., 0., 0., 0., 0., 0., 0., 0.,
          0., 0., 59., 243., 255., 255., 255., 255., 233., 81., 0., 0.,
          0., 0., 0., 0., 0., 0., 0., 0., 0., 0., 0., 150., 195., 190.,
          200., 208., 236., 242., 64., 0., 0., 0., 0., 0., 0., 0., 0.,
          0., 0., 0., 0., 0., 1., 0., 12., 23., 151., 255., 90., 0., 0.,
          0., 0., 0., 0., 0., 0., 0., 0., 0., 8., 0., 0., 0., 0., 47.,
          220., 255., 89., 0., 0., 0., 0., 0., 0., 0., 0., 0., 18., 137.,
          175., 115., 87., 70., 125., 220., 255., 255., 90., 0., 0., 0.,
          0., 0., 0., 0., 0., 0., 52., 255., 255., 255., 251., 241.,
          255., 255., 255., 246., 73., 0., 0., 0., 0., 0., 0., 0., 0.,
          0., 39., 220., 255., 255., 255., 254., 255., 253., 168., 61.,
          4., 0., 0., 0., 0., 0., 0., 0., 0., 0., 3., 50., 95., 156.,
          222., 255., 205., 106., 9., 0., 0., 0., 0., 0., 0., 0., 0., 0.,
          0., 0., 0., 0., 0., 4., 24., 37., 19., 0., 0., 0., 0., 0., 0.,
          0., 0., 0., 0., 0., 0., 0., 0., 0., 0., 0., 0., 0., 0., 0., 0.,
          0., 0., 0., 0., 0., 0., 0., 0., 0., 0., 0., 0., 0., 0., 0., 0.,
          0., 0., 0., 0., 0., 0., 0., 0., 0., 0., 0. ]
      - [ 0., 0., 0., 0., 0., 0., 0., 0., 0., 0., 0., 0., 23., 49., 1.,
          0., 0., 0., 0., 0., 0., 0., 0., 0., 0., 0., 0., 0., 0., 0., 0.,
          7., 175., 192., 9., 0., 0., 0., 0., 0., 0., 0., 0., 0., 0., 0.,
          0., 0., 0., 0., 0., 113., 255., 131., 0., 0., 0., 0., 0., 0.,
          0., 0., 0., 0., 0., 0., 0., 0., 0., 0., 95., 236., 135., 8.,
          0., 0., 0., 0., 0., 0., 0., 0., 0., 0., 0., 0., 0., 0., 0.,
          20., 233., 160., 4., 0., 0., 0., 0., 0., 0., 0., 0., 0., 0.,
          0., 0., 0., 0., 0., 38., 193., 199., 21., 0., 0., 0., 0., 0.,
          0., 0., 0., 0., 0., 0., 0., 0., 0., 0., 6., 172., 245., 50.,
          0., 0., 0., 0., 0., 0., 0., 0., 0., 0., 0., 0., 0., 0., 0., 0.,
          116., 247., 101., 0., 0., 0., 0., 0., 0., 0., 0., 0., 0., 0.,
          0., 0., 0., 0., 0., 64., 237., 155., 6., 0., 0., 0., 0., 0.,
          0., 0., 0., 0., 0., 0., 0., 0., 0., 0., 23., 204., 206., 21.,
          0., 0., 19., 26., 19., 1., 0., 0., 0., 0., 0., 0., 0., 0., 0.,
          0., 97., 254., 70., 0., 26., 144., 236., 255., 234., 72., 0.,
          0., 0., 0., 0., 0., 0., 0., 0., 0., 165., 175., 3., 62., 202.,
          255., 200., 136., 237., 121., 0., 0., 0., 0., 0., 0., 0., 0.,
          0., 0., 170., 197., 21., 167., 255., 140., 34., 117., 248.,
          104., 0., 0., 0., 0., 0., 0., 0., 0., 0., 0., 72., 244., 161.,
          174., 255., 220., 200., 255., 150., 9., 0., 0., 0., 0., 0., 0.,
          0., 0., 0., 0., 0., 91., 224., 235., 244., 231., 180., 91.,
          14., 0., 0., 0., 0., 0., 0., 0., 0., 0., 0., 0., 0., 0., 7.,
          11., 10., 8., 2., 0., 0., 0., 0., 0., 0., 0., 0., 0., 0., 0.,
          0., 0., 0., 0., 0., 0., 0., 0., 0., 0., 0., 0., 0., 0., 0., 0.,
          0., 0., 0., 0., 0., 0., 0., 0., 0., 0., 0., 0., 0., 0., 0., 0.,
          0., 0., 0., 0., 0., 0., 0., 0., 0., 0., 0., 0., 0., 0., 0., 0.,
          0., 0., 0., 0., 0., 0., 0., 0., 0., 0., 0., 0., 0., 0., 0., 0.,
          0., 0., 0., 0., 0., 0., 0., 0., 0., 0., 0., 0., 0. ]
      - [ 0., 0., 0., 0., 0., 0., 0., 0., 0., 0., 0., 0., 0., 0., 0., 0.,
          0., 0., 0., 0., 0., 0., 0., 0., 0., 0., 0., 0., 0., 0., 0., 0.,
          0., 0., 0., 0., 0., 0., 0., 0., 0., 0., 0., 0., 0., 0., 0., 0.,
          0., 0., 0., 0., 0., 0., 0., 0., 0., 0., 0., 0., 0., 0., 0., 0.,
          0., 0., 0., 0., 0., 0., 0., 0., 0., 0., 0., 0., 0., 0., 0., 0.,
          0., 0., 0., 0., 51., 187., 157., 107., 107., 69., 22., 4., 0.,
          0., 0., 0., 0., 0., 0., 0., 0., 0., 0., 0., 56., 228., 248.,
          255., 255., 255., 235., 190., 137., 66., 3., 0., 0., 0., 0.,
          0., 0., 0., 0., 0., 4., 45., 76., 119., 123., 158., 189., 234.,
          255., 243., 96., 0., 0., 0., 0., 0., 0., 0., 0., 0., 0., 0.,
          0., 0., 0., 3., 13., 22., 102., 248., 215., 6., 0., 0., 0., 0.,
          0., 0., 0., 0., 0., 0., 0., 0., 0., 0., 0., 0., 86., 255.,
          139., 0., 0., 0., 0., 0., 0., 0., 0., 0., 0., 0., 0., 0., 0.,
          0., 0., 0., 180., 248., 56., 0., 0., 0., 0., 0., 0., 0., 0.,
          0., 0., 0., 0., 0., 0., 0., 0., 107., 254., 120., 0., 0., 0.,
          0., 0., 0., 0., 0., 0., 0., 0., 0., 0., 0., 0., 0., 45., 225.,
          204., 32., 0., 0., 0., 0., 0., 0., 0., 0., 0., 0., 0., 0., 0.,
          0., 0., 11., 191., 254., 70., 0., 0., 0., 0., 0., 0., 0., 0.,
          0., 0., 0., 0., 0., 0., 0., 0., 127., 255., 157., 1., 0., 0.,
          0., 0., 0., 0., 0., 0., 0., 0., 0., 0., 0., 0., 0., 75., 244.,
          201., 28., 0., 0., 0., 0., 0., 0., 0., 0., 0., 0., 0., 0., 0.,
          0., 0., 9., 180., 255., 113., 0., 0., 0., 0., 0., 0., 0., 0.,
          0., 0., 0., 0., 0., 0., 0., 0., 27., 234., 224., 42., 0., 0.,
          0., 0., 0., 0., 0., 0., 0., 0., 0., 0., 0., 0., 0., 0., 32.,
          255., 249., 109., 0., 0., 0., 0., 0., 0., 0., 0., 0., 0., 0.,
          0., 0., 0., 0., 0., 17., 139., 132., 21., 0., 0., 0., 0., 0.,
          0., 0., 0., 0., 0., 0., 0., 0., 0., 0., 0., 0., 0., 0., 0., 0.,
          0., 0., 0., 0., 0., 0., 0., 0. ]
      - [ 0., 0., 0., 0., 0., 0., 0., 0., 0., 0., 0., 0., 0., 0., 0., 0.,
          0., 0., 0., 0., 0., 0., 0., 0., 0., 0., 0., 0., 0., 0., 0., 0.,
          0., 0., 0., 0., 0., 0., 0., 0., 0., 0., 0., 0., 0., 0., 0., 0.,
          0., 0., 0., 0., 0., 0., 0., 0., 0., 0., 0., 0., 0., 0., 0., 0.,
          0., 0., 0., 4., 82., 113., 99., 31., 0., 0., 0., 0., 0., 0.,
          0., 0., 0., 0., 0., 0., 0., 1., 81., 178., 255., 255., 255.,
          217., 56., 0., 0., 0., 0., 0., 0., 0., 0., 0., 0., 0., 5.,
          150., 250., 248., 208., 147., 196., 255., 234., 55., 0., 0.,
          0., 0., 0., 0., 0., 0., 0., 0., 43., 245., 228., 84., 19., 0.,
          15., 87., 238., 177., 13., 0., 0., 0., 0., 0., 0., 0., 0., 0.,
          119., 255., 99., 0., 0., 0., 0., 0., 145., 229., 41., 0., 0.,
          0., 0., 0., 0., 0., 0., 0., 117., 254., 111., 1., 0., 0., 0.,
          0., 167., 228., 37., 0., 0., 0., 0., 0., 0., 0., 0., 0., 23.,
          181., 245., 194., 118., 104., 110., 162., 253., 241., 127., 6.,
          0., 0., 0., 0., 0., 0., 0., 0., 0., 23., 129., 186., 211.,
          248., 255., 251., 232., 239., 255., 125., 0., 0., 0., 0., 0.,
          0., 0., 0., 0., 0., 0., 1., 124., 255., 193., 86., 55., 72.,
          174., 233., 66., 0., 0., 0., 0., 0., 0., 0., 0., 0., 0., 55.,
          243., 125., 10., 0., 0., 0., 65., 255., 179., 10., 0., 0., 0.,
          0., 0., 0., 0., 0., 0., 147., 241., 45., 0., 0., 0., 0., 2.,
          249., 192., 13., 0., 0., 0., 0., 0., 0., 0., 0., 0., 165.,
          198., 17., 0., 0., 0., 0., 88., 255., 105., 0., 0., 0., 0., 0.,
          0., 0., 0., 0., 0., 106., 252., 73., 0., 0., 15., 100., 235.,
          196., 31., 0., 0., 0., 0., 0., 0., 0., 0., 0., 0., 28., 189.,
          214., 161., 149., 193., 255., 194., 35., 0., 0., 0., 0., 0.,
          0., 0., 0., 0., 0., 0., 0., 12., 124., 225., 224., 208., 86.,
          14., 0., 0., 0., 0., 0., 0., 0., 0., 0., 0., 0., 0., 0., 0.,
          0., 0., 0., 0., 0., 0., 0., 0., 0., 0., 0., 0., 0., 0., 0., 0.,
          0., 0., 0., 0., 0., 0., 0., 0., 0., 0., 0., 0., 0., 0., 0. ]
      - [ 0., 0., 0., 0., 0., 0., 0., 0., 0., 0., 0., 0., 0., 0., 0., 0.,
          0., 0., 0., 0., 0., 0., 0., 0., 0., 0., 0., 0., 0., 0., 0., 0.,
          0., 0., 0., 0., 0., 0., 0., 0., 0., 0., 0., 0., 0., 0., 0., 0.,
          0., 0., 0., 0., 0., 0., 0., 0., 0., 0., 0., 0., 0., 0., 0., 0.,
          0., 0., 0., 0., 0., 0., 0., 0., 0., 0., 0., 0., 0., 0., 0., 0.,
          0., 0., 0., 0., 0., 0., 0., 0., 0., 4., 72., 154., 177., 67.,
          1., 0., 0., 0., 0., 0., 0., 0., 0., 0., 0., 0., 0., 0., 74.,
          213., 233., 185., 222., 218., 33., 0., 0., 0., 0., 0., 0., 0.,
          0., 0., 0., 0., 0., 77., 235., 177., 62., 10., 104., 111., 7.,
          0., 0., 0., 0., 0., 0., 0., 0., 0., 0., 0., 60., 234., 139.,
          0., 0., 14., 178., 107., 0., 0., 0., 0., 0., 0., 0., 0., 0.,
          0., 0., 8., 177., 171., 3., 0., 0., 116., 251., 97., 0., 0.,
          0., 0., 0., 0., 0., 0., 0., 0., 0., 56., 224., 39., 0., 0.,
          50., 228., 238., 45., 0., 0., 0., 0., 0., 0., 0., 0., 0., 0.,
          0., 70., 246., 67., 26., 63., 212., 255., 168., 1., 0., 0., 0.,
          0., 0., 0., 0., 0., 0., 0., 0., 21., 172., 236., 214., 239.,
          251., 255., 84., 0., 0., 0., 0., 0., 0., 0., 0., 0., 0., 0.,
          0., 0., 11., 74., 93., 69., 211., 187., 12., 0., 0., 0., 0.,
          0., 0., 0., 0., 0., 0., 0., 0., 0., 0., 0., 0., 23., 237.,
          108., 0., 0., 0., 0., 0., 0., 0., 0., 0., 0., 0., 0., 0., 0.,
          0., 0., 0., 134., 218., 31., 0., 0., 0., 0., 0., 0., 0., 0.,
          0., 0., 0., 0., 0., 0., 0., 0., 33., 217., 122., 0., 0., 0.,
          0., 0., 0., 0., 0., 0., 0., 0., 0., 0., 0., 0., 0., 0., 112.,
          249., 26., 0., 0., 0., 0., 0., 0., 0., 0., 0., 0., 0., 0., 0.,
          0., 0., 0., 3., 173., 168., 0., 0., 0., 0., 0., 0., 0., 0., 0.,
          0., 0., 0., 0., 0., 0., 0., 0., 3., 100., 51., 0., 0., 0., 0.,
          0., 0., 0., 0., 0., 0., 0., 0., 0., 0., 0., 0., 0., 0., 0., 0.,
          0., 0., 0., 0., 0., 0., 0., 0., 0., 0. ]
   decision_functions:
      -
         sv_count: 2
         rho: 0.
         alpha: [ 2.6699999999999999e+000, -2.6699999999999999e+000 ]
         index: [ 0, 1 ]
      -
         sv_count: 2
         rho: 0.
         alpha: [ 2.6699999999999999e+000, -2.6699999999999999e+000 ]
         index: [ 0, 2 ]
      -
         sv_count: 2
         rho: 0.
         alpha: [ 2.6699999999999999e+000, -2.6699999999999999e+000 ]
         index: [ 0, 3 ]
      -
         sv_count: 2
         rho: 0.
         alpha: [ 2.6699999999999999e+000, -2.6699999999999999e+000 ]
         index: [ 0, 4 ]
      -
         sv_count: 2
         rho: 0.
         alpha: [ 2.6699999999999999e+000, -2.6699999999999999e+000 ]
         index: [ 0, 5 ]
      -
         sv_count: 2
         rho: 0.
         alpha: [ 2.6699999999999999e+000, -2.6699999999999999e+000 ]
         index: [ 0, 6 ]
      -
         sv_count: 2
         rho: 0.
         alpha: [ 2.6699999999999999e+000, -2.6699999999999999e+000 ]
         index: [ 0, 7 ]
      -
         sv_count: 2
         rho: 0.
         alpha: [ 2.6699999999999999e+000, -2.6699999999999999e+000 ]
         index: [ 0, 8 ]
      -
         sv_count: 2
         rho: 0.
         alpha: [ 2.6699999999999999e+000, -2.6699999999999999e+000 ]
         index: [ 0, 9 ]
      -
         sv_count: 2
         rho: 0.
         alpha: [ 2.6699999999999999e+000, -2.6699999999999999e+000 ]
         index: [ 1, 2 ]
      -
         sv_count: 2
         rho: 0.
         alpha: [ 2.6699999999999999e+000, -2.6699999999999999e+000 ]
         index: [ 1, 3 ]
      -
         sv_count: 2
         rho: 0.
         alpha: [ 2.6699999999999999e+000, -2.6699999999999999e+000 ]
         index: [ 1, 4 ]
      -
         sv_count: 2
         rho: 0.
         alpha: [ 2.6699999999999999e+000, -2.6699999999999999e+000 ]
         index: [ 1, 5 ]
      -
         sv_count: 2
         rho: 0.
         alpha: [ 2.6699999999999999e+000, -2.6699999999999999e+000 ]
         index: [ 1, 6 ]
      -
         sv_count: 2
         rho: 0.
         alpha: [ 2.6699999999999999e+000, -2.6699999999999999e+000 ]
         index: [ 1, 7 ]
      -
         sv_count: 2
         rho: 0.
         alpha: [ 2.6699999999999999e+000, -2.6699999999999999e+000 ]
         index: [ 1, 8 ]
      -
         sv_count: 2
         rho: 0.
         alpha: [ 2.6699999999999999e+000, -2.6699999999999999e+000 ]
         index: [ 1, 9 ]
      -
         sv_count: 2
         rho: 0.
         alpha: [ 2.6699999999999999e+000, -2.6699999999999999e+000 ]
         index: [ 2, 3 ]
      -
         sv_count: 2
         rho: 0.
         alpha: [ 2.6699999999999999e+000, -2.6699999999999999e+000 ]
         index: [ 2, 4 ]
      -
         sv_count: 2
         rho: 0.
         alpha: [ 2.6699999999999999e+000, -2.6699999999999999e+000 ]
         index: [ 2, 5 ]
      -
         sv_count: 2
         rho: 0.
         alpha: [ 2.6699999999999999e+000, -2.6699999999999999e+000 ]
         index: [ 2, 6 ]
      -
         sv_count: 2
         rho: 0.
         alpha: [ 2.6699999999999999e+000, -2.6699999999999999e+000 ]
         index: [ 2, 7 ]
      -
         sv_count: 2
         rho: 0.
         alpha: [ 2.6699999999999999e+000, -2.6699999999999999e+000 ]
         index: [ 2, 8 ]
      -
         sv_count: 2
         rho: 0.
         alpha: [ 2.6699999999999999e+000, -2.6699999999999999e+000 ]
         index: [ 2, 9 ]
      -
         sv_count: 2
         rho: 0.
         alpha: [ 2.6699999999999999e+000, -2.6699999999999999e+000 ]
         index: [ 3, 4 ]
      -
         sv_count: 2
         rho: 0.
         alpha: [ 2.6699999999999999e+000, -2.6699999999999999e+000 ]
         index: [ 3, 5 ]
      -
         sv_count: 2
         rho: 0.
         alpha: [ 2.6699999999999999e+000, -2.6699999999999999e+000 ]
         index: [ 3, 6 ]
      -
         sv_count: 2
         rho: 0.
         alpha: [ 2.6699999999999999e+000, -2.6699999999999999e+000 ]
         index: [ 3, 7 ]
      -
         sv_count: 2
         rho: 0.
         alpha: [ 2.6699999999999999e+000, -2.6699999999999999e+000 ]
         index: [ 3, 8 ]
      -
         sv_count: 2
         rho: 0.
         alpha: [ 2.6699999999999999e+000, -2.6699999999999999e+000 ]
         index: [ 3, 9 ]
      -
         sv_count: 2
         rho: 0.
         alpha: [ 2.6699999999999999e+000, -2.6699999999999999e+000 ]
         index: [ 4, 5 ]
      -
         sv_count: 2
         rho: 0.
         alpha: [ 2.6699999999999999e+000, -2.6699999999999999e+000 ]
         index: [ 4, 6 ]
      -
         sv_count: 2
         rho: 0.
         alpha: [ 2.6699999999999999e+000, -2.6699999999999999e+000 ]
         index: [ 4, 7 ]
      -
         sv_count: 2
         rho: 0.
         alpha: [ 2.6699999999999999e+000, -2.6699999999999999e+000 ]
         index: [ 4, 8 ]
      -
         sv_count: 2
         rho: 0.
         alpha: [ 2.6699999999999999e+000, -2.6699999999999999e+000 ]
         index: [ 4, 9 ]
      -
         sv_count: 2
         rho: 0.
         alpha: [ 2.6699999999999999e+000, -2.6699999999999999e+000 ]
         index: [ 5, 6 ]
      -
         sv_count: 2
         rho: 0.
         alpha: [ 2.6699999999999999e+000, -2.6699999999999999e+000 ]
         index: [ 5, 7 ]
      -
         sv_count: 2
         rho: 0.
         alpha: [ 2.6699999999999999e+000, -2.6699999999999999e+000 ]
         index: [ 5, 8 ]
      -
         sv_count: 2
         rho: 0.
         alpha: [ 2.6699999999999999e+000, -2.6699999999999999e+000 ]
         index: [ 5, 9 ]
      -
         sv_count: 2
         rho: 0.
         alpha: [ 2.6699999999999999e+000, -2.6699999999999999e+000 ]
         index: [ 6, 7 ]
      -
         sv_count: 2
         rho: 0.
         alpha: [ 2.6699999999999999e+000, -2.6699999999999999e+000 ]
         index: [ 6, 8 ]
      -
         sv_count: 2
         rho: 0.
         alpha: [ 2.6699999999999999e+000, -2.6699999999999999e+000 ]
         index: [ 6, 9 ]
      -
         sv_count: 2
         rho: 0.
         alpha: [ 2.6699999999999999e+000, -2.6699999999999999e+000 ]
         index: [ 7, 8 ]
      -
         sv_count: 2
         rho: 0.
         alpha: [ 2.6699999999999999e+000, -2.6699999999999999e+000 ]
         index: [ 7, 9 ]
      -
         sv_count: 2
         rho: 0.
         alpha: [ 2.6699999999999999e+000, -2.6699999999999999e+000 ]
         index: [ 8, 9 ]
